<?xml version="1.0"?>
<opencv_storage>
<opencv_ml_ann_mlp>
  <format>3</format>
  <layer_sizes>
    128 128 128 128 10</layer_sizes>
  <activation_function>SIGMOID_SYM</activation_function>
  <f_param1>1.</f_param1>
  <f_param2>1.</f_param2>
  <min_val>-9.4999999999999996e-001</min_val>
  <max_val>9.4999999999999996e-001</max_val>
  <min_val1>-9.7999999999999998e-001</min_val1>
  <max_val1>9.7999999999999998e-001</max_val1>
  <training_params>
    <train_method>BACKPROP</train_method>
    <dw_scale>1.0000000000000000e-003</dw_scale>
    <moment_scale>1.0000000000000001e-001</moment_scale>
    <term_criteria>
      <epsilon>1.0000000000000000e-004</epsilon>
      <iterations>10000</iterations></term_criteria></training_params>
  <input_scale>
    3.1519763163973889e-002 -1.9346200234783895e+000
    2.0714016225102386e-002 -1.6892280231570995e+000
    1.7169161604904060e-002 -1.7202126395185475e+000
    1.6191452128009518e-002 -1.8729624163596290e+000
    1.5980502895841603e-002 -2.0798624518937845e+000
    1.6384136548872826e-002 -2.3640015260906648e+000
    1.7667310038065768e-002 -2.7889262279889859e+000
    1.9653305569930488e-002 -3.3335150775493299e+000
    2.3375500036300813e-002 -4.1477019754411435e+000
    2.4413952750195349e-002 -4.2882131447608121e+000
    2.0197484011536135e-002 -3.3064897125605577e+000
    1.7604015748684438e-002 -2.4950171520610454e+000
    1.7097679579684912e-002 -1.9320377925043950e+000
    1.9025713704508139e-002 -1.6219801447367277e+000
    2.5641311186684536e-002 -1.6058127543773058e+000
    3.7524313371270157e-002 -1.8458209747327790e+000
    3.7154809132207769e-002 -2.1358813577740956e+000
    2.1036642348220121e-002 -1.8106238069113056e+000
    1.5145068680853118e-002 -1.7213582161284038e+000
    1.3501276370037570e-002 -1.7310256459552567e+000
    1.4619054396363251e-002 -1.8618827679208236e+000
    1.8894825640637908e-002 -2.1992821252676897e+000
    2.0314037242490091e-002 -2.2882137830685685e+000
    1.7284262953929475e-002 -2.0326293233821060e+000
    1.6524286793872387e-002 -2.1194380727556603e+000
    1.8667910917193418e-002 -2.5820334306006902e+000
    1.7444018964628320e-002 -2.5994728180709830e+000
    1.4592681975572999e-002 -2.2345190201915912e+000
    1.4079165318183116e-002 -1.9726318527306366e+000
    1.6020770526153305e-002 -1.7941340496828564e+000
    2.1123746341053153e-002 -1.6361186490999309e+000
    3.1165791125452421e-002 -1.6371390078200156e+000
    3.6315748532801111e-002 -1.9489935922583699e+000
    1.8569872804222159e-002 -1.5389596387771072e+000
    1.3674081032811982e-002 -1.4681040360068256e+000
    1.3525323520623597e-002 -1.5731033280366895e+000
    1.6652615243524394e-002 -1.7949853970994945e+000
    1.8430593151352228e-002 -1.6564679900709329e+000
    1.5849992870365818e-002 -1.4485942483942136e+000
    1.3967542057085704e-002 -1.3856919123993585e+000
    1.3705581450026106e-002 -1.4026017944327716e+000
    1.5068606893449379e-002 -1.5447733042888565e+000
    1.5810710004311116e-002 -1.7387354005941020e+000
    1.4027115800770911e-002 -1.7422238909189502e+000
    1.2944569729311451e-002 -1.6279608674371253e+000
    1.3724594199917256e-002 -1.4986433390657650e+000
    1.7460683175846932e-002 -1.4135121458175124e+000
    2.6005577224879332e-002 -1.4397727774782192e+000
    4.3557134301138008e-002 -1.9846372672970523e+000
    2.2420141148899869e-002 -1.6172993019170410e+000
    1.4715481282224416e-002 -1.5045990991823177e+000
    1.2687855491814667e-002 -1.5599210812966460e+000
    1.3530675442726812e-002 -1.7714360289617941e+000
    1.4087478044438953e-002 -1.8314566706453306e+000
    1.4301286421728140e-002 -1.8468395259291286e+000
    1.4612647652489145e-002 -1.9092008663883167e+000
    1.5597056865340226e-002 -2.1357673847984984e+000
    1.6715618191559915e-002 -2.4658211331461524e+000
    1.6274987994747338e-002 -2.5610321108534415e+000
    1.5659656443602728e-002 -2.4557786427986672e+000
    1.4940955266843832e-002 -2.0367510219761513e+000
    1.5184000474146831e-002 -1.5741253291548021e+000
    1.9120207301612031e-002 -1.3480510955928546e+000
    2.9963266726981568e-002 -1.4421320275696230e+000
    4.4345299066460342e-002 -1.9087103624185862e+000
    2.4107443866288162e-002 -1.5041116377054511e+000
    1.5891666344363713e-002 -1.3750105387797260e+000
    1.3430672785155156e-002 -1.4319246096621021e+000
    1.3174344636447914e-002 -1.5225853583235585e+000
    1.3751403741886551e-002 -1.5052286535869017e+000
    1.5628957351606965e-002 -1.6722671787072421e+000
    1.5468681508485597e-002 -1.7504359995002301e+000
    1.3854562136314341e-002 -1.7782607593202184e+000
    1.4456926794286415e-002 -2.0649406817351057e+000
    1.6171305691991968e-002 -2.5180663519114530e+000
    1.5331179043350029e-002 -2.4850614734946932e+000
    1.3353239960073000e-002 -2.0360219096721703e+000
    1.3793971808922150e-002 -1.7305641152037552e+000
    1.7311265261122848e-002 -1.4798361995818254e+000
    2.5813889457019127e-002 -1.3416510906391119e+000
    4.0295945928575591e-002 -1.9956970180586349e+000
    2.0953298352528495e-002 -1.6391765301183041e+000
    1.4226757778009993e-002 -1.4855865006953595e+000
    1.2632253298871892e-002 -1.4652908536559439e+000
    1.4500769034717472e-002 -1.5639369419323488e+000
    1.9353017349806018e-002 -1.6009977132800526e+000
    1.8162609296814222e-002 -1.3678261061430792e+000
    1.4858031743093100e-002 -1.2805543238102219e+000
    1.3565440556530429e-002 -1.3417034636841987e+000
    1.4270387738052373e-002 -1.4789544443962719e+000
    1.5362018560072003e-002 -1.6431829532595417e+000
    1.5513425684564579e-002 -1.9445148290060625e+000
    1.3646359674579906e-002 -1.8908668892291411e+000
    1.2816804084678500e-002 -1.6900750538220457e+000
    1.4686371307171101e-002 -1.5481197722315203e+000
    2.1074401150716533e-002 -1.4285915052047722e+000
    4.0167811623484477e-002 -1.9466928225205515e+000
    2.2736960101799337e-002 -1.9339603523388482e+000
    1.5456638823470117e-002 -1.9135009730679535e+000
    1.3115472483586204e-002 -1.9321714062819195e+000
    1.3589012353527162e-002 -2.0007102888098038e+000
    1.6549066904067388e-002 -2.0452991786736887e+000
    1.9059233336476314e-002 -2.0531368519385746e+000
    1.6302678070695305e-002 -1.7835455862902077e+000
    1.3470331007167165e-002 -1.5549341894813344e+000
    1.3833405556118382e-002 -1.6043983763986100e+000
    1.7140626236141328e-002 -1.9639729541370734e+000
    1.6426098613596091e-002 -2.0273090908900295e+000
    1.3002549559082940e-002 -1.7403912584832515e+000
    1.2677341251101797e-002 -1.6537338115237274e+000
    1.5151654814519742e-002 -1.6129239583152555e+000
    2.1611805083581907e-002 -1.4925544826823336e+000
    4.8923061720538355e-002 -1.9723821563252244e+000
    3.0975512576341360e-002 -1.5759101778339430e+000
    2.1753806353745589e-002 -1.5530042355938976e+000
    1.7448069483772793e-002 -1.7209728854624455e+000
    1.4767275487160534e-002 -1.8717226334466235e+000
    1.3555776657144835e-002 -1.9928076148135481e+000
    1.4524963433301364e-002 -2.3396520599093171e+000
    1.6593973515536597e-002 -2.8566193527525940e+000
    1.7721306994869603e-002 -3.1541799894028508e+000
    1.7865162891070423e-002 -3.1422320402588122e+000
    1.6219212035631102e-002 -2.7162314396071405e+000
    1.4190498906270220e-002 -2.1551962118886960e+000
    1.4412977984332385e-002 -1.8549502665835778e+000
    1.7009012613557292e-002 -1.7020238561882239e+000
    2.1295481807162422e-002 -1.5200714913952535e+000
    2.9230107527430670e-002 -1.5103196559423429e+000</input_scale>
  <output_scale>
    5.2631578947368418e-001 4.9999999999999994e-001
    5.2631578947368418e-001 4.9999999999999994e-001
    5.2631578947368418e-001 4.9999999999999994e-001
    5.2631578947368418e-001 4.9999999999999994e-001
    5.2631578947368418e-001 4.9999999999999994e-001
    5.2631578947368418e-001 4.9999999999999994e-001
    5.2631578947368418e-001 4.9999999999999994e-001
    5.2631578947368418e-001 4.9999999999999994e-001
    5.2631578947368418e-001 4.9999999999999994e-001
    5.2631578947368418e-001 4.9999999999999994e-001</output_scale>
  <inv_output_scale>
    1.8999999999999999e+000 -9.4999999999999996e-001
    1.8999999999999999e+000 -9.4999999999999996e-001
    1.8999999999999999e+000 -9.4999999999999996e-001
    1.8999999999999999e+000 -9.4999999999999996e-001
    1.8999999999999999e+000 -9.4999999999999996e-001
    1.8999999999999999e+000 -9.4999999999999996e-001
    1.8999999999999999e+000 -9.4999999999999996e-001
    1.8999999999999999e+000 -9.4999999999999996e-001
    1.8999999999999999e+000 -9.4999999999999996e-001
    1.8999999999999999e+000 -9.4999999999999996e-001</inv_output_scale>
  <weights>
    <_>
      -3.0243632078678501e-002 1.7592822684326000e-002
      2.1658614504301316e-002 4.7241086607381251e-003
      -3.0476774911000232e-002 -2.6708307578769064e-002
      2.2758174870962534e-002 9.8433441430042668e-003
      1.4185224243784286e-002 -3.2277152408484541e-002
      -4.1428051322476593e-003 -3.6226206131631723e-002
      -2.4994178928174543e-002 -2.7499355806418289e-002
      -3.6788449341105693e-002 9.8145136841145397e-003
      1.5084579475988045e-002 1.5448421729629761e-002
      -3.8953508122675220e-004 4.2375623309235371e-003
      -1.5951130799862125e-002 5.0557387652850228e-002
      6.0336404409627051e-002 9.9001626513634446e-003
      -1.2459291645751793e-002 -2.9244877703403130e-002
      1.0472662794879978e-002 1.0035842603678950e-002
      1.0950732766698624e-002 -2.2899485178409302e-002
      -3.8718354591539971e-003 9.8429207811566548e-003
      -9.0623187924561387e-003 -9.3487390918903721e-003
      2.8554007826744558e-002 -1.9458692711833273e-002
      -4.8746096982785489e-003 2.0898509470389078e-002
      -4.2760982452528670e-002 -7.2097609889688616e-003
      1.2313214366706951e-002 5.8960555697156608e-003
      2.1117174048653351e-002 -1.1726489945988400e-002
      3.0729634854165023e-003 1.3614087563610941e-002
      1.8187063018693564e-002 -1.4185771076068773e-003
      -6.8595824352705951e-003 3.5740937947432702e-002
      -1.2291712967627719e-002 -1.2728596795875270e-002
      3.6158640414535228e-003 -1.1667326839279480e-002
      1.8309908066893421e-002 -5.7358313604903583e-003
      2.4524539330303689e-002 3.5943596059041746e-003
      -7.9568816351439208e-003 -7.9018132654101857e-003
      2.4750087953771343e-003 -6.5379790226439485e-003
      -2.5119067836791714e-003 1.8859961308566077e-003
      -7.2032874463548351e-003 -3.3640588558062214e-002
      4.9349258509342200e-002 -3.3083531999493921e-003
      -9.4635797418176713e-003 -8.0665060691967913e-004
      -5.8475465968365614e-002 1.7088885309655914e-002
      -3.5533659342850176e-003 3.8971904386912108e-002
      4.9313835963645108e-003 2.1775085591778775e-002
      1.0587291509309810e-003 -7.2951413544875233e-003
      -2.8239693057668106e-002 2.6346896983833790e-002
      -1.4490498501473058e-002 1.5113425393143455e-002
      -1.1600764149857913e-003 2.3801090232649563e-002
      -8.4598875570533107e-003 -1.4954032826600804e-002
      1.7974754980306522e-002 -4.2745041299487203e-003
      2.5394718987846721e-002 1.7311198130685226e-003
      -1.5722131771747066e-002 -2.5668370106714800e-002
      -4.4518076818540732e-002 1.8873506126596801e-002
      -1.3007580280737067e-002 3.7788052473790641e-002
      2.7598522500310689e-003 -2.2803562416401732e-002
      7.8157781604573789e-003 -4.7698744416857460e-002
      2.0702509748161936e-002 -2.0073378020056015e-002
      -3.3492022319328761e-002 7.2338967633852752e-003
      5.1175184222598868e-002 -1.2320538256036248e-002
      -1.9232661938121773e-002 -9.7410843992414020e-004
      -2.3619769500531813e-002 -2.0346835510141621e-002
      -1.7211099526358218e-002 -2.5106137222069953e-002
      3.8851830958889756e-002 -3.3374544832930404e-002
      -3.1168755014501694e-002 -7.7829621018281631e-003
      2.1160238313020045e-003 3.8338623858079463e-003
      8.3094389328037151e-003 -8.4597637126068992e-003
      2.5058458208531108e-002 1.4146559498930955e-002
      -2.3651735729704127e-002 2.5079011439601291e-002
      -1.2981748349417167e-002 3.1172668670199286e-003
      -3.7735342383698134e-002 -8.0068398996226940e-003
      -2.5487982849164540e-002 1.8873725409112849e-002
      4.4682762786572294e-002 1.5009168440638945e-002
      -4.7368645450483672e-002 -1.7384082402399796e-002
      5.8512298276179806e-002 9.5893078636184086e-004
      1.6558791370554236e-002 -2.2024177389666551e-002
      1.9474683313676938e-002 -7.0223746769788112e-002
      -6.4663300966735657e-002 -2.1820025705016087e-002
      -8.0693737328223422e-002 4.7251099405815851e-002
      1.7188052021273909e-002 1.6866457463126039e-002
      -2.9499068381835070e-002 4.6833330245011412e-003
      -2.0542190717887647e-002 7.9980042129003184e-002
      5.1725948594058303e-002 3.5135202388094658e-002
      -1.5776811709396311e-002 -6.1285480521416934e-002
      3.1224568863188581e-002 1.0072835501754993e-004
      2.3869473450467461e-002 -6.5215035037769764e-002
      1.1912200907996608e-002 7.8073807854267818e-003
      -1.4895373391330355e-002 -6.4809398839945673e-002
      5.3336377192391607e-002 -1.6651604191413854e-002
      1.0544474281010142e-002 1.5466111560822232e-002
      -4.3587535748558358e-002 -2.0611451455813199e-003
      -7.7423528816332699e-003 2.1424265982037134e-002
      3.2862641100612718e-002 -9.3216753967869000e-003
      8.8441546918312363e-003 9.3941176635253393e-003
      5.9938478883591224e-002 7.2827741203256293e-003
      -2.1202908045491967e-002 3.4391944397382634e-002
      -2.9954626647520306e-002 -3.1997569764905573e-002
      -1.0801788985150546e-002 -1.7122047674187966e-003
      6.7628925531063198e-003 -5.1556790292762817e-003
      4.5577238006953416e-002 3.3433161689401303e-002
      -1.2752364008953380e-002 -4.9950702938470109e-003
      -3.4223474238073870e-002 3.2215489329665892e-002
      -5.3155214954973426e-002 -3.9452575222437714e-003
      -3.4865759775310874e-002 -3.5196231162868720e-002
      1.0161696013539312e-001 -5.9763201684525048e-003
      1.1680198320933630e-002 -1.3091335764499444e-002
      -8.1845853046107253e-002 5.5349258593749409e-002
      -4.4040106250909379e-002 5.0092706762371403e-002
      -1.4818935975757896e-002 4.2234080382819887e-002
      4.5534423055107236e-002 -5.1477777235363863e-002
      -4.6236940062762827e-002 2.3074271181481334e-002
      -1.9706584550398670e-002 4.1065930484029463e-002
      1.0686283155223930e-002 3.2563529446613830e-002
      -3.0746639805356104e-002 -1.3492383330720536e-002
      3.8696933627710456e-002 3.3059516921243905e-002
      3.7856076647866901e-002 2.3712510843563524e-002
      5.6497330889038475e-003 -4.5814128824880673e-002
      -6.9730356691501627e-002 2.4004689698912920e-002
      8.3190239845028404e-003 4.2373743437866318e-002
      2.5750121690280396e-002 -1.3911363786758264e-002
      4.0886901019269700e-002 -7.1934194011360461e-002
      5.2454852563681787e-003 -3.4961237037304332e-002
      -8.0463155406250986e-002 1.2488559976799126e-002
      6.4420176612057761e-002 -1.2229840415245406e-002
      -2.0392147647294218e-002 3.2166656480833701e-002
      -1.7731329907358973e-002 -4.1298050683029087e-002
      -3.7547058689556434e-002 -4.1772424589200351e-002
      7.2632444238666174e-002 -7.5488562980080706e-002
      -5.6140425254849996e-002 -4.8115609215905516e-003
      2.9661308473813344e-003 -6.2171116954045161e-003
      -2.0692946658780052e-003 -5.0939005797433247e-002
      2.2893327461655271e-002 1.1075045037225758e-002
      -3.4125118428665946e-002 4.6456211202878787e-002
      -1.4026570458809529e-002 -6.2323674833851036e-003
      -5.8933508742496803e-002 -2.6136872818859336e-002
      -3.5536971250985969e-002 2.9850428434874079e-002
      6.0787237532347459e-002 1.9101647379221650e-002
      -5.8548871013694867e-002 -4.3024124246663568e-002
      6.6302345129261933e-002 7.5456368030872743e-003
      3.6976251399769788e-002 -5.0428217202284104e-002
      9.9364776633758482e-003 -6.6866176781514935e-002
      -9.6441112852386698e-002 -1.6231739623786760e-002
      -6.8525543658808891e-002 4.5143721151826854e-002
      -1.3369407771211146e-003 2.2683078914202296e-002
      -4.2720922174085435e-002 -1.4855560093795470e-002
      -3.3919664867090679e-002 7.2968212079646960e-002
      4.9078122453620837e-002 1.1761009706647481e-002
      -2.9239502282332408e-002 -4.4919933151045227e-002
      -4.0765505154719810e-003 8.6329919253691437e-003
      2.2790359901286680e-002 -5.8358362673515074e-002
      -1.4030329752647815e-002 1.9104904884710383e-003
      -6.8872114646300981e-003 -5.6851179416916045e-002
      4.6292898845458730e-002 -1.7128625627189181e-002
      1.0734785175650281e-002 7.3761254439542170e-003
      -4.5717632360681722e-002 -6.9256112220205911e-003
      -4.2539621171043618e-003 4.1048334640819376e-002
      4.4717091889846614e-002 -8.6194680446195823e-003
      1.2091688800097613e-002 1.0387533658573037e-002
      4.1524535036875074e-002 1.5121981188888967e-002
      9.1882511408755210e-003 4.1167731129048202e-002
      -1.2084885144207757e-002 -2.6444679469171751e-003
      -1.4090595725345073e-002 -1.7499078636954185e-002
      1.4124495747835378e-002 -2.2141018287377752e-002
      5.6580932285146511e-002 1.8310498527068245e-002
      1.1872109967689625e-002 -1.6438054640761035e-002
      -1.1755785880688577e-002 2.2330566049085822e-002
      -4.0625219317543274e-002 2.1755307531057086e-003
      -3.8521924117266064e-002 -3.3992211608525502e-002
      1.0580858016310717e-001 1.9618906478503954e-002
      -4.6634059784399066e-004 -1.3600895280594319e-002
      -1.0157436001135867e-001 5.3854664118169832e-002
      -4.3710267052796029e-002 3.7933899935644270e-002
      2.0637493230290037e-002 1.3699449634927634e-002
      4.7077796241983529e-002 -5.2778280676118935e-002
      -4.1535382184470691e-002 1.9290053195609995e-002
      -2.6332314306069967e-002 2.0020082808855869e-002
      -7.7573026980067598e-003 3.6677457650608709e-002
      -3.7470097434101492e-002 2.0912044843703387e-003
      1.8714082304360155e-002 1.6279329922048991e-002
      4.0480420612325041e-002 1.6654513637674697e-002
      -7.9447668439038433e-003 -2.7114968211165796e-002
      -6.8363863803474395e-002 -1.2425902063103757e-003
      9.7651408866237747e-003 3.5618714524466133e-002
      1.3207013558565385e-002 -1.3979422258443511e-002
      2.0837152547415527e-002 -5.7727824909106606e-002
      1.9890887831798668e-003 -3.3005006363999771e-002
      -7.4898769087834147e-002 -2.3521676803248161e-002
      6.4987529053895293e-002 1.8452306464316539e-003
      -2.2427848527864634e-002 4.2698879449377530e-002
      -3.4081046798618793e-002 -5.2519676261556410e-002
      -1.6618237446852334e-002 -1.5532134038941717e-002
      9.5842599720632138e-002 -8.3431389455649874e-002
      -4.2788328842353347e-002 -9.7715469845313426e-003
      9.8150841368535198e-003 -2.0326148416489198e-004
      1.2236168656506325e-002 -2.4844985289155675e-002
      2.8316615079481217e-002 1.3230018837369592e-002
      -6.1531190346941149e-002 4.7836744787420955e-002
      -9.9307972919281343e-003 -1.8862487855928384e-002
      -5.5766820138081263e-002 -1.3793279093159935e-002
      -3.1613487986931026e-002 3.2060138308529829e-002
      5.5267849307457470e-002 1.7699095598740708e-002
      -5.8790276774586606e-002 -7.7864398272584241e-003
      4.6400448532740536e-002 6.5098642026645359e-003
      2.0776245361056402e-002 -2.0865896696533534e-002
      8.2162341786550918e-003 -8.0273769725331609e-002
      -7.5452214098816153e-002 -1.7041253097762447e-002
      -6.4307014055608597e-002 1.7640552481007696e-002
      2.2617230891123385e-002 3.0103363413248586e-002
      -3.9520264258345712e-002 -2.4892743666455174e-002
      -3.7924542823798105e-002 9.0206911486355193e-002
      2.4046342064565220e-002 2.5205870129678367e-002
      -2.4977654775672237e-002 -6.3218639034942500e-002
      1.8748027986675578e-002 -2.2212797132275968e-003
      8.7521462883501985e-003 -4.2839816379215696e-002
      -8.4953960368010801e-003 2.1315640548817408e-002
      4.0891544003687419e-003 -6.5235035319947315e-002
      5.0914019613064791e-002 1.1421154154811529e-002
      6.1584155260731681e-003 2.3106742559537246e-002
      -5.9868937820251225e-002 -2.2338530717405762e-003
      -1.8773271610279123e-002 2.8421749943195938e-002
      4.3022599373998008e-002 4.1164323925254598e-003
      1.4904763546213866e-003 -1.1250214559942171e-003
      4.8481258608630382e-002 2.0838868217696219e-002
      -1.4789399885812706e-002 5.6367783706012142e-002
      -1.8293094974194998e-002 -2.1266310741179319e-002
      -2.4966059089273915e-003 -2.2336609643089207e-002
      2.2445897305163158e-003 -4.3290263839711636e-002
      5.6182137237257838e-002 -3.9107680935058908e-003
      3.4432435336088844e-003 -3.9053101414497915e-002
      -3.9157132403121195e-003 1.8549202591624556e-002
      -3.5296986129198911e-002 1.4012398165442509e-002
      -4.3430647099295228e-002 -3.4532655188545737e-002
      1.0172512943684638e-001 1.5998585290015581e-003
      1.6658655024763394e-002 -1.2761339402756080e-002
      -7.5333628832035301e-002 4.0221401960496249e-002
      -1.7209160523448851e-002 1.5338219207724787e-002
      2.4019728181681368e-002 3.0317836517149942e-002
      3.1537038313630104e-002 -4.6450274586737242e-002
      -3.0573242214618601e-002 2.3246764634736627e-002
      -1.7264565271844147e-002 3.4782654711241506e-002
      -2.6535472658401352e-002 3.2490104897545474e-002
      -3.2105026251640384e-002 7.5830642802465192e-003
      1.7336957334875693e-002 -1.5345559448679592e-003
      4.7662062603157078e-002 1.0835590014912112e-002
      -3.1185033680266963e-003 -3.8290942472637576e-002
      -4.2765019774513802e-002 1.4609279375376132e-002
      2.5581451459409411e-002 5.6849161397711630e-002
      8.0111234544217626e-003 1.8693272835662591e-003
      3.5599034836797716e-002 -5.0094533201455432e-002
      -6.4923716703692283e-003 -4.2285822904434479e-002
      -5.5887154294020233e-002 -1.3307022727881326e-002
      5.9973932610571774e-002 1.1703602578295039e-002
      -2.3060337658017183e-002 2.4426990758112693e-002
      -3.2367347210841182e-002 -6.9064853978861390e-002
      3.7104441165689396e-003 9.8490179034130161e-003
      8.3782793325307345e-002 -7.9629228838819621e-002
      -5.4977420769769601e-002 -2.5181448172504856e-002
      1.7181904638834945e-002 -2.0539492815816601e-002
      -2.6799626467325800e-002 -2.5449309763630454e-002
      1.2942178230605613e-002 -7.1981902808521507e-003
      -4.4021468056759785e-002 4.5937407600181036e-002
      1.5371820815930066e-002 -2.2555089676347263e-002
      -6.6124189204088010e-002 -1.2318987379989663e-002
      -1.8914812838181805e-002 1.9323532529799351e-002
      3.7477065295953418e-002 -5.4673591181921824e-003
      -5.9294694458424273e-002 -1.1791402556334511e-002
      3.1958656635690891e-002 8.9547458256209553e-003
      1.3453844253003796e-002 -2.5807771802794532e-002
      -1.7463818197775265e-004 -5.0917106129996718e-002
      -6.3962062547042203e-002 -4.6688238398506256e-003
      -6.8840344352850996e-002 2.7478597399400687e-002
      1.5482663525231869e-002 3.3361802872109825e-002
      -2.5454216989754228e-002 -9.2498075398053207e-003
      -1.8332593729993806e-002 8.0012274727254820e-002
      2.2446940633815918e-002 7.7832367668469928e-003
      -1.7578025889669065e-002 -3.5524645394525683e-002
      5.7885924456528466e-003 -4.1765976680815491e-003
      1.4542900085082548e-002 -5.2324554217761714e-002
      -2.0247166106566929e-003 8.1971995529326602e-003
      -9.7946863520922637e-003 -4.4505927250887985e-002
      3.1584290467464519e-002 2.4712670132659110e-003
      1.4454641933797321e-002 9.7825480198498339e-003
      -6.2140646522864676e-002 1.4129599614640642e-002
      3.3852912132091148e-003 4.7041638242139118e-002
      3.1078443590478851e-002 -2.0477277501168761e-002
      -2.4416365233402418e-002 8.1129408300198783e-003
      3.4249051724064429e-002 2.7238836019058267e-003
      -4.7527406050218157e-003 6.0339982655753424e-002
      -1.6487276587477635e-002 -9.5789706371552322e-003
      -2.8016323550785701e-002 -2.3449359123344227e-002
      -4.0858789420099105e-004 -2.1127751839776925e-002
      4.7289477728367016e-002 8.2658614462015681e-003
      -9.3741379678189598e-003 -3.5731414722079261e-002
      -2.7540225220133448e-002 1.8093736681491994e-002
      -4.3766163754817899e-002 1.3602973858569348e-002
      -3.8743655609086020e-002 -2.9421905257012985e-002
      6.8446789112051251e-002 2.3987658097246820e-002
      -2.3615739076431322e-003 -3.4259956101855983e-002
      -7.9242109456439544e-002 4.7649869577925955e-002
      -3.6716889485405371e-002 6.7060659229620017e-003
      2.7236319177507740e-002 -5.2230718749695752e-003
      4.4941590211550073e-002 -4.5888671167132480e-002
      -4.0487727109715418e-002 3.3008996605414939e-002
      -2.0112581402475196e-002 2.2860506598987237e-002
      -1.6208677072447650e-002 4.5407124124886192e-002
      -1.4026478741770257e-002 1.5872184445451302e-002
      2.9974064804467650e-003 3.4586943651508193e-003
      3.2085912126605935e-002 5.2797777001901292e-003
      -1.9991087628169011e-002 -3.0708295533633134e-002
      -4.0636318050635299e-002 -1.3667510438578818e-002
      2.8137359896809173e-002 2.5315976660223571e-002
      -3.1396164956035751e-003 1.4273377168851497e-002
      3.2112374913881185e-002 -1.4348672419841358e-002
      1.5986941357352839e-002 -2.2433146195007508e-002
      -2.7318086082927788e-002 -1.7505629441785190e-002
      3.3592579262630033e-002 1.2047695734766176e-002
      5.8098019289382656e-003 3.6745425981204852e-002
      -6.2121476372955731e-002 -5.0498384104736942e-002
      -8.8934307941408598e-003 1.5300065167114877e-002
      7.1064989808308415e-002 -7.5773353997630286e-002
      -4.7711136988510795e-002 -2.8372676973464496e-002
      -8.2260955231456979e-003 -1.2552228023820000e-002
      -2.1157272679615563e-002 -2.8097733317142611e-002
      -7.5527539187740028e-003 5.1533347082371147e-003
      -4.5849358576821153e-002 3.8412504578875024e-002
      4.4035106157267996e-003 -8.5850941008934964e-003
      -7.1827046329549601e-002 -2.3399013353354097e-003
      -9.5309180297705985e-003 8.4196471141513643e-003
      2.9542405073160378e-002 -1.7545983994783541e-002
      -4.4525778481591997e-002 -8.6818675108780855e-004
      3.5009993593101446e-002 1.4248136579534623e-002
      2.3599641314252195e-002 -2.4757978616811931e-002
      -8.3536912645229486e-003 -5.3251091967391390e-002
      -3.6011787607394707e-002 -1.8328309423319068e-002
      -6.6358138918039267e-002 2.8244079828194123e-002
      4.1413298471650652e-004 2.0631782765254812e-002
      -3.3902125296296430e-002 -3.0214043501437332e-002
      -1.1475271135388705e-003 6.0769816633053607e-002
      1.4200787041638780e-002 -7.9434247276706140e-003
      -2.3826042162754996e-002 -3.3784563295380918e-002
      -5.1410018813277851e-003 1.0383405231703674e-002
      1.1515728301987081e-002 -3.6506053651618832e-002
      -6.3091693404110413e-003 -9.8629573536741701e-003
      -7.5612016135508621e-003 -6.2429011360062160e-002
      1.6253995913905108e-002 1.0363269489256144e-002
      1.3074388284607970e-002 6.1084939995620455e-003
      -4.3115030485974780e-002 2.5764695050579472e-002
      1.0482330607933781e-003 3.7034008822789635e-002
      1.0986458880962887e-002 -1.5172543763960808e-002
      -9.1191311882453229e-003 1.0401953268133876e-002
      2.5211119803079652e-002 -8.4467397760995943e-003
      9.3709455382102336e-003 3.9169469944169803e-002
      -2.0425579711262194e-002 -8.5669789732350614e-003
      -2.0755512713711670e-002 -1.1504828243752305e-002
      2.0228259138694180e-002 -2.9882089017822879e-002
      3.8633488767921872e-002 2.4730142450175461e-004
      -8.4160868026629115e-003 -1.7397658957802514e-002
      -1.0109067200617054e-002 2.3698203665111155e-002
      -4.2952787813046268e-002 2.1428913803619859e-002
      -2.6752644177533483e-002 -1.6196948688149335e-002
      6.7844929946132712e-002 2.6063779815752607e-002
      2.8401352653999287e-003 -1.3498052085201759e-002
      -5.6286256067370199e-002 5.1694951293426161e-002
      -1.3791297530503913e-002 1.3499363317050176e-002
      -3.9605148498789529e-003 1.9760916508474845e-003
      1.2472045220798242e-002 -2.2619672596453300e-002
      -2.2134807886298218e-002 -3.1300967911198716e-003
      -3.5315601224007252e-002 1.3122344026403995e-002
      -1.1112931892483847e-002 2.9903868835155060e-002
      -3.4920776312174440e-002 2.0206899186181980e-002
      1.3986244461574416e-002 7.8264246400980893e-003
      2.3183923391718781e-002 1.8144912742939261e-002
      3.6186987153904535e-003 -3.4272332066962258e-002
      -1.9771477267868119e-002 1.6123362492895350e-003
      3.0401826411815897e-002 2.0035941676848180e-002
      7.5594261451067514e-003 1.8611469822668227e-002
      1.5437153289203530e-002 -2.5181477436018221e-003
      -1.0484658839417637e-003 -3.7362551353799539e-002
      -2.6168018273527566e-002 -1.3388272796824026e-003
      8.5121453582162245e-003 -1.5418415478006204e-003
      1.9947730639210594e-003 2.3610303758267340e-002
      -5.5106968733297138e-002 -5.2977230661961375e-002
      -1.6257699162537623e-002 -1.8886648573966645e-003
      5.6590251541181108e-002 -4.2238559746521957e-002
      -3.9170719522979069e-002 -1.0117790288512604e-002
      1.1249188221141784e-002 -1.1877292492601443e-002
      -8.6700840746676625e-003 -3.0433451532052059e-002
      1.3946589406981251e-002 -2.3417472360259522e-003
      -4.3136715665786918e-002 2.9156724806098664e-003
      1.5357570973738426e-002 -2.1096572735265665e-002
      -6.0108450630829049e-002 -1.6521702991945714e-003
      6.0876076702554623e-003 1.7444536353124960e-002
      6.9776720130664670e-003 4.3313728430357775e-003
      -1.0193848547857596e-002 -1.0655104133014726e-002
      1.3170779780151754e-002 -1.3770844692831479e-002
      2.4509148042033635e-002 1.4095243709688323e-004
      -3.3666402353317859e-003 -4.9534935599839805e-002
      -5.7656562510771087e-002 -2.2990651554775227e-003
      -3.1268855048071934e-002 1.1113770548315074e-002
      -1.3917134919479546e-002 4.6195245794941487e-003
      -2.8408404038912507e-002 -1.7658818209771981e-002
      3.4573580762072352e-003 3.7312007833710185e-002
      5.0254386609399272e-002 2.1509949174894235e-002
      -3.2928053002146344e-002 -4.8457833686269804e-002
      5.9241421042335821e-003 -2.2800166180836655e-002
      7.2976109090609103e-003 -2.5988050150418492e-002
      1.0483663990651372e-002 -1.6215070373902577e-002
      8.3805523402527959e-003 -5.3143150161800073e-002
      1.6089353801350480e-002 -8.2619297801854608e-003
      7.4792955819020070e-003 -6.8185607662229195e-004
      -2.3666111214205480e-002 2.3339685555236210e-002
      -1.3900625622536607e-002 1.6552787386854565e-002
      2.0320508392130007e-002 -2.0772236503610864e-002
      -6.3763018749858884e-004 2.8707636748160504e-002
      4.8090922492301534e-002 -2.7376615132529646e-003
      1.5895016526969086e-003 2.7125753484676905e-002
      -1.0227344850636873e-002 6.6508534461155108e-003
      -2.0310881761671267e-002 -1.3904405369034839e-002
      2.0179840543299913e-002 -1.0566896984119552e-002
      2.0922125217591996e-002 1.9836500385226937e-002
      -4.8837649431813200e-003 5.2265053127479699e-004
      -2.3216038178154125e-002 2.6083049889555416e-002
      -2.1344550169574372e-002 2.5893642963755775e-002
      -2.6869802179247018e-002 -3.2846904084008192e-002
      4.3728661542483394e-002 1.8705761234636076e-002
      -2.2397450249396763e-002 5.5067716402029902e-003
      -4.8712814513247042e-002 4.2451943004686160e-002
      -1.7083241959615223e-002 2.7371254536328223e-003
      -4.4817037984860994e-003 1.9315694758413653e-002
      3.1663808628229609e-002 -1.0738640405248525e-002
      -2.1112884669881867e-002 1.3405614676163760e-002
      -2.1798807951406055e-002 9.6342623197632239e-003
      -1.3063984016176138e-002 2.1610507376881506e-002
      -1.3436626918402335e-002 6.2166693529579460e-003
      1.7304960162768074e-002 3.4124065432531374e-002
      1.5946295293481651e-002 1.8726550183451218e-002
      8.1432297921881502e-003 -3.4406787680308110e-002
      -2.5153127357977680e-002 -2.3657087772156033e-003
      1.5888511707415789e-003 1.2674050541100618e-002
      2.4940652543720553e-003 -3.3659113082516092e-003
      2.1567198178761345e-002 -1.8717255670085399e-002
      -1.2397141423611523e-002 -3.3347504149983657e-002
      -2.1861549401248768e-002 4.5751954650090423e-003
      2.4098490383879324e-002 1.0526453380969653e-002
      5.2800514370186175e-003 1.8114015307130828e-002
      -2.0964163234925143e-002 -2.7478149298980230e-002
      9.6953938548689669e-004 -1.1290697723864521e-002
      3.1537193506542223e-002 -3.1675354756163787e-002
      -1.6839988532702719e-002 -2.9730705988460879e-002
      -1.3933033273785886e-002 -1.8622364876521323e-002
      1.2806004607479221e-002 -5.5268422000289003e-003
      1.8286324480590664e-002 -5.5164924857552594e-003
      -3.7859223660167113e-002 2.9099841005744091e-002
      -1.4402835206227328e-002 -1.7148557227131149e-002
      -1.8568347339923436e-002 -1.8032708669686065e-002
      -1.9237670470744973e-002 3.0241707966894354e-003
      -1.3449178061065541e-002 -6.3584834639407754e-003
      8.2523591638258790e-003 -2.3199847521521842e-002
      1.0212064006321721e-002 -3.1520546789367089e-002
      -1.2598283031704554e-002 -1.6302205498451978e-002
      9.1405433332507457e-003 -2.9883590590989547e-002
      -3.1629457077694614e-002 7.0957801472414607e-003
      -1.9744086293960739e-002 1.6552274411058651e-002
      -1.9080428420568365e-002 -1.4652107674484709e-004
      -2.5311855100681690e-002 1.3438383810729529e-002
      6.7931718371667844e-003 8.7014787179647991e-003
      7.7972129223189163e-002 -7.8201759629465597e-003
      -1.9878412726462978e-002 -2.5908995228642415e-002
      -1.6940978965656495e-003 -2.1042007777606900e-002
      -8.6389378935542507e-003 7.1147968109106082e-003
      1.6897686050512541e-002 -1.6513446726863720e-003
      1.2332465234387002e-002 -2.6289443691870067e-002
      2.3283143460331977e-002 -3.2771299304745235e-003
      1.6889422727577172e-003 1.5081186621709803e-002
      -6.6979148805535208e-003 1.4092458845409056e-002
      1.5884249189279400e-003 1.1869337135416696e-002
      -1.9420730912922939e-002 -2.5443856185792457e-003
      6.0340910564979661e-003 1.8792209589163802e-002
      4.6909783523663894e-002 1.4824960869675143e-002
      -1.0366817403797760e-002 -4.8929759183664488e-003
      1.5193158607507069e-002 -1.7174205303617282e-002
      -3.0897764790704156e-002 -3.5224698867469313e-004
      1.8124061790472674e-002 3.1584445215131610e-003
      1.3364090190456805e-002 2.6718174568608054e-002
      -1.9000297688266946e-002 2.2764287366945087e-002
      -2.0887388384085531e-002 2.5650448694606191e-002
      -7.1603102732246621e-003 1.5291742148962843e-002
      7.3555708234173418e-003 -3.1067704538261194e-002
      1.2890719288298696e-002 5.3095840353525256e-003
      -1.4550225206910678e-003 1.0934922262355165e-002
      -6.6526671982554053e-003 2.0964372318006116e-002
      -1.3778503501708688e-002 1.2246688923378988e-002
      -4.4762654631781409e-003 7.5936150090480650e-003
      2.4632440467575654e-002 -1.5673911561432309e-002
      -1.9268545443232267e-003 -1.2701312544837046e-002
      1.1982966562697634e-002 2.6619674067257765e-002
      9.8723574979803323e-003 4.3367152655255037e-002
      1.0516603622556877e-002 -4.5946776888561884e-003
      7.8976821098060007e-003 1.6779707397028585e-002
      -1.6422986735020330e-002 2.5734202613670588e-002
      1.5832256027601497e-002 -1.8055176377431766e-002
      -5.4321675253840730e-003 -4.1162214260601629e-004
      -7.3336202336952349e-003 7.0737561418274314e-003
      8.9413439399601922e-003 -3.4691609498554647e-002
      -3.7250874069703053e-003 -2.0607367404648379e-002
      4.6617303709384677e-003 -2.5399638328050023e-002
      2.8067041073696296e-002 1.7447895043965635e-002
      4.2484157411474092e-002 1.1099344139676894e-002
      7.6605517010617432e-003 2.5508272472011130e-002
      -2.0370209878744244e-002 -2.0565664779432714e-002
      -3.7800337590054661e-002 -1.9598147204873666e-002
      1.4439877050412855e-002 2.3693750651936204e-003
      -6.9714799164707969e-003 -2.2890750878051289e-002
      -2.2203963632674868e-002 -1.5249870642994009e-002
      2.2249590174847740e-002 -2.3367613216160054e-002
      1.2934482143888509e-002 -1.5449843533298455e-002
      -1.9657522260427839e-002 1.5091074750487250e-002
      -1.2786285397881385e-002 -1.6006747308170716e-002
      -2.0261310025484147e-002 4.4515066077578129e-003
      -1.5636612801550077e-002 -3.5174620580653909e-003
      -3.5520863391542291e-002 6.6495443385108845e-003
      6.6177126732307884e-002 -1.8933699839048419e-002
      1.4291247485248247e-003 -4.8619241716622796e-002
      -1.7728327665851636e-002 2.5295998471799045e-004
      7.3836484917197548e-003 -1.8836451103900555e-002
      7.9009898404645423e-003 1.8016542247645768e-002
      1.0395064124750254e-002 3.3394938362096095e-002
      -2.0450226897184939e-002 -4.0379321635425494e-003
      -1.7572901784738821e-002 5.6036522636684433e-002
      -2.7663379148899947e-003 -2.4480502672943254e-002
      9.1824235504931379e-002 -2.0589879387380671e-002
      -4.8310162439457807e-003 1.0952913677743703e-002
      1.9288885920889752e-002 4.3721489862366299e-003
      -1.0151245928752974e-002 3.3817182246158407e-002
      3.9143869795058489e-002 3.8997501787770067e-003
      2.2693492261742737e-003 1.9126739194814534e-004
      1.3142758663663557e-002 2.7111181619888596e-003
      2.8095315416940673e-003 8.2947746406907181e-004
      1.5384578180787631e-002 1.5513358142424265e-002
      1.1611682532298230e-002 -2.6004109044844629e-002
      -4.1945463189393975e-002 3.8012592684030235e-004
      2.6478832165665225e-002 3.2818071957606337e-003
      2.9330387458749704e-002 -1.3708804088644029e-002
      -2.3167059963867333e-002 -2.1951405886938048e-002
      3.7977295309519855e-002 -5.0592385195980310e-003
      -1.8142763592059075e-002 7.5351338593627011e-003
      1.2256569188926042e-003 4.1245588508022901e-002
      -3.7527376537531622e-003 2.6311058865224782e-002
      -1.9180540758284209e-002 2.0943090396178046e-002
      1.2406008592114818e-003 8.5984691546339923e-003
      2.7594082945736328e-002 -4.6071769869698784e-003
      3.3669845302876859e-002 -1.0409355183106560e-002
      -4.9690960146144214e-002 -3.2666395235198424e-002
      1.4344650828839259e-003 7.8624926218939708e-003
      2.5046252608324181e-002 -2.9720891331860171e-002
      1.1472806167433779e-002 1.5206122679479914e-002
      -3.1208965577486193e-002 -1.0300778168140651e-003
      1.0579565198969722e-002 1.7176362025089281e-003
      2.4659602250472139e-002 -2.7461636089440248e-002
      3.3267891611202215e-002 1.3737982888730531e-002
      2.5560787018612304e-002 2.9457706297314611e-002
      8.6791741009645002e-003 -3.9611673841314518e-002
      3.9579744253047805e-002 1.7392141190351103e-002
      -2.8768817529998620e-002 1.5322498799764122e-002
      -1.2602449480178571e-003 -4.0531411459599306e-002
      8.7770068734296918e-003 2.5991523835413675e-003
      -2.5662488479750060e-002 -1.1807982470760973e-002
      2.2352813020347920e-002 -2.6337879258290241e-002
      2.1641989582838182e-003 -2.4431469527827153e-003
      3.0063986352943640e-003 -2.5107407806352428e-002
      7.8032953137168459e-002 2.3279713793041348e-002
      5.6986731893377947e-002 1.2337987453859795e-002
      -9.6322538895175936e-003 -8.3306939914140898e-003
      1.2642641273230015e-002 1.1723375155398135e-002
      -3.9879560250803837e-002 -4.0505523427767219e-002
      -1.4427569825967367e-002 3.1566073009930730e-002
      1.2087867532328811e-003 -5.1433635632076487e-003
      2.0285534252266868e-002 4.9549222950805490e-003
      1.8520854780193073e-002 -8.7595494554485679e-003
      3.5732198405452917e-003 -1.6037668689619193e-002
      -1.3473161109584833e-002 -7.0319493836329804e-003
      -1.2605984750973857e-002 -8.9246230713212523e-003
      1.9865659923771352e-002 -7.4245898473123337e-003
      1.6446616794482994e-002 -3.4164818523537582e-003
      -5.4799006002155891e-002 -1.8031058361172310e-002
      4.5555825118125351e-002 9.3395077001936135e-003
      -1.7345825703261829e-002 -7.2807696486695966e-002
      -5.4871907496002693e-003 1.3117513931940732e-002
      7.7601966923870856e-003 8.5136579442931636e-003
      4.0161143751308609e-002 1.4746234432791416e-002
      4.2372819915824568e-002 1.0068816916247452e-002
      -1.5207453611559117e-002 1.1647317223260668e-002
      -1.6696210407803981e-002 4.2550009920063185e-002
      1.9279231397871542e-002 -5.1011745922809042e-002
      9.3860634490288170e-002 -8.7595269596954083e-003
      -5.8887268980333200e-003 -1.7951562840423929e-003
      3.3877856108295114e-002 5.7674072279636675e-003
      1.7292331147426961e-002 1.8000907039178438e-002
      4.4095061017712392e-002 -1.2321641807253867e-002
      9.7271695993212826e-003 -3.4447338013201571e-003
      1.9735526022194418e-003 6.1025069404029269e-004
      -1.7005156733595102e-002 -2.3426369531944529e-002
      1.7923031379295983e-002 2.7540871395041109e-002
      1.3505805880172450e-002 -4.9055055594179053e-002
      -6.0078463280433474e-002 1.7494545198534311e-002
      5.0750548063719890e-003 1.3435955994004737e-002
      2.6531274421615399e-002 1.5394782512538822e-003
      -4.0765723806208140e-003 -1.5222997646663995e-002
      2.9640460425357083e-002 1.0720745205538892e-002
      -1.7328860662503612e-002 2.5471982142126037e-002
      -1.1601253158061736e-002 5.1544609104178490e-002
      -1.1231468669611083e-002 1.6739118583568913e-002
      -6.3504035016135841e-003 2.9906487332173645e-002
      1.0023717849066489e-002 3.2926149098120243e-002
      -6.9239615867651002e-003 1.1386494448043764e-002
      3.2200303164992970e-002 -1.2072467058460806e-002
      -3.1658204398428431e-002 4.9272986120300960e-003
      -7.0041037057144628e-003 1.2642105364205959e-002
      3.4430670551846405e-002 -1.2650943498254883e-002
      2.7015681394963950e-003 1.6080715455651488e-002
      -1.6612980330580045e-002 -2.5010703419982923e-003
      -4.1335581795139652e-003 1.5607818966995115e-002
      2.2212044558321785e-002 -2.7018588256851543e-002
      9.7525251238221675e-003 1.8524326400524000e-002
      3.8639151795476535e-002 4.6576429490114500e-002
      3.4237068516254569e-002 -4.6129862469901868e-002
      2.5362579524529132e-002 9.0618049853854812e-003
      -4.6256712413524248e-002 7.0226900266595425e-003
      4.5693045126518912e-003 -1.2850378855891091e-002
      2.1411487205003119e-002 -1.0538453552031151e-002
      -1.3154165468236730e-002 -3.5485499300252722e-002
      1.7814440223550615e-003 -3.3463272125430314e-002
      -6.5723461450649702e-003 3.0736818543370212e-002
      -7.3833072142523654e-003 1.4883886707298063e-002
      6.8472430004625245e-002 4.6720212973198151e-002
      7.3283614200963772e-003 2.2898803213873040e-002
      1.5801594495624214e-002 -1.9941822662489894e-002
      -1.4487762956263256e-002 2.3051263901024719e-002
      -3.2161679647989258e-002 -2.2909907849588450e-003
      -3.4034410902819778e-002 3.9874002933986546e-002
      3.4135633254308673e-003 -2.4311616786743127e-002
      4.5698735703112586e-003 -1.7620475514626754e-002
      2.9404534522033260e-002 1.3332238870462360e-002
      -4.9302923221731746e-003 -7.5049373146425166e-003
      1.1483479470436811e-002 -1.2075665480178467e-002
      -1.4301240106103303e-002 -1.2832065253044549e-003
      2.8420713934473887e-002 7.5070202563598696e-003
      1.8482167345446377e-002 -1.7328442343797816e-002
      -4.5813327758972046e-002 3.5268942461840142e-003
      2.5320346663300582e-002 7.9345309507479426e-003
      -1.9702131762265301e-003 -4.9159121676977863e-002
      -1.2134403198735476e-002 -4.5927226811637942e-003
      -3.5968141026586033e-004 -5.5587996482970563e-003
      3.5438225946817857e-002 1.9411374632650247e-002
      2.2434420945722081e-002 1.4088365424848145e-002
      9.0260298789666977e-003 2.2202136412688860e-003
      -1.6036038588144598e-003 4.0567790747683539e-002
      5.2162700255531189e-003 -3.4752165082052484e-002
      5.8500455937427163e-002 -1.3153169682738386e-002
      -1.2365750737630282e-002 -5.2543869383608593e-003
      2.9997546740495207e-002 8.2135527901053083e-003
      2.2201625504464750e-002 5.7358910486376433e-005
      4.2750024734793307e-002 -4.0919978076866502e-002
      1.0268883456933520e-002 7.6616970443301952e-003
      -4.7296004322075315e-003 6.2245780559940338e-003
      -6.2537709821370770e-003 -2.8453087836772008e-002
      -1.9944565119116589e-002 1.9858222299540117e-002
      6.2326223680511444e-003 -4.8428697958499807e-002
      -5.8278807066060034e-002 3.5621080676903850e-003
      -1.1945512789442775e-003 1.5683884148548710e-002
      1.9901392701569660e-002 -6.0401291583484706e-003
      -1.3376418058057466e-002 -2.3708584791802708e-002
      3.5429257966442286e-002 -9.5674938795947372e-003
      -4.5296792094729553e-002 3.4562242815241902e-002
      -1.1234767917358961e-002 2.6970386548379622e-002
      -5.1544168694913099e-003 2.2389285639595160e-002
      7.5511482122488129e-003 2.9868766943242238e-003
      2.8211659815380792e-003 2.2142557007259141e-002
      -9.3999943531014292e-004 1.8851402665084045e-003
      2.0426726243018334e-002 -2.7614458989480180e-003
      -2.3141999923442357e-002 1.6235706515376210e-002
      1.5547799542780353e-002 1.8997506578387391e-002
      4.5123563464514481e-002 -1.6348971325317048e-002
      4.1473459044988068e-003 2.1729589341679914e-002
      4.2690587561999300e-003 -2.2761402867204270e-002
      4.4598154681525946e-003 8.2362792649768451e-003
      2.3229256084794876e-002 -3.0052666534243301e-002
      1.7447358711503370e-002 -4.0178607227938324e-003
      3.2062728905343875e-002 2.9376117289774722e-002
      2.2200529141681375e-002 -3.9561983875976162e-002
      2.3012472751830756e-002 1.5018940221902879e-002
      -5.0337006680726451e-002 -2.0357542153221931e-003
      1.0665779837550066e-002 7.4712182136898401e-003
      2.9533524042072559e-002 -6.8878416371068720e-003
      -1.6702046615113882e-002 -1.1285208697856359e-002
      3.9658223583530000e-003 1.4950192362648161e-003
      -1.6777789216501172e-002 5.4415182875329369e-003
      -2.0610221882612557e-002 -5.5914502171983387e-003
      4.9068360242234904e-002 5.0334768068556510e-002
      3.8947058144560088e-003 1.9138668656887264e-002
      1.7754650092104970e-002 -1.9123579733499704e-002
      -2.4715974679289758e-002 8.3517763035725907e-003
      -1.2364177991314267e-002 -1.0003279715978060e-002
      -2.8230382560654580e-002 3.4950939343490091e-002
      -3.8636346565575222e-003 -2.8883041667191328e-002
      -8.5931667703304383e-004 3.0324018380532586e-004
      3.6346386811887205e-002 -1.3420437720983586e-003
      -1.8728294175306692e-003 1.4623071614658003e-002
      1.1823752287406069e-002 -1.2690393808077786e-003
      -8.5775087073089330e-003 3.4215816004463120e-003
      1.0585899475415250e-002 1.1398661439652963e-002
      -1.1526978066609949e-002 1.4747879133737585e-002
      -6.3512887741359776e-003 1.4931436561739411e-003
      6.4408193899512167e-003 -2.5215676573800729e-002
      1.8269929058262340e-002 -3.9987520426560189e-002
      -1.9179434011517668e-003 -1.3657377602193342e-002
      -1.5377343356624221e-002 -1.9141998004721751e-002
      -1.7021480120093520e-002 2.6042386934972445e-003
      -6.8086364361351600e-003 -7.0978377711852217e-003
      -5.3828104460916246e-003 -1.3171346296379160e-002
      -4.4177404372370849e-003 3.5995798362011729e-002
      -1.0463974445135367e-002 -1.3294604225435947e-002
      6.7144549929490913e-002 1.3289904690801631e-002
      -5.1153025341421441e-003 -8.9162395606594128e-004
      3.2434659536643408e-002 -2.1255047373613414e-002
      2.1686218917028113e-002 -2.2600149878692591e-002
      3.7014621590996465e-002 -2.3135922557886573e-002
      -8.3393742195805275e-003 -1.2692599271963525e-002
      -4.8988599175069101e-003 -6.1104782877491144e-003
      -8.3739806295029199e-003 -9.2938100926090172e-003
      -2.2043014267349507e-002 1.9404687629564033e-002
      1.8695124437278315e-002 -1.5399331632614564e-002
      -3.3992661756580049e-002 2.0326100036165213e-002
      1.3292098491491921e-002 2.8869645997566581e-002
      2.5960906002765089e-002 1.0155281427490248e-002
      -1.5232020993603049e-003 -5.3094673369880763e-003
      1.5306581814686235e-002 -1.0650658590784552e-002
      -2.3225668085228645e-002 2.7479605426824680e-002
      -1.2641537465132635e-002 2.4391232451499684e-002
      3.2208288976294720e-002 2.1108935359307822e-002
      -1.1015637513999742e-002 7.5712378697572573e-003
      -3.6982039036164813e-003 3.2436327310304137e-002
      -3.3808861057730726e-002 -5.2705883656277899e-003
      -7.6108740344763707e-003 7.0704118734995938e-004
      4.2389046084594468e-003 2.4362938421140921e-002
      4.0407367688403999e-004 5.0463886678045952e-003
      -6.1927909278222002e-003 1.1105707056059053e-002
      -6.0581477790145463e-003 7.6405797127957215e-003
      -3.4230721814666768e-003 1.0951427707865889e-002
      -6.5247638230246543e-004 -2.3888296948399185e-003
      2.8527376035973810e-003 -6.5587934330208712e-003
      -2.0042636330737886e-004 2.4110510687353620e-002
      1.7725110938205488e-002 5.1962298849984927e-002
      1.7667094445187864e-002 -3.8757769425303117e-002
      1.9196960874007976e-002 1.6471161357300909e-002
      -3.9970113586197724e-002 7.2480005252877405e-003
      2.8301555195856448e-002 -5.2112125512522815e-003
      1.3670848165358164e-002 9.6920452768767366e-003
      -6.9102104734974201e-003 -4.6594414966392248e-003
      1.7176151400103021e-002 -2.9515359749556543e-002
      7.0795079309728661e-003 -7.9264413693575612e-003
      -3.0786205365705531e-004 -1.0485817725263819e-002
      -9.4673144931062634e-003 2.0899305740941572e-002
      4.2426273661004626e-002 2.0288831348212421e-002
      9.5751663353515766e-004 -6.4421924538738302e-003
      -2.7272860717980050e-002 6.2535455534316305e-003
      -3.1258194420838534e-002 2.1540068363087870e-003
      2.4452007157433533e-002 1.4704083170221741e-002
      -2.0388934813910926e-002 -2.2027819281330650e-002
      -3.4146789481414551e-003 -1.0255852230592648e-002
      2.1241616424096041e-002 -1.4822470436785576e-003
      1.5797653808610396e-002 3.4734525898430612e-003
      -5.9273207480645216e-004 2.5959493475719228e-002
      -1.4819339004100726e-002 -2.0624646890013129e-002
      -1.0230356213768471e-002 -2.7840206197901956e-003
      -3.2364396631751495e-002 8.8591049566404002e-003
      4.3323811350917231e-003 2.0766245213925519e-002
      -1.5225733142477403e-002 -1.5249218817970176e-002
      3.0069040326925839e-002 -3.7688717073605590e-002
      -7.9222557454220899e-003 -2.1239508598623013e-002
      -1.2419102884682384e-002 -4.4967264494564466e-002
      -3.1721532018821275e-002 7.9799635439700371e-003
      -1.6969665789299683e-002 1.8308831215321272e-002
      1.8078692772519146e-002 9.5212225246710160e-003
      2.0430386063816199e-003 1.9999361772279317e-002
      -1.5203677685131367e-002 2.1066942065003813e-002
      5.9625245780765744e-002 1.3853315874125789e-002
      -1.9252558080807867e-002 -1.2310049627748388e-002
      2.7020084722951514e-002 -7.1683383735282593e-003
      2.2812581860431350e-002 -1.4470768311630963e-003
      2.1879883637302922e-002 -2.4642556184507570e-003
      -1.1785218104596757e-002 -2.5394667264048595e-002
      1.8525875294354861e-002 6.2632864251293682e-003
      7.1527509102974523e-003 6.4851388465816300e-003
      -1.1798322706157551e-002 1.9802289658399742e-002
      2.0385371002652010e-004 1.3366557065550483e-002
      1.7500325447562370e-002 -1.9138423606032996e-002
      5.0955611732656676e-003 2.4814048521670535e-002
      4.8512241959929217e-002 1.8990262112449082e-002
      7.1215615866263181e-005 5.1166253039806944e-003
      -1.2466703575407967e-003 -1.9841784000897571e-002
      -2.0882582290063425e-002 -1.2331607316871597e-003
      6.5459341414952823e-003 5.1791500149123886e-003
      1.4391729215657290e-002 3.3813731077341681e-002
      -5.5634522656673024e-003 4.3711426220274735e-003
      1.4280911286565520e-003 1.8008299203528214e-002
      -6.5198675149396659e-003 -2.2626238676544431e-002
      1.7587677743887201e-002 -3.5742218009196275e-002
      4.5166192153574918e-002 -7.6055333850453708e-003
      2.2977773966867589e-003 2.1406069329610658e-002
      -1.4336484882332710e-002 1.6631324015159779e-002
      -1.6456676073236573e-002 3.7047019116637180e-002
      -1.8764224974372419e-002 2.3284741151675808e-002
      3.1220093543622644e-002 7.4663242671023184e-003
      -6.7841971561277291e-004 8.3231561623773737e-003
      8.9092034408691095e-003 7.1998945342610383e-003
      1.5614395256005963e-002 4.4084044651118079e-002
      -1.0125120672664970e-002 -1.7519014240940444e-002
      3.3699789343516029e-002 2.5087342403673708e-002
      1.7940216212531612e-002 1.3501552493444926e-002
      2.0391958556037305e-002 -2.6239437035159251e-002
      -1.4836752431762865e-002 2.4110662467687460e-002
      -1.3059228947212991e-002 2.5973588767671224e-002
      2.0142439747161643e-002 -1.3200734944668604e-002
      1.9561081641340957e-002 -4.1678313985562036e-002
      1.4423008356540428e-002 -1.0269708347119823e-002
      -2.8416221557285796e-002 9.3324488552746204e-003
      6.2399672750435800e-002 1.1544454255080017e-002
      -2.9007790362324758e-003 1.2373933550483981e-002
      -1.7093873878711164e-003 -1.2661355260356522e-002
      -3.5879111389059720e-002 -3.2038692851151351e-002
      4.3231193695328018e-002 -2.1677312115143118e-002
      -2.1986632988471099e-002 -6.0763136842340000e-003
      -1.1203133959281089e-002 -1.1427535250299967e-002
      8.9734176996878901e-003 -2.6040403265335414e-002
      6.9088708915447435e-003 1.7925457611812265e-003
      -2.9726361573302548e-002 4.2415963324916699e-002
      -4.3282503526390487e-003 -1.5441056439884913e-002
      -1.0655269061014556e-003 -1.9616795123544292e-002
      -4.6163573609323279e-002 8.9955639638566159e-003
      2.4650199994845943e-002 2.6853612234179581e-002
      -2.3498003852085954e-002 -1.0581074860325956e-002
      5.2854314746764754e-002 -1.0277867645908903e-003
      1.0402256040971843e-002 -2.4309791690671580e-002
      1.0125334960175947e-002 -5.8636919825811838e-002
      -5.9814036309899413e-002 -2.4362061677980221e-002
      -4.5436557584985736e-002 2.3169187202639545e-002
      9.2618501686783407e-003 5.8668668038447079e-003
      -1.8367277336356173e-002 2.5446619694802424e-002
      -3.2300544104499264e-002 4.4918858376461951e-002
      6.9641556395871829e-002 1.9851696362052779e-002
      3.0529162189815843e-003 -1.4490806254097205e-002
      2.5625248212256244e-002 5.8431391662879201e-004
      -4.2050091993493036e-003 -2.3978145907717231e-002
      5.6564927581019466e-003 2.8948577473216865e-002
      -2.0607996252171978e-003 -6.0176386787746394e-003
      3.3207293040945420e-002 -2.7460325505701221e-002
      1.6181843883270663e-002 9.3330778926969532e-003
      -1.8005664212184351e-002 4.6659313117433515e-003
      1.6232842112209447e-002 5.5613309519844511e-003
      3.7718739390244907e-002 -1.3945047884689607e-002
      5.5533857864126486e-003 -2.3323330233081603e-003
      3.4158365861051823e-002 1.7151080853494424e-002
      -3.7096594991994324e-002 -2.1397898891073776e-003
      -1.9077184359629934e-002 -7.6969186933524671e-003
      1.3218907423038087e-002 4.9002843986634495e-004
      2.8575728668319131e-002 -9.7537529331905778e-003
      3.7487064390153146e-002 2.6362864429886720e-002
      -2.6009692045580696e-003 -4.1487330482019988e-003
      -1.1590725667347066e-002 -5.8602118017584597e-003
      -4.5726468902154817e-003 -2.7189987809117133e-002
      -4.1952398951566969e-003 -1.6260903604931883e-002
      3.1175032905748638e-002 -1.3308926659371084e-002
      -6.3703868443475186e-004 -7.8967853919910229e-003
      -4.6010981553682377e-002 -3.8861360429856035e-003
      -4.4802549154967066e-003 4.2694552798644245e-002
      -1.8737821206794954e-002 2.2485849855309839e-002
      9.2977414663134601e-003 8.6364579651182008e-003
      -4.5477112290869034e-003 1.4962405284645517e-002
      2.9459952270038729e-002 3.0134037941308950e-002
      2.3188351107421623e-002 3.5061570301986131e-002
      1.2534994152114376e-002 -3.8901372202877392e-002
      3.2657839290539004e-002 1.0273744213423374e-002
      2.6278280961185802e-002 1.5281083848700024e-002
      2.0677868110745783e-002 -2.9040945873090234e-002
      -1.8490183670639520e-002 1.1829012143985584e-002
      -1.3894788755103350e-002 2.8449428736601525e-002
      1.1120620392737547e-002 -3.2545722345452027e-002
      -2.2274756263897062e-003 -6.7651771723320472e-002
      2.5809438381894430e-002 -3.2910800442354560e-002
      -2.8313796400668549e-002 -2.3402557849325567e-003
      6.2705161270739093e-002 -2.3891986362285004e-003
      -3.8482000554124651e-002 4.9979278557466394e-003
      1.6713507125424614e-002 -7.7107164977209732e-003
      -3.7124456304743828e-002 -1.8567443199422599e-002
      4.5869669955828418e-002 -4.1002952567564387e-002
      -2.1434169454089685e-002 3.0579051281199566e-003
      1.2746925365532879e-002 1.1449838855640293e-003
      1.7448715071323805e-002 -2.7113031622007549e-002
      2.9955537505063471e-002 -2.1666168548025271e-002
      -3.0013228913244740e-002 5.5674664302141727e-002
      -2.4062814014412649e-003 -2.3947137981815338e-002
      -1.3991848263530260e-002 -5.9282539221340615e-003
      -4.4573364353891365e-002 1.8288327717907848e-002
      2.1522899915670343e-002 3.6417794632159918e-002
      -3.1325814702323547e-002 -1.7932157009351902e-002
      5.1370873538873416e-002 9.0141247442227321e-003
      1.8393671892313761e-002 -3.9810939429037323e-003
      -3.8491922846316589e-003 -6.1325741267061654e-002
      -6.5067785999288794e-002 -2.6311812065758000e-002
      -2.5124281030691878e-002 4.1149376191391425e-002
      2.0671455277590034e-003 3.0001989951084318e-003
      -2.1055758516884883e-002 -3.2399071746775218e-003
      -4.1819624299790012e-002 4.6834244416491644e-002
      4.5660972394682760e-002 1.4608907358395911e-002
      8.0836960200118060e-003 -1.7695365447867262e-002
      1.1138226229944375e-003 1.5566952794415443e-002
      -8.0168257996514961e-003 -1.1714558897796549e-002
      -1.7790931839056282e-002 3.2903373263072758e-002
      -9.4911672615702672e-003 -6.0737096023586786e-003
      5.3572268878942411e-002 -1.1107219817928530e-002
      2.7986351968922133e-003 2.0127025607928624e-002
      -7.8609078569615454e-003 -2.1522811038369893e-002
      1.5894018858606271e-003 -5.7200260232245347e-003
      3.9109210337726900e-002 -1.8999616063716425e-002
      2.6635655756191805e-002 1.1523860159149146e-002
      4.2979424522129946e-002 3.0715795724658771e-002
      -4.1115913687190440e-002 -1.2369141810240090e-002
      -3.1304969942732644e-002 -1.4487540922424333e-002
      1.1988379229149101e-002 7.5176783699124874e-004
      2.4611543983281834e-002 -3.5481369485845693e-003
      1.5093909366200350e-002 -1.5493503646198737e-003
      9.6963660902652064e-003 1.0671509947901317e-002
      -2.5506325812845010e-002 -6.1498137787790261e-003
      -5.6676858951901134e-003 -2.5771823447881245e-002
      -6.5378674646568297e-003 -3.5572388072886978e-002
      3.6608869226150975e-002 -5.6331819221661028e-002
      1.4216350819441257e-002 5.6219376408391582e-003
      -4.1274758056715509e-002 -8.6735810347415565e-003
      -6.2243717782717181e-003 3.3560787052121129e-002
      -6.8442270915302934e-003 4.2802413120433584e-002
      -1.5278464885672274e-002 -1.6033892726537203e-002
      -1.2248445609213827e-002 -1.3533809197893114e-002
      2.2819028206527647e-002 3.5578255612723930e-002
      2.4046676752254984e-003 -5.1891404015022144e-003
      6.6734416719376804e-003 -7.2670676674023525e-003
      1.6266531079696857e-002 -8.8754726109107202e-003
      5.0167389010295924e-002 3.7927163885772754e-002
      -1.0999834031797441e-002 -4.7988808789299064e-002
      -4.7939623347625235e-002 3.8549950821552985e-002
      -9.4690291694806902e-003 2.4801268236517612e-002
      -1.4078300282721199e-002 -2.3650452588637304e-002
      -2.0183972564870737e-003 -7.9385718333864264e-002
      2.9598934772243610e-002 -1.4343004415080657e-002
      -3.3978098073904270e-002 5.2171793556003432e-003
      8.8620128999543801e-002 -2.8979937557879514e-002
      -3.8571611905314454e-002 4.6847542375505948e-003
      3.3129238734885089e-002 1.3202458969931432e-002
      -4.5864698629881587e-002 -3.3746000418693599e-002
      3.3311987069322313e-002 -2.8522787572431711e-002
      -1.5053448019457363e-002 2.0745372683156446e-002
      3.1999527761767538e-002 3.2124327915112806e-002
      -7.7143186328484095e-003 -5.0383444447058716e-002
      1.1231509103011775e-002 -1.1780271027410645e-002
      -3.1424372453285138e-002 5.8064748788565816e-002
      -9.3655868782121111e-003 8.8110819888535686e-003
      2.5715568657576722e-003 -2.3141625112602697e-002
      -1.8511906945662616e-002 1.1693359618110731e-002
      6.5777193733224885e-003 2.2147129008955605e-002
      -7.0844864542460428e-003 2.0700835858171313e-002
      4.8304021882013888e-002 4.9050993137193598e-002
      2.0380172284331005e-002 2.7884423891544059e-002
      1.3232638228311595e-002 -3.5146440782613225e-002
      -2.0264219746461344e-002 -5.0291338689308213e-002
      -3.9285220853763118e-002 4.1453926971294124e-002
      3.7523196053147780e-002 1.1215848141853963e-002
      -4.8283576010359534e-002 -2.0480090620610941e-002
      -8.5881079059159302e-003 5.3972591144809158e-002
      1.7577847087349965e-002 5.0111087934832247e-003
      2.0102891325329730e-002 -3.5006172682101773e-002
      -7.7130591528223455e-003 1.5205452298980649e-002
      -2.2749712838136118e-002 2.4890408791133989e-003
      -2.1210396087791267e-002 5.3869990921527659e-002
      -2.1189272045081118e-002 -1.3145497238289651e-002
      4.8755476081451324e-002 -5.0164854507918806e-003
      1.3606792480601416e-002 -1.0204381607903133e-002
      8.1018024046184862e-003 -3.3676960134488669e-002
      -8.3165099826065739e-003 -1.3943405478834965e-002
      3.5447422307244937e-002 -1.8858477101019511e-002
      -1.0279547973692561e-002 -1.8611824183135253e-002
      3.5712549429406083e-002 2.3007534197840261e-002
      -4.2543121239379270e-002 2.2629581659548638e-003
      -3.6624913357770648e-002 -1.8386490052697671e-002
      5.3432685797855060e-002 5.3170911385411277e-003
      3.6069044115700421e-003 -2.1718381704209488e-002
      -2.0432545336699547e-002 -3.8165282876323293e-002
      1.5610411100308219e-002 -6.0950246510121583e-003
      6.9289319984378230e-003 -3.7370319784627633e-002
      4.8210836260486594e-003 8.6947458311248029e-003
      -1.6404511877406231e-002 -9.7885518780860842e-003
      1.4941452040062956e-002 -5.5993308499084189e-002
      4.4418188518747081e-003 -1.0828425709327710e-002
      -2.9952701054095868e-002 2.3351965927499037e-003
      3.0338515636378856e-002 8.2352686296403733e-003
      -4.5238998608696851e-003 1.4102527491737290e-002
      -1.0886104555401156e-002 -7.4450394628028027e-003
      -8.8458597853567425e-003 -2.0908245066787384e-002
      1.8454129627301807e-002 6.2449578463292755e-003
      -3.5113076065451422e-002 -4.7029279453028611e-003
      -1.3182334579991295e-003 1.8127679554049866e-002
      1.0494828845006583e-002 -2.5299405229166159e-002
      6.1101870363289998e-002 1.5467297357700525e-002
      -5.5934654614594917e-002 -6.6560676788815651e-002
      -3.5224293946984911e-002 2.2441846768819673e-002
      1.7666361890923039e-002 1.8914634529652499e-002
      -5.9208667487288926e-004 8.5419203238650647e-003
      3.0230641185347005e-003 -6.9283615257327458e-002
      4.5747917446052958e-003 -5.4668948013649596e-003
      3.2042844878573652e-002 -1.7167536495077539e-002
      5.6534652547138499e-002 -2.5835137152212095e-002
      -2.6357978693572204e-002 -1.1053630101052304e-002
      4.9571563983094521e-002 -1.7364298660401588e-002
      -2.8931834585344405e-002 -2.4777858326334615e-002
      2.2920796907418537e-003 -1.7448718381394279e-002
      -9.2941964813286222e-003 2.6653827137245480e-002
      4.1110890409110069e-002 3.3008764819658025e-002
      -5.5398601131585942e-002 -2.0556318891488436e-002
      6.4979989087787481e-003 -6.5446596432499528e-003
      -3.9424195206763483e-002 1.7406354007110009e-002
      2.2186207235735951e-002 3.8199889970559541e-003
      7.4852218464344341e-003 2.5884234701471973e-002
      1.1870380400953147e-002 -1.8537392256224902e-002
      -1.1644704482353592e-002 -3.2908162001005999e-002
      4.2048712407275042e-002 1.8065813436486142e-002
      -2.6151603877790336e-002 -3.5487968209128917e-002
      4.1312209655928285e-003 -5.0895354412796596e-003
      4.3937720057027740e-003 3.6767611826855499e-002
      5.4376068584075565e-002 -6.9518902302452851e-003
      5.2450110787984018e-003 -9.4073369788084671e-003
      -2.1836902939202429e-002 1.0936318997820446e-002
      -2.5997180677841108e-003 1.8463269909131275e-003
      2.3743106422843347e-002 -2.9579850432877204e-002
      2.6366668973440668e-002 -2.8426470296928533e-002
      -9.0108678107017719e-003 1.3864813298246233e-002
      3.8682954657467405e-003 -1.2372316681518740e-002
      7.2369236361213164e-003 5.9321678561575402e-003
      3.6388704074129447e-002 -3.6013606036847785e-002
      1.2613911452206451e-002 -2.2535312925397338e-003
      5.3919594828868100e-004 2.2031095399932928e-002
      -1.0183775255029002e-002 -2.7547440555899514e-003
      -1.4589697964947948e-002 1.4965508853224185e-002
      5.9985499375028277e-003 5.5685773390116338e-003
      -4.3426546650789967e-002 2.0074734000922755e-002
      -1.4439312972410029e-003 4.6454278574113595e-003
      -2.0782241929055132e-003 -6.0518853352394880e-003
      2.0293328195039775e-002 -1.0940082857801261e-002
      2.9548566544280012e-002 1.9392171766324337e-002
      -7.4583989161587901e-003 3.4644833578183925e-003
      2.0504175642057287e-003 1.3740455546717085e-002
      -8.7456613810048094e-003 -9.9324792301483701e-003
      2.3905419477352259e-002 -5.1161965762432015e-003
      2.5280801961533723e-002 1.3317236146928006e-002
      -1.0581565758071291e-002 5.7843993228894261e-003
      -1.2963593275494118e-002 2.6980145348950067e-002
      -1.9076173235435080e-002 2.4237371916907995e-002
      1.8984293602314843e-002 -1.7640351745615328e-002
      3.2371668638010782e-002 -1.2365482881093928e-002
      2.2032758334856007e-002 1.0709373102457091e-002
      9.4374870470265268e-004 -2.3802410128861928e-002
      7.9163790350227461e-004 -1.0040404890655757e-002
      3.9996568497037621e-003 -1.5621061701681019e-002
      -1.6040379565091956e-002 -1.5553732858434634e-003
      -9.5500753536063993e-003 9.3709506469367271e-004
      -2.5239822650414876e-003 1.5819511403465901e-002
      -1.3014959213820464e-002 7.5577897177327782e-003
      -4.1657722837247689e-002 -2.2979246549538521e-002
      1.9073870607663845e-003 1.9488253145775233e-002
      3.8518355271456542e-002 -9.5773921511627842e-003
      -4.9004913080902650e-003 -5.1225319230790503e-003
      -1.1715538033553704e-002 2.4882092701090812e-002
      1.0348835839416657e-002 3.5464078517011402e-002
      -5.2188583187583451e-003 2.2296349140390971e-004
      4.0237793120353627e-003 1.8217837904474465e-002
      -1.6219314017968042e-002 1.0385687840523218e-004
      -1.5384003796201385e-004 9.7079024182741142e-003
      -1.5231929384095590e-002 3.9657183380271506e-003
      -1.1053997188082402e-002 4.3356698388686051e-003
      3.1778996633259004e-003 3.1241376206369242e-002
      3.1049681274324729e-002 1.1747242905797274e-003
      7.8174036447258618e-003 7.4845847831773744e-003
      3.8816864608752955e-003 1.0507212613900576e-002
      4.2129007911987180e-003 1.2892692493684495e-002
      1.7559854516975500e-002 -1.2248588734023803e-003
      7.0838405393892174e-003 2.0760404674833862e-002
      -3.5933922703248007e-003 5.6372483955594325e-003
      -1.4989589252578990e-002 1.2265170883658180e-002
      -2.1872770146495689e-003 -4.7085239162347470e-003
      4.0379253116451755e-002 1.5352336637248736e-002
      1.0592971410112811e-002 -3.6775397452534400e-002
      -1.8302041186510395e-002 -2.2929688557623819e-002
      -1.3945142893907463e-003 -1.6639537246343272e-002
      2.9825454418706883e-002 -3.1813091231530570e-003
      -1.8913807462456227e-002 2.1944903734936665e-002
      -5.7525002937699379e-003 -2.1545296265789743e-002
      6.3444653640880181e-003 -1.0481812439520229e-003
      6.4207005257550138e-003 8.6584360197700485e-004
      5.5374736901760646e-002 -1.2938866541812546e-002
      1.6193318397864200e-003 -7.0630582675347995e-003
      -8.9790219084375858e-003 2.4970893402027656e-004
      -8.3979435149357153e-003 9.0790135042976301e-003
      1.7463665494657180e-002 9.2243937352298449e-003
      4.7362184416898379e-003 1.0142543309578601e-002
      2.6151894846148067e-002 -1.2979269226561318e-002
      -1.1167102990075736e-003 -1.2525977476546581e-002
      -2.5234221447271346e-002 -1.4886592976452640e-002
      -1.4714973543676133e-002 -1.8284123758498683e-002
      -1.3782578469013596e-002 -4.5825558152760328e-003
      3.3044003875436758e-003 3.6347860181489317e-003
      -1.1533846752290542e-003 -8.3032643602619742e-003
      -1.8778257341507770e-002 -7.4082810828406832e-003
      7.9814414741541401e-003 -6.6766707478133451e-003
      6.3074789145061965e-003 3.7864340368289171e-003
      2.2501059437047685e-003 -1.9784133358894881e-002
      1.3640107718553139e-002 -6.9900098790371627e-003
      1.0776098338165736e-002 -8.4746947076829206e-003
      -5.3821069626300080e-003 2.5102651061023676e-002
      1.1318139946271081e-003 -1.7484398082276545e-002
      -1.3568634452900637e-002 9.0568225880889551e-003
      2.5388364039035060e-002 -2.5787004469962807e-002
      9.2894412571366183e-003 5.4317736003585415e-003
      1.2241128350746413e-002 1.8079275939711797e-002
      -7.0666950365828917e-003 -1.8149268043721273e-002
      7.4070267552946859e-003 -4.2789909013675736e-004
      -7.6878555676882666e-003 9.7647868170012177e-003
      -1.8074870984053328e-002 -1.3580247871020504e-003
      -3.5190496807593862e-003 2.8701066502827065e-003
      -2.8134019965915355e-003 -1.2513882941339292e-003
      -6.9446611877986520e-003 -2.2446565252607953e-004
      1.0786367954037885e-002 -2.2321423530467316e-002
      -2.0125000546187522e-003 -2.0817063756888046e-002
      6.8758387588088964e-003 5.7171807136570498e-003
      1.1270285033755850e-002 -2.1185845783599562e-002
      2.7880202440966603e-002 -8.9443968750297677e-003
      -6.7699716377981473e-003 -7.5220520926053344e-003
      2.8302467197726016e-003 1.7402233460011851e-002
      -1.3944908464486806e-003 -3.7280227535549451e-002
      1.3004905651380242e-002 -6.8877865549085921e-003
      8.9059690405674449e-003 -1.3436320324073353e-002
      -1.2410491242785078e-002 -3.1656168003959383e-003
      -1.6334790080910790e-002 1.9661090699341539e-002
      -2.0043349332272753e-002 1.9674626080680227e-002
      2.3109504235662374e-002 6.3593940700047789e-003
      1.6175671643274925e-002 1.3412330997526117e-002
      -7.9854707837286629e-004 -5.8937194458667198e-003
      4.5559287485487723e-003 -9.8840680509638523e-003
      -2.3271750484167034e-002 -4.6956245658561317e-003
      -1.5638903938628119e-002 9.1014195668382356e-003
      2.9194883440473809e-003 3.7583032341559309e-003
      -2.5992361304617490e-002 6.5528761496890320e-003
      -3.6189180668401370e-002 4.7278308654439098e-002
      2.5298468199406662e-002 1.0344498503221156e-002
      3.8559897946999641e-002 1.8607270519064727e-002
      1.8802850266349709e-002 -1.3781909968824032e-002
      -2.6416135749197839e-002 -3.0550470785167389e-002
      6.7055442312553880e-003 -2.4381712352986623e-003
      4.2542344311423959e-002 8.7350482693217876e-003
      -1.5331988608484502e-002 1.9395197676040338e-002
      -3.2151991633899764e-002 -3.4641378382695945e-002
      -4.8395676025822032e-003 -4.0901149182414834e-003
      4.9316680827939914e-003 2.4326985746490542e-002
      7.0058496526220843e-002 3.3413070607798915e-003
      1.9318777368685709e-002 1.4447123725635093e-002
      -8.2691244624521574e-003 3.1944817656821651e-003
      1.5258597474519943e-002 -2.5153176241355348e-002
      3.2114786658638927e-002 -9.5029027836948665e-003
      3.4200020709521791e-003 2.6198145720438184e-003
      9.7756579887224755e-003 -1.0217509011520269e-002
      4.6120093001286349e-003 2.0909808207358844e-002
      -3.5931807080894544e-002 -1.8135494478239825e-002
      5.6847381909343924e-003 -2.9308187387669372e-002
      -1.2148062444685590e-002 2.0211741644124840e-004
      6.2230903112738354e-003 5.5905836891886693e-003
      -1.0184898515287921e-002 7.0626159948701242e-003
      -3.1364090057332733e-002 -8.2995998128798047e-003
      1.0285084916186662e-003 2.6252567930241343e-002
      -1.8044659983954960e-002 -8.7713145400019586e-003
      1.3879618992495400e-002 -1.7924091777949600e-002
      3.8325725629908547e-002 1.3292347591036824e-003
      1.5682432245959450e-002 -4.1090413489550275e-002
      -1.5491687658964651e-002 3.5003857332862341e-002
      2.1330340567600934e-003 -2.7727597671939001e-002
      2.8616608133894342e-003 1.0842062601515438e-002
      4.4734715943646620e-002 -1.2319369528436661e-002
      1.3467380757322588e-002 1.2594081190628019e-002
      -1.1813844010518548e-002 2.1711703522196840e-002
      -2.6462051637428860e-002 -3.4216421432436937e-002
      2.1374456217571409e-002 3.2597894515480038e-003
      -1.9501083440795160e-002 1.1832000353720892e-002
      -2.7757594598286979e-002 -1.7861627563314754e-002
      1.4583696300477469e-002 2.2360215015303379e-002
      -2.0590327651833211e-002 2.1277839200420978e-002
      1.7061061208157910e-002 -1.3457411257496880e-002
      -9.4018446750794623e-003 -7.4106165070753037e-003
      -9.4197680507750545e-003 -3.9231244916906848e-002
      1.8169527917792062e-002 1.5900397457987749e-002
      2.7290210016206492e-003 -2.6694615719699059e-002
      1.9058248389040234e-002 2.1190770971824414e-003
      -2.1987915620420101e-002 -6.2513499338395274e-004
      -3.5171130364689126e-003 2.7629999832738318e-002
      1.8854862272964942e-002 -3.8240532280818293e-002
      -2.4282162184843147e-002 -3.3350581988582990e-002
      -1.4923476187406498e-002 -2.0242340674808977e-002
      -4.0682880392467778e-002 -3.5309587189911736e-002
      -2.2641773155623660e-002 8.8527974776987997e-003
      -6.8958853561222064e-003 7.1717990065377005e-002
      6.2946015552748619e-002 3.7731937739777072e-003
      4.2731367847416773e-003 5.3334529503033619e-003
      1.4183644998389139e-002 1.5202266771916086e-002
      -1.9939514537922615e-003 -3.1035802079662323e-002
      -5.4208951102351416e-003 -5.2134636350334900e-003
      -5.4499165500626751e-003 4.2083751291142175e-002
      -4.3787119152780473e-003 -1.2534453683122754e-002
      -3.4757886563841565e-002 1.6781519539855322e-002
      -3.2252657671290666e-002 4.3046586124219993e-002
      3.4314066954429914e-002 -2.5943854054424767e-003
      1.4454498929353871e-002 -9.0201431163737262e-003
      3.9679756093064910e-003 -2.2060162221224054e-002
      -9.2165141983749001e-003 -3.0357824603468031e-002
      2.9733335890780566e-003 2.6833500516752827e-003
      2.7762617682687302e-002 8.2831151037700904e-003
      -1.0819212715564507e-002 1.1866569557217684e-002
      -3.7401381600257015e-002 -4.7874577668680945e-002
      1.2067907254238364e-002 -1.1831612459751858e-002
      -1.6597612427151361e-002 2.6764672095521795e-002
      5.0539572411716062e-002 2.1244383640512263e-002
      1.2361586555782740e-002 -1.5216524113204956e-002
      -3.7737695755464588e-002 -2.0367173351154952e-003
      1.0194393021121782e-003 -2.1105324494897711e-002
      3.0746294656905020e-002 -2.3575248735752057e-002
      -2.5979293104975650e-002 -2.8273041731562546e-003
      7.3845262805740568e-003 -2.6616696264586751e-002
      -2.3403390741779977e-002 -1.0298489419676383e-003
      -3.2186434752045329e-002 -4.4671772279615198e-002
      -6.6491091427227453e-003 2.0814124286607735e-003
      -1.8603730759592613e-002 -1.3595931131833277e-002
      1.2927686155021616e-002 -1.7868808027267910e-002
      1.3752288232438915e-002 1.7981226601037955e-002
      -8.6970709787821225e-003 -9.2802088048581314e-003
      -7.0674218313639871e-003 1.6818497295971482e-002
      -4.6176649617366841e-004 -2.4167111017923137e-002
      1.8664995842322087e-002 -4.3021307196516125e-002
      3.2448220029654806e-002 2.0057675783080792e-002
      1.1631968340863350e-003 -3.4367007196982345e-002
      2.0288261881888816e-003 1.7373102276039717e-002
      -2.3274784158287990e-002 -1.0849223763825029e-002
      -2.4505768834793058e-002 1.2203777918427982e-002
      5.3833551811362831e-002 -1.6678381936906710e-003
      2.6568438796481589e-002 2.6114204360750778e-002
      -3.0675370839049126e-002 3.2095475302913387e-002
      -2.9452257862503144e-002 -5.2590981109485221e-002
      1.6497436701878521e-002 1.7589111895429440e-003
      -3.3222602830279224e-002 9.6876817431239617e-003
      -2.5494848909295549e-002 -8.4438766400563772e-003
      -4.8044644776565702e-003 7.4267755785806704e-003
      -8.4862074374208174e-003 8.9409901751317019e-003
      4.5355192374288064e-004 -1.0409807095717772e-002
      -1.2528729316489504e-002 -1.4211331814538085e-002
      -1.7856796247680596e-002 -4.2171853419513586e-002
      1.7260223882538100e-002 2.0557936353592317e-002
      -9.4750580768326025e-003 -3.3583949826082447e-002
      3.7020495986465417e-002 -4.7618806175231225e-003
      -3.5404495847144717e-002 1.0837467015720078e-002
      -4.0209819423560325e-003 1.3063177988741886e-002
      9.4624018844842743e-004 -2.5325179029597255e-002
      -2.9687258868023019e-002 -3.9170328596944359e-002
      -1.7407702809193858e-002 -4.8075012196985574e-002
      -2.1570645742579601e-002 -2.1506663897971522e-002
      -3.6839037855162203e-002 -8.4576436718377182e-003
      -6.9502098083550458e-003 7.7065227088482388e-002
      5.9773488914192797e-002 -1.7703147092332259e-002
      1.7634874518617318e-002 2.4348253035312285e-002
      5.7452745181212949e-003 5.8256996862746059e-003
      -5.6097467141694359e-003 -4.1413576729375103e-002
      -1.9300212297951688e-002 7.5460530266207365e-003
      4.3925243865017552e-003 2.9873405477540211e-002
      7.3225598368243036e-003 -2.2042654741154338e-002
      -4.6418172304108801e-002 1.5684751040142081e-002
      -8.0139384048730205e-003 4.6697381343830710e-002
      3.2382669567477256e-002 1.9860508533830579e-003
      7.9233683157269707e-003 -6.8964322502948969e-003
      9.8913278517947702e-003 6.9911776299470939e-003
      1.1173169672967432e-002 -4.1645848993440177e-002
      1.2994510667933352e-002 1.3382519442313343e-003
      1.0578081669167292e-002 6.2960385098917672e-003
      -1.3991926166105024e-002 1.3676588808848599e-002
      -1.8231820060756923e-002 -1.0014592145351489e-002
      3.8391937855672747e-003 -2.8843251082270840e-002
      -1.1382348887595791e-002 1.5632457832306768e-002
      2.4854851311956881e-002 4.5928274173598141e-003
      3.2985979014692399e-002 -1.1877475845658923e-003
      -5.3866910690212856e-002 -1.5236541691970029e-002
      7.1694393293904530e-003 -3.9133862126826444e-002
      1.7679053051838055e-002 -2.6359767823695299e-002
      -4.7788937154769895e-003 -1.0910201187546214e-002
      -1.5477463527188184e-003 -1.3718694275032389e-002
      4.2874336641152873e-003 1.8595733784916055e-002
      -6.5688411959995835e-002 -2.7996422699723980e-002
      -8.1148569042332822e-003 9.3587091269013000e-003
      -1.1199729180865982e-002 7.1928208331659832e-003
      -1.6466538828535039e-002 -2.3241148346842402e-002
      -1.1334621507154455e-002 4.7652956006763031e-003
      -1.3758555674142175e-002 2.5290335420784148e-002
      -1.5253659372072518e-002 1.4672479390016230e-002
      -7.4339576859718381e-003 -3.6037415485080312e-002
      2.6040022433779245e-002 -5.2749942954196549e-002
      4.4844443624133340e-002 -1.4306612354378421e-002
      1.3701842489680828e-002 -5.7683926101314335e-002
      3.6045900942624251e-003 2.5875282076398103e-002
      -1.8306595396861546e-002 1.5323051648802190e-002
      -4.3528288359666989e-002 3.8476342135433787e-003
      6.8313678064586464e-002 -1.0705133435500409e-002
      3.0508536712402414e-002 -1.1984426407403487e-002
      -4.3431069157986925e-002 4.9204745963655080e-002
      -3.8714238135319615e-002 -6.3549294942289433e-002
      3.1998996866201820e-002 3.1839669515545755e-003
      -1.6368682858529486e-002 1.0293590737897047e-002
      -5.1781535598601325e-002 2.1155467992376380e-002
      -1.8863911559912256e-002 -1.7092416907833596e-002
      -5.2965329037892840e-002 1.5169040981520355e-002
      -1.4523707230201421e-002 1.0747593317202070e-002
      -1.3256763014011885e-002 -1.7784263272969014e-003
      -2.0874714913365244e-002 -2.0357362755017268e-002
      2.3391722767717098e-002 2.7998335261232306e-002
      -5.7439289772649406e-003 -2.0381082632159438e-002
      3.5341647875228747e-002 1.5174986984954222e-002
      -1.8313627388293559e-002 2.1217025322061805e-002
      -9.1791285643671398e-003 4.0061086639528155e-002
      9.5145782416575979e-004 -3.4145977314627915e-002
      -6.6341301713373491e-002 -5.1366661374999879e-002
      -5.2292912829885289e-002 -3.0428034382843597e-002
      -3.3366246370259978e-002 -3.3826524046198275e-003
      -4.9296536905899919e-002 -1.4689228737687054e-002
      1.0340825396015866e-002 9.0978508385314572e-002
      6.4665689160792364e-002 -3.5564501401082825e-002
      1.1543352261499381e-002 6.5311985505446032e-003
      -7.2525328060575784e-004 4.7294875699214678e-003
      -1.7045540699504948e-002 -3.1749897301436097e-002
      -3.0792635376173976e-002 1.8474744809080701e-003
      7.5941202803410891e-003 3.5372760118117776e-002
      2.6937400503515056e-002 -1.8193438983129237e-002
      -5.0006952061440395e-002 -1.0220757250399365e-002
      -5.9342273468909051e-004 3.4505033879207420e-002
      3.1301509077194381e-002 -1.0201387254395520e-002
      -4.6092411751174060e-002 -1.3131092275987046e-002
      1.6047877836360070e-002 2.3082646870847389e-002
      3.0023092873706463e-003 -8.6119745406399145e-003
      8.5615576377677215e-003 -1.4292745805195770e-002
      -2.0079451929615674e-002 -8.1907262130824048e-003
      -4.7389937647929613e-002 1.5654879983824563e-002
      -1.5344023285535772e-002 9.3478150418749833e-003
      -2.1814336743771676e-002 -3.8778811218564933e-002
      4.8271346415570187e-003 4.2098729089983064e-002
      -2.7052851284405467e-002 1.2432149679702563e-002
      -6.6164033924299391e-003 -1.7071176911646994e-002
      -1.9664649900430969e-002 2.3963927356861077e-003
      8.6438987903435897e-003 -4.2968611802195592e-002
      -2.7379516701259293e-003 4.3510127912304523e-004
      -1.8336121655360093e-002 -4.5870122727680561e-002
      1.2414218543181525e-002 1.9023577850511328e-002
      1.7409054335153998e-002 -1.0536332462004187e-002
      -5.9413631377776235e-002 -1.9045232411584026e-004
      7.0864597300293217e-004 2.2528722101673053e-002
      -1.7266988522247562e-002 1.4683448467513514e-002
      -2.8126156436111636e-002 -1.3855727978310545e-002
      7.8563236716894941e-003 -6.4220170446090737e-003
      1.9363875649583868e-003 5.5786992016691857e-002
      -1.3452106666650041e-003 3.7089594810095893e-003
      -2.8063796574892027e-003 -1.7804541105557115e-002
      9.8580237727218540e-003 -4.5933216651633177e-002
      4.8297973235235672e-002 -4.7596416803869779e-003
      1.5385303140619247e-002 -4.3369609571381126e-002
      -1.3686046516536264e-002 2.7889346727588981e-002
      -4.9893596176338748e-002 3.8919741859301006e-002
      -3.8870911509181344e-002 1.4956707641699721e-002
      5.9328971636050096e-002 1.0629830724863268e-002
      1.3950854484194400e-002 -2.7725566802891805e-002
      -5.5348090982964372e-002 3.8524033989313110e-002
      -2.6193141766039801e-002 -5.5644482555483460e-002
      1.8053328559225423e-002 -2.7257583824978671e-002
      -6.5275276933798041e-003 -2.6297516201487597e-002
      -2.2754216959173606e-002 4.4141042007012623e-003
      -5.7187463589940195e-002 9.7220013907039771e-003
      -4.1879134711624376e-002 3.2858614527012719e-002
      -1.6664519298687109e-002 2.1597184236187658e-002
      -3.1357095392315681e-002 1.3796992745665053e-002
      -6.4284345091977909e-003 -1.6360822483155138e-002
      -1.4333067796289215e-002 -6.2447303222534058e-003
      -1.6327813259497115e-002 -3.5919205231073142e-002
      3.5073465259858792e-002 2.6980262994268006e-002
      -2.4631897042288659e-002 4.0800442330915419e-002
      2.0075448621080027e-002 1.4989106289734764e-002
      -9.9030509105015631e-003 -8.3403087063078363e-003
      -2.3625778112529239e-002 -4.1886373346112400e-002
      -5.3683141794200397e-002 7.1473457359003852e-003
      -2.7523703820834248e-002 4.7777489549561116e-003
      -6.4669797301099938e-002 -5.7656999770504702e-002
      1.9682647073500134e-002 6.6320954646670927e-002
      5.8118299007358619e-002 -5.0320075957208263e-002
      -2.5284744519701335e-002 -4.5770412493384436e-003
      4.3023879095093571e-003 -1.3554232967944699e-002
      -2.5446376059424458e-002 -3.7829735850071766e-002
      -1.8435617539535355e-002 1.4579783442412439e-002
      -1.6141891879281656e-002 2.8405923651941774e-002
      1.3502307933670901e-002 -1.5606626397785987e-002
      -7.0444197948789158e-002 2.0134264518465082e-002
      6.2427570858460272e-003 2.1901797079743471e-003
      -6.8286212942329444e-003 5.8408078602686236e-004
      -2.0347066373219050e-002 -5.3661970484365652e-003
      2.2926412574015644e-002 3.1395118088397844e-002
      2.8048986193991231e-002 1.3002745074222123e-002
      2.3748413950358007e-002 -4.5365780245794067e-002
      -2.6231250142761488e-002 4.2545250410922176e-003
      -2.1988155151625853e-002 4.8371332138305363e-002
      1.3421725692700028e-002 2.5664600817979690e-002
      -4.6028078853600843e-002 -1.7657767731712223e-002
      -8.6506956792575754e-003 4.5784284567853571e-002
      -3.9024965957440275e-002 4.4602043547342460e-003
      -1.0978610355123812e-002 -3.2041331325403662e-002
      2.0614854489873016e-002 2.4896965529849869e-002
      9.6716382858272863e-004 -3.0121201362985406e-002
      -1.1851251118500990e-002 4.0570582538586575e-005
      1.1350602485806967e-002 -4.2515395495528387e-002
      4.3945147980308144e-002 2.2014206376516958e-002
      7.2281485370303284e-003 4.3136868116511976e-004
      -7.9190368802172645e-003 -7.6190722985874136e-003
      1.8538998919196903e-004 1.9270549192830784e-002
      8.7478274185635065e-003 1.0995332389312838e-003
      1.0884693802323962e-003 -6.4339422886144030e-003
      1.4629534196864823e-002 1.2191071604712606e-002
      -2.7310394269095244e-002 1.1153611580810137e-002
      -2.1171973908932412e-002 -1.9042143910184845e-002
      -3.2503729908503884e-003 1.2739398576470207e-002
      -6.7035998659977242e-003 -7.2415500650587182e-003
      1.8992492230286716e-002 -4.3950820222330416e-003
      3.9049809226687623e-003 1.1134039454017134e-004
      -1.1424628311362964e-003 -7.8115575491206988e-003
      -4.0622909078934746e-002 1.5711455241495826e-002
      -2.1090893284406078e-002 -2.7944731098840710e-002
      2.5489639558984763e-002 -1.1287517928511372e-002
      1.7926325307752664e-002 -2.0249489788110291e-002
      -1.6080907478801511e-002 2.0085136267221956e-002
      5.4722849988877312e-003 2.8833654391187346e-003
      1.4600128819848523e-002 -1.7509779712353186e-002
      2.8155751540814192e-002 -1.9175098559151608e-002
      -9.4081841499036364e-003 -6.7078199785149343e-003
      -2.5574110221475599e-002 2.5753287582430388e-002
      -6.2928833695226798e-003 3.4898837004306439e-002
      -9.8042537599906457e-003 1.3172075908970231e-002
      -1.2068993883629317e-002 2.1032365055653549e-002
      1.1073789209485856e-002 5.4694024333067047e-003
      -2.7333911836489328e-002 -3.4570132654611278e-002
      -1.4972352027962115e-002 1.6039840041410763e-002
      2.2250973763755966e-003 1.2949636643740221e-002
      -2.2414091986520856e-004 2.2493192729313428e-002
      1.4556149431502291e-002 -1.5412689612727761e-002
      -2.0430585697929625e-002 -4.7110575149511887e-003
      3.8372391160722420e-002 -2.2387914284994839e-002
      -2.5588378469266599e-003 1.5307587369627527e-002
      -1.6491084484235509e-002 1.8062150403134459e-002
      -1.8077637699972442e-002 -4.1856033072879543e-002
      5.3002515993210847e-003 -3.0524079211140039e-002
      2.5074527417725489e-002 -2.1490858284125350e-002
      -3.1735480995712335e-002 -7.9255272823948767e-004
      3.5249266763188201e-002 -6.1350709143387309e-003
      -2.2019211272359011e-002 -2.8055120491466773e-002
      2.8123289917641129e-002 1.3288528163786961e-002
      -2.6922760534100372e-002 2.4971623498147324e-002
      -9.8768265684841400e-003 -7.8626847385556298e-003
      -4.3977527978632741e-003 -1.2427695450688407e-002
      -1.5273577116656679e-002 -2.5008985635081634e-002
      -1.5546160124076027e-002 2.7037120605314432e-002
      9.0382703001559098e-003 -1.6610225134506079e-002
      2.8504158668573438e-002 7.8991980969917858e-003
      1.1780772726368868e-002 9.2490201291210421e-003
      8.4164853701153702e-003 -3.6714261554382163e-002
      -1.1846560754617357e-002 1.2047902498246972e-003
      -9.6776250311040018e-003 4.8076909879096089e-002
      2.2499116927857537e-002 3.0833954296518647e-002
      -4.8569517863473445e-002 2.5989963545928045e-003
      -1.8763561690591450e-002 2.2115937676205652e-003
      -7.8724900075204784e-003 2.4277485348945275e-003
      -2.7390357237162585e-002 -3.5921332909078063e-002
      4.5663135804711076e-002 1.6601592414514848e-002
      9.9416916957310742e-003 3.0541351861648283e-003
      -2.2443351188599733e-002 2.6055925440038562e-002
      2.4991755682479376e-003 -2.9352576685017319e-002
      4.3491951414470445e-002 2.0800908889768321e-002
      2.5263591926703781e-003 -1.4867706881745509e-003
      3.7343354469167277e-002 1.0070726306613579e-003
      -1.1556844168920926e-002 -1.2465690354884384e-002
      6.9330653408717175e-003 -1.3010063815767711e-002
      3.0274815699393359e-002 6.7858044718107219e-003
      5.6316066224410988e-002 3.7873469173886299e-003
      -3.6118930088624331e-002 -1.9268154939063920e-002
      5.5704109641455234e-003 -4.4358156183579613e-002
      -1.6971745026039780e-003 9.8303153936788422e-003
      -1.0836599490905625e-005 2.9038191692903784e-002
      -1.7957138431198998e-002 1.0572134518909282e-002
      -7.1265169920036696e-003 3.0668519740333952e-002
      2.0169978628857076e-002 -2.1030948188033874e-002
      1.7115213377664931e-002 2.0397917406318591e-002
      2.0333756509313333e-002 -2.2537432619163560e-002
      -1.9487354885156637e-002 -4.9356541110801441e-002
      4.3858259276952612e-003 1.9582640273975903e-002
      7.8605692150774537e-003 -3.0286652866949051e-002
      2.5698941103334812e-002 5.2672293240370392e-002
      -7.5476264983126984e-003 3.3578340022821719e-003
      2.9698640048173051e-002 -2.2895334335581496e-002
      2.3938236481984152e-002 -2.2434177293074994e-002
      4.0285252751084272e-002 4.8873265270168227e-002
      -7.0209493543211090e-004 -6.5665105729613964e-003
      5.5822300855160774e-003 1.8672689652504189e-002
      1.1501510885557922e-002 -2.5789588619298050e-003
      -1.7957707747013429e-003 3.3650124947584133e-002
      -2.2306331730078895e-002 -6.7623848002052622e-002
      -1.1351402659419401e-002 3.2114180940486479e-002
      -2.8323800045275998e-002 -9.8965493572917163e-004
      1.7224545435156575e-002 -1.5377970094062646e-002
      1.8415657263173235e-002 -5.1553206340317771e-002
      -1.4166268075184618e-002 4.3415324391440338e-004
      7.9197983130552305e-002 2.3397452010428515e-002
      3.7262571992392822e-002 1.0865184432810614e-002
      -1.6011922185601530e-003 4.0923636607515760e-004
      2.2989016141834035e-002 -3.3281684017692119e-003
      -4.0332104830677187e-002 -6.0943807515791780e-002
      3.6701729489005096e-003 -4.7810992647345308e-003
      -1.1036160098205270e-002 -2.6711529042485029e-003
      3.7585507938422455e-002 3.3566567450257760e-002
      -6.4933766391627110e-003 -3.7550625793832525e-002
      1.0196720762534623e-002 -7.6973121879918907e-003
      -3.1379235779162976e-002 2.1612743208078648e-002
      -2.3108768327323982e-002 8.9122571934899496e-003
      2.3838667221542584e-002 -1.3302635713883093e-002
      9.2844078807836072e-003 -2.1820082708037668e-002
      -4.1084792680418737e-002 2.6131248886596584e-002
      3.6837173077143123e-003 -1.6581993872954837e-002
      4.1343147675553103e-002 5.8060771419776698e-003
      7.8094507526160466e-003 4.3625116670036483e-002
      7.2189673348806308e-003 -5.0706181999408705e-002
      7.7083989567111634e-003 -4.9139688280841337e-003
      -4.0435057889879429e-003 5.2824080490007093e-002
      3.1683174054271061e-002 1.9387269925443300e-002
      -3.7430048604671085e-002 3.7640217141676494e-002
      -4.9283610709409675e-003 -5.9876207348262198e-003
      2.0963328569784030e-003 -3.4001861064635153e-002
      -2.0465976641959590e-002 -2.3922092863317347e-002
      2.8452231527613100e-002 3.0750731225350891e-002
      -1.9805634696889839e-004 3.0282448607234679e-002
      -2.2853917712319208e-002 4.8910052839935797e-002
      1.0002136355958894e-002 -1.3767378972251065e-002
      5.8195847199792969e-002 9.9300399013554676e-003
      -1.7236951271354085e-002 -1.9800439799859380e-002
      5.2166460959933575e-002 -5.6703755386650918e-003
      -1.9022613747577743e-002 -4.3639068902968418e-002
      -5.5691447930409895e-003 -2.2838603060300802e-003
      2.9188181379151277e-002 1.1639538542154219e-002
      4.8252764934424153e-002 5.8221992833181824e-003
      -4.4960017672599592e-002 -4.4762313546605099e-002
      1.0412998360641765e-003 -3.5179940410784066e-002
      2.0995600174513766e-003 3.4131809900490036e-002
      -4.3079417860937327e-003 3.7964307369974699e-002
      -3.3833848613222750e-002 -1.2501129550858575e-002
      3.5314949255205751e-003 5.8474609868098375e-002
      4.0326317538087924e-003 -2.0018282629747034e-002
      6.3086795411267304e-003 3.2183167581881647e-003
      2.4659332156287454e-002 -2.0953190795854761e-002
      -4.4567036934359663e-002 -4.8296181308454672e-002
      9.4399063681423602e-004 1.5368744808752669e-002
      1.1051419160005790e-002 -3.2881292959640714e-002
      2.1823315621435184e-002 5.9319876439310373e-002
      -1.2945693337526265e-002 2.4637519886460457e-002
      7.7685681199833410e-003 1.6693645180881955e-002
      1.5831742914924722e-002 -6.9780279386705002e-002
      4.8438498533920848e-002 2.4113694330980023e-002
      1.5288615432389036e-002 1.7948623600961916e-002
      3.9848568289311631e-002 3.4318651342382699e-003
      1.4668313384508523e-002 -3.0147268631442296e-002
      2.1259841307219349e-002 2.3776462067521344e-002
      -5.1829960333827675e-002 -8.9289381868984954e-002
      -6.0584036841811514e-003 5.3209188239704740e-002
      -4.6414072015008759e-002 1.0061721604397927e-002
      2.4847577717387406e-002 -1.5663229356097180e-002
      4.2601184768942760e-003 -7.5364831888331180e-002
      -1.0112445245447292e-002 -1.6950063725225537e-002
      1.0881977651271885e-001 3.4080733929644745e-002
      7.3476388274418450e-002 -5.0410188167571267e-003
      7.3901675281685952e-004 -1.6126770759274683e-002
      5.7328963517887743e-002 1.9437946551857172e-002
      -4.9695083601123326e-002 -8.8421079637296465e-002
      -2.3409728834467017e-002 2.1476283794760864e-002
      -1.2426216028625064e-002 -6.9830011661126661e-003
      4.3882713909675096e-002 5.1644986271827759e-002
      -2.4347701430219814e-002 -6.3301234030190487e-003
      2.5282822703623344e-002 -1.9102209906969748e-002
      -3.3675071330771363e-002 2.1895529831468122e-003
      1.3172001651751430e-003 9.4884397924847944e-003
      4.9084433683237637e-002 9.3258876340795317e-003
      -1.4588462707347462e-003 -1.4905018218838417e-002
      -2.3871480553107154e-002 2.6955880185259729e-002
      -1.6821159094096240e-002 -6.7984044207237892e-003
      3.6672269922043803e-002 2.3443315092692646e-003
      1.2549023968759853e-002 4.8286920924929942e-002
      -9.5793881546515783e-004 -2.7881379798825979e-002
      -2.1440129358725944e-002 2.8559460477264539e-004
      2.1288827122975182e-003 4.6875579285361443e-002
      1.7483043818872286e-002 3.6896390016852854e-002
      -4.4250752210769351e-002 1.9507057011950421e-002
      -5.0566684615669698e-003 7.6652608760929622e-003
      -3.5639202157406819e-002 -1.0152641818215123e-002
      -1.9774550208285363e-002 -1.6678932372015988e-002
      4.2973134342997661e-002 3.1038617435278394e-002
      -1.0409496328256938e-003 1.3793949592298184e-002
      -7.9159681589409080e-003 2.6162405656322857e-002
      8.3116294987921856e-003 -2.4736394426884495e-002
      3.7942513815327754e-002 3.4781596168693908e-003
      3.1328608573161425e-003 -2.3282705640797641e-002
      2.4276584186922329e-002 2.9852415015408813e-003
      -2.1273754913251491e-002 1.0642091225332329e-003
      1.7781261875464617e-002 4.4742602581377411e-003
      2.0308571249850863e-002 1.7112911136851205e-002
      4.9133362356353322e-002 -4.4760581136823446e-003
      -2.6534117022394922e-002 -1.8453492221716876e-002
      -1.2739002115232696e-002 -2.3500944298622817e-002
      -2.6040926271532717e-003 6.0590011574171015e-003
      6.8891182713163015e-003 1.5221514245318698e-002
      -2.0351112780483984e-002 -8.0722677285792813e-003
      -1.8342718361663856e-002 3.2985793412824004e-002
      1.7158020096313224e-002 -2.1046043624356324e-002
      1.7881728687786731e-004 6.5768971177232998e-003
      3.0139936712015408e-002 -2.2913889077636369e-002
      -1.0407000365384523e-002 -3.2538890111760616e-002
      3.1080718193643394e-003 2.0893118317207929e-002
      5.6410280859720847e-003 -1.0015440870778927e-002
      3.1588007083390643e-002 4.5209621639686837e-002
      -6.5817496581271860e-003 3.2427579204132966e-003
      2.1759265258345619e-002 -1.4909600643674777e-002
      1.1024685874058608e-002 -3.1454530833141647e-002
      1.6967501497700682e-002 1.3104945976448980e-002
      1.6340629025021487e-002 -7.2115357323006561e-004
      1.2201948879657316e-002 1.7968965936828129e-002
      3.2904681075132662e-002 -2.2014977377572786e-003
      1.5101765293919730e-002 2.6164638650544792e-002
      -2.0769765208156897e-002 -6.6640481470470983e-002
      -1.2525635849377756e-002 4.4142685662195355e-002
      -2.0294928203539914e-002 -8.6946345712222931e-003
      2.7518344432300782e-002 5.6783456727685653e-003
      1.0400652142604321e-002 -5.7216352717939865e-002
      -2.1524063929447616e-002 -4.5964540284355055e-003
      6.5210357367128227e-002 3.0805247958506560e-002
      4.5211696001275808e-002 1.6798040646342521e-002
      1.5831883197562700e-002 6.7913744317156196e-004
      4.5278875144914001e-002 -4.2628255593635273e-003
      -2.3133957285557099e-002 -4.2190274394367698e-002
      -2.5056567656364756e-002 6.8487756815448610e-003
      -9.5904414475296365e-003 2.7106798937189896e-003
      1.9557067843672463e-002 3.1026269846641356e-002
      -2.5172838613374958e-002 -3.1518433284026206e-004
