<?xml version="1.0"?>
<opencv_storage>
<opencv_ml_ann_mlp>
  <format>3</format>
  <layer_sizes>
    128 256 10</layer_sizes>
  <activation_function>SIGMOID_SYM</activation_function>
  <f_param1>1.</f_param1>
  <f_param2>1.</f_param2>
  <min_val>-9.4999999999999996e-001</min_val>
  <max_val>9.4999999999999996e-001</max_val>
  <min_val1>-9.7999999999999998e-001</min_val1>
  <max_val1>9.7999999999999998e-001</max_val1>
  <training_params>
    <train_method>BACKPROP</train_method>
    <dw_scale>1.0000000000000000e-003</dw_scale>
    <moment_scale>1.0000000000000001e-001</moment_scale>
    <term_criteria>
      <epsilon>1.0000000000000000e-004</epsilon>
      <iterations>10000</iterations></term_criteria></training_params>
  <input_scale>
    5.7484282333730444e-002 -1.2181761868586166e+001
    4.5883557722235846e-002 -9.1564199365924228e+000
    4.1432791975041378e-002 -7.7238582184782745e+000
    4.2501573569663768e-002 -7.5063641210035819e+000
    5.3283590003242981e-002 -9.0653300905948431e+000
    6.6307750632684070e-002 -1.1383268766158052e+001
    4.8750272930830230e-002 -9.2408663906229958e+000
    5.2982833931725981e-002 -1.1109495428632510e+001
    4.6739427917770519e-002 -9.4416867802718372e+000
    3.6130097782212309e-002 -6.6339220057184480e+000
    4.2866462220827961e-002 -7.6210657213153388e+000
    5.5916698726700430e-002 -1.0007353726256824e+001
    6.1110410855922552e-002 -1.0634212435315233e+001
    6.0600379063713253e-002 -9.9334992043704808e+000
    5.5719542769375741e-002 -9.5726654818673467e+000
    5.2152634790864648e-002 -1.0454849868019359e+001
    4.0553649177501032e-002 -7.8296860546916447e+000
    4.1990722704392920e-002 -7.6844832493983199e+000
    5.8287648276791816e-002 -1.1385637875336190e+001
    4.7584906420964732e-002 -9.6246216242348535e+000
    4.2893927989972463e-002 -8.6344737493331980e+000
    4.6229152482533231e-002 -8.7660436286297347e+000
    4.4187284753337844e-002 -7.7952084177916410e+000
    5.0037531486706033e-002 -9.7748749117310290e+000
    3.8975091186600606e-002 -7.3882661218847874e+000
    5.0197892063596705e-002 -9.5296370678250106e+000
    4.7159797896144835e-002 -9.6574728541685495e+000
    4.7420615281227804e-002 -9.9503576401097007e+000
    4.7842833949267298e-002 -1.0086589198821388e+001
    5.1819565917270397e-002 -1.0515574757841264e+001
    4.3541960927367104e-002 -8.0339797613510022e+000
    4.6076881493252446e-002 -8.9492823080269552e+000
    3.6532491292044590e-002 -7.0436847757950289e+000
    4.7152642424503191e-002 -9.2210650655786868e+000
    5.0359552886528144e-002 -1.0404370453172035e+001
    5.4223682524142711e-002 -1.1414459127763241e+001
    5.1658385075907198e-002 -1.0866163168354747e+001
    5.5811694203656226e-002 -1.1325828613924370e+001
    4.3025045146685786e-002 -8.0459059857672077e+000
    4.3120442253900708e-002 -8.4353621703292330e+000
    3.3566012079058329e-002 -6.6436976218341677e+000
    3.9493738959450013e-002 -7.8313360650454245e+000
    4.4214478948106588e-002 -9.0095005202093983e+000
    4.1643601791724535e-002 -8.5086135381538135e+000
    4.3851572393987022e-002 -8.8376417636540356e+000
    5.2429998142207737e-002 -1.0134131063323370e+001
    4.7983873081171982e-002 -8.8616285883045798e+000
    4.4021122654738197e-002 -8.7396728674685793e+000
    3.2799628747440163e-002 -6.5989177219386530e+000
    3.4966318006426841e-002 -6.9406332640101773e+000
    3.6532917126958220e-002 -7.3391166179710821e+000
    4.0035491866798299e-002 -8.0047859785708013e+000
    4.5955709662239032e-002 -8.9186166507525115e+000
    4.3482212076024769e-002 -7.9325049306278981e+000
    4.9611518320804800e-002 -8.9966639305254610e+000
    4.5721327010210304e-002 -9.1993674840767792e+000
    3.5807434701987793e-002 -7.2807318716508158e+000
    3.8373689217552950e-002 -7.6032172261930473e+000
    3.8027756557616928e-002 -7.6896713316327343e+000
    4.0480445660666747e-002 -8.1531805192892559e+000
    3.9638659244442445e-002 -7.6319796111637919e+000
    4.2352666746981529e-002 -7.6038371397067825e+000
    4.9737140430895187e-002 -8.9189840772346809e+000
    4.2095655079240228e-002 -8.3735878717752481e+000
    4.1595272662749011e-002 -8.5447447447388907e+000
    3.3933379662383668e-002 -6.6729698576942464e+000
    3.7458618191132588e-002 -7.6032921949940722e+000
    5.1262781882488499e-002 -1.0567557332754923e+001
    4.6804301577611791e-002 -9.2670499696879212e+000
    4.5961958643277491e-002 -8.5006246286960305e+000
    4.7205163618293258e-002 -8.3783061306485411e+000
    4.1725353746933973e-002 -7.9670246563865561e+000
    4.1563143445417387e-002 -8.5538740725472664e+000
    3.3934863117783702e-002 -6.6893806379007694e+000
    3.7146983307731314e-002 -7.5600835916142382e+000
    3.9559875586434375e-002 -8.1447986264494503e+000
    3.8505755516362400e-002 -7.7727518917628196e+000
    4.9037481585151303e-002 -9.6179833601800588e+000
    4.7142836997704274e-002 -8.6178731646872304e+000
    4.0004127368814146e-002 -7.4032810643495157e+000
    3.8303034654718411e-002 -7.8191682864712320e+000
    3.7405787386496019e-002 -7.4739020444009618e+000
    4.6720612400590625e-002 -9.6751138531423084e+000
    3.9912575702392115e-002 -8.2553313583614116e+000
    4.5988148635701491e-002 -9.5336603718266826e+000
    5.0152279931871560e-002 -1.0232059504755620e+001
    4.5885755758895877e-002 -8.6090775841468439e+000
    3.9006964592250851e-002 -7.1573072289674347e+000
    3.8416074869410032e-002 -7.7635906753544699e+000
    3.8526261335640716e-002 -7.6184353299459318e+000
    4.3762308457948700e-002 -9.0257120365560528e+000
    4.3289364797963734e-002 -9.0487460689840162e+000
    4.6944806775185546e-002 -9.8935775582093406e+000
    4.5305145458388825e-002 -9.2940771976693224e+000
    4.4552134375046584e-002 -8.3782593113018642e+000
    3.9220308930686759e-002 -7.1996991588950854e+000
    4.5218177589256295e-002 -9.1440120758618928e+000
    4.1826299518505423e-002 -8.0011908121163007e+000
    4.4588190945388448e-002 -8.9557687799551253e+000
    5.0499464109631104e-002 -1.0611678770264861e+001
    4.9968130646076914e-002 -1.0554346091818816e+001
    4.6502685088786883e-002 -9.4185977139526162e+000
    4.4670096035973141e-002 -8.2720545943856827e+000
    4.0510567358180954e-002 -7.5529508236125737e+000
    5.1723143378675875e-002 -1.0528335012562886e+001
    3.8393462382647167e-002 -7.0427511090982424e+000
    4.1735910710235399e-002 -7.9292113879774204e+000
    5.5869147021930507e-002 -1.1454090237593528e+001
    7.1355375838404483e-002 -1.4738698932442579e+001
    5.3384407562525910e-002 -1.0325602906535561e+001
    4.4058503577843425e-002 -7.8964612666761909e+000
    4.7057454472836185e-002 -9.0955568812616789e+000
    5.4448831153889973e-002 -1.1376191435301928e+001
    3.9448441430878438e-002 -7.3872647743655167e+000
    3.7993538135601565e-002 -6.7569869921661532e+000
    4.2626320526218703e-002 -7.7774661546329202e+000
    5.5270003386932713e-002 -1.0135470396961294e+001
    5.0721792539602031e-002 -8.8538824189365499e+000
    4.5080897079808585e-002 -8.0314727175063805e+000
    5.8943565483242387e-002 -1.2007007542610554e+001
    6.0062041494512414e-002 -1.2953518355975119e+001
    4.8771084625391273e-002 -9.9199545247276451e+000
    4.6295123084451620e-002 -8.7410779725885899e+000
    4.1084005202201179e-002 -7.3306261316779295e+000
    4.3288923650533155e-002 -7.6050802066084504e+000
    4.6980923852399749e-002 -8.3891729681816152e+000
    4.5250613413554616e-002 -8.7790090937245395e+000
    5.5722623328030144e-002 -1.1870792201896105e+001</input_scale>
  <output_scale>
    5.2631578947368418e-001 4.9999999999999994e-001
    5.2631578947368418e-001 4.9999999999999994e-001
    5.2631578947368418e-001 4.9999999999999994e-001
    5.2631578947368418e-001 4.9999999999999994e-001
    5.2631578947368418e-001 4.9999999999999994e-001
    5.2631578947368418e-001 4.9999999999999994e-001
    5.2631578947368418e-001 4.9999999999999994e-001
    5.2631578947368418e-001 4.9999999999999994e-001
    5.2631578947368418e-001 4.9999999999999994e-001
    5.2631578947368418e-001 4.9999999999999994e-001</output_scale>
  <inv_output_scale>
    1.8999999999999999e+000 -9.4999999999999996e-001
    1.8999999999999999e+000 -9.4999999999999996e-001
    1.8999999999999999e+000 -9.4999999999999996e-001
    1.8999999999999999e+000 -9.4999999999999996e-001
    1.8999999999999999e+000 -9.4999999999999996e-001
    1.8999999999999999e+000 -9.4999999999999996e-001
    1.8999999999999999e+000 -9.4999999999999996e-001
    1.8999999999999999e+000 -9.4999999999999996e-001
    1.8999999999999999e+000 -9.4999999999999996e-001
    1.8999999999999999e+000 -9.4999999999999996e-001</inv_output_scale>
  <weights>
    <_>
      1.2814641735123040e-002 9.0294881470539337e-003
      -4.5305054667111209e-003 5.3115540895519074e-004
      -7.2661617662167768e-003 -1.0093065160187500e-002
      -2.4026890196475404e-002 -9.5911079918198534e-004
      -4.7700956326934951e-003 -1.0011768516367307e-002
      3.6551761972812707e-003 -6.8913265237307711e-003
      8.9960495244210681e-003 -1.0709118689976345e-002
      -6.4928465227959567e-003 -1.7696118992111678e-002
      7.1744925025888613e-003 1.4175820874043685e-002
      4.9911139029123319e-003 -7.3910186128699424e-003
      7.6688214631176026e-003 -2.5015901459723021e-003
      2.7945263857761957e-002 -8.9842665979337349e-003
      -1.0852774272967597e-002 -1.5941069644820147e-002
      2.1039337856511239e-002 1.3774625668298462e-002
      2.7734747767018002e-002 2.3807248734239814e-002
      5.4175680763696148e-003 4.9649530231007698e-003
      -2.4918830891163296e-003 5.6460157406809626e-003
      -3.8007230407015574e-003 -4.0659263754171263e-003
      -2.0630640847256732e-002 -1.6891628482189989e-003
      5.6411080886080065e-004 -1.9387420468589767e-002
      4.9147591103426928e-003 -1.3047269815864005e-002
      7.2332428487367727e-003 -1.1462751945300914e-002
      3.8383956030042807e-003 2.2797003651424670e-003
      -1.8127889241859298e-002 -1.7756746048059158e-002
      -3.2698292811549246e-003 2.0469583403984132e-003
      4.3784978953057630e-003 -6.7209151590954747e-003
      -7.0327005123017802e-003 2.6386014996262045e-003
      8.3036296831522412e-003 1.8303473676389105e-002
      -8.4707087178043257e-004 -1.4866414445339588e-003
      -8.0936344132127493e-003 2.8647806957343071e-002
      1.5839099368224707e-002 -8.6085646165347512e-003
      2.4853712871033870e-002 8.6142162895915513e-003
      7.9184335891004775e-003 -1.6093502670582068e-002
      1.6495953177537300e-003 -1.5207117451769583e-002
      -1.3831838702409432e-003 1.8981306873433097e-002
      7.7347045073005907e-003 -1.3729758044073195e-002
      2.5765226473187505e-002 8.9985768102907558e-003
      -2.3968748106458293e-003 1.0814771620701749e-003
      -2.4287670231441490e-003 -2.0778105222746708e-003
      -9.0578149111545450e-003 2.7592592077646378e-002
      -1.5572375620235016e-002 -1.2117180321752153e-002
      6.9852902601218684e-003 7.8180007096993031e-003
      -1.5378048792442488e-003 -1.8739322696495433e-002
      -5.1343793820629573e-003 -1.5456526463008543e-002
      -6.0903454322893075e-004 -9.0090733855046554e-003
      -2.1801781939687882e-002 -9.5138092447166339e-003
      -2.0457252516922236e-002 1.7966092565939625e-002
      -1.8705570937565651e-002 2.1449293281989124e-002
      4.2035631651684202e-003 -1.9729813938854920e-002
      -1.1751610154512997e-002 5.0118745056725962e-003
      -9.9746457473967988e-004 -1.9830875568814846e-003
      1.5392771941659458e-002 7.8377924821341049e-003
      -9.3803525873099348e-003 -1.7282618918136219e-002
      -5.0892872229978750e-003 -1.3151727526156599e-002
      -2.6606785340027635e-002 1.1913931417787056e-002
      -9.9492507403788136e-003 -5.9420108021873913e-004
      -2.4179131803553685e-003 5.6631709274491638e-003
      -1.7288650167353727e-002 6.1684528249312826e-003
      -6.2329256459188725e-003 -3.8003064468326814e-003
      2.4827638695694813e-002 1.0742566194443689e-002
      1.4362655421762892e-002 1.6231347862701484e-003
      5.1394108325357110e-003 -1.2891802067573354e-002
      -1.7848400616994088e-002 1.9194660195402745e-002
      5.4162852806139208e-003 -2.3631260952045985e-002
      -9.1490929728971129e-003 3.3184797006691625e-004
      3.5284380804718558e-003 -8.0101111240991896e-003
      2.5266658208595631e-002 8.1665507092034610e-004
      1.3512122375932675e-002 -1.4460287551756285e-002
      -4.5232450418248487e-003 1.0963516119137725e-002
      -1.6622350797726906e-002 3.0470077799109548e-003
      8.7539269602867394e-003 -1.5297451322864405e-002
      -1.3121788680131226e-002 1.3207171109404706e-002
      6.5247885484686187e-003 -1.7591010616319087e-002
      7.9686381637869303e-003 -3.1140858884310717e-003
      5.9541870218968642e-003 -2.5674062589005155e-002
      -1.1671935513479796e-002 3.0175342793385112e-002
      -1.2355922702067645e-002 -1.0139128475911002e-002
      1.6023008544336543e-002 -1.6931824512015518e-002
      6.2488466744235272e-003 -1.5776992195452831e-002
      -3.2735264726089598e-002 7.9638537055716540e-004
      1.1756283073447570e-002 1.3705126666730748e-003
      -2.4569801265721052e-002 7.8944882737182857e-003
      4.7729011587928100e-003 1.8846904936987133e-003
      -8.7001569148984563e-005 -1.5990120192461554e-002
      8.1829183340141349e-003 -2.8883952697274666e-002
      -2.8678606445000643e-002 -2.4550142964975506e-002
      -5.9707787580235599e-004 -3.0655302543703539e-002
      -4.4835630260033482e-003 4.4321127255673412e-004
      1.9753635933129600e-002 2.8139834532128788e-002
      2.4765187521731818e-003 5.8865985771377012e-003
      -1.2070406619800508e-002 1.5780946463092797e-002
      1.0370372902382945e-002 -8.3932945854354075e-003
      -7.7358020373053281e-003 1.5139923480724137e-002
      3.3117365940775884e-002 -2.1153785551164567e-002
      2.8929791217380728e-002 -1.1944884390320700e-002
      1.7356284477796937e-002 2.7778492959377062e-002
      -2.8343040125216816e-002 -1.3588851838127970e-003
      -1.1452829885272287e-002 1.9458817033341576e-002
      -1.0078107892504701e-002 6.5333904378453806e-003
      -4.5731711457292377e-003 2.3442414274987024e-002
      2.4860993763628270e-003 7.8791510561400518e-003
      1.8104743589248087e-002 2.4797415368379684e-002
      -1.2117239857543819e-002 2.1719801629068707e-002
      -1.1747077944144313e-002 -7.4164754059439242e-005
      3.8158827691091263e-003 4.0852818211046396e-003
      3.4668441653280427e-003 1.7474701412622248e-002
      2.4176929763011961e-003 1.7244519925098060e-002
      3.1446547559535660e-003 -2.1439778815524977e-002
      1.5887233328362380e-002 3.6519292405163641e-003
      1.3185011987412868e-002 4.5348431902908978e-003
      -4.5767533228061267e-003 -8.9662042565695401e-003
      -3.5011920501792602e-002 -1.8988782783073897e-002
      -3.0192413819808184e-002 8.2341299467234147e-003
      -3.4121690169503116e-002 -1.8432358554910180e-002
      -7.4521970377234865e-003 1.0528194340183001e-002
      -1.1391523599036142e-002 8.7718147535575924e-003
      -1.9753521039282750e-002 -1.2154866726813778e-002
      1.1402129558207231e-002 3.6533393371471052e-003
      -5.2914734890728305e-003 -1.9517902075401165e-002
      3.2989650560917268e-003 -1.2682803250450086e-003
      1.9789592733531042e-003 6.1170402122999856e-003
      2.5087471374433911e-002 -5.1989578572860925e-003
      -2.1547697491176828e-003 1.8002414024566097e-002
      1.6598267710974585e-002 -5.6606419173411201e-004
      -5.1847259217902494e-003 -1.8341090933785332e-003
      8.5946869170094135e-003 -3.8114734162661501e-003
      -6.1470036590691116e-003 1.7185773655125029e-002
      -1.0278673548560669e-002 1.6309802721133086e-002
      6.2151663958389764e-003 3.4798228022050143e-003
      8.3466632234172455e-003 3.3844223693962161e-003
      3.8623568498147142e-003 1.5323681888022321e-002
      -5.3082296454263567e-003 3.8952050515635534e-003
      -9.5174659788415834e-003 7.6903793539382908e-003
      1.6264214055783904e-002 5.0682746693155598e-003
      1.9874128142896439e-002 -4.2508897702135231e-003
      -6.6670082258969404e-003 1.2349251681998023e-002
      -8.5898446915478010e-005 -9.5483572633932277e-003
      4.0332873309805442e-003 4.2366524338544312e-003
      1.0451357071711341e-002 -1.2276994897836944e-004
      2.5822291637455854e-003 8.1410918309116082e-003
      7.2310643303259625e-003 -4.9318614038934908e-003
      1.7266629783065986e-002 4.1131283346632951e-003
      1.2008881222005283e-002 -8.3672808946928020e-003
      9.7030711439958818e-003 -5.7781054034333644e-003
      -3.4539974083429492e-003 -1.8517638327769932e-002
      4.8332491262553876e-004 -7.5597163067181797e-003
      2.9551109078710053e-004 -2.9239751031335439e-003
      9.0194678766993570e-003 -1.4991149425168116e-002
      -3.9007765251207632e-003 -5.2869200439355198e-003
      1.1585472096563411e-003 8.2310923157172711e-004
      8.3122535099124523e-005 -5.5126765856739106e-003
      4.1243257341456122e-003 -7.7385991026400307e-003
      -1.0327405339627236e-002 -5.4012982742146750e-003
      -7.6318630615352222e-003 -4.9991579821287123e-003
      -4.7321369867168997e-003 5.4996859066391629e-003
      -1.1627139481387083e-002 1.9932086033583690e-002
      -7.0111871796039518e-003 1.6542132512795033e-002
      -4.9355121163135911e-003 1.7191330912354818e-002
      -1.3284871451980601e-002 1.9728166725898322e-002
      -8.7477577845631836e-003 -1.1347052420137355e-002
      -1.1564257363824301e-003 6.5503863066525957e-003
      9.2114185661398024e-003 -1.1719732122876572e-002
      1.6221991256167700e-002 -8.9176958497234650e-003
      2.2209191439361295e-003 4.0036723310591573e-003
      -8.9849164674453037e-003 1.0071200556111838e-002
      -8.3723525297189662e-003 6.0822938045778305e-003
      7.9399262748128530e-003 -1.3573459976232249e-002
      -1.4277997479484810e-002 7.0927736596036435e-003
      -1.2445526264532693e-002 1.4631500805288643e-003
      1.0642542454230396e-002 -1.0835395044968820e-002
      -1.3379889590089318e-002 -1.5421601617654674e-002
      4.0762244272159326e-003 1.2896807813336211e-002
      5.2118968321882573e-003 -5.2483379330589656e-003
      -9.4482984071303760e-004 -1.1648087721878250e-002
      -1.3762246060171100e-002 9.6589072568949042e-003
      3.1853606554516122e-003 2.4508920931318413e-003
      5.7846709032342040e-003 1.4128243164025793e-003
      1.1134011846019316e-002 -1.1000275909026131e-002
      -3.2961265311737152e-003 9.3440887843335395e-003
      -8.8700535571357708e-003 7.1554390141752048e-003
      -1.9729898685499299e-002 -2.3037777736649920e-002
      -3.2743723612474137e-004 5.2642757470972969e-003
      6.1779430214090837e-003 6.6136307272992153e-003
      -1.1946043750924853e-002 -1.0896644776674513e-002
      2.5559362986064501e-004 -9.6909651406681570e-003
      -1.1099734759304791e-002 1.0088403644297472e-002
      -5.4617739043552006e-003 -6.6266012915405436e-003
      -4.1565436042081891e-003 -1.2559212298179545e-002
      -2.1562284979533106e-003 7.9798034651553558e-003
      1.6193998245072661e-002 -1.0762272762393109e-002
      -7.0611487222816674e-003 8.6500234777376790e-003
      -3.6287327052287469e-003 -2.0916503116078563e-002
      -1.4885279519317920e-002 5.3882229612993724e-003
      -1.3526662356600828e-003 1.7812786225531969e-002
      -3.1947115408383145e-003 6.0074721509166306e-003
      4.3948193773683743e-004 -5.4416102916018515e-004
      -5.6142255323517283e-003 -7.9936858572647439e-003
      3.1455483746683612e-003 1.6649659886489376e-002
      -4.0046837590056493e-003 3.1059740123792270e-003
      1.8491300206013685e-003 1.4388931553280242e-002
      -1.2232164493355350e-003 -5.4179442505407306e-003
      1.1830913229344476e-002 6.0651741609203417e-003
      1.2453761375092210e-002 -1.5641533037078617e-002
      6.6681906198951856e-003 4.4707979876893534e-003
      -6.5314825922997014e-003 -9.2654908283973519e-003
      1.1834963264900101e-002 -9.3366296668454894e-003
      -3.3866035776001233e-003 -1.0551440775977371e-002
      2.2013234076086728e-003 1.2355130202125824e-002
      5.3447753215011343e-003 -1.0285301240333748e-002
      8.1224845966861338e-003 7.2457090481823196e-003
      8.7401067527606308e-003 4.5148225244353180e-003
      -9.6919865795172273e-003 5.9780811806894023e-003
      6.9092328586896727e-003 -2.0894223428510168e-002
      1.4522978435453141e-003 -1.6413657803207277e-002
      -4.9319912821573853e-003 -2.0669301490784137e-002
      1.6096637933937057e-002 9.0084505244028227e-003
      1.0704850708621188e-002 1.6972085199662919e-002
      2.1706950866459064e-003 -1.0146255144166835e-002
      -1.0746998364832191e-002 -2.3403414074975315e-003
      9.8966121195902083e-003 1.2416181530921560e-002
      -5.8859888538856835e-003 2.5532387457065839e-003
      1.0073787150154296e-002 3.5322664377438698e-003
      7.1099983765473950e-003 5.0523697933120074e-003
      -9.2172345237800674e-003 1.2654612769687468e-003
      -8.8542986613947673e-004 7.7037329070430063e-003
      1.5038554554912665e-002 1.0248191998830269e-002
      -3.3171786499438367e-004 9.0953504421636012e-003
      8.4791020437779835e-003 -2.6856630352500968e-004
      1.4578663327421623e-002 1.4583382764154001e-002
      1.5673065227046496e-002 1.1740015320005272e-002
      2.1857680154193618e-003 1.3726482611940359e-002
      -4.1439670503191231e-003 1.0851691771390188e-002
      -5.6821472646864761e-003 9.6371053274697249e-003
      -4.6569999263181500e-003 -1.2736886665436997e-002
      -3.3857398354381466e-003 -3.0891718164484974e-004
      1.0028761529765045e-002 -4.5085309699859884e-003
      1.8507300602358310e-002 -3.8823425850713763e-003
      1.5941407048744523e-002 1.2286953809368996e-003
      6.9402887960173573e-003 -1.9532866031696712e-003
      -4.2540579943931003e-003 2.2973396931258664e-003
      -8.8173063299615377e-003 -6.7412058476446651e-004
      3.3493179414693900e-003 -1.5601670408241246e-003
      -8.1193347651830668e-003 -1.3031989499522745e-002
      -7.2050509603755293e-003 1.7404346872621154e-003
      4.3597371654642931e-003 -9.7261827991102761e-003
      8.2987845246051874e-003 -1.0625321054562794e-002
      -1.0927179763528463e-002 1.4990096717834462e-002
      5.0523099613909864e-003 1.6368120892861261e-002
      7.4861798683294048e-003 6.7058550224388764e-003
      1.0698570241705434e-002 8.6087775254919622e-003
      4.5871857215853848e-004 2.0783813107138532e-002
      -2.0387098122003348e-002 4.6332155677126516e-003
      -1.4609296496700527e-002 -1.2039640088679760e-002
      -7.9756083198930256e-003 3.2768215636568509e-003
      -4.6220072945988731e-003 -1.0107654541987242e-002
      -1.8468508771691469e-002 8.5096529089072771e-003
      -1.6803877103545774e-002 4.9619990636114095e-003
      1.1869522680596429e-002 1.2318802742086868e-002
      -1.6216109305984547e-003 -2.0487372416823597e-002
      1.5116195046573038e-002 9.5801994128742150e-003
      1.5982337204022715e-002 -2.1573218995373615e-002
      -2.8320950849269693e-004 1.5286091068149623e-002
      -1.3873284137730155e-002 6.4684302329607018e-004
      1.7201852623904647e-002 1.2644763101931286e-002
      -1.2954991724109622e-002 -3.7401622702677752e-003
      -1.0209670898595251e-002 1.2798097944020932e-002
      -1.5583350119374277e-003 -1.3538186421895125e-002
      1.0280253826599540e-003 -2.1412645085014954e-002
      -9.7438826952303877e-003 1.5205586310099309e-002
      -8.1633910607593202e-003 9.8769490221766367e-003
      9.1427430433864930e-004 -7.6888232915187805e-003
      -1.3847414385489946e-002 -4.0857907539139458e-003
      2.3164606137500545e-003 -4.5959167107077334e-003
      8.1922473013152557e-004 -8.9769192731930392e-003
      -3.8509997004296005e-003 -6.4834817395899207e-003
      1.5482301082057059e-002 -8.1618401358548795e-003
      6.8245953224286655e-003 9.6818609746829893e-003
      9.0612153513312983e-003 6.9725053616942929e-003
      1.1727687771743401e-002 3.9424979751062324e-003
      -1.2922946267556249e-004 4.1438203531983932e-004
      1.3794320586948417e-002 9.3801140779022261e-005
      1.4321044400631798e-002 1.9504170976400056e-002
      4.1718643880641156e-004 2.4636847730115955e-003
      -1.3075441439969271e-002 1.0375329945189707e-002
      -4.8551734699363728e-003 4.3264414070419378e-003
      6.6685528662954498e-003 7.1590372677804758e-003
      8.1256875968486204e-003 1.9693806702926852e-003
      2.3965807241072253e-004 -8.0500785460150374e-003
      9.9485731694537866e-003 5.5197175792519983e-003
      2.9998110710011648e-003 6.5035970264437550e-003
      -4.9940408540051365e-003 -7.4111998623145733e-003
      -2.0867830401036430e-002 -7.4452129116035805e-003
      -1.5371050384254396e-002 8.7017260308224157e-003
      2.3797347637026598e-002 -1.5217766094848085e-002
      1.3666464714651952e-002 -1.0928604668818970e-002
      2.9833164902092740e-003 -1.4063268770164601e-002
      -4.1005462473873737e-003 1.3787620284596703e-003
      8.1644813132978160e-003 2.4098695804839446e-003
      -1.0188019320491487e-002 -4.2698424996190261e-003
      8.2704650223473265e-004 6.1999990423176532e-003
      7.3392165949591531e-003 -1.7262694932369145e-003
      -9.9748035705154534e-003 6.3967280077893516e-003
      3.4217317396586524e-004 -1.1712912259880493e-002
      8.1357824196032571e-004 -6.5326259718762767e-003
      -8.5387051976050759e-004 -3.6394903293503525e-003
      -3.5291317205319609e-003 -1.2507667360712032e-002
      -8.2698887507246382e-003 1.2169772705597891e-002
      3.0190102514626839e-003 -1.2698781436768065e-002
      3.5970895105615179e-003 -1.2141235872416883e-004
      -4.3859983238335020e-003 1.2681706283721346e-002
      1.0822678783312252e-002 -9.0951916755655522e-003
      6.7922355975148134e-003 -6.0556671985451073e-003
      1.8565500151954680e-002 -4.8584446805456146e-003
      2.6458707826715849e-003 3.9688053512316494e-003
      7.3509750922108449e-003 1.3360287067689014e-002
      1.1037141254849180e-002 1.6118239718878494e-002
      1.3447087546502295e-002 1.4618485732925788e-002
      -1.2195009249562431e-002 4.0345946982585541e-004
      -7.9380993443380586e-003 -2.4213293446299728e-003
      4.1149622751173618e-003 7.0015357228035507e-004
      9.0336305807515809e-005 1.0263594810254279e-002
      -4.7613955285715596e-003 1.8048160010523601e-003
      -5.2604391576041186e-003 1.6218411601610465e-002
      -1.2669693274887539e-002 -6.2559359712235840e-003
      -1.2378557646794967e-002 3.0085686781459640e-004
      4.2600524365870055e-003 1.7329903094332594e-003
      -5.3380474147406362e-003 1.4859552683514873e-002
      1.0311226771972149e-002 -4.1574992304765678e-003
      -1.3346547417466178e-002 1.7735933592236967e-002
      -1.0118272599884877e-002 -7.4946042812313084e-003
      4.4972269480384949e-003 8.7695257564243227e-003
      -6.5978664903312339e-003 8.2259655027088156e-003
      -1.3019172329141031e-002 7.3213847590108821e-003
      1.1004502588284795e-002 8.8348849576127091e-003
      -1.0841643048346823e-003 5.8032814729680506e-003
      1.6457900657415574e-002 1.2888297071690313e-002
      4.3351937873075969e-003 1.3896182066205961e-003
      -5.2066356826078637e-003 -3.4771378894615668e-003
      -1.5662864979385776e-002 -3.6577141438616929e-004
      -1.8002646890292323e-003 -7.3417449224486096e-003
      -3.9282264237743263e-003 3.6578380601485685e-003
      -5.1744298719134307e-003 1.3407432550988288e-002
      1.0861300604431846e-002 -1.3209821679293059e-002
      6.1875920599211995e-003 7.1787370583220904e-003
      -1.8146859549646736e-002 2.9445520567571485e-003
      7.6900248691956150e-003 -9.9244163089580260e-003
      1.7281416446415926e-002 -1.0391322652282237e-002
      -1.1265184031937214e-003 -1.1266872613197559e-002
      -1.4259852110005874e-002 -2.0510921896143220e-002
      -1.3048654298330969e-002 2.7739687197458878e-003
      -1.2256288814061480e-003 -7.5121525868317388e-003
      4.2892229692007280e-003 -6.1639318299052765e-003
      -8.8432298834149048e-003 9.6386737625465194e-003
      2.9139012346172089e-003 -1.9140733949604234e-003
      9.8877795626178527e-003 4.6017458224769520e-003
      -7.8177460852248432e-003 2.6749803253401541e-003
      1.2663041222561190e-002 -6.4227803748300961e-003
      9.9193215469001519e-003 -1.3446475208063488e-002
      -1.0042518630644487e-003 8.1859573351022903e-003
      -1.6526211766314823e-002 8.7693860626688602e-003
      -6.2479189954851768e-004 4.3825221376276018e-003
      -6.6335223810296334e-003 -3.5841949733570219e-003
      -6.0433036382657335e-003 -1.2053075922439437e-002
      5.0136793781643341e-003 -2.7434188895258220e-003
      1.3047051651195415e-004 -8.4046368348418068e-003
      -2.8886704881876378e-003 -4.6275460191268544e-003
      1.9289923749898356e-002 8.9244047190609166e-004
      2.1818455514464707e-002 -5.3422337306426012e-003
      2.5972925828475170e-003 -1.0036741631425070e-002
      -2.7351857032659454e-004 2.2434821718110235e-002
      2.2762141695553966e-003 -6.6051429239107453e-003
      3.2173398243313563e-003 1.8284971343129027e-003
      -1.4745725540435551e-003 1.8562463755191185e-002
      2.7505823564735830e-003 3.4520339087188265e-003
      -1.5585189683026976e-002 1.5602311424594562e-002
      -1.3121967512230256e-002 8.7604682905737408e-003
      3.0350060023538877e-003 -1.5959928134156563e-002
      -1.7884158842119618e-002 1.1433622148811055e-002
      -2.9626953053695933e-003 4.2906466262553960e-003
      -7.5811335533792741e-004 1.4185915639100110e-003
      -1.6385031921305679e-002 7.9329643041869471e-003
      9.8512224771991758e-003 1.2086082048168660e-002
      1.1371611774146298e-002 3.4830351521046659e-003
      -7.5094007349789805e-004 -7.3135521187242813e-003
      -1.7938655460650828e-002 1.0044841955908655e-002
      5.5285079976530984e-003 1.4473929346128483e-002
      -1.0751639721760818e-002 -1.8170362375448592e-003
      2.1909593996569674e-003 4.7240620209690080e-003
      -2.2497197947094739e-003 -2.8827333470395972e-004
      -6.4855988427382867e-003 -5.6547591053051228e-003
      -1.0409071101222552e-002 8.5111200410929895e-005
      1.7081411693777034e-002 -1.7993874664003665e-002
      1.1266696184968616e-002 3.8576308645990741e-003
      -5.9357417617394749e-003 3.4798361578360902e-003
      -1.0651247139505967e-002 7.8268982078687540e-003
      -1.3051874348510172e-002 -2.0774511343627134e-003
      -1.1812201059585093e-002 -5.9829106386933570e-003
      2.0649181567275559e-002 -6.4778184518023583e-003
      -3.2961154567833282e-003 5.8029376180436841e-003
      2.4848641455870995e-003 1.4567629926002201e-002
      1.3463956772198351e-002 -1.2644716270563246e-002
      6.5753355011051919e-003 2.0465341502232674e-002
      -1.5297402668426580e-002 1.5468090291703240e-002
      -2.8534233183241681e-003 -3.0194812359327920e-003
      -8.7356501669169501e-003 1.4594600148580439e-003
      1.0967484927298137e-002 1.2388317330508899e-002
      1.2815895006720332e-002 -3.4226183919041650e-003
      2.8255767443058099e-003 1.6691774754266670e-003
      -1.3065235714444390e-002 1.3187155654183935e-002
      1.5666040756439282e-002 -6.6720540818983598e-003
      1.4076516800567689e-002 -1.1591059193774486e-003
      -2.3080487337885584e-002 -9.7856810897995732e-003
      1.1219150474313393e-002 -8.6420215174464517e-003
      -4.6684049996314168e-003 -8.0054839339966967e-003
      1.1503845112797822e-002 -7.8861014510573843e-004
      -8.8540408808629402e-004 2.0939988995281561e-003
      2.3549843064083142e-003 -4.6593286687665594e-003
      7.0284161908634657e-003 -1.8177708228112648e-002
      8.2501734826067839e-003 3.3347786585090568e-003
      4.0206075039225034e-003 -1.7761052251002971e-002
      -5.1783701120745431e-003 -1.0432998651889180e-002
      1.8941453609552031e-002 1.7113093215333580e-002
      4.7018477817859210e-003 -1.2376297495925106e-002
      1.5159412599283903e-002 -7.4206106270708876e-003
      7.7284186076017987e-003 2.2996961158115482e-002
      -9.1830300090526788e-003 5.0486644991975236e-004
      -9.1587362593930320e-003 -8.7969147659742435e-003
      1.0291121658097832e-002 -5.3004945289248902e-004
      8.9103662947860630e-003 -3.4003718113583999e-003
      9.5364662172646684e-003 1.1621114160814960e-002
      2.4590237418826950e-002 1.1129971291440961e-002
      1.9297974461428932e-002 1.8829385919594325e-002
      -4.7151153570316132e-003 -3.4495229997096657e-003
      1.3565348438558479e-002 -7.3755543347486649e-003
      -1.2621793868149283e-002 -3.6552307180841388e-003
      -2.0879613779679501e-003 5.5228405092181054e-003
      1.4221197241436246e-002 1.0607655886806283e-002
      -1.0987408367575656e-002 -4.4851704796826809e-003
      1.2356275408408651e-002 -2.1425012799031397e-002
      1.8806079504160092e-002 1.2591281087683785e-002
      1.5319824391491389e-002 -2.2165002861159106e-003
      -1.6714099556123310e-002 -8.3038344072071946e-003
      1.4208372587067003e-002 -8.3170811059253020e-003
      -1.0964902625274458e-002 9.3684046828649021e-003
      4.7728415517811823e-003 -3.4070092215135583e-003
      5.1471295063443131e-003 1.5756458333443614e-002
      1.1940139960435605e-002 -1.0305276495163879e-002
      -1.4506696099804175e-002 -4.2668553238276712e-003
      -1.1015544091432260e-002 2.6250512712369090e-003
      4.7216342800265564e-003 -9.4396642725467949e-006
      -1.7320295033906592e-003 1.5243402245270994e-002
      1.3679946872184184e-002 -3.0324363082048144e-003
      1.7631364599339807e-002 -3.4708139018603312e-004
      -7.7842900714705982e-004 -1.7561400531960873e-002
      -7.3562533430604491e-003 5.2886227482142724e-003
      -2.7019412982297983e-003 7.7137477211988558e-003
      -3.7807338381073037e-003 -3.8473689424309721e-003
      -8.4195892971685056e-004 7.7380072976412006e-003
      2.3753161473101768e-003 -6.8250919001007363e-003
      -6.2998706519430030e-003 -1.0107613070198480e-002
      -7.4224766546695103e-003 -5.7685487891197106e-003
      -7.5873104135763718e-003 1.1292072570337977e-002
      -6.5884661714355462e-004 -1.2007728499181159e-002
      -4.7011318522045221e-003 -4.8009615445299284e-003
      -1.1087963855200007e-002 1.4559858028847229e-002
      2.1768970918400389e-002 6.7240464283982839e-004
      1.5974432654787776e-002 1.2588577645184564e-002
      4.1321157669721720e-003 1.7427077242528871e-002
      -6.1480519105158067e-003 -9.1103510009812837e-003
      2.0950352748768709e-002 -5.2611825677984633e-003
      1.4044240287467254e-002 -1.5054792771972973e-002
      9.7966867934393808e-003 1.0918940969370015e-002
      5.9434417334676241e-003 -1.9405432189715263e-003
      1.0138295368384025e-002 6.1087675626837062e-004
      1.0327763103783576e-002 -8.3935138331194224e-003
      1.0736690936421456e-002 4.3974953650484823e-003
      -2.1421081688385193e-004 -1.3937066742920319e-002
      -5.1167004937486210e-003 -9.6473308761525593e-003
      1.8699338857100380e-002 8.8407216344342388e-003
      2.3925015853285931e-005 -1.5346375288212486e-002
      -8.5312815156638345e-003 1.4823921373347726e-002
      5.5816831094368774e-004 5.2767034980222994e-003
      -1.8540875827404832e-003 -1.7737724910267441e-002
      3.6474888110090680e-003 1.4156618266266215e-002
      6.0684282808195428e-003 3.5276411522388302e-003
      6.9804692831409131e-003 3.1070299580000305e-004
      -1.5012691702029313e-002 -1.2255160665617115e-003
      -2.0497880145799573e-002 1.0673690516362378e-002
      1.4803468120590760e-002 2.4149408235784681e-004
      -1.0645363163161684e-002 6.0582283092944298e-004
      -1.0795791589345349e-002 5.2054580598331996e-003
      -1.4832432740496324e-002 -1.2333454262688977e-002
      4.7077918967674947e-003 1.8857032491148370e-006
      7.3334114441928457e-004 7.0937702536550970e-003
      -1.3538816432161274e-002 -1.2250681799757789e-002
      2.3090780748037092e-002 -7.2435994470047328e-004
      -6.3140460586422380e-003 1.4182239613063908e-002
      1.1000541207210699e-002 -1.5417714389580797e-003
      -1.8838211182747349e-002 -4.4554789512089047e-003
      1.3689854167877989e-002 -7.9525332958733886e-004
      -1.6614122787646168e-003 -5.6445950352021377e-003
      -1.2255147576221754e-002 2.5892687493192960e-002
      1.5997360105987998e-002 -1.3110312286452271e-002
      5.5019410850289125e-003 -8.6790898409208899e-004
      -5.1789828807289363e-003 -2.3784134804030986e-003
      1.8732757113064984e-002 -8.3502970973170949e-003
      -1.0114605092139562e-002 -3.8638813662696335e-003
      -2.7757230767716661e-005 5.3792908656060661e-003
      6.5049779370033624e-003 -6.7811232617326269e-003
      2.0930482717806290e-002 -2.6122871047665010e-002
      2.1047883743756025e-002 5.6384938260553843e-003
      1.5283340786086308e-003 -1.0473039095053727e-002
      -1.2390430055226232e-002 2.1022657932868021e-004
      -7.3145075567190680e-003 2.6009801534604801e-003
      -1.2799220751747227e-002 -1.2763418217594249e-002
      9.2847323674388627e-003 4.3260177755453681e-003
      -1.0737989869060325e-002 -5.8026819349513920e-003
      -1.3823151751741432e-002 5.4825637440275455e-003
      -1.2940561042594728e-002 8.6416106974219978e-003
      -2.0985967209379828e-003 7.6918817084663449e-003
      9.8167560541859815e-003 7.6975904905701243e-003
      5.9915797359612645e-003 1.1048017473230958e-002
      -3.6827250898496572e-003 1.1309324986932877e-002
      1.5455038478988525e-004 -1.0771890269995588e-002
      -6.9202030894136473e-003 1.0812667094495420e-002
      6.0590829294596311e-003 5.5595464947190515e-006
      6.6001077981869063e-003 -3.2780269281308541e-004
      7.3415369600419609e-003 1.3431738534931114e-002
      -2.3614698416803085e-003 9.2597856246269226e-003
      4.0576592420292629e-003 9.6330003407568855e-003
      -4.5255723032267253e-003 4.9911482853064279e-004
      -8.4700287817012915e-003 5.0522712849721011e-003
      1.0273067629444622e-002 1.9405545312419257e-002
      5.7833475937803516e-003 -1.9545426766369670e-002
      -4.6870760519377849e-003 9.3447595009503986e-003
      -1.0123898719019234e-002 -1.2097600973376576e-002
      -1.0593717226365059e-002 1.5941067129950831e-002
      1.2106918875883511e-002 -8.2617090295244878e-003
      -5.7309335091680763e-003 -3.9163361827740705e-003
      -1.9184327539730008e-002 1.2027499859475935e-002
      8.0453857217445499e-003 8.3663743918041857e-003
      -1.3413685758511932e-002 -1.3293044009167363e-003
      -1.5407188782711608e-002 1.8143628691519577e-004
      -5.4867211021059998e-003 -7.8184791633569371e-003
      3.3666269588733286e-003 -1.1016167811813117e-002
      -1.2384075068022849e-002 -8.7949885264560965e-004
      -4.6706765876400646e-003 -1.3536924706425629e-002
      -8.0266812103594841e-003 -8.0877214559661945e-003
      -3.0620406854595567e-002 -4.7609646434813597e-003
      1.6102825164003024e-002 -9.0916027395224180e-003
      1.5789588259088935e-002 -1.3750724000349929e-002
      -5.8751124326020870e-003 9.5347094783404997e-003
      8.1168745417784204e-003 1.2947139474018462e-002
      -5.4341712193422048e-003 1.3718743399696092e-002
      9.6379390509925781e-003 -7.3993807020435879e-003
      3.9089603814489648e-003 3.2320498782480601e-004
      -1.1517698297062724e-003 -3.1833496108843238e-003
      -1.0611751913555569e-002 1.2313131169717466e-002
      1.2113646586949791e-002 -1.1130940366093552e-002
      1.5050829069761195e-002 -7.3833064301143609e-003
      -1.2583078471875018e-002 -5.8885240688272287e-003
      6.5004714007055936e-003 4.3678485744771799e-003
      1.7055508255125570e-002 1.3418133121530337e-003
      1.9698992838580315e-002 2.4751178656894779e-004
      4.3426142737273913e-003 5.3818213720225839e-003
      1.0671976256847118e-002 6.6607078752080207e-003
      -1.8371376901046736e-002 -1.9108324481649207e-004
      -6.5427430679335435e-003 9.3200681649036349e-003
      1.2507199005599847e-002 -8.7050666897998206e-003
      -1.8271748019173337e-002 -9.7702421673546373e-003
      -1.3714082896183885e-003 2.7649459025696826e-004
      -7.4052551041910303e-003 -4.5922218040271197e-003
      -1.3297008920045084e-002 1.0279086859646671e-002
      -6.0049157492077024e-003 1.9276566481471333e-002
      1.9814415693941065e-003 -3.7793424536956231e-004
      -2.3320758985257442e-002 4.6027561285395318e-003
      -6.8690616872351768e-003 -1.7473343885733600e-003
      -1.2403808273629565e-003 -5.6486172650226894e-003
      -8.7610754048574047e-004 1.5461959204397916e-002
      1.3739259932079388e-002 -5.8995875443078752e-003
      2.9883426836893568e-004 1.1629962313432107e-002
      6.0644324395118347e-003 7.8998776183370149e-003
      -3.6278817027319337e-003 8.8640226204093307e-003
      3.8217654572859357e-003 -5.0107255066852109e-003
      -3.1476249104501969e-003 6.5731262742323975e-003
      3.5716012180118618e-003 -6.5557815733158732e-003
      2.2362663416129296e-003 1.0413963720153739e-002
      1.4699619029844140e-002 4.6886479992989884e-004
      -7.7362142652392368e-003 4.6693048358909943e-004
      1.4413813970664815e-002 -3.0740810551551658e-003
      -1.1307117559275772e-002 5.0491836908318818e-003
      -1.5087624790610930e-002 6.5250715877775700e-003
      6.8318293808520972e-004 1.1757731988630626e-002
      4.3572016155995668e-003 -9.2890503840259656e-003
      4.7689252913801241e-004 6.2385139058333053e-003
      -2.1202689081816769e-002 4.3414502721149427e-003
      5.1510869731120658e-003 -1.1011951855870129e-002
      5.0738861889935028e-003 1.1429776464006383e-002
      1.7943056450823308e-002 6.3605847214851354e-003
      1.1689197341928394e-002 9.5468019833370424e-004
      -6.8339890984253273e-003 -1.3012232171216801e-002
      9.6942303077486545e-003 -1.1525709471690591e-002
      9.0215342940622740e-003 1.3670939137644725e-002
      2.0506464039121278e-002 -5.5983924983578574e-003
      -1.8539399983769442e-002 -1.4570275348806106e-003
      -1.3227741383642423e-002 -1.0291635755747489e-002
      4.1762081947244227e-004 1.1396342775835587e-002
      -1.3339061350112276e-003 7.9400796227656768e-003
      -2.9225600436496662e-003 -3.1545133363276639e-003
      -1.5067748187515264e-002 -1.2165749000512942e-002
      -5.1001877079486181e-003 -1.2465061109996014e-002
      1.7877999018587758e-002 -2.3564072717662675e-003
      1.2884454510827834e-003 -2.6634292653473193e-003
      -1.5030697924558339e-002 8.9930344468920707e-003
      -1.4466392391800042e-002 -1.9806018957076871e-003
      -7.7590860892045007e-003 7.1172520045946243e-003
      1.1792235145369381e-002 9.7589116055118059e-003
      9.2802140869665279e-003 -1.3350408213996143e-002
      -5.6211745837372587e-003 1.8090552641256710e-002
      8.9993202968255762e-003 4.2126478055027798e-003
      -1.3141876986811671e-002 -4.5265451897387498e-003
      9.6869380929906160e-003 -7.3971130588991853e-003
      -1.6724096826459030e-002 -4.4832718010300761e-003
      2.2833622530581368e-002 1.2444776599692573e-003
      -2.8000049165618227e-002 -4.1575385505995355e-004
      8.6925203185597884e-003 -2.6220150265512682e-003
      5.9121872047221786e-003 1.5405446735362196e-002
      -2.6833253966791178e-003 -1.7452688990647457e-002
      1.1086422685596767e-002 1.6833277262621675e-002
      7.7398065067657259e-003 4.3800963942022423e-004
      1.9722596980484338e-002 1.8041989119128804e-003
      -1.9782285557074685e-002 -1.7304404318920323e-002
      8.6026530294176905e-003 2.2310007847647275e-003
      2.1078885269700393e-002 1.3354558919546559e-002
      -7.0262029482854671e-003 -1.4744743068503794e-002
      -5.4929553809107932e-003 -1.4237444755350174e-003
      -1.4979196445921871e-002 -6.0923687107393963e-004
      5.8876460128573190e-004 -1.1778886717329681e-002
      1.3702571757785038e-002 -6.7577742803605154e-003
      -1.7125897908333635e-002 -9.2855704834644455e-003
      -1.2500203610429693e-002 3.8715568580790188e-003
      7.4407298103498418e-004 -7.7075864677075027e-003
      4.5414272093781552e-003 1.5501908328840044e-002
      2.5271828499940627e-002 2.7315691038103597e-003
      4.1368649314512517e-003 -1.8848672227416562e-002
      -1.9012407926394269e-002 -5.1708607169194572e-003
      1.8632096661689621e-002 -5.6637294817389484e-003
      -1.9225004077818630e-002 1.5775876929422332e-002
      -2.6445848762926796e-003 -3.5474989260772939e-003
      -5.1188936872782198e-003 -1.1255876670237157e-002
      2.9620311355553061e-003 2.7325300721839393e-003
      -1.6751771376804593e-002 -7.2599886773439069e-003
      -5.0922107210021033e-003 1.0066968770385534e-003
      -1.2091079417199996e-002 2.0715209833353843e-002
      -9.6075122881596016e-005 -5.5144711535595079e-003
      -1.7289252764221601e-002 4.1806083442206508e-003
      -8.6372871297938966e-003 -5.9190604215901754e-003
      -6.0164219885388889e-003 1.7292036151558962e-003
      1.3204131631075139e-002 -3.4698000018623170e-003
      4.1960666131757941e-004 1.3116234633994301e-002
      1.5440115899258861e-002 6.8963382371628268e-003
      -3.0558649532358103e-003 -5.9150691054466187e-003
      -1.6239809173243943e-003 9.8742817537853314e-003
      -5.0613897685649594e-003 -1.0841048817533862e-002
      2.8219873592538829e-003 1.7964185831478578e-003
      -1.7884084745901776e-002 -4.6920598772410751e-003
      -1.1859414232099122e-003 -2.1659793617386210e-003
      1.0982454133796973e-002 -1.8170917804367999e-003
      6.1619463663108972e-003 -4.9678486409957300e-003
      -1.4107503677509032e-002 -4.1155777337582248e-003
      -1.0652110253627920e-002 9.3356885835039882e-003
      -4.6381324955013003e-003 -5.5297382950804672e-003
      5.4849637841003530e-003 -2.6500762652508238e-003
      8.6613874135522649e-003 1.5749973220459651e-002
      8.7042553075197815e-003 -3.7994992373598024e-003
      -1.8874153569857492e-002 1.3237311100843347e-002
      2.5185553263027032e-003 9.4999110444504466e-003
      -1.6246505549107115e-002 -4.9401073285510475e-003
      -1.8892797979887601e-002 8.2290343261660973e-003
      -4.3807965784958495e-003 -3.4904146307572839e-003
      -1.2081598210568393e-002 -3.1090175104287799e-003
      1.3514928096681282e-002 -5.2754985622114371e-003
      -2.2345639679087074e-003 1.2005986737225268e-002
      1.2684787119469092e-002 -8.5156213390137504e-003
      7.7129170536556950e-003 2.0377155323098823e-002
      1.0416943991723637e-002 -1.5530807813486225e-002
      8.9154798637376600e-003 -2.3063575964948567e-003
      7.7555632178013959e-003 -5.2715477053552973e-003
      1.9277014592753512e-003 7.6438489854669641e-003
      -2.6348967307819890e-003 -4.2376331307968007e-003
      -4.9498620534948103e-003 -2.4224299634414456e-002
      -7.5289734952793527e-003 1.0134525323300579e-002
      -1.4316424517754047e-002 -1.5509417288542304e-002
      -1.7139907720629323e-003 -6.0152390467891623e-003
      -1.4918047734639176e-002 -1.1732940787821720e-002
      -7.9330684791288821e-003 2.4718704858592289e-004
      1.6741983609097049e-002 -1.7736125626822996e-003
      -1.1243783962379544e-002 3.5485428702671639e-003
      8.5352274603612416e-003 2.0975210188070290e-003
      -8.7105090531728758e-003 -4.2980079126802061e-003
      8.0174645648875102e-003 -1.3322570121856669e-003
      -1.7106776823505230e-002 -2.3106083784583779e-002
      4.1877657454290132e-003 -2.1182250157690988e-003
      -8.2661662716037726e-003 1.3098482511864649e-002
      -8.5623936093154520e-003 -6.9216583363428796e-003
      1.3774358973209026e-002 -1.6161450592047672e-002
      1.1695436980609387e-002 2.2256164468866255e-003
      -1.0626454976375724e-002 6.9779870117460457e-003
      -1.8400791546009869e-003 6.7226329369387359e-003
      -1.2070082734876093e-002 1.3371559360020326e-003
      -1.2281663163286018e-002 -1.5824266896893310e-002
      1.2928200838245359e-002 -1.7877659792371731e-002
      -2.5450897709434739e-003 -9.8580807402154844e-003
      -5.5827124771197596e-003 -1.9790749213575546e-002
      2.3602128251249250e-003 2.4399765684961685e-002
      1.2662478839482752e-002 -1.3446220905268702e-003
      9.6680596274399105e-003 -2.0401844383649862e-003
      -4.2329337827392635e-003 -1.3002209429293558e-003
      1.0689586278237576e-002 1.1575974539092563e-003
      8.8507873116339588e-003 1.1572779174322151e-002
      9.0350597068043336e-003 7.0326263481294976e-003
      1.6263694957544942e-003 2.8569997781577859e-003
      -4.8040729119275460e-003 -1.0396841068133482e-002
      2.2418090389760288e-002 1.7086485968519447e-003
      -1.8145674231312192e-002 -7.8598167600616373e-003
      -4.7887440699890685e-003 -1.8209914484204530e-003
      6.2600015934674751e-003 -5.0409577783110384e-003
      1.1722233898574071e-002 -1.0461943256035883e-002
      -4.7492981169489270e-003 -1.0324640968290269e-002
      -7.5825578768227075e-004 -3.9446978298775326e-003
      9.7842790866189706e-003 9.0623427900746734e-003
      6.3668438344231014e-003 -7.7574519337305628e-003
      1.0871160673999562e-002 7.0912747126064754e-003
      -1.2739283796683799e-002 5.9967963357345291e-003
      -8.3166397494480668e-003 -1.0751803129315887e-002
      3.2021522899032587e-003 -8.1900675819982383e-003
      8.1618231663980727e-003 -1.3200706118638718e-002
      -3.1521110080194904e-003 1.7379585044601548e-002
      -8.4439684967151287e-003 -4.1463298699267086e-003
      -1.1722341064797980e-002 1.7893067472962525e-002
      -3.8790561000051144e-004 9.1916277492053895e-003
      -7.8373221780849607e-003 1.0155410165192556e-002
      5.1173841141361213e-004 -1.4616639780527267e-002
      1.2747899167388610e-002 -3.1300246721660020e-004
      8.5486909780486953e-003 8.5077045973324730e-003
      9.0194586874628360e-003 1.1013961023951975e-002
      -7.0652572651840780e-003 5.3091314125827587e-003
      8.3099602948537975e-003 1.3354878682813128e-002
      1.5216807403717272e-002 -3.7391701352027427e-003
      -6.8179908885951683e-003 -9.1156566619957601e-003
      3.9042947638235378e-003 9.8595564347537922e-003
      5.9192249698409860e-003 3.7930797764769100e-004
      5.8120704481329517e-003 -1.3517771892864495e-002
      1.1665424787062372e-002 2.3912625245071970e-002
      2.4874517250709164e-002 -1.9049384969359290e-002
      1.0422349924520840e-003 -1.6901585043955315e-002
      8.0983978058336657e-003 2.5188189570517121e-003
      -5.8548684390313764e-003 -1.5269159682169575e-002
      -1.2208653939700801e-002 -9.2371796637294064e-003
      -6.7672807139347157e-003 2.8187245976500522e-003
      -1.6877734858573894e-002 9.8310423660152527e-003
      4.7137870769245801e-003 1.5830946994536497e-002
      7.2069024317197175e-003 6.3476179966412069e-003
      -1.4394918042551570e-002 -1.0369702198373069e-003
      1.7742852863245073e-003 1.4850217991706421e-002
      -2.0564461533059401e-002 -1.9325153941326142e-003
      -2.4582025172467496e-002 6.4252796028187774e-003
      1.7336777257284219e-002 1.1582169319383568e-002
      1.0331907435854578e-002 1.9502593698453693e-002
      -5.8894892911644271e-003 3.0767647529524292e-003
      1.8078657554983807e-002 1.8773771970017741e-002
      -3.1966682820722563e-003 -1.0442032748557671e-002
      9.5890866680559232e-003 1.1486396676148701e-002
      -2.2622544817985919e-003 -1.2311630612550251e-002
      3.7091054111970819e-003 -6.3009218794351906e-003
      -1.1712728418093413e-004 -2.3261412994930106e-003
      -1.3090004880406245e-002 -1.1344900622679044e-002
      -1.2480893700746348e-002 -9.5574780981443740e-003
      8.0427431045888131e-003 2.9725070405749621e-004
      -2.0008104057986807e-003 1.9860162833629267e-002
      -7.3876200425895423e-003 -1.6023830774554965e-002
      -9.2211782315799258e-004 -8.4463995696012952e-003
      2.9831098174786827e-003 -1.2995769292703145e-002
      -1.2928905872630007e-002 -3.3072033671706210e-003
      2.5306930843682538e-003 -8.0041127041119708e-003
      -2.0766301923307979e-003 -1.5274349456677749e-002
      6.0714230672667445e-003 -1.1827827008329675e-002
      4.3980956082214293e-003 1.9894352352012503e-003
      -3.1202338989393314e-004 -9.7074195226675569e-003
      1.3229384859226647e-002 -1.0482909198038603e-002
      -4.7106493683890995e-003 9.5408569939296195e-003
      2.1806870519064169e-002 5.4000395869887941e-003
      -4.6706331329752250e-003 -5.7181922520438567e-003
      -1.8097655296804835e-002 1.3654644686318159e-002
      -4.9280343355263432e-003 -1.1164479271489818e-002
      1.8106513033182489e-002 3.5426115304829971e-003
      -3.4602515602529579e-003 2.1659538453846078e-003
      3.7364700948622686e-004 3.6740332006571720e-003
      -1.2970186869218638e-002 7.6287899690111911e-003
      3.6245811080358342e-003 1.3296472988355216e-002
      -1.2994201215264478e-002 -1.4300220428933709e-002
      8.0515138904060021e-003 8.4569689693355932e-003
      -1.1111748086213170e-002 1.0743256434788287e-002
      -2.3608439663479988e-002 2.0117395703514153e-002
      1.0397302878867146e-002 -1.2877320278314640e-002
      1.2716207222440671e-003 7.6504195876182547e-003
      -2.3876779609789922e-004 1.3074290909125139e-002
      -1.1050917779421380e-002 1.0622805253026720e-002
      -3.8743894963839303e-003 -9.6814392097168897e-003
      -2.2763732434465442e-004 -2.3238277508029991e-002
      9.2997066596211056e-003 1.0143359170747823e-002
      3.5443444828544906e-004 3.6236799318750943e-003
      1.8265646689233375e-002 1.1716283466480773e-002
      2.3256966512439064e-004 -2.8517930793736285e-002
      -1.0102739239285586e-002 -6.5208038873813181e-003
      -1.3234801689508765e-002 -6.4267841925866780e-003
      -9.6797512407907158e-003 1.2217131688559308e-002
      5.3268060726992849e-003 -1.6786939836716742e-002
      -1.8228782423649888e-002 -1.2610270709066914e-002
      -2.0054188833800089e-002 -4.6241925647504164e-006
      -7.8731006247624562e-003 -9.6604485143709216e-004
      -1.6866814342547003e-003 -1.3112602858195667e-002
      1.3871316675793036e-002 7.8002925897498396e-003
      1.3481443042421437e-002 -6.1981489604356257e-003
      5.9427114319491907e-003 -7.3977673292608707e-003
      1.1494291415838491e-002 -1.3679694730864113e-002
      -1.0240538927689188e-002 -2.9058957040631948e-003
      -3.4344732216272716e-003 1.8062912575841278e-002
      1.0606281817781598e-002 -1.3360096602367234e-002
      -1.8106458653385560e-002 -2.6387839176594515e-003
      -2.0944877037769007e-002 1.9017108881806536e-003
      2.6759462419311823e-002 -3.6700274536422958e-003
      -6.8422654764606228e-003 9.9997042129013215e-003
      4.6805755479119191e-003 -1.6883589813708848e-002
      2.9907798472500547e-003 -1.2413439967533455e-004
      3.9667791272395984e-004 -1.3914041611105614e-002
      -1.9890980299673403e-002 -1.2277699498151919e-002
      1.7933064794274572e-002 -5.6959069385027527e-003
      4.3244853283870670e-003 -8.9108491422471466e-003
      1.8324451856430113e-002 -6.8676702362542965e-004
      5.9411701145020285e-003 9.5456741763428696e-003
      7.8962429645115795e-003 3.0860791578316100e-003
      -4.8564500183230488e-003 2.5675420506518463e-003
      6.4464592353884933e-003 -1.5161770784882390e-002
      -4.5077726358460418e-003 -3.5312805097871859e-003
      -1.9989531145756943e-002 3.0638429183441332e-003
      -1.0334166251367159e-002 1.9553313121096188e-002
      -5.6347625723330687e-003 6.4937917676969091e-003
      7.3194936728220366e-003 3.3789206566052226e-003
      4.7107617882453491e-003 -7.6366578828469707e-003
      -1.2520705336647368e-002 -1.8389260137736726e-002
      2.3379073025084067e-002 -1.2512805656364300e-002
      9.3609963013785869e-003 7.8416040636813331e-003
      -6.1052272809997031e-003 6.4952538397173906e-003
      -8.1856517924989627e-003 2.5333666618288470e-002
      -9.7133782080980509e-003 2.0735092200253298e-003
      -4.3845761265048271e-005 9.4276690186166495e-003
      1.0142447389243334e-002 1.3548242045499386e-002
      1.6656960471161228e-003 1.6558451021725890e-002
      -4.8366897348216002e-003 4.7996375959031426e-003
      -3.2829496650094193e-003 -6.9872185314478704e-004
      2.5431615624351700e-003 6.3253349031743905e-003
      -1.4361707559764222e-003 1.0166328616150839e-002
      -1.5912214286060943e-002 -1.0828254732746824e-002
      -3.3897062209950601e-003 4.2516875206185297e-003
      -8.1331145437323008e-003 -6.4182441271683705e-003
      1.6924402559344583e-002 4.0593580290185990e-003
      7.7949829846431576e-003 8.0378560247091994e-003
      6.8740027122631145e-003 4.5350065508501939e-003
      1.8660056909744190e-003 2.8638632823143580e-003
      1.0867506696864431e-002 3.7050478918964468e-003
      1.5952208245859193e-002 -4.4429149304433353e-003
      -6.4273293111322110e-003 -9.9329810997046287e-003
      -9.0138364066395273e-005 1.8090648375953887e-002
      8.6719986788565077e-003 -2.0670176769415714e-002
      -8.9933856869760555e-003 1.7440765481324380e-002
      -6.3411466892464670e-003 -1.3600736926039174e-003
      1.1907580866805085e-002 2.7347942109826493e-003
      4.4082706751740969e-003 -6.8372390307122328e-004
      -2.5101402878075808e-002 -6.3318563649844752e-003
      1.9712722346992392e-002 -9.7643252509151228e-003
      3.6718492287990804e-003 9.9708931796299548e-003
      1.0536229551629335e-002 -6.0504082255757092e-005
      2.1091259645072729e-002 3.0738026582442820e-003
      2.6268036199775364e-003 -5.0351577743628466e-003
      -1.0747731988897198e-003 -4.0964276848127019e-003
      -1.2606757456190068e-002 2.3022111381983765e-002
      1.6417750694047356e-002 1.5385568064005309e-002
      8.0664445625327989e-003 -9.7869433013473058e-003
      -2.0364824188480221e-002 -4.9579505549289301e-003
      -7.1007161962241263e-003 1.1587686593931761e-002
      -1.4406846665993888e-002 1.5902368465865444e-002
      -9.1771265237900823e-004 8.4939400447176638e-003
      -2.4730638737474425e-002 2.1609194509929416e-003
      2.6752321215306684e-003 1.5712591638360630e-002
      2.7834180517477197e-002 -8.5350362739546205e-003
      1.0657338237948907e-003 2.6151535737120625e-003
      -1.2693509360951399e-002 -1.7221636220957012e-002
      -9.4986744015627175e-003 -1.4843407080558403e-002
      -8.9091238541330886e-003 -1.3745390041963082e-003
      -9.4035912948618565e-003 6.8892416408105183e-003
      -6.6393864383589290e-004 -5.9675331228974523e-003
      2.5651089898677021e-003 -1.4264361693657940e-002
      -1.4745471831447321e-003 -1.2206848309304399e-002
      -2.0462795146783692e-002 -1.4125342514204862e-003
      -9.9049485456960736e-003 -8.4318708817570556e-003
      1.1687846308653840e-002 8.0480998219934312e-003
      -1.1590820414187552e-003 -1.3065264273356773e-002
      -7.6350667886889417e-003 3.5698985927985565e-003
      -4.9568314973708174e-003 -1.7348416251266183e-002
      -5.0057217372505109e-003 9.1240995870463162e-003
      -5.1177671673138135e-003 1.1892698347469492e-004
      5.8062896926999929e-003 2.1963964944639422e-003
      6.7695871612403835e-003 4.9564924885763572e-003
      -3.2224589249891704e-003 1.0421178784154486e-002
      -5.7928884819715776e-003 -8.4244996205029028e-003
      8.0591642392348929e-003 1.9333360168917520e-002
      -1.8860502016446387e-002 3.3479961665506017e-003
      -5.2613074758225305e-003 -9.0125298816044613e-003
      3.4615903137673407e-003 2.5619227078080637e-002
      -1.0746273584463621e-003 -2.0211500683807147e-002
      1.0463070601957470e-002 -1.2940113939508608e-002
      -1.5583453360559824e-002 -3.4100960003289353e-003
      2.2800280642210766e-002 -1.8905672567566621e-002
      1.5842700165992190e-002 9.9109863118589624e-003
      -8.5659428253538079e-003 1.9719984584754945e-002
      3.0667708594125575e-003 -2.7333345713549711e-004
      -1.0307965654696228e-002 1.7623621872043142e-002
      -4.7238177613667179e-003 -9.0297236006014713e-003
      1.5062681781750218e-002 7.8058355415880406e-003
      -1.5640298704085279e-004 1.0283960947507564e-002
      8.1316486969321784e-004 2.6566230697748189e-002
      -1.1280216699474656e-002 -2.4222617343201663e-002
      1.8355381728945221e-002 -2.1989429421492564e-003
      1.9425497921881651e-003 -1.2013477314055847e-002
      1.4926822536336230e-003 -1.5577312940877218e-002
      2.1927080253280141e-002 7.4227607045720539e-003
      -1.0847485293557649e-002 9.0584630206724348e-004
      5.0387463292149361e-004 1.1988117737272439e-002
      -2.7220304822981593e-002 -2.4563872587443775e-003
      -1.4443665544321702e-002 4.1360815969141195e-003
      1.1332033812605363e-003 5.4951895174834382e-003
      7.3736141043209726e-003 -7.4055608233675957e-003
      -2.6322911395941276e-003 -1.7378990413157319e-003
      -9.3746435017828128e-004 -1.2597630546736228e-002
      -2.4855490242508327e-002 -7.2792734922491912e-003
      1.3917690593366314e-002 4.0341111450292472e-003
      3.0123286523718548e-003 2.5461474783716946e-003
      -1.2162192672701549e-003 1.0791947771828781e-002
      8.6425875670162154e-003 1.0256971917945517e-002
      -4.7008009466448656e-003 -1.9462286657253845e-003
      -1.9647877131718509e-002 -1.8480248628104157e-002
      -4.7642334552655671e-003 1.7524956452593724e-002
      9.4829905355087070e-003 -1.1923892396333780e-002
      -6.3544347513568378e-003 -8.3276778878092986e-003
      -6.4501019396418641e-003 -3.1059836943157586e-003
      1.1960090092701362e-002 -1.7779493685463502e-002
      2.1181850386951611e-003 -1.0582382716589248e-002
      -5.9567340615833799e-003 -9.8395860824824696e-003
      -1.0025565951517811e-002 1.5604085286823152e-002
      4.5728708355814664e-004 -1.0873740288885062e-002
      1.4873232847396164e-002 -1.6642880887086889e-003
      1.1789037984261074e-002 7.9040886154537054e-003
      9.3167786842955468e-003 2.1879508689959519e-002
      -1.3265075637505761e-002 3.8303994432668954e-003
      -4.1043003613853617e-003 -2.8603097762931727e-003
      -1.5178522525862177e-003 4.4208022477246079e-003
      7.8899983284365146e-003 1.4510484989331864e-002
      2.1499651505546287e-002 -6.5074802261770263e-003
      -1.3036796240085991e-002 -5.8464855894557848e-003
      -8.4380397143052205e-003 -6.6289355099966446e-003
      3.4361588356733156e-003 2.1739359276011856e-003
      -1.2458232132034033e-002 4.1934682261852742e-003
      1.5698153475927540e-002 -1.6108508317057475e-002
      9.3895614466701482e-003 -1.3762407500425618e-002
      6.4889338646645705e-003 1.3795722383393206e-002
      1.5476216717924790e-002 8.0178674188080123e-003
      -2.8159723354679589e-003 -7.6016280597924089e-003
      1.9021376990130262e-002 2.1114668303692654e-002
      4.7394150892243157e-003 -1.8888518179527605e-002
      2.0179981491742940e-003 1.1659671072394847e-002
      -1.6895060045321823e-002 -2.5577438064182747e-002
      -1.2695237710500951e-002 1.1758142528424202e-003
      1.1535779756239447e-002 -4.3202326989837721e-003
      -2.7279457008864694e-002 1.8426265043804409e-002
      -1.1131588089204359e-002 -2.2546982056162311e-002
      -1.6235865219238532e-002 6.9463256995138788e-003
      -8.8575779069617645e-003 1.6965528332494054e-002
      1.2446708983133790e-002 3.3637049492256437e-003
      7.5155837470481969e-003 -9.6720473276247776e-003
      8.6153833114474675e-003 -9.4775753665203247e-003
      -4.6853756119380110e-003 6.0720742165775565e-003
      -4.4770936293963550e-005 -7.7268102051252785e-003
      -1.0664263820047017e-002 -6.0819497085195630e-003
      1.2687136521814682e-002 6.1911604576579665e-003
      4.3491091523055010e-003 -1.3605848621988511e-002
      -2.4327712741319674e-002 1.6890147656677890e-002
      1.0252058394889626e-002 -6.2348341519225881e-003
      9.8543871042251520e-003 -2.0285754433546064e-003
      7.0641278454066109e-003 -7.0767398144776803e-004
      -8.6705218560486079e-004 -9.4475727832759905e-003
      1.6643081940854020e-003 -1.8978441454967113e-003
      -1.2731832485101038e-002 -4.1881427667912648e-003
      -2.3306438139231681e-002 1.4117378771971532e-002
      -3.2308525248572265e-003 -9.4353485408555145e-003
      -3.0496190349679768e-003 -1.3942994198271621e-003
      -9.5162041019331532e-003 1.8686706500125243e-003
      -4.9230420205602973e-003 6.9809450320387949e-003
      6.6674340006488636e-003 -9.6048319927651647e-003
      -9.3199719000223481e-003 -1.3582419756588013e-002
      3.5565083135390284e-003 1.9654260074279790e-003
      -1.9551728177360566e-003 -1.8302154826389720e-003
      -9.7705131630391497e-003 2.0817362458050559e-004
      5.2830641883517713e-003 1.2712550800598773e-002
      -1.0394650150122853e-002 5.6949329074423303e-003
      1.2310166142681669e-002 1.3362659614855979e-002
      1.1598853387032773e-002 1.3462008814122068e-002
      7.5489772025570173e-003 -1.2876869233853795e-002
      -2.3704023383989862e-002 9.2076068621755082e-003
      -1.6787519948190686e-002 6.1653748966322844e-003
      -1.3843740308020108e-002 -3.1762207818424168e-003
      -2.2814498201776728e-003 -6.5792269616877603e-003
      1.1747468644430088e-002 4.5880339883503643e-003
      1.1337989268558109e-002 1.9404534561524821e-002
      -3.8698107137787431e-003 1.0002975827202880e-002
      -2.6811875221599466e-003 8.3960348864851719e-003
      1.7490653919557737e-002 -1.0211692780234814e-002
      -8.5614717381587054e-003 -6.2824817095080499e-003
      -8.4082892523895166e-003 -7.8517966104424547e-003
      1.0148108063284353e-002 -1.2650385043152549e-002
      2.0030476012396732e-004 4.8378993930516508e-003
      -1.3985572691656539e-002 1.2019257127129602e-002
      -1.7047004184350602e-002 -2.4769041839282952e-003
      5.3359659392880890e-003 4.2434699141169190e-003
      -8.9932043720366787e-003 -7.5663256578725043e-003
      -1.6442001642913116e-003 -8.4670031282502826e-003
      1.5064616597388776e-003 5.0240732141517332e-003
      -1.5857685213909475e-003 1.5074559319696371e-002
      -5.9208573368343901e-003 1.5031483315350811e-002
      9.3849957065643228e-003 1.0184935966496141e-002
      -1.1249626857103071e-003 -1.9199012534579943e-003
      -2.6571020145991489e-003 3.5497348344976577e-003
      1.5351181524738440e-002 8.0013927946060348e-004
      1.0040333646026017e-003 4.8478085616172027e-003
      1.4056769023573492e-002 5.6189474969284099e-003
      6.0331702058574761e-003 -8.0364106614827010e-003
      8.3260573391254859e-003 -1.1937777106716492e-002
      -7.2364113908572865e-003 -1.5887686485605745e-002
      -4.3446667319412390e-003 -4.4386633205211731e-004
      8.0607011561718948e-003 5.9419085425885818e-004
      -8.4397431426094967e-003 -1.1672720530560479e-002
      1.2932229352046175e-002 1.4604167201152171e-002
      1.6447578127220117e-002 9.9393854066909901e-003
      1.2940751746828209e-003 4.7010387480573871e-003
      -9.1474777891560818e-003 -4.1773354508869907e-005
      2.2000346982003517e-002 -1.3207578492676772e-002
      -3.5324829004495498e-004 5.6999127175949892e-003
      -1.2182941245869966e-002 -9.9319527974683301e-003
      6.3388758552275675e-003 -1.8408236482922651e-002
      -2.7670548246930085e-003 -1.0668045393356067e-002
      9.0018579521562135e-003 -9.5943509903738348e-003
      -6.3423996508464534e-003 -8.0468656918566521e-003
      1.4091909903981266e-002 -1.5085080242202956e-002
      -1.1032665039496440e-002 2.1855106593527351e-002
      3.8793543606697252e-003 -5.1895582574847240e-003
      -1.1040056337090763e-002 9.3144049976311670e-003
      -1.0334997875151122e-002 -1.0166825063216492e-002
      1.3044066297564853e-002 1.2441858187840596e-002
      1.0787132875051219e-003 3.2808769522627047e-003
      -2.6711664149891116e-003 -6.8980861229181482e-003
      -8.6968252391061950e-003 -6.5307877103822545e-003
      -7.6790172834993644e-003 1.1191460258591383e-002
      1.3666467853397216e-002 4.8236087322823451e-003
      7.0220181833524596e-003 -2.0496128286325005e-004
      1.2472122880570116e-002 -1.7014051240475569e-002
      1.1271364353128432e-002 -2.2283623955157952e-002
      6.2658716421726355e-003 6.3279243764833319e-003
      -7.6758237539996475e-003 -7.2650296192796390e-004
      -1.2398311315309853e-002 -2.3893783779434605e-003
      -2.3997158587185465e-003 -8.4023710095743644e-003
      9.0280286395417932e-003 -9.7592552021528098e-003
      -8.4079550987272624e-003 -1.3709969876816146e-003
      5.2663788705169037e-003 -9.9646245402512518e-003
      -8.8438124078724627e-003 5.1585625489567483e-003
      -4.1794063400821440e-003 -1.4710060022421510e-002
      -1.7345886752898641e-002 -1.5059420754814076e-002
      6.5495176732881348e-003 -1.1457137396498606e-002
      5.6967979139358619e-003 -9.3693385944506793e-003
      -2.4038852177972379e-002 -2.0803436565176622e-002
      9.2154367710088041e-003 8.0733131566554407e-003
      -1.0563046734709215e-002 7.5161813035253154e-003
      6.9716433259658945e-003 4.7335216458276501e-003
      9.6333456931217230e-003 1.5128322331661677e-004
      -1.8640149969947676e-002 -7.4005129240524632e-004
      -8.4885562952075066e-004 -1.9745962794406855e-002
      -1.4229766417979763e-002 5.2843407839930677e-003
      -1.2780377361626589e-003 -1.3264799000217993e-002
      -1.6253646529193378e-003 7.3376987086281971e-003
      -3.7398579060852848e-004 -8.3915992077136427e-003
      4.9412169977598825e-003 3.9253744705140571e-003
      3.6412317167708978e-003 8.2103126653088280e-003
      1.4288820823421521e-002 2.4878905813663019e-003
      5.5993240469811535e-003 -1.8370662746551424e-002
      -2.5953169166924531e-002 -1.5134910070429981e-002
      5.0341651923255949e-003 1.4658347158196304e-002
      5.9571569678782878e-003 1.1545347312612243e-002
      9.3366757478519462e-003 1.0641291836631595e-002
      -1.5232572730838091e-002 6.2688283011866786e-004
      -9.9445065128414140e-003 -1.7312605938147155e-002
      -7.4027878041065800e-003 -8.3531458649117787e-003
      -4.7210986548943635e-003 1.5423901584535296e-003
      -6.8956654158592989e-003 -1.8512030403969723e-003
      8.1274220650767014e-003 8.1515135841613972e-003
      -8.6332056943468020e-003 -5.5782609336744423e-003
      -4.8625716353585199e-004 2.2032112625550673e-002
      1.9299182727677535e-004 1.4607380555253140e-002
      4.9336215944848286e-004 4.8645889677089672e-003
      5.2651674192228867e-003 -2.1915781301943427e-002
      7.4122279711459041e-004 8.5622559619229720e-004
      3.6338464650740782e-003 1.0713311585478294e-002
      -6.6866556166278925e-003 -1.6247394272154313e-003
      2.8803525141744891e-003 2.0169584532005392e-002
      1.1128421054052141e-002 -7.1589199473018937e-003
      7.1345511554935827e-003 -6.1844168090604886e-003
      2.3261611665573868e-002 1.4168217558792721e-002
      -1.4245431758499252e-002 9.2011166809901918e-003
      -9.3723582799696836e-003 5.5936140104312464e-003
      3.5438933800096177e-003 -1.6710494687733817e-002
      9.4280442493179951e-003 4.8907978889995559e-003
      1.7008574704945906e-002 -1.5013469141825784e-002
      -6.0118101159484716e-003 6.1833293741479960e-003
      -6.9670579292061890e-003 -1.4359818543534152e-002
      -4.4103408121748304e-003 -4.0844095509649002e-003
      -6.0277028089427698e-003 1.1542693812940237e-002
      9.8343821098803054e-003 1.6222852704261881e-002
      -2.5122990001719848e-002 -1.2361668648890388e-003
      5.8429057259160441e-003 -8.0051969019794035e-003
      -9.3022740349354809e-003 4.0836260081706212e-003
      -1.9947181056625732e-003 -9.4202606150814482e-004
      -2.0816843254668361e-002 1.7724680497081681e-002
      -2.1127034745809614e-003 -2.1004977300760914e-002
      -2.6618557500789693e-003 -5.0719895839410828e-003
      1.3351920679410717e-002 1.8053559843029251e-002
      1.0435466286135620e-002 4.2193940077217438e-003
      -1.7247281705724350e-002 1.0545038948253248e-002
      7.8268410491536267e-003 -8.8520473489933256e-003
      -2.2057066776833695e-003 -4.0035797984269220e-003
      9.7842425308308396e-003 -4.9666679709321751e-003
      1.3590954658224083e-002 1.9278246026148455e-003
      6.4171865872348719e-003 -6.4581966717194633e-003
      7.7680927693641296e-003 1.8518014150254541e-002
      -1.4231421692476197e-002 2.1129929104113897e-002
      6.7610642718812864e-003 1.1415518187319739e-002
      -1.3752656487309223e-002 -4.6407724931975935e-003
      -1.6791110244087279e-003 2.4098946234037626e-002
      -2.6601199939639397e-003 -1.6307935868610447e-002
      1.3774638404397983e-002 9.1988370613863631e-004
      1.6145552733353451e-002 -3.3932944355374848e-003
      2.4515603592212658e-002 -6.1045245122315385e-003
      5.7843131034910032e-003 1.2085815001677786e-002
      -8.1416678168946058e-003 8.9361921094286163e-003
      -1.0325913763998803e-003 -4.6958436234612868e-003
      4.2016163748953192e-004 -1.1022186804709410e-002
      5.5268077830049030e-003 9.0929021301904226e-003
      1.9011348553341757e-003 -1.2567220512122015e-002
      6.6193194055392587e-003 1.2358099921935581e-002
      8.2047877969879581e-003 8.4381365383165083e-003
      -1.0279076099618881e-002 1.5436326563644968e-002
      -2.2736408576830673e-003 -3.5197406777053323e-003
      2.1372744181750902e-003 -1.9074170107124363e-002
      1.0579131290775099e-003 -1.3439387907851227e-002
      1.2480116421232822e-002 1.4811941868547689e-002
      1.6371161167978581e-002 -1.4911902525060677e-002
      -3.5788153056633995e-003 5.6693291196558901e-003
      -1.3877988087037350e-002 -4.5039872867928196e-003
      9.0370096207255945e-003 1.8473506423688921e-002
      3.5899863359448478e-003 6.6784447861024197e-003
      -1.4410677553623800e-002 1.4352801513204108e-002
      4.2124428867611136e-003 -2.9011545556836106e-003
      1.4265464001115715e-002 1.5428875439096627e-002
      -3.1972165039103506e-003 -5.0684173182589075e-003
      4.9055014995355349e-003 5.4518373653956714e-003
      -4.5017672838524618e-003 1.7082496642839087e-002
      -3.6680654597342987e-003 -6.7938887398157830e-003
      5.9349801839794665e-003 -7.0581754672010607e-003
      9.2621827334411280e-003 1.0546678921826466e-002
      -1.9267368398626420e-003 -1.8172965737547293e-002
      -1.5950691662670217e-002 3.9631636823521960e-003
      1.4824107899722732e-002 -1.5574612185742806e-003
      4.6538177568906406e-003 3.0063663791648773e-003
      -4.1729749161689370e-003 2.8995676635294666e-003
      -1.5650117257671504e-002 1.2764256577055641e-002
      -5.5545409269432263e-003 8.8394256314435551e-003
      -1.3325203577217164e-003 1.2490369209341582e-002
      1.7034615378307891e-002 -1.1762750056174821e-002
      1.1367076539310868e-003 -8.8896084151660806e-003
      1.1885043232732385e-002 2.5188280298155193e-003
      -1.1025415866754614e-002 -1.1883186183216298e-002
      -1.2929807492785980e-002 -1.4137840461473691e-002
      3.3805893503683752e-003 -8.6246284516039683e-003
      -8.6059157283287831e-003 -5.0952303765144664e-003
      1.8470788697582726e-003 -2.9353720645131092e-003
      3.6022536034435626e-003 1.5034378587618819e-002
      9.2775768096596094e-003 -1.0594791451430862e-002
      -1.3232144070487235e-002 7.9834011499614642e-004
      6.3240254790540035e-003 -1.0193632936523358e-002
      -1.5127016169819112e-002 4.1823830335891580e-003
      1.9012883958495520e-003 1.5450552290834446e-002
      -3.5786558916800527e-003 -9.9573255434177652e-003
      -6.0109549545462127e-003 -1.4683629244389356e-002
      -1.1480513443754945e-003 -1.6970080866567941e-002
      -7.0854819117726299e-003 1.2390056787000446e-002
      -9.4420647160006980e-003 -1.3399266235601164e-002
      -4.2775340871138330e-003 -5.7473364967286335e-003
      1.3474873031272651e-002 -5.1562561845941183e-003
      2.3732425473132111e-002 5.4283376728558033e-003
      -2.0831238514604413e-003 -3.0654140967755657e-003
      9.3270877948561891e-003 1.1929409647085689e-002
      -2.7303160468324619e-003 2.2652021233943286e-003
      4.9938276242709710e-003 -8.1833033754787274e-003
      -8.8880335855522075e-003 -6.4046193595131504e-003
      1.6104740683126788e-003 -4.4244415551189060e-003
      -2.7908590817639065e-003 -1.3411000690208234e-002
      -2.6531440557283855e-003 8.3290585845293753e-004
      1.4345752611131524e-002 3.1780987176452942e-003
      1.5285587255387322e-002 1.0034866848430475e-002
      -7.9059939979326871e-004 3.4023166390750675e-003
      1.0619156867175688e-002 -9.8633839760999525e-003
      1.7227090216549102e-002 3.0826412166187461e-003
      4.7012796333372048e-003 2.9539739002421850e-003
      -3.1035487320840486e-003 -1.0739924659697893e-002
      -1.4770762056249384e-003 -1.2064261556598024e-002
      8.7962607600577426e-003 -9.3578179934550830e-003
      -6.0437281661421417e-003 6.2928910252012492e-003
      1.1972723260851123e-002 -3.9464440812469791e-003
      -9.7210649383920392e-003 -4.1530562351109824e-003
      -2.8545456775318739e-003 -2.0716605214676684e-003
      -1.5675614027350845e-002 -7.1789284436092502e-003
      7.3089107505663550e-004 1.0653103420876449e-002
      -1.1128458206235850e-002 2.5227449933225734e-003
      1.1734223467468233e-002 -1.9254428595480775e-003
      6.8177473270211956e-003 1.3287301926690883e-002
      -1.4757430363675321e-002 7.9695486677964621e-003
      3.0408558500621811e-003 -7.8278902650597091e-003
      1.4549148061931989e-002 -4.4289823510726004e-003
      7.4776041752904329e-003 8.0888828746698022e-003
      7.8128242583414779e-003 -1.6465001503207774e-002
      8.9224126347363722e-003 -4.3577560283721830e-003
      1.0396323038928663e-002 1.7123285225198862e-005
      1.5579387389998376e-002 2.0926358477648243e-002
      -3.9543867945453027e-003 9.9760872491282595e-003
      1.5752910860517642e-003 1.5406414088169508e-002
      1.7278771731854825e-002 -1.1077501254719336e-002
      1.1479387990243822e-002 5.7550814105741610e-003
      3.7753601326976477e-004 -6.1133055626808579e-003
      1.1994384377702678e-002 -2.4923036319279153e-003
      -1.2355866253844135e-002 1.4583877621073653e-002
      -8.8675899677237123e-003 -4.7943407825583725e-003
      -6.4243734982537227e-003 -1.0158559138118398e-003
      -5.0604635364746089e-003 1.2742683925761198e-004
      1.6359044279915934e-003 -5.0981481912863152e-003
      9.3578402069475989e-003 1.8155176332495682e-002
      -2.3105505262212603e-004 1.4865768303188582e-002
      1.9747880398332863e-003 -1.4892202326300263e-002
      2.1168856292450577e-002 3.8011401749744110e-003
      4.2364995298928409e-003 7.9184370361045833e-003
      -8.7287200566241226e-003 -1.6307421163416002e-002
      6.4626718335374115e-003 -1.1266454410190904e-002
      -8.9104404480501009e-003 -8.8773864773423316e-003
      -8.1732037772932579e-003 -2.1029624833565571e-002
      -5.7141487825027037e-003 1.0053207528809614e-002
      -9.2735573630772575e-003 -4.4924338686780380e-003
      -8.9577726247382899e-003 8.8877967558106258e-003
      -2.5399755568010888e-002 2.7459629286420758e-003
      4.6653872445037220e-003 9.0595654255729262e-003
      -1.8262467129387189e-002 -4.2199333289867207e-004
      -3.3986938451741190e-003 -1.0343288092709927e-002
      -1.1623720678571516e-002 2.0564921302986660e-002
      8.6471716445902444e-003 1.4543336378931668e-003
      -9.4007728243655306e-003 -3.8779499062774636e-003
      1.6424709014573966e-002 -9.0165475978018599e-003
      -1.0031039563345605e-002 1.8491062485081387e-002
      -1.1662565235474723e-002 1.4340146562829567e-002
      6.7506344925580344e-003 3.1699778331172939e-003
      4.3635845474035324e-003 -1.9691271794303234e-002
      7.3593550786833469e-003 -1.4008358183902319e-002
      1.1508660121183047e-002 4.6991079255765851e-003
      -9.9109967882092601e-003 1.2221686830837675e-002
      1.1414141179056482e-002 -1.7451768009758293e-003
      1.2204952101501694e-002 -8.1845240134004772e-003
      -5.6630597736453854e-003 -8.0737680692986348e-003
      -6.3173486231138734e-004 1.5075321918524601e-004
      -4.8811325135974986e-003 -2.2276084684210849e-002
      7.2004655281336562e-003 9.0486658571855942e-003
      1.6316468775409824e-002 7.9326176487522996e-003
      -2.7602009361165879e-003 -1.1884275267575472e-002
      -9.2559982448564931e-005 5.8153475411346287e-003
      -6.4961269900422162e-004 -9.2813483042719306e-003
      9.2580533732079242e-004 -1.7731425295858270e-002
      -3.2340473686384131e-003 6.3959485095745651e-003
      3.8108048773991491e-003 -1.6272733681466277e-002
      -3.7440214132999227e-003 -1.4409874891370390e-002
      -1.4103908877316421e-002 2.3900451694882736e-003
      -1.8574950203596220e-003 2.6668659989558460e-003
      -1.1714353834003608e-002 -2.2896599918608034e-003
      6.4948459199438350e-004 -1.0282534833666802e-002
      -1.5104935777275612e-002 1.0078353303295673e-002
      1.5927218490173638e-002 -4.6122882709097816e-003
      -2.6620738291458868e-004 5.0633233239127905e-003
      1.1072411952462944e-002 -1.6195123107463287e-003
      -1.3331123935309901e-002 4.5910178829290936e-004
      1.3892101709698524e-002 -1.3314392802392711e-002
      -7.1429919550181087e-004 4.0854292483196390e-003
      2.2804345889177544e-003 9.0924777402625282e-003
      1.6060453997047870e-002 -3.9944252857694500e-003
      1.4012017505828443e-002 -7.1448685318693320e-003
      1.6884042347924233e-002 3.4300945669526136e-003
      1.4085582794700444e-002 -8.5963192423102047e-003
      6.2991691035082812e-003 -1.0684036363824829e-002
      -1.0951236466699241e-002 3.8172881320115331e-003
      3.5399168582741434e-004 -9.0605194500800717e-003
      -4.2556994276127559e-003 -9.4382908832747400e-003
      3.2840289890422266e-003 -8.3421046905163485e-003
      2.5586450127639665e-003 3.2127175308518424e-003
      -7.3231385595512921e-004 4.4092884840395282e-004
      4.0041281911050496e-004 1.4928179195657320e-002
      4.4056295741732648e-003 -7.7248811417372385e-003
      3.3965229777535451e-003 1.9343805262908610e-002
      -3.5764617036287086e-003 1.4552398221744742e-002
      -8.8131264138465778e-003 -1.3938475352838575e-002
      -1.5700155190778352e-002 -8.5148861513880125e-003
      6.7452192826009429e-003 -5.0329063216164307e-003
      -1.6460143816006148e-002 -8.4547610325548580e-003
      1.0853723266060716e-002 -1.2289104291696124e-002
      -2.3807529376468524e-002 -1.0408314826225940e-002
      1.9743586526977382e-002 1.8421516339031385e-003
      -1.0280987236459127e-002 -5.2029702488783566e-003
      -1.5750204896442657e-002 -3.7593699809620024e-003
      -1.1222911212007277e-002 3.9665802964506539e-003
      1.8986798674916993e-002 -4.7824340696815786e-003
      -8.7081281878993212e-004 9.9802199069949221e-003
      3.6342119590345549e-003 7.7886898340056021e-003
      1.5333751235655840e-002 3.8261781536565345e-003
      8.9455207174958858e-003 1.5199618419262245e-003
      -1.2851279631053539e-002 -8.7599078876171802e-003
      -1.3192596926213154e-002 -1.3058603566789600e-002
      -1.4038214289168165e-002 -6.8696068478792983e-003
      4.4957847542205216e-004 -1.2575139876980017e-002
      -1.2954497141625812e-003 1.5057478802692858e-002
      6.5284886184351935e-003 -5.7501624704086639e-003
      5.5119242767292099e-004 1.3478281682003554e-002
      -7.4426218674430089e-004 -1.2001614243184624e-002
      6.4478790136390015e-003 8.1576134123029272e-003
      -1.0679922396566899e-003 4.2053782773274085e-003
      9.9865043267402653e-003 1.0471598340383425e-003
      3.0218527934922409e-003 5.3218829916034547e-003
      -2.2101243438251059e-003 -5.1808164524409384e-003
      2.4997785972208893e-003 5.8279687501051388e-003
      2.4377109787154377e-002 -4.3602468785303100e-003
      1.4663976413806020e-003 -1.8846553808065675e-002
      1.4667836742746944e-004 1.9243943929874042e-003
      -1.4513811534681863e-002 1.7347626742186390e-002
      -1.3707159262966541e-002 7.9814505817454497e-003
      -2.9251926662898432e-003 -4.8897397524667111e-003
      2.9768065807584411e-003 -3.0681749749620741e-003
      -1.9024534554926888e-002 1.3114181476564917e-002
      1.6336460825257817e-003 -1.3149899330816596e-002
      1.6485567657814230e-002 1.3192938994151181e-002
      1.7411648897609357e-002 1.6619170489818331e-002
      -8.7165373177279324e-003 1.2414203756282442e-002
      5.5636245400569719e-003 3.0703062304356897e-003
      -1.0933221538822754e-002 -1.4036625187508901e-004
      -1.2923227925118371e-002 2.5615658407210501e-003
      7.9120374217406340e-003 -3.3185392513826279e-003
      1.3434786699219035e-003 3.6934047496801196e-003
      -1.5415676690249782e-002 -5.0856741154258400e-003
      5.6016185365488427e-003 1.7527535061306557e-003
      -1.1964989054931319e-003 2.2512593871247479e-003
      1.3358580497091507e-002 -4.6995303482442767e-003
      -1.0379358616676927e-002 -6.2695723000072848e-003
      -1.1847332334847530e-002 3.8995001385892699e-004
      1.8727424360146381e-002 1.7811897268175513e-002
      -1.9074688984556967e-002 -5.9177176668867414e-003
      -3.4395583196805577e-003 9.2026768207137757e-004
      1.5423276781699349e-002 1.6966700560784670e-002
      -2.8449035867526358e-003 8.5917132829644582e-003
      -9.2791109023721962e-003 -8.8047460451804501e-003
      7.5377998477479998e-003 -2.0875712031748809e-003
      1.2511790889837442e-002 8.9373650320005854e-003
      4.6588097256703301e-003 6.4736992852721552e-003
      8.8879850333750815e-003 -1.3623687661450043e-002
      -1.8335488674599922e-002 5.2361021535434820e-003
      -6.6436538018822214e-003 1.1757932212846005e-002
      -3.4068234563214873e-003 -7.0762455600596966e-003
      -5.5445600799552816e-003 6.1489217326527066e-003
      -2.3229454524963645e-003 5.6104963461671019e-004
      -1.5102503287841256e-002 9.5645294076748197e-003
      2.3776606697471754e-003 -6.5948419602915778e-003
      8.7022613621640949e-003 1.3844104436236255e-002
      8.8035096606400454e-003 -4.9424642270951185e-005
      -7.9615697553878720e-003 8.7939878259879808e-003
      -7.9218200888625037e-003 -2.7933162183907071e-003
      -4.3056811022138398e-004 8.8079999776179245e-003
      3.5477840747262686e-003 1.7570640770356875e-003
      7.9225525179941851e-003 1.2487757827670695e-002
      -1.4216761099895834e-002 2.2998368616403211e-003
      8.9579309479274720e-003 8.0849379002552648e-003
      -9.7957127700301801e-003 7.8324933003426911e-003
      1.3832547141351813e-002 6.9213463859652009e-003
      1.1594424216113362e-002 -7.7288356850851699e-004
      -9.6173951435872384e-003 -1.0063788794612291e-002
      9.9127518473267839e-004 3.8222381642590061e-003
      -2.4570865362216528e-003 6.0481161796621854e-003
      -3.0713636239724528e-003 -1.4085897434976659e-002
      -1.8608991222102165e-002 -5.4195466807691996e-003
      -1.2926211942565949e-002 -5.0317655274085852e-003
      8.8022556732135701e-003 -2.0010628990857113e-004
      -4.0627160361732233e-003 -1.2660855549994595e-002
      -8.3949525241188670e-003 -1.7870210215395147e-002
      1.6500219151011304e-002 9.4561593954303469e-003
      4.7705282703915160e-003 -8.3660740361453240e-003
      1.5466333568955276e-002 -1.7402307654707716e-003
      2.1122169322277382e-002 -1.7593289323935752e-003
      7.6995647455093590e-003 -5.7427475696479836e-003
      -7.2897029176337497e-003 -1.7554938736068500e-002
      3.1303631001993039e-003 9.1483818608229981e-004
      -7.0736628931170730e-003 -1.7204058897710123e-002
      8.8774260732521447e-003 -2.1631600300262921e-003
      4.8188346976350098e-003 -6.9006443426632286e-003
      -2.1616620527994978e-003 3.7478199308474311e-003
      1.3522048093449422e-002 1.4817538133354999e-002
      1.8062636088956821e-003 7.9055699767942404e-003
      -9.2166480213258049e-003 2.4260417566922474e-003
      -8.3048134104015889e-003 -2.5429562754155605e-002
      6.7490594946418832e-004 1.5160480424329039e-002
      4.0981434756768411e-003 1.4344368056159865e-002
      1.9201108207739223e-002 -3.7877791322460967e-003
      8.2726721150804695e-003 2.9016160745808858e-002
      4.1188681043792329e-004 5.2401407301982074e-003
      -9.4853910566190421e-003 2.3245803856895655e-003
      -2.1305614859483884e-002 1.1773724365500057e-002
      -1.6571779079084435e-002 8.9198315952994916e-003
      1.7605620517049930e-003 -7.6048226851421511e-003
      1.3418117302895891e-002 1.8436488644371931e-003
      1.8125964660096666e-002 1.5314542139460018e-003
      4.5063098582574855e-004 1.7789897912634373e-002
      -3.9002754010165493e-003 -1.3351280273118543e-002
      -1.3087914565148301e-002 -2.4004756419691248e-004
      -1.7502216735351187e-002 7.2843593540142058e-003
      -1.7340446441457918e-002 1.0771145637060005e-002
      8.7666585738832188e-003 -9.0658496251197370e-006
      -8.1765812016105545e-004 -6.8252072349547447e-003
      -9.9751335902510171e-003 7.5918319054948712e-003
      1.1232722902395928e-002 -4.3279302153876849e-003
      2.7001722157245205e-003 1.7134430948644523e-002
      6.1807107078994516e-003 8.1310137635382494e-003
      6.8258158663838881e-003 -1.2648167686952341e-002
      7.1473401067482433e-003 2.3054942690658184e-004
      -3.6720791737200275e-003 -1.3660905446347925e-003
      1.0987461626340031e-002 -1.7787953673933592e-002
      1.5258739399698590e-003 1.7778663809485458e-002
      4.4321903602891396e-003 -9.8808695546628179e-003
      -1.8034638947794997e-002 4.9384451897149413e-003
      -2.0487827646744037e-002 7.4144777033830081e-003
      6.4255687466698661e-003 1.7922007778995257e-003
      -2.5537923200215574e-002 3.9568825105045276e-003
      -2.1098316675921902e-003 2.8290446999560575e-004
      2.9852827724510950e-003 1.2373692315540926e-003
      1.5185093021109888e-002 -3.7477509838129393e-004
      -3.6146934167542544e-003 1.4045337593494458e-002
      -3.2301106422431771e-004 -1.1058655255327088e-002
      4.7787240769810845e-003 -6.4221496492765920e-003
      -1.9859788069330277e-002 -6.6765183576824854e-003
      -1.8395988105610692e-002 8.1749138336238650e-003
      -3.0524081993941032e-003 -7.8860759389221286e-003
      -2.0619836618849686e-003 -5.5253564178926184e-003
      2.1015131881906065e-002 1.6524479230141078e-002
      -5.9628461123732582e-003 -1.2935794968737731e-002
      -4.7390444323568209e-003 -1.3987232054896282e-002
      -1.9848307554860688e-002 -3.8084486528082054e-003
      8.2729360553485871e-005 2.3428293438170341e-003
      -3.7395522374147512e-003 1.4863888914016035e-002
      5.2023174376108457e-003 -3.4209888536236251e-002
      -1.6746112613042107e-002 6.1391769670768497e-003
      1.1839398617697318e-002 -1.3412550234836985e-002
      -5.1055454081650100e-003 -3.2577104789828495e-003
      5.1158757229198158e-003 -1.0141782436153704e-002
      -2.5344731282250187e-002 -1.9306310780380597e-002
      -6.5736659148456656e-003 2.3649460549077228e-004
      -4.2197558522338655e-003 1.2161342349691863e-002
      1.4075120156847930e-002 2.2250853383771241e-002
      3.3064927395607250e-003 -7.5160924898751893e-003
      -1.3337023446672518e-002 -8.0118240623537574e-004
      -1.1775628136786852e-002 -2.1884163517536304e-002
      -8.7527558679772435e-004 -2.5713434931194715e-002
      2.2465486571745637e-002 -4.9619226243243263e-003
      8.8514227770440743e-003 2.2563149456255711e-002
      -1.1073481925042095e-002 -7.9847630849421130e-003
      2.3928023072064637e-003 4.7230286622019649e-003
      1.3354120187251680e-002 -2.4870423456625915e-003
      -4.8132330364166493e-003 3.2376548660068725e-003
      4.4899213666831327e-003 -1.5864906723606097e-002
      1.9692683434125419e-002 1.1416808265283112e-002
      -8.7052953456891041e-003 1.8877510817081805e-002
      -7.2197710486767894e-004 -1.0213877288653568e-002
      -5.0650659757042697e-003 -9.0913791995432761e-003
      -2.7138389879282094e-003 1.0911826821527873e-002
      9.9345484441995639e-003 -9.7034970214969155e-003
      1.4941556507054657e-002 -7.3283175601024670e-003
      -9.2389585621117359e-003 1.2251750914716093e-002
      -8.0083343150583620e-003 1.6244446592460094e-003
      6.0347529818033613e-004 7.5805328594284790e-003
      1.8164217514739325e-003 5.9993868909035556e-003
      1.2510965191962898e-002 -1.6460868907983314e-002
      -1.3727127381801128e-002 1.0838009507925315e-003
      7.8391511290254682e-003 -1.5195744325600984e-002
      1.4650076234345114e-002 1.4972885440365272e-002
      7.7960443094584175e-003 -7.9859472193599549e-004
      -5.4214749429797272e-003 -1.1645474554215177e-002
      -2.2504928503983248e-002 7.2030009924365385e-003
      -2.2112817312177056e-003 1.3520152894298558e-002
      1.8020889830926547e-003 -1.1379562318393493e-002
      -3.6764842895827847e-003 4.3248362845346514e-003
      -2.4485555224722875e-003 1.7289512550625433e-005
      -1.6696625715447149e-002 -2.2433435162042846e-002
      6.6554885636662016e-003 -1.0359137495318511e-002
      1.6805224180661663e-002 5.4003794432143214e-003
      -8.1628206755276038e-003 1.0524000837881346e-002
      -1.6465123094783214e-002 2.9603222369397812e-003
      1.2478256624672737e-002 -1.5622999059144726e-002
      -1.6867198217318451e-002 1.0772743754184818e-002
      8.7034975652481340e-003 -1.6506961104081116e-002
      -5.7142697645883832e-003 -1.6600168948501803e-002
      1.1916654253270386e-002 -2.8146037946919843e-003
      -1.2189810562285288e-002 2.5290736074649500e-002
      -1.5941728606167337e-002 2.2195404434415103e-002
      -6.3248811985919980e-003 2.5707919642730969e-003
      8.0287509078347027e-003 6.5416287786951152e-003
      6.1568265794512507e-003 6.3596742429880221e-003
      -9.3961602985898965e-003 -1.8355765774803436e-002
      -1.4239120718267322e-002 4.6563137813694069e-004
      -9.0973493342815757e-003 -5.4054133332063154e-003
      1.9375683061694383e-002 1.1781139915650258e-002
      4.8480965651051307e-003 6.4971811671533262e-003
      1.5968878797456943e-002 1.0293461385106735e-002
      1.3113258797472405e-002 -1.1172332762306473e-002
      -9.1405990024880275e-004 -5.7294378058170576e-003
      1.0975927266353639e-002 7.1034486205153024e-003
      -2.9089808466291663e-003 4.3913502695577672e-003
      8.0781518619516962e-003 2.0414461018519610e-003
      1.9131020441230714e-002 1.2872113500638181e-002
      1.7190641608638335e-003 -9.4211461450511083e-003
      -8.1297011342457426e-003 -1.4820443280905244e-002
      2.6346624307978087e-003 1.4938617822077912e-002
      4.9997412510117663e-003 -5.6651347209418813e-003
      6.4992513057688722e-003 5.0841304972098411e-003
      -5.1215898986288746e-003 1.5964948174309198e-003
      7.6303263371780752e-003 -1.3968241528957568e-002
      -7.0614679257924506e-003 7.6114242830276138e-003
      1.2071834320733167e-002 1.6239813737470226e-002
      3.8147671099210655e-003 5.0865625336567379e-003
      -1.1304212337609979e-002 -1.1758853900307217e-002
      -1.0730590400193984e-002 -9.8585000719522854e-003
      5.2243654892098895e-003 -2.5907627108186118e-003
      -4.6660204199258223e-003 1.3628474095967145e-002
      1.0920254293864317e-002 3.5151429443916297e-003
      1.6195577797401300e-002 3.1364127447276254e-003
      8.1673507690301350e-003 -1.0285021356781185e-002
      1.1249521666333039e-002 -1.1342643494306026e-002
      6.3420832173635994e-003 -5.9483368130092765e-003
      8.7466891002675514e-003 1.1555494048295228e-002
      1.4838076085648876e-002 1.0457649951205232e-002
      -1.0289633874529746e-003 1.3589065201859119e-002
      -7.1834229009940598e-003 8.2945773079165317e-003
      1.2676957130535810e-002 1.3415776350768450e-002
      -1.9408402835786509e-003 8.6348127227850926e-003
      -8.2614520068071910e-003 -2.0307421781101086e-002
      -3.7007835327446718e-003 -7.0995878763931088e-004
      -1.1405093033860586e-002 1.4839924505711321e-002
      -4.2951456697262694e-003 4.8806188891075911e-003
      1.2885874771882739e-002 -5.4511960683766925e-003
      8.2322123628499038e-003 -1.9106238577105274e-002
      -3.5374127424219535e-003 5.7849963299240279e-003
      -3.9377881644087707e-003 1.4670973086032787e-002
      5.8390616317886288e-003 1.0737585508919168e-002
      7.5543835766285206e-003 -5.8469501880981621e-003
      6.7885392897996206e-003 7.9452438653163406e-003
      -4.4285231429221986e-003 -1.5375216850154676e-002
      -5.8980976076767038e-003 6.8373310152098745e-003
      5.5829352849523827e-003 1.3427266595927238e-003
      2.4376332114188844e-003 -3.2876790669667433e-003
      -1.1500135263222284e-002 -9.3580338030869528e-003
      6.9773136313679134e-003 -1.1605313304943193e-002
      -3.7769684713729618e-003 5.1019850321604096e-003
      -1.4984933502420344e-002 -7.8368980458618145e-003
      -4.3951013498269229e-003 -9.2142255771219279e-003
      -6.0308374100913930e-003 3.9971102964681381e-003
      -1.6880134687249689e-002 7.3039912035556126e-003
      9.2346021466273959e-004 -3.0375090949985358e-003
      1.4813277680942932e-002 -8.7172431430386169e-003
      -2.2260811793834625e-002 -1.4515738232071647e-002
      1.6914421619004135e-002 -1.6073279400976555e-003
      1.1819908798376407e-002 8.7234508240497197e-003
      -9.8355648132540368e-003 -9.7334080748260748e-003
      2.3212577425679505e-003 -6.4706880859266604e-003
      1.2616332688294624e-003 -8.8498209287894633e-003
      -6.8342429018391866e-003 6.1168953207913837e-003
      1.2240467257729199e-002 -9.4181499135465533e-003
      -4.5112179317794918e-003 -8.1531074813555055e-003
      1.3578333892411738e-002 -6.3390677328753616e-004
      -8.5478877894176689e-003 2.5941303759921645e-003
      -1.6913425144632253e-002 2.1320110530371895e-002
      -8.5017120601093791e-003 -9.6247271055816611e-003
      8.0582199138400888e-003 -8.7230866498922751e-003
      1.4023096402618366e-002 1.4892887223715026e-002
      -1.8887716900384355e-003 -1.2045473721064984e-003
      -4.8935747671889126e-003 1.3015235916136489e-003
      -2.4760121004353416e-002 -4.8206600952278404e-003
      9.4212183045201008e-004 -7.0545236034379151e-003
      1.0810501883397848e-002 -1.4232216525144366e-002
      -2.7966669663442765e-003 -2.5105307630280856e-003
      3.2057323596673950e-003 -2.2693319210332848e-002
      -9.8367431773851901e-003 -6.4586727347038771e-003
      1.2985623904082977e-002 1.0436635989530747e-002
      1.4582703018911286e-002 1.5577243461364989e-002
      -9.9945415024772673e-003 6.1856263023572430e-004
      7.9770880508052717e-003 1.1004105867519860e-002
      -6.3056629432588400e-003 1.2870828567563880e-002
      9.6773089862112732e-003 -8.8749726877310423e-003
      1.8645012414611674e-002 -1.6375055950488545e-002
      -1.7671637146672522e-002 -1.1957337215173091e-002
      -2.8898150673499616e-003 8.2545995683060733e-004
      -7.0014477477740194e-004 -1.5740542439799093e-002
      8.4594531036378650e-004 -1.1521800494846713e-002
      4.5078674735732445e-003 1.8036031433101441e-002
      -8.3553963266046125e-003 1.7225241056319986e-002
      -4.9320904939206909e-003 -8.6846661776774307e-003
      5.6844200858298163e-003 2.2674564107648041e-002
      1.4542850966556912e-002 1.4962054377786051e-003
      1.8211676791040424e-002 4.3123189163345507e-003
      1.0369313908287291e-002 -7.4766586434893293e-003
      1.1976306617168715e-002 4.2888884329033896e-003
      6.9651525522350225e-004 -9.2187889738417714e-003
      5.2320232417544434e-003 -2.6990930924406333e-003
      -7.9783050182503923e-003 -8.2612998995981648e-003
      1.1165957228047509e-003 5.9864910010131289e-003
      1.1192988410262882e-002 1.5502906534159047e-002
      -1.9418328559662679e-002 -7.8147627413456648e-003
      1.3978295312042617e-002 -1.7547468370251923e-002
      -9.3557086473924096e-003 3.4663255417843012e-003
      -2.3269049345951412e-003 -1.2079545402657947e-002
      -3.2372920184409390e-003 1.3020193869483103e-002
      -1.1960752497718686e-003 -1.8059333146915789e-002
      5.6631898350667873e-003 -1.8413019720616840e-002
      6.6935838691935734e-004 2.7706964155296454e-003
      6.5541795602760376e-003 2.0139854315493332e-002
      5.9906712021389977e-003 -3.0474493128042866e-003
      8.5251140948630604e-003 -1.1101777179918546e-002
      -8.3529585926585131e-003 -9.4321459485566216e-003
      -8.6498684175592710e-004 -1.3135322924090281e-002
