<?xml version="1.0"?>
<opencv_storage>
<opencv_ml_ann_mlp>
  <format>3</format>
  <layer_sizes>
    128 256 10</layer_sizes>
  <activation_function>SIGMOID_SYM</activation_function>
  <f_param1>1.</f_param1>
  <f_param2>1.</f_param2>
  <min_val>-9.4999999999999996e-001</min_val>
  <max_val>9.4999999999999996e-001</max_val>
  <min_val1>-9.7999999999999998e-001</min_val1>
  <max_val1>9.7999999999999998e-001</max_val1>
  <training_params>
    <train_method>BACKPROP</train_method>
    <dw_scale>1.0000000000000000e-003</dw_scale>
    <moment_scale>1.0000000000000001e-001</moment_scale>
    <term_criteria>
      <epsilon>1.0000000000000000e-004</epsilon>
      <iterations>10000</iterations></term_criteria></training_params>
  <input_scale>
    2.2011883190552556e-002 -3.6628532659534301e+000
    2.2362534736606259e-002 -3.5122095828086937e+000
    2.3397156016035942e-002 -3.4462397214654321e+000
    2.4776393329273141e-002 -3.4812754934007759e+000
    2.7138180928059603e-002 -3.7298856237426468e+000
    2.8802921868813270e-002 -4.0371764418052480e+000
    2.5677371439529018e-002 -3.9332420485750279e+000
    2.3348479245012304e-002 -3.9040468817601992e+000
    2.2873755250380965e-002 -3.6682799045072163e+000
    2.3768643912551232e-002 -3.4775165260884009e+000
    2.5535899498770002e-002 -3.5943759778100577e+000
    2.6406254003380241e-002 -3.7211875253660014e+000
    2.7488577263911459e-002 -3.7987554985270053e+000
    3.0649004079588180e-002 -4.0861992042453705e+000
    2.9821909919077988e-002 -4.1884101225054016e+000
    2.4420873397908435e-002 -3.9119502361430576e+000
    2.4281211157663952e-002 -3.7971209193297897e+000
    2.5218110888857777e-002 -3.7250193347950211e+000
    2.5625654914989360e-002 -3.9598264168205541e+000
    2.4610054636268499e-002 -3.9485559730032307e+000
    2.3406624566053909e-002 -3.7241957497054359e+000
    2.4406118336092172e-002 -3.6569412363056175e+000
    2.7223684165496191e-002 -3.8810412708036819e+000
    2.5059196527316186e-002 -3.9109412759558575e+000
    2.4434448298042859e-002 -3.7650535842144626e+000
    2.5068150735499124e-002 -3.8332444045793959e+000
    2.4725199339421418e-002 -4.0409714799691461e+000
    2.4283587190220592e-002 -4.0904655915582175e+000
    2.3080310892077759e-002 -3.8807553083055297e+000
    2.2718236564152065e-002 -3.6385801866759655e+000
    2.4596051684625087e-002 -3.6478277032510480e+000
    2.4503100806129250e-002 -3.8178788326736322e+000
    2.3820335001618405e-002 -3.6683931945638939e+000
    2.4427063760534877e-002 -3.7924911691453196e+000
    2.4920921278324459e-002 -4.1036593595326449e+000
    2.4448757211169667e-002 -4.1116697439884593e+000
    2.3209044939391434e-002 -3.8768908869490852e+000
    2.2753333283756914e-002 -3.6451820667702872e+000
    2.3355000103168457e-002 -3.5070754034232015e+000
    2.3531156540399209e-002 -3.6932555899752080e+000
    2.3374247510158937e-002 -3.6348566895366812e+000
    2.3938178536000939e-002 -3.7210247625348907e+000
    2.4843789998778020e-002 -4.0066822320529250e+000
    2.4857453790323773e-002 -4.0357361958959110e+000
    2.4266338925020368e-002 -3.8704601392830549e+000
    2.4764278964142006e-002 -3.7962358741048794e+000
    2.4548716704233517e-002 -3.6536532276888787e+000
    2.3426940533905000e-002 -3.7244796321230691e+000
    2.3105380941011167e-002 -3.6429417555554791e+000
    2.3353919851795260e-002 -3.6215889883276224e+000
    2.3706885825571029e-002 -3.7467711198788050e+000
    2.4495949019479241e-002 -3.8796726291446082e+000
    2.4727875403705652e-002 -3.7948335548421315e+000
    2.5635027225124968e-002 -3.7208579042426866e+000
    2.5947920156340773e-002 -3.7742144623265110e+000
    2.3778419336103484e-002 -3.8135459955770310e+000
    2.3313451143113194e-002 -3.7129283659760008e+000
    2.4085938537514142e-002 -3.7426641563680381e+000
    2.3484975541170523e-002 -3.7482020963708154e+000
    2.4049883564105382e-002 -3.8669517525509618e+000
    2.4033512389765196e-002 -3.6956704935554887e+000
    2.4513944793728051e-002 -3.5020494736053718e+000
    2.5784424802424443e-002 -3.6635666612810271e+000
    2.4241973573314021e-002 -3.8318409900708090e+000
    2.3207833706065245e-002 -3.7112927311573407e+000
    2.4189702473255047e-002 -3.7721338624026766e+000
    2.3830567835245748e-002 -3.8720564013682055e+000
    2.4362025328051432e-002 -4.0282608879933042e+000
    2.3796779994513378e-002 -3.7698407549066819e+000
    2.3314226255708701e-002 -3.4156949342286054e+000
    2.6118176730812299e-002 -3.6763360158881908e+000
    2.5333200312475039e-002 -3.8667854432125157e+000
    2.2861095680331612e-002 -3.6470936589748342e+000
    2.4531553596195448e-002 -3.8551336476421150e+000
    2.4596871213161287e-002 -4.0418596579034061e+000
    2.3731283276042976e-002 -3.9354446292780678e+000
    2.2300526449996125e-002 -3.5982476164821762e+000
    2.2239109411005722e-002 -3.4227523115221326e+000
    2.5443129833589716e-002 -3.6630649491280036e+000
    2.5452035113917183e-002 -3.7580368673890341e+000
    2.3014239636872658e-002 -3.6591053833687051e+000
    2.4677048036171385e-002 -3.9192045144412848e+000
    2.4354365122945622e-002 -4.0399272807650366e+000
    2.2841010364212235e-002 -3.7801675247509490e+000
    2.1478240548279782e-002 -3.5181913489820604e+000
    2.1769386379709318e-002 -3.4719731603024844e+000
    2.4820003862663961e-002 -3.6555586378693214e+000
    2.4837535049544387e-002 -3.6138185263724161e+000
    2.3963133408194091e-002 -3.8055934797047550e+000
    2.5600308327124083e-002 -4.0433259387247675e+000
    2.4521382510422966e-002 -4.0638061165398458e+000
    2.2708287262698149e-002 -3.7947114104745343e+000
    2.1420898539687361e-002 -3.5642528540855314e+000
    2.2263081428199046e-002 -3.5936068041196947e+000
    2.5197750929044260e-002 -3.7432127893058320e+000
    2.4876150799820987e-002 -3.6332476041441994e+000
    2.4717290829982305e-002 -3.9313916465553667e+000
    2.7154221933501373e-002 -4.1582009128755022e+000
    2.5679866840541479e-002 -4.1691927950106349e+000
    2.3422608810112894e-002 -3.9518787119655645e+000
    2.2078377129971745e-002 -3.7049229801628538e+000
    2.3379747135474575e-002 -3.7384014120079576e+000
    2.5681975125541188e-002 -3.7752503434545548e+000
    2.4695649208723417e-002 -3.6716043567541883e+000
    2.4549872761585885e-002 -3.9224559204823848e+000
    2.6486196855313147e-002 -3.8698388569161626e+000
    2.5913407616615629e-002 -3.9446461352948168e+000
    2.3663694112428614e-002 -3.8572229397984716e+000
    2.2716022605223624e-002 -3.6800935759367670e+000
    2.4703332945219408e-002 -3.7338448867398828e+000
    2.5798978189651472e-002 -3.6759985440503051e+000
    2.4070319961916224e-002 -3.6941508556034339e+000
    2.4225504317571405e-002 -3.9928016767001369e+000
    2.5557434542198450e-002 -3.7976144502591187e+000
    2.6003257738991620e-002 -3.6846167884121139e+000
    2.4815512187745924e-002 -3.5762575891809152e+000
    2.5245437198390799e-002 -3.6003257941094726e+000
    2.7406753311515566e-002 -3.7629472296710875e+000
    2.5346461903337801e-002 -3.6084840095057942e+000
    2.2694277708130407e-002 -3.6528200734161520e+000
    2.3955000394284186e-002 -4.0951279682652899e+000
    2.4538816767448957e-002 -3.9573919034084017e+000
    2.5126481907868391e-002 -3.7730445091101545e+000
    2.4973250669802320e-002 -3.5505934426435157e+000
    2.6411014737192005e-002 -3.6822874253845375e+000
    2.6926833295801700e-002 -3.8457321143235816e+000
    2.3690644176739765e-002 -3.6695990911005181e+000
    2.1999580269277327e-002 -3.7037431292652654e+000</input_scale>
  <output_scale>
    5.2631578947368418e-001 4.9999999999999994e-001
    5.2631578947368418e-001 4.9999999999999994e-001
    5.2631578947368418e-001 4.9999999999999994e-001
    5.2631578947368418e-001 4.9999999999999994e-001
    5.2631578947368418e-001 4.9999999999999994e-001
    5.2631578947368418e-001 4.9999999999999994e-001
    5.2631578947368418e-001 4.9999999999999994e-001
    5.2631578947368418e-001 4.9999999999999994e-001
    5.2631578947368418e-001 4.9999999999999994e-001
    5.2631578947368418e-001 4.9999999999999994e-001</output_scale>
  <inv_output_scale>
    1.8999999999999999e+000 -9.4999999999999996e-001
    1.8999999999999999e+000 -9.4999999999999996e-001
    1.8999999999999999e+000 -9.4999999999999996e-001
    1.8999999999999999e+000 -9.4999999999999996e-001
    1.8999999999999999e+000 -9.4999999999999996e-001
    1.8999999999999999e+000 -9.4999999999999996e-001
    1.8999999999999999e+000 -9.4999999999999996e-001
    1.8999999999999999e+000 -9.4999999999999996e-001
    1.8999999999999999e+000 -9.4999999999999996e-001
    1.8999999999999999e+000 -9.4999999999999996e-001</inv_output_scale>
  <weights>
    <_>
      3.6862573919129379e-002 1.1813237140510214e-002
      7.4366355573433820e-003 -1.3704029760326216e-002
      -1.8986964655663918e-002 2.0783719265324633e-002
      -5.4325208535751783e-002 -2.9799437251680095e-003
      -1.7211377339192372e-002 -2.7135226809262411e-003
      3.3088260673218413e-002 -2.6825214935694102e-002
      1.5515397303643695e-002 -1.0473310683906853e-002
      -1.1366638661559068e-002 -1.9722363868166063e-002
      2.1570808342930705e-002 2.5458504429548150e-002
      -8.8080041157310961e-003 -2.3109487443764076e-002
      7.3803464532119526e-003 -6.8720702495084105e-003
      4.3587551640731435e-002 -3.5168720035038104e-003
      -6.6751646104606819e-003 -1.9822633213028434e-002
      2.9466637412051307e-002 1.7655401948898922e-002
      6.0116832905133193e-002 3.4039961651590483e-002
      1.2064843972509353e-002 -6.9182810717767947e-003
      6.0363528690351685e-003 -9.2254264015594004e-003
      -1.9374706634135014e-002 -3.3517313057251702e-003
      -2.0893998612958084e-002 -5.8579975949501198e-003
      2.7668935029454078e-003 -2.7800947313160761e-002
      -9.2015971661305925e-003 -2.0249490109469168e-002
      6.6799024713772581e-003 -1.8114661064811566e-002
      1.2984691728561860e-002 -9.0154191788539024e-003
      -1.8799203394031263e-002 -1.0525016871160848e-002
      -1.3759335211817875e-002 -7.7003976794985446e-003
      7.3387497186899638e-003 -1.1441177177067084e-002
      -2.7111988662620889e-002 -2.1373177332531424e-003
      1.9818093440864871e-002 3.3466836356934163e-002
      6.8513034424643980e-003 2.8806308564149987e-003
      1.0777129431780705e-002 5.7778064109853533e-002
      2.5933448845683243e-002 -3.4462291711970681e-003
      2.6082930904601054e-002 2.5236386092800437e-002
      1.2179770365153937e-004 -2.2133992670194169e-002
      1.9525825716151250e-003 -2.2611238751380758e-002
      6.1127679579239614e-003 2.9670013805882849e-002
      3.2446594414316771e-002 -1.1912912907147501e-002
      5.5351492716110687e-002 1.7955570512412193e-002
      -1.1197243641146132e-002 4.5249830255944491e-003
      8.5179141527977897e-003 -3.4690024590860557e-003
      -1.9892732048763704e-003 3.7420963548554544e-002
      -1.9415755227055756e-002 -3.0146013375690825e-002
      1.0202955365608486e-002 -8.7088572860125908e-003
      -5.0037265199649409e-003 -1.9107288564817252e-002
      -9.4948853540209321e-003 -3.4333794844037049e-002
      6.3745856833968351e-003 -1.5557494302338794e-002
      -2.5293658949573774e-002 -2.1887176541724757e-002
      -4.1093611260009225e-002 3.5936046886729106e-002
      -1.6860394057519462e-002 1.3895584525351690e-002
      -8.3492555888891751e-003 -5.3221419905493733e-003
      -9.5047246694945058e-003 2.9254446538308825e-002
      -6.4531393782226521e-003 7.7181149489349808e-003
      5.2444339992341587e-003 3.8240390458089981e-003
      -1.7384920992957510e-002 -1.6230669876441887e-002
      -3.2599256454524297e-003 -5.7516105182505587e-003
      -3.2957541561856298e-002 2.5946171675457538e-002
      -2.3973289013393670e-002 -1.8836673148809463e-003
      -2.8309738716662913e-003 -2.5219575452812950e-003
      -2.2418533583711302e-002 1.3971663686067006e-002
      -2.8098310541460964e-002 -7.4293487003461774e-003
      4.6682760385585394e-002 2.9314567603694018e-003
      1.4491644029807120e-002 -2.3936004110770133e-002
      3.1943138592635274e-003 -1.3274574438410149e-002
      -2.4932346400965824e-002 2.5957480294029878e-002
      1.8868674945222614e-002 -5.2645634421318602e-002
      -3.7155567549303437e-002 -1.6098441700534236e-002
      7.5013015598197064e-003 -2.7498508753463226e-004
      4.0835310106492939e-002 1.4858946170598214e-003
      1.8427614038149968e-002 -2.5816613862128648e-002
      -3.2210473144467871e-003 4.4883270363681354e-003
      -2.4620926732443166e-002 4.1121794332674624e-003
      3.2768768916272860e-002 -3.4759687569101805e-002
      -2.7514987998450421e-002 2.0274428799638304e-002
      1.1317152573488530e-002 -2.5938643669818490e-002
      1.3194143619526366e-002 4.3243426311263189e-003
      1.9683906811273029e-002 -5.0849563168515757e-002
      -2.5574035330237697e-002 4.8683118112736894e-002
      -1.0540037905118252e-002 -1.7731509054853586e-002
      1.6984265570827127e-002 -3.2765323275806356e-002
      8.9340063074628429e-003 -2.4707527764900025e-002
      -5.3376771406707380e-002 -2.8500447232982142e-003
      2.4780760758375670e-002 -1.2309144135654647e-002
      -4.4030505568278221e-002 3.4422691162209716e-002
      2.8610103396523815e-003 1.3633169943048024e-002
      -1.2766324985548206e-002 -4.1090834459835086e-002
      -2.7019385369155026e-003 -4.0522966765819221e-002
      -5.1000062467225826e-002 -3.8088447754750183e-002
      -1.0242055782799632e-003 -5.2012165366628726e-002
      -1.0963303807596509e-002 1.6600341406992594e-002
      3.7044651619253896e-002 4.3761305996831701e-002
      -8.2473297087252272e-003 1.4049931752818563e-002
      -3.1007339560227387e-002 3.0806323191679624e-002
      1.3556669526067957e-002 -1.6517117025983324e-002
      -2.2407489344359065e-002 3.3450390293824239e-002
      5.9592401759633359e-002 -3.2342396446134833e-002
      3.4318832048918085e-002 -9.6496140597639654e-003
      2.2999593068164952e-002 4.1234195019124238e-002
      -5.9253911545358216e-002 -1.4765233076580087e-002
      -6.9448009155653554e-003 3.1814072609110074e-002
      -1.3828716713112716e-002 2.7110308775564251e-002
      -4.8517800369551906e-003 2.1707202573521097e-002
      1.0581492350149140e-002 2.9958476863021226e-003
      1.9973844984881188e-002 3.9319894117308414e-002
      -1.6996650850794184e-002 4.7611831481126327e-002
      3.0656962569829286e-003 -1.4065356504542766e-002
      -1.0926418540385240e-003 4.5525717755783429e-003
      1.2577579253733198e-003 2.5429698152434503e-002
      -2.3509006443174263e-004 1.9561573122163677e-002
      1.4886228284083399e-002 -4.2445150704855092e-002
      3.2110709986486026e-002 1.6796142813554682e-002
      3.3356549249626950e-002 7.3636960858698231e-004
      -1.2754609904182809e-002 -1.0547920358024224e-002
      -6.4077353071102738e-002 -1.5385498512726635e-002
      -3.4149204104872086e-002 4.6091162950456441e-003
      -6.0100494799555412e-002 -3.9745424236550052e-002
      -2.1864713504824079e-002 1.6521303757137638e-002
      -1.5607114688240614e-002 2.4251813511565801e-002
      -3.6750864177693542e-002 -2.3821228785726793e-002
      2.2681554225559623e-002 -5.5519837244785283e-003
      -5.7453305229399274e-003 -1.6997554703924781e-002
      3.1975739557968340e-003 2.0706371851176013e-002
      5.5724468800870171e-003 3.2536149051299826e-002
      3.2181114447614498e-002 -2.4803674365729913e-002
      -1.4432900324582476e-002 2.9197079209260651e-002
      8.0734788268798739e-003 1.1124928607520173e-003
      1.0354686183572770e-002 -2.1853019505740576e-002
      6.4280693381665909e-003 3.7011829296155394e-003
      -4.2919956296961189e-003 2.7679158134842934e-002
      -5.5373945495142294e-003 4.2284284126475460e-002
      2.6151104891394959e-002 2.0196920935934577e-002
      4.1424257857748534e-004 -4.1922365369299001e-003
      8.2918402649872561e-003 4.9209416743525726e-002
      -3.2445521770342711e-002 2.6004418534234632e-003
      -2.1849197335200816e-002 -2.0685157266470979e-004
      2.8765116426415386e-002 -1.2624117777552924e-002
      2.3433760143190686e-002 6.7137898312884109e-003
      -3.6458418815482735e-003 1.8016362983450988e-002
      2.1487097576968213e-002 -1.5755447636955130e-002
      8.2808660091109672e-004 -1.1764453190941118e-002
      4.5831252687336685e-003 2.4305939166095213e-003
      1.5070907905413022e-002 3.0011847177006667e-003
      1.8784765676397341e-003 -4.8857133013073756e-003
      1.5390854070974833e-002 1.2745176090999929e-002
      1.1292991243167402e-002 -2.0963431448157281e-003
      2.7943057230927170e-002 -6.8603819284576168e-003
      4.5534945731965379e-003 -2.8982968454182967e-002
      -1.0398904915240439e-002 -8.6377805039038226e-003
      1.5441376829780242e-002 -2.8426646147152730e-003
      1.3043013893364987e-003 -2.1155767598781801e-002
      -1.9777169275930588e-002 -1.4640912244785633e-002
      5.7336013991182268e-003 6.5215902554497610e-003
      2.0569123430025982e-002 -1.4619593929160925e-002
      7.6542393657566292e-003 -1.2164187121251158e-002
      -2.8985902665983926e-003 -8.4448674745028918e-003
      -6.4888897140921477e-003 5.9142333192667524e-003
      -1.8373216703089664e-002 -7.2297217720599105e-003
      -1.5643707022270519e-002 1.9014758546690116e-002
      4.1890044903512653e-003 2.5656282155929459e-002
      1.0934966333254260e-002 1.0160431116669658e-002
      -2.5445235474037649e-002 3.0239715751722254e-002
      4.4007765412718090e-003 -1.9500395059711929e-003
      -1.0958233077796668e-002 -9.9364948857858654e-003
      7.5635440064360559e-003 -7.6782940822689317e-003
      3.4469172043819427e-002 -1.0223726435856763e-002
      -3.0289699394727419e-004 1.1571822384592697e-002
      4.6888917680694081e-003 1.2808518527466744e-002
      -2.4689711296811967e-002 -8.3640310049291882e-003
      1.9898793525998899e-002 -4.9761467408039536e-003
      -4.9112108022851672e-003 1.1858868962025660e-002
      -3.1111718242612725e-002 -2.1112817854651449e-002
      1.4708537141415755e-002 -3.5042256422773032e-004
      -3.0521301948838013e-004 -6.0607459588558378e-003
      9.9473633679441429e-003 1.3455742722607919e-002
      1.3967917732674220e-003 -1.0971079349984389e-002
      -9.1202464259068107e-004 -2.0790338328582795e-002
      -3.9191292568424650e-002 2.6667508920760388e-002
      1.0683592899626495e-002 -1.1114223674657855e-002
      -5.9282342586264199e-003 1.9742895375878002e-002
      2.3310366676098041e-002 1.3601666731553725e-003
      7.2270344265768253e-003 1.6606737394581749e-002
      -9.3545787267681670e-003 1.4527299920674266e-002
      -1.0972947822961633e-002 -2.1767283603516031e-002
      -8.1962421293335017e-003 2.2005399607522683e-002
      7.3825124261252869e-003 1.6606498740022312e-002
      -2.2829617597083022e-002 -2.6756561515636277e-003
      -2.5678368189186894e-003 -2.1473479561301433e-002
      1.3842129716775497e-003 7.1912555887664971e-003
      -1.5716272979117742e-002 -1.3597435174839231e-002
      -3.3180179002430554e-003 -1.7939737582792954e-002
      -1.1417599414496670e-002 -4.6844726880504685e-003
      1.5994469813848222e-002 1.9506099018264367e-003
      -1.0398529476362857e-002 1.3140727000435960e-002
      3.3742101487838905e-003 -3.6595856777209050e-002
      -1.8503159129165135e-002 -2.3754412856946253e-002
      -6.0055723017681355e-003 3.8338279158498169e-002
      2.1234342013962192e-002 9.9715537467707886e-003
      8.9777603379922032e-003 -2.2837976134332021e-002
      -6.9363350629153813e-003 -1.6178261400765809e-002
      -1.0703878511320380e-002 3.2996804339867299e-002
      -1.1621023908008968e-003 -2.2973865274014467e-002
      6.0203627619816935e-003 -6.6298638796253740e-003
      -7.1311313593904208e-003 -2.6992149846503003e-002
      1.6357342917930690e-002 1.2103227001331497e-002
      1.8612183641682555e-002 -2.5964876586680046e-002
      1.4770135554677169e-002 1.7491492477812624e-002
      8.6043131711942434e-003 3.7207943076535008e-004
      1.8160027029147555e-002 -1.9705509639713778e-002
      -9.8507741430195802e-003 -2.4929702256093700e-002
      -1.9908770637764254e-002 1.4427156634309516e-002
      1.4614433810612143e-002 -2.5146059975066082e-002
      -2.0107679940383530e-003 1.6705056392776557e-002
      -5.5624167817223905e-003 8.3562492518390163e-003
      -1.1983463169286593e-002 -4.5029238824987458e-003
      -7.4526270973075742e-003 -1.5405485355525359e-002
      -7.2397174487094469e-003 -2.0315993884434527e-002
      1.2298068554068939e-002 -3.8186048731242261e-002
      -1.2153153668162473e-003 1.5306191528703392e-002
      2.3798845789518346e-002 1.0041632013560483e-002
      2.2192882375520963e-003 6.7684314452350304e-003
      -7.9501084408031258e-003 -1.6791581247698476e-002
      1.3652217998289565e-002 1.3436174203815762e-003
      -1.8543512535202859e-002 2.2968917972821936e-002
      2.1588213872733485e-002 5.1620266550413321e-003
      8.3778936228946985e-003 -7.6514226313782263e-003
      2.9185782472825553e-003 9.3175238027839030e-003
      -5.2866546829631400e-003 -1.9215766158037297e-002
      3.0785428810501499e-002 3.1321925760393825e-002
      -3.1897413774204424e-003 1.6929284983074937e-002
      1.3510793972538911e-002 -4.8811500426847627e-003
      3.4143027701088978e-002 8.8339032346948527e-003
      1.5001727480872078e-002 1.8347659036874412e-002
      7.0228132746574991e-003 1.1971227666968533e-002
      -3.3210832377268190e-003 1.2669469403211089e-002
      -1.8849462434135243e-002 1.5643704599417947e-002
      -1.4940469969677638e-002 -4.5171120333096287e-003
      -9.5903183661464816e-003 -1.1310427017441982e-002
      3.0650101032104193e-002 -2.4589043919312430e-002
      4.1239278375713465e-002 5.8988447435751835e-003
      1.9529515990653203e-002 2.0894489389466191e-003
      4.9649860512856973e-003 -4.5636300167320783e-003
      -2.2195707516549510e-002 -1.9904040637087526e-003
      -1.2839700353780840e-002 -8.5077158998125442e-005
      -1.0318645480224620e-002 -7.9102082556858008e-003
      -2.3125137449231607e-002 -2.4096349852742463e-002
      -1.6298317998876852e-003 -3.3809376254099886e-003
      -3.5432214791395154e-003 -1.9232034839271460e-002
      1.6943651262565321e-002 -2.7618068059375129e-002
      -1.2107337672154994e-002 1.7953992325015357e-002
      -2.9449209936485725e-003 2.9907832496617340e-002
      7.8627194552578876e-003 3.0132038735032403e-002
      1.7365503500117623e-003 -8.3239905282172181e-003
      9.8438438549519917e-004 4.0437280662540889e-002
      -1.4863945998299936e-002 8.0517377448646786e-004
      3.8919776240403038e-003 -9.0051199396814913e-003
      -5.8423168922612624e-003 2.6616494940174328e-002
      2.6781931248999881e-003 -1.9672919504508403e-003
      -2.2036959161798542e-002 1.3459201566078568e-002
      -2.1497830320330504e-002 1.3597887045255780e-002
      -4.3374173443018593e-003 2.1665206442822712e-002
      4.9629746864304032e-003 -1.6566575516019918e-002
      2.0107200535916844e-002 1.4415263758488273e-002
      8.1541668121549362e-003 -2.1267528287349263e-002
      -5.7748167282553288e-003 1.1912378973432811e-002
      -1.4710194844264319e-002 6.0256554010665311e-003
      2.8938203766276323e-002 2.7834341276219955e-002
      -9.8783583502526154e-003 -2.0682277545164694e-002
      7.8786140708258581e-003 8.4890794311148886e-003
      -1.4047222564748000e-002 -7.0198335760881126e-003
      7.1434865989356425e-003 -2.3142436282765619e-002
      -2.1126187799044321e-002 2.9423264746411475e-002
      -2.5834655347079936e-002 2.3461650192438906e-002
      -1.6749721682270707e-002 -7.5714697303733945e-003
      -7.4202449909804378e-003 -7.0173986650023754e-003
      6.5539812897319940e-003 2.3567409825838298e-003
      -7.3135328532310338e-004 -1.3184016143270907e-002
      1.7813795816219630e-002 -2.2499773188613100e-003
      1.4845972658267656e-003 -8.5781954892533083e-003
      8.7814228344572833e-003 1.1420649897913516e-002
      -5.0015059784276079e-003 1.4747230720782619e-002
      2.0677249455971856e-002 1.2589299015983598e-002
      -3.7223730475498709e-003 3.7613443349121269e-003
      2.7652297139909951e-002 2.6735569283626083e-003
      2.2940539376442168e-002 2.9042706835644291e-002
      -2.5167234652479450e-003 -9.8436599344823329e-003
      -1.6292489239092052e-002 3.6073030973817624e-003
      -4.2995148133049364e-003 1.5810791553490307e-002
      2.1115294745525329e-002 -9.2917825223808887e-003
      4.2742992690295925e-003 1.4526340945187937e-002
      1.5178373188902076e-002 -2.6208796137690379e-002
      1.8005822881214436e-002 -2.6460082805463236e-003
      -1.5202303981965374e-003 3.1670476258305734e-002
      1.4711262234991401e-003 -2.2936698797688577e-002
      -3.6770840727861222e-002 -7.9340270599706861e-003
      -2.6897990663097834e-002 1.4799663689130639e-002
      2.4032483801485264e-002 -3.7521729009042555e-002
      3.5677291476086453e-003 7.4874172827128077e-003
      5.3964129104951408e-003 -1.2908302583079541e-002
      -5.7641654194826005e-003 -1.0149200621309789e-002
      -2.0263318535395326e-003 1.5875783111821001e-002
      -2.3307382479502096e-003 -3.1047340172722575e-003
      7.8279558658016796e-003 9.8968059432961303e-003
      -1.8937238076864892e-003 -6.2495928446045660e-003
      -1.6525325813525282e-002 9.4027098306563497e-003
      -3.9823685168301126e-003 -9.5545296307264699e-004
      -6.1066591747372233e-003 -2.1322797738943352e-002
      -9.0687643146669505e-003 -7.9237659147729077e-003
      -4.9149207195146958e-003 -2.0601687920698140e-002
      1.8598797201355852e-002 1.6403598687886409e-002
      2.1004420998716824e-002 -1.2587211630752639e-002
      4.8732508923101736e-003 3.2764904314188975e-003
      8.8580817797480164e-004 2.4657247187947547e-002
      1.5291658892599437e-002 -6.3779059243610119e-003
      5.2169418772435772e-004 -5.7717342711992694e-003
      1.4975201049222484e-002 -5.7247557439260219e-004
      8.7747584765284787e-003 -1.7084731846440555e-002
      1.5361364847158433e-002 2.2526387223709477e-003
      -1.0388435202096783e-002 1.7974100254379823e-002
      4.3428797065876105e-003 1.9492609888759171e-002
      -6.7839789877437093e-003 8.0020294187434313e-003
      -1.6068814973611823e-003 -2.1073879030452151e-002
      1.7125646094820069e-003 9.5628560627964640e-003
      1.2411986374175983e-002 -6.0435859332158663e-003
      -6.1483817145638019e-003 2.3747812829670825e-002
      2.8109163807867320e-004 3.1974906349328015e-002
      -9.9477906802418106e-003 -2.0965886162676872e-002
      -5.6864751486412251e-004 7.5695710209682391e-003
      8.0789148890490683e-003 2.3134241443700236e-002
      -2.4401817450037295e-002 1.2130449679956598e-004
      2.5718487428172562e-002 -1.6698647077257479e-002
      -2.2275348043674308e-002 1.3975272416241686e-002
      -1.2949645594471195e-002 -7.3521240976196856e-004
      -5.9382269791990131e-003 5.1084772222125168e-003
      1.7456825768472704e-002 5.8872989935148850e-003
      1.6277407747444361e-002 1.8876048766048252e-002
      2.3164143517570686e-002 4.3091509276385635e-003
      -6.1954778549092116e-003 8.3254255747121158e-004
      5.8538748495022630e-003 2.2035570916041178e-002
      2.2796782789429003e-003 -1.1798758927940779e-002
      -2.9811334025949422e-003 -1.2705111401346664e-002
      -2.2681370157321700e-002 -5.4773132463965292e-004
      -2.2561662088012016e-003 1.7016362662127876e-003
      -1.3322657705799733e-002 2.4821533233854765e-002
      -2.2742683464572985e-003 1.4849194667796144e-002
      2.2413166544779057e-002 -9.0242802466821079e-003
      -2.6002792980672489e-003 -4.2763369851633995e-004
      -1.2092947084845677e-002 -5.6996639419780526e-003
      1.5009823691163606e-002 -6.2278660639478968e-003
      2.1096070868430964e-002 -2.7593247864463908e-002
      1.9620748832544412e-003 -1.8951677954838046e-002
      -2.1172274698243294e-002 -2.0998429950431930e-002
      -2.5433501448717706e-002 8.0221254910333925e-003
      -3.1011164312693784e-003 -3.4633867659211420e-002
      1.3354700578254948e-002 7.2158542522665994e-004
      1.6717545707343972e-002 -5.7457175782656203e-003
      1.8011774589078846e-002 2.0050849809272885e-003
      8.0846640612910001e-003 9.3408587358198829e-003
      -2.2745091258204492e-003 3.8948495156563114e-004
      3.5425917172429842e-002 8.3302581058756283e-004
      3.2932284154992635e-003 -3.4290519584783425e-003
      6.2416152573595823e-003 -5.7988290354942505e-004
      -2.0573298823011090e-002 1.6058834809969502e-002
      -4.3670928247061553e-003 1.5217278067611348e-002
      -1.2869491061233336e-002 -9.9379115732395329e-003
      -1.3118259913473811e-002 -1.7105450492780585e-002
      1.3428859326141967e-002 -1.2509819493210443e-003
      1.9909422697514455e-002 -2.0886794391843811e-002
      -1.0411763735340314e-002 1.2116658129318588e-002
      3.7432215839329701e-002 1.2703820929417624e-002
      3.6243523110749402e-002 -1.7766607592401309e-002
      8.1046684807099430e-003 -1.1691468640741234e-002
      1.4431239821636861e-002 2.2312119567049309e-002
      1.5114335019782924e-003 -2.1656015793126506e-002
      -5.2347521853173071e-003 -2.1811289901114597e-002
      -7.6975848643616824e-003 4.0631125505526874e-003
      9.5937384994378566e-003 -1.4995749758428583e-002
      -1.9061249632356520e-002 1.6053289231095971e-002
      -2.8109554709385171e-002 -1.3478021939565482e-003
      6.5907109875510219e-004 -1.3375884935388601e-002
      -3.3682424306138325e-002 1.2441404415352079e-002
      -1.7296628163178242e-003 1.6018427431510128e-002
      1.3898931004544851e-003 3.7977706110325172e-004
      -2.3953662586164388e-002 2.0101796205348892e-002
      1.9990397029601509e-002 2.3869675008786739e-002
      1.1846062774345273e-002 4.1849845758120560e-005
      -1.0761171279552477e-002 -2.0147577540314612e-002
      -3.7192144286835108e-002 3.5957414662558555e-003
      1.7006821730098268e-002 3.8475404972986856e-002
      1.3213273847439510e-002 -5.1700086492875580e-003
      3.5721548138681510e-002 3.4388555297998192e-003
      3.4592828852006868e-003 2.2846942903879783e-003
      -1.6749273810126940e-002 -5.7587067798578785e-003
      1.1310983933610754e-003 -2.4600843500412412e-003
      2.7340588214200993e-002 2.4496921153665855e-003
      -1.4752905866476608e-003 -1.4574068114368847e-002
      2.3020923569877602e-002 1.3980139639923506e-003
      -2.5149672896098801e-002 -1.9093093382843091e-003
      -7.6386234254907240e-003 1.2007624799069172e-002
      -4.8389692306415990e-003 -4.1141285925912511e-003
      7.1072756854320901e-004 1.4602933841736238e-002
      -1.4109080562198239e-002 -7.5478506196393702e-003
      -1.5685809865508042e-002 1.6182052644544288e-002
      1.0064592146909199e-002 2.1454647173450459e-002
      2.4026039417975424e-002 1.6900573718347706e-002
      1.6298579100403637e-002 1.0791771101375329e-002
      -1.3606938826484004e-003 -3.4895088076803723e-003
      1.4501215106020827e-002 4.9718293763016414e-003
      -1.0868873338642100e-002 2.3715079433628626e-002
      3.0556459344525978e-003 2.2165008864146876e-002
      -1.3997297329559825e-003 2.6682702805776202e-002
      -2.4672027383948619e-002 2.0125492628099387e-002
      4.4994986070307956e-003 -8.2582046105115128e-003
      3.5269114496944073e-002 -1.9352704549200597e-003
      -1.7156589822965768e-002 -1.3274388365038761e-002
      5.0693005117575934e-003 6.9046784890801794e-004
      -5.4637942142296654e-003 -1.0589384729584551e-002
      1.6243568034042612e-002 -1.1912981654452531e-003
      1.4164755976022523e-002 -4.1553064559069965e-002
      1.8366250118128168e-002 1.1934312577285149e-002
      7.2899075610673878e-003 1.6503101785472898e-002
      1.0693798423517658e-002 -2.9758023187464532e-002
      -2.6983397237589135e-002 -1.2629895791316834e-002
      -1.7267740389255295e-002 8.7522793289044349e-003
      3.3872504513121252e-002 5.1510822930517092e-003
      -2.0832595585712179e-002 7.6581543700059203e-003
      -9.1267656745951005e-003 1.7437182774952948e-002
      2.5791192974146233e-002 2.6508092821418243e-002
      -1.2504813525318717e-002 -3.1639666404962952e-003
      2.1990380642038588e-003 -9.7113546767988628e-004
      2.7004838513050512e-003 -1.5565325210216132e-002
      -3.6141266340960752e-003 1.3247866570284615e-002
      -4.0952637671443620e-003 1.5234709761770473e-003
      2.8620470279306160e-002 -1.5151467011899256e-003
      -3.0580186798350763e-003 2.0221791070148865e-002
      -1.8760826518145837e-003 -1.6325684833997461e-002
      -7.2055953794723637e-003 -4.0336261439612803e-002
      9.5619514859554382e-003 -1.0941328305959277e-002
      1.4061085685110140e-002 -1.1608799263253930e-002
      -7.6528398285715575e-003 -6.7421892413604568e-003
      3.8511108516014101e-003 -7.6425412832237397e-003
      1.9531231489300631e-002 -3.2688930816406815e-002
      3.0224587710782101e-002 -1.3545459241493204e-003
      9.4865756820426902e-003 9.7567545057266171e-004
      -3.1563583859355662e-002 -3.0307191799982466e-002
      3.9541395199920015e-003 -5.8998363061298431e-003
      -5.1489019178312757e-002 2.5464787545054511e-002
      1.2865458787551954e-002 3.3984074303226889e-003
      8.7888321884654792e-003 1.1714518262067443e-003
      6.5474916505787358e-003 -1.9215152223523001e-002
      -9.0010476077980513e-003 2.3585109721758524e-002
      -5.8773355518393937e-003 6.6390399078117184e-003
      1.5280048920352030e-002 6.5733880703343272e-003
      -1.7625028628251029e-002 2.5373929818199966e-002
      -1.9913180298711014e-003 -5.5029621133237004e-003
      2.5064684742777444e-002 1.8639305714223300e-002
      1.7274253490432080e-002 -9.1359475236923277e-004
      -1.6731700026493965e-002 1.4561375395823813e-002
      2.3064648016692599e-002 7.7382587010669333e-003
      -1.1756269078848061e-003 1.9322232011688849e-002
      -2.8719015341174261e-003 -1.8109606908556547e-003
      -6.2155695748700715e-003 7.8114447127259406e-003
      1.5211391431041433e-002 -2.1792035919385087e-002
      2.1480664318797749e-002 9.0090644556255499e-004
      -4.6260550676328494e-003 1.8388934370984288e-002
      3.3964539851996131e-003 -8.3923219569326853e-003
      -4.9636998889375913e-003 2.0754254902257182e-003
      -3.5221720120337537e-002 6.9091297265367960e-003
      1.6138246805994516e-002 -6.5938688358438352e-003
      1.0239749717220872e-002 4.3839029630240636e-003
      1.0585823850785223e-002 3.1465437030698824e-002
      -2.4456418929899294e-002 1.0967595738128911e-002
      4.8105044131985658e-003 -5.2452748795599321e-003
      1.1698434998927670e-002 1.3320171750266714e-002
      9.8909896365989829e-003 -8.7355693903536904e-004
      6.4783526178228629e-003 -9.3611078527552575e-003
      3.9519030631591642e-003 -8.5046905027923846e-003
      5.9375505925620747e-003 -1.8520860825616027e-002
      -7.9666575299820633e-004 1.6486435139460107e-002
      2.1508920995062897e-003 -4.6259773611458201e-002
      -2.0675998229340849e-002 -1.4838918420772359e-002
      -1.0491532354716093e-002 -7.3754352967747702e-003
      -1.5744567385358902e-002 -1.2835082603476440e-002
      2.1060899183651928e-002 1.6329711479644109e-002
      1.2886450603546075e-003 1.0401042731988672e-002
      1.4221000970195524e-002 -1.2839977443109205e-002
      -3.7930796463675059e-003 2.9426299113228260e-002
      2.4021418432663793e-002 2.6006824587655922e-002
      5.2111504975299759e-003 1.5849456814986826e-002
      -1.4526962381509379e-002 -1.2410184114410099e-002
      -1.2230564464747865e-002 7.1210098395824827e-003
      1.5772616275522167e-002 2.0661282242518592e-002
      -4.8296032056158716e-003 -1.4045045672374473e-003
      -2.3181898501619901e-002 -6.5061643963196724e-003
      -1.9357478682734557e-002 2.0607276915009770e-002
      1.4069730886225327e-002 -3.6835209466107584e-002
      -3.8734524474983719e-004 1.5692961267978416e-002
      9.0051145744200513e-003 6.4162078269315607e-003
      3.3619365958478614e-002 -2.1878780956397226e-002
      2.0028036082895637e-002 2.0509160824879460e-003
      3.9669669924312409e-002 6.0953163768847777e-003
      4.3085683642107228e-003 -3.0271377590239339e-002
      5.1189723117407784e-003 -2.0819747504399182e-002
      -2.1916072678680046e-003 -9.4982292518436227e-003
      -2.3662348579743370e-003 1.4083087930457931e-002
      -5.3172344380979101e-004 9.4529948406456617e-003
      8.9120637098254228e-004 -1.0465228109051994e-003
      -1.0144486948772374e-002 -2.1539996793762502e-002
      -7.7987258332241956e-003 1.0451121845870052e-002
      3.5818368370573615e-003 -2.2468433758517426e-003
      -1.6009923962245650e-002 2.0940675606469363e-002
      -2.8534530650154910e-003 5.7340477407770906e-003
      8.9376640449282448e-003 -1.4584534402865570e-002
      -4.6782969396153432e-003 1.1302596329580914e-002
      5.0669150806974027e-003 -1.0597742635656347e-002
      -3.1772866967291979e-002 -1.2456160843690035e-002
      2.6635621981219833e-002 1.2773832522139697e-002
      2.6903337872928680e-002 5.1239170515517639e-004
      3.4465467044653350e-002 -8.5944533735936492e-003
      2.9161988158824793e-003 -1.0927206562701847e-002
      -2.4551695141170907e-002 5.2196717689018879e-003
      1.6427046285159477e-002 1.1515782567476351e-002
      2.1655205692470980e-003 3.2941390288082607e-002
      4.8164602557408112e-003 -7.5160691603113738e-004
      1.9313957423331966e-002 2.7848888949458272e-003
      -1.5318599005202714e-002 -5.2889839906487754e-003
      -4.9263131744794672e-003 1.3885601435402494e-002
      1.7665296224563993e-002 3.7259229861127849e-004
      -3.2028890945873449e-003 9.4883359555381075e-003
      -1.7668119664475590e-003 -2.0006449255183852e-002
      -1.7597336091424904e-002 1.9852057357479594e-002
      -2.9326204025880514e-003 4.3228458312191638e-002
      2.5753056669457833e-002 7.7446826619868465e-003
      2.9691830051142887e-002 -1.2094630650800320e-002
      -2.9682765596063354e-003 8.5792588260708968e-003
      2.8905915747570492e-002 1.4497185435273254e-002
      7.8314028609543888e-003 -8.2206351996532822e-003
      -1.9445172838566515e-002 2.5361526631241273e-002
      -5.5326658876733784e-003 5.9791159638224985e-003
      -3.6463239911820940e-002 2.0590906441648033e-002
      -2.8196672354817633e-002 -1.2124533145833971e-002
      2.0361831190578692e-002 -8.5708223020084331e-004
      -2.1009222910097197e-002 1.5989574892805107e-002
      2.3047875618749524e-003 1.6322331144511351e-003
      -2.7944579330760007e-002 -1.2967348422624064e-002
      -2.3766744815373046e-002 -8.1202439985725364e-003
      -3.8077750721651565e-003 -3.6035371820423948e-002
      6.6261332614523912e-003 5.0695478414014969e-003
      -1.7050616041334343e-002 9.9941289336178997e-003
      4.9613561640024411e-003 -4.6781273897923102e-002
      -4.5932817277546410e-002 4.4862221967406288e-003
      -2.9175597055364235e-002 2.4010805338662077e-002
      2.1684473193067887e-002 -3.9892879810955722e-003
      4.6354317948776938e-003 -1.1484309514952120e-003
      -3.4380042021163383e-002 4.2362256587822021e-002
      1.2930798834858880e-002 1.1608584752938876e-002
      3.2760537617644932e-003 -2.3852515872240373e-003
      2.6965319206215747e-002 1.1643683248414905e-002
      -1.7224090765842012e-002 -1.9867059564810170e-002
      -7.2280646522453881e-003 2.2489579218262265e-002
      -1.2519872339669837e-002 -2.4706060846582903e-002
      1.5022086173528105e-003 -4.5433890774988425e-002
      -4.4787664895708981e-003 4.4465763413652310e-003
      -5.1030928458293519e-003 -2.1599419096280819e-003
      -9.0185251976904190e-003 -3.8744157242839444e-002
      1.8190469694792558e-002 -1.2792708838974936e-002
      1.7112799741532240e-002 -8.4902793347213911e-003
      -9.8753417061711885e-003 -2.5786359242703828e-002
      8.3270141115635559e-003 1.5731929602512799e-003
      -1.0171641632650871e-002 -6.3099970620402596e-003
      1.1668111154296132e-002 4.0617238965891690e-003
      2.0533320747661604e-003 -3.1247515913615107e-002
      -2.8225192079196743e-002 -2.7087012730848459e-002
      -3.2256555614188678e-002 1.2828866757194695e-002
      -3.9582899319879017e-002 1.0339529428013283e-002
      -5.1059369761562263e-003 1.6771975976878455e-002
      -1.9420423278547670e-002 -2.3496860573603111e-003
      -1.6745331999263671e-002 2.4932834338666159e-002
      -5.2988762393332174e-003 2.7628367170320807e-002
      -8.9031410129569617e-003 6.1504374110809270e-003
      9.6056677860662087e-003 -1.4253542132729757e-002
      -1.8191883963148931e-002 5.5943657292427803e-003
      -1.5256671628174852e-002 -1.3423477569090648e-003
      -3.9378528670830160e-003 1.7818013946447563e-002
      1.3758371147353421e-002 1.1776662967107282e-002
      1.5118752365187967e-004 3.0534306195070565e-002
      3.0700153439955018e-002 -1.4207351481959091e-002
      1.1830038084562473e-002 3.3266433851657437e-002
      1.3772892817520281e-002 -2.0511303742599372e-002
      9.3519717690382625e-003 4.1181319367174313e-002
      1.9048539175719768e-002 -4.9781725052483140e-003
      1.8697951827858542e-003 9.1605403827464023e-003
      -3.6599391636617032e-003 1.5610338897056398e-002
      -4.1057222552066648e-003 1.7463844288337933e-002
      -3.5856245233606920e-003 1.6769131455424780e-003
      -2.2712959365824258e-002 1.4876320344991827e-002
      -1.4397780727186360e-002 -6.7396954285803981e-003
      -9.6545515032426723e-003 -7.2356657059878616e-003
      -8.8419642756276968e-003 1.7607872346435897e-002
      -1.8036536839099563e-002 3.0946622449028365e-003
      -2.2705593818510367e-002 6.3354587363043235e-003
      7.5579774575195331e-003 4.8333255900720053e-002
      4.5859654600993172e-003 -2.6356477588232747e-003
      -1.2705591109896287e-002 -2.3135823799194672e-002
      -1.1387797693450658e-002 -1.2006562593604865e-002
      4.6011851410664335e-003 1.9570296996535728e-003
      -1.0652932713835384e-002 2.6076795908786737e-002
      -3.3096866399639530e-003 -3.7296728781791501e-002
      -9.8319406392097693e-003 -9.3205690812910788e-003
      -4.4523239788662725e-002 1.8157085062439751e-002
      -3.2815083532094100e-002 -8.0073232113722168e-003
      1.2304066381716714e-002 -6.5122206172867790e-003
      -2.2860374138803829e-002 3.8909924133934751e-003
      3.0307518417236765e-002 -2.3228522789232608e-002
      8.1532646608317560e-003 1.7741037918763237e-002
      1.2756487720002310e-002 1.6836465933911676e-002
      -1.0338062024387805e-002 1.4963099842059039e-002
      -2.3128531372553361e-003 -2.2991725248628449e-002
      1.6863123619173678e-002 1.5995558457319369e-003
      8.1632579798880060e-003 3.6590766241988600e-002
      2.4147882736990155e-002 -6.2366151161834804e-003
      -1.6663373243316317e-002 -1.0438273019553303e-002
      4.1740175030923077e-003 5.0076967419185145e-002
      -2.3326053417227929e-002 -3.0160397137361249e-002
      6.6842204006544092e-003 -2.1198711997167156e-002
      -8.1446750546083219e-003 8.4933121936726778e-004
      6.7685100294497301e-003 -1.1282281102714011e-002
      1.5781355970080603e-002 -1.0060077962006225e-002
      1.9967138487039848e-002 1.2562907221897757e-002
      4.1899851995606058e-002 -1.3495038847251383e-002
      7.9127794825311938e-003 -2.1994639298276646e-002
      2.0705857442582940e-002 2.6208429053614361e-002
      1.4321273297708600e-002 -5.4552379762522977e-003
      5.3147465005899848e-003 4.0516831399436008e-002
      -2.8569213508139184e-003 -1.1111038690149971e-003
      1.0428375234780268e-003 -2.3511256440500734e-002
      -1.0414459495858803e-002 3.4827393026436081e-002
      1.8649355562505455e-002 -7.8226022464387129e-003
      -2.0245419842757881e-002 9.7587323183753235e-003
      -4.5913960533593120e-003 9.1528389870630198e-003
      -3.8291527820887676e-002 1.2418673031698170e-002
      -3.2260947006075048e-002 8.1865173006642773e-003
      8.2247721897042783e-003 -6.0263857885622584e-003
      -1.8168619462314805e-002 -2.1371140343668014e-002
      3.7605525423123648e-002 -2.1906326901160667e-002
      1.2130410438503086e-002 1.1706584645621115e-002
      2.8311596294751329e-002 -2.8976509761747952e-004
      1.5738591055699407e-002 -3.8522063427304846e-003
      -2.7967877028440474e-002 -1.3457557435642670e-002
      4.2691182606798626e-002 -1.4470268328962132e-002
      -1.2286922957064988e-002 2.7085772954562003e-002
      -8.9550690651814483e-003 7.5354494887601223e-003
      -1.0019041407305812e-002 -2.9488355749889200e-002
      -2.3815402045065338e-003 -2.2280269067436304e-003
      -2.7880092189017325e-002 1.4537527940717604e-002
      1.3080908999934143e-002 5.1692276371651863e-003
      1.7548211403315949e-004 8.3430605013841436e-003
      2.1121439519638845e-002 -1.6147290203775044e-002
      -2.9028612185820580e-002 -1.1384133566500827e-002
      -1.2071121700031669e-003 1.5954706337106439e-002
      3.9752934424650208e-003 1.4458619877540215e-002
      2.3530861391095878e-002 -1.1592018457712339e-002
      -3.7996301660957513e-003 1.5721395259382487e-002
      2.1960622089425227e-002 1.3859677823626468e-002
      -1.6303915921718236e-003 -1.1498672784965261e-002
      -1.0661503483971369e-002 8.4923693161275786e-003
      -1.3363715847299068e-002 2.9854607201851755e-003
      -2.6775696878425379e-002 -9.0698668930217149e-003
      -4.1130635559334799e-002 -2.0940359738388991e-002
      1.3613696068048031e-002 3.1718092324010405e-003
      1.3891323863054618e-002 2.1554477957528291e-003
      1.6679861433367922e-002 -1.7772839217605231e-002
      -2.3725481658524342e-002 7.5252549966858210e-003
      4.1938532003123292e-003 -6.2841290133380115e-003
      -3.1513650517499367e-002 -4.1238301790294538e-003
      -1.6150703563863171e-003 6.0855755846603047e-003
      7.3886711228962924e-004 -7.9402441060275281e-004
      4.4846159929355046e-003 -1.3993657538010552e-002
      -2.7643643750300869e-002 2.8348204865970592e-002
      -7.9295599805092123e-004 2.8535464139399794e-002
      -9.9023706671759887e-003 2.5605481852577536e-002
      -1.8648200333652543e-002 3.0657987441981087e-003
      -1.0906718840130902e-002 4.4651101107528110e-003
      -5.5888816330563063e-004 -6.6875796057955256e-003
      4.7626293021608007e-003 -4.4305253613730992e-002
      -1.5264764145780218e-002 2.1506427263012804e-002
      -2.2083771046762023e-002 -2.7753236094043003e-002
      1.2160942657138075e-005 3.2193685440044972e-002
      1.7714491320216446e-002 -4.1361242299666701e-002
      3.6047936535190056e-003 -2.5004587522990153e-002
      -5.4815591841907889e-004 4.6229898351553451e-003
      1.9641008107741621e-003 8.6062922096182687e-003
      -2.3936393512727704e-002 -2.0763824368788108e-002
      -9.4573731286001633e-003 -2.1916389886022580e-002
      -2.6016486072598859e-002 1.1147217998757399e-002
      -2.4088254470953110e-002 -3.3903764648936192e-002
      -3.8133046555818072e-003 -8.4272615975192148e-003
      -6.0093104053081199e-003 3.9715008152581095e-003
      -1.0171196290053428e-002 -1.4437687709721524e-002
      -4.4978633826082395e-004 -1.5397303903749699e-002
      -2.3919446031428798e-002 -1.0342317190268825e-002
      -1.6964390534738982e-002 1.3313335066553952e-002
      -1.0867988071615726e-002 1.2453260388863875e-004
      2.2352876386905442e-002 -1.7251711738458890e-003
      -2.7668136593714785e-002 -3.7024480843933991e-002
      -1.6150354995072374e-002 2.1357565571038337e-002
      5.1802936645713058e-003 1.5169656591922308e-002
      -2.5691916426869164e-002 6.3043505108729145e-003
      2.3823953762050668e-002 -1.6952637229541351e-002
      4.1097270198519496e-003 -8.0560128008509858e-003
      -3.0768586999982948e-002 3.3292809644894145e-002
      1.6970209454118408e-004 1.3167623739854976e-002
      -1.2536563569949349e-002 -1.7513923453699034e-002
      5.1800566330636587e-004 1.5329274676457411e-002
      1.2352056338777761e-002 -5.3209907080288433e-003
      2.5589291883371921e-002 1.0282350768036276e-002
      -6.9002570978183375e-003 -1.2156846145033626e-002
      1.3602417584128473e-002 3.4611962488943118e-002
      -4.8319972225803207e-003 7.9649185382685197e-003
      1.1574514483215267e-003 -7.9975786048628855e-003
      -1.5066757424993091e-002 3.4764571575288425e-003
      1.8386355186670835e-002 1.5096849497556271e-002
      3.9068449353963218e-002 6.7704982211906238e-004
      3.7924391973334567e-003 1.1893372152822686e-002
      -2.4581191628142568e-002 9.2497874500510700e-003
      3.5545542017312447e-003 -4.8451269136718725e-003
      1.3390756807898096e-002 1.5834855577050704e-003
      -2.3359049548910070e-002 -3.6771094382115565e-003
      -2.4046016185019382e-002 -2.8396808156483662e-002
      -1.3891020795638661e-002 2.9879450356863228e-002
      1.8385953820387019e-002 6.7211839756818248e-003
      -2.3168552414766033e-002 9.6191409746523317e-004
      -2.8656653316939996e-002 -1.7292858401069033e-002
      -1.6320415140996754e-002 2.4245324310231985e-002
      -2.0500262683106073e-002 2.1301457564873127e-002
      2.4800350220910424e-002 -8.6654940638368864e-003
      5.9820751765699346e-004 -1.9015225467008672e-003
      -3.2279522261599823e-002 5.9956864359319894e-003
      -1.8769997503858327e-002 -1.7225185848651944e-002
      7.5243610416379975e-004 -5.4392714704197057e-003
      -2.6034936070234948e-002 1.7845527707088187e-002
      1.9631175578051094e-002 1.3257635674747640e-003
      -1.0449481105977333e-002 2.8008173969262435e-002
      -3.8607589372485003e-003 2.9981414382717640e-002
      -7.1157418558823347e-003 7.3664177285638049e-003
      1.1056466526690336e-002 -5.9281977397733152e-003
      4.0533742697501818e-002 -1.0784293181221715e-002
      2.0217823483063401e-002 2.1295144749366463e-002
      2.8951714015559491e-002 1.1719281348381414e-002
      -1.6433715898173201e-002 1.0242860065206984e-003
      -1.3697697598245611e-002 4.9167083896302352e-002
      -1.5964753280627367e-002 -2.4369913451007495e-002
      5.9729677721387224e-004 -2.7287456851692860e-002
      -1.3325494546403518e-003 1.4088388080099037e-002
      -1.4356527598937560e-002 -1.5764331457626297e-003
      3.3891898539137190e-002 -3.0260636050389634e-002
      2.4565069877044939e-003 1.5906153816947710e-002
      4.9889449727876525e-002 -1.3759344919813491e-002
      8.0121743619142836e-004 -4.7821283701439512e-003
      7.4020977595917001e-003 1.0271422936615678e-002
      -3.1427703181379080e-003 -4.5769671970592113e-003
      -9.9498851970995887e-003 1.3953109002872922e-002
      2.0322480070885281e-002 2.1899937552689187e-002
      -1.2143661660055054e-002 -5.6287760726885057e-003
      6.4645386356788851e-003 3.6071301237365724e-002
      1.0541161373959123e-002 3.1946683633698493e-003
      -2.4205010098401893e-002 -1.3437660447289932e-003
      6.4803337668486432e-003 3.0837367087847732e-003
      -3.7907129782572276e-002 -8.2384737020868050e-003
      -6.1650148720188390e-002 1.5775943640285124e-002
      4.2428244437030659e-002 2.3838653791981912e-002
      2.4900615221575505e-002 1.3007124078949631e-003
      1.1712777942531130e-002 -1.7298484984417828e-002
      7.7869415400207437e-003 5.7512746904427601e-003
      -1.4498524709255117e-002 -1.0866897576166058e-002
      1.3933571347173599e-002 2.8312936150489663e-002
      -9.3904270980071421e-003 -2.9917576458576373e-002
      2.0006244108929556e-002 -2.0346970785338821e-002
      1.5810410512626975e-003 -8.4346402589548300e-003
      -2.0634557154352473e-002 8.4199212286815441e-004
      -2.5588437566468537e-002 -3.1629488446531961e-002
      9.3640398275654044e-003 6.9077529504867567e-003
      -8.2405449121772736e-003 2.8985893127468174e-002
      -4.1825857436294427e-003 -7.3721860805976789e-003
      2.4489189250486945e-002 -2.8121767025003176e-002
      3.5576880410789082e-002 -1.3865638825369340e-002
      -8.3845634408195192e-003 -2.2048050418280091e-002
      8.4084860650967715e-003 3.2299939647285709e-003
      -1.4497344540162264e-003 5.1684928496212763e-003
      2.8568035473777872e-004 -1.6635989790405571e-002
      -3.4392861812388505e-003 -1.1356103081186361e-003
      -1.7591669587112601e-003 1.9855650932756016e-003
      1.3622401393743188e-002 -2.1374405404626484e-002
      -6.9688138148308078e-003 -5.7481015712983865e-003
      5.6623445083216171e-003 1.2977329768110786e-002
      -2.0864902538436668e-002 -2.7748400671162469e-002
      -2.2913441528246248e-002 -1.2792032763953487e-003
      -1.5954292994389537e-004 -8.0017540987041193e-003
      2.3833433933674240e-002 3.2627022719399363e-004
      1.8672489482868586e-002 -6.1893488696582975e-003
      -5.0445270030399286e-003 2.3092954896643789e-002
      8.5636846703619016e-003 -5.4347039185545665e-003
      -2.3875388914535538e-002 2.9234112627876344e-002
      -2.7515677845911128e-002 -1.5894495203989070e-002
      8.1831181175083985e-003 -1.4117809301995431e-002
      -1.5405619143784900e-002 1.9198763817358272e-002
      -1.8654259664569666e-002 3.9532313181996945e-002
      5.3598472473292734e-003 -1.5912661605937479e-002
      4.4196678990993119e-003 3.5560074308799094e-002
      6.9692169203732588e-003 -5.8902401429985094e-003
      -4.1141514285090866e-003 4.4880024143725689e-003
      5.8256160309320499e-003 -1.4575030202129130e-002
      -1.2930163016998480e-002 -5.7272167651754489e-002
      -1.6446907696327062e-002 1.3687459085468152e-002
      -3.4419651671906422e-002 -6.6482445126586250e-003
      8.1495140233098402e-003 1.5487152933836986e-002
      7.0927391113189521e-003 -3.7250738228054345e-002
      -1.4727117558829021e-002 -1.0391754454841980e-002
      -1.6155726623018292e-002 1.9129581844237607e-003
      -8.7733647819317438e-003 9.3368372884394032e-003
      -1.3696532247107422e-002 -1.0619020692655159e-002
      -2.3360875257338033e-002 -2.6320650051686293e-003
      -4.2111202199605589e-002 6.4540126854125048e-003
      -1.0534916301336886e-002 -1.1683067080335431e-002
      -1.4274809262763513e-003 -1.2653968924860823e-002
      1.8527880490564901e-002 3.3411084956579816e-002
      -2.3567526380080168e-003 -2.2556410905941134e-002
      -1.0220156793803579e-002 -1.0877240099924659e-002
      3.9483466058834260e-003 -2.1257928788787954e-002
      -2.3309453123561082e-002 7.4141998852930835e-005
      9.0862527415796427e-003 2.0300695148740350e-002
      2.5085810485389919e-002 -2.0023314732073732e-002
      -1.7718608276404028e-002 -8.5009921662869536e-003
      -4.1006460175482325e-002 1.7979611017866520e-002
      3.7685102757339425e-002 -1.3986998991212906e-002
      -2.4512483641002298e-002 1.7408113236433806e-002
      1.5187635326873802e-002 -8.6654558615022054e-003
      1.2108601628632634e-002 -8.3426618364660435e-003
      -6.9777775181149720e-003 1.6942542232337605e-002
      -2.2270667011555331e-002 -3.8894856192221608e-003
      8.8643253837108506e-003 -2.3592572412131075e-002
      2.0495714499275067e-002 1.5582161296432990e-002
      2.4583467270773225e-003 1.4493095499916625e-002
      3.0818672621343624e-002 1.1129212275760804e-002
      -2.7576054994558584e-003 1.8767453248694870e-002
      7.0756564578239997e-003 1.1032241253807536e-003
      -1.2798460193948806e-002 5.0616336010440542e-003
      -2.2466648002510595e-002 -1.2010236020706614e-002
      -1.5985851100742618e-002 -5.3889126144500230e-003
      -3.3084691042262774e-003 2.1389547240943566e-002
      2.3299243848110808e-002 -3.8551304173428751e-003
      1.0153209387793904e-002 6.9877855712801229e-003
      -1.9641104566200492e-002 -2.2837390622883207e-003
      5.2734447244079576e-003 -4.0481886197535786e-003
      4.8278542217376347e-003 -2.0476936184332058e-002
      1.8602209076842829e-002 1.8426251988786194e-003
      -1.8491672885182827e-002 -2.6912206691923721e-002
      -2.3873080212508915e-002 4.1109204965806244e-002
      4.4187478769032217e-003 2.8022296084789542e-002
      -2.0563773910831730e-002 3.1059196931435672e-002
      -9.8865842700537453e-003 -6.3636982259231024e-003
      -2.4506663994547682e-002 4.1366510273229198e-002
      -2.0699361052586036e-002 2.3301766909828190e-002
      8.4718371994076461e-003 4.8585906910195769e-003
      2.0792908455772485e-002 -1.0315007210868782e-002
      -3.6170179392254189e-003 2.1845762337571423e-002
      -2.2562790916143886e-002 -4.5642819934244520e-003
      -2.1687046157422802e-002 1.6322790802340708e-002
      -2.9811817553871151e-002 -8.2533081082233461e-003
      3.2762630687688948e-002 2.5284357643435781e-002
      1.6247111730365828e-002 1.2717846015667934e-002
      -4.4027786177981984e-003 2.3139642406369280e-002
      6.1966659634796911e-004 -1.9972126622159071e-003
      1.3547086158409598e-002 2.7525396022318658e-002
      2.8807937427717152e-002 -9.3153252946406497e-003
      1.1326795862704079e-002 -8.6462426722780754e-003
      1.3092494051319774e-002 2.0485375436532900e-002
      -8.2452160039898990e-004 -9.3607947134416968e-003
      -3.4907981792400219e-002 3.4382215442186836e-002
      -3.7559525976751482e-002 -1.6667760491016610e-002
      2.2125284724469115e-002 -9.0003418397488679e-003
      -1.2211488437593052e-002 7.3521229934279293e-003
      -4.8498283074078129e-002 -8.5223408703354164e-003
      2.3634060210199915e-002 -2.9736923313017999e-002
      -1.3435134358727977e-002 -7.6595261837532876e-003
      1.7373439860126412e-002 2.1542720434763088e-002
      1.4396546612153067e-002 2.1206524763748926e-002
      -6.9627363352548913e-003 -4.0525435565704274e-003
      1.4936796951073731e-003 1.0731175093744412e-002
      -3.1637795115433353e-003 3.0113796107401003e-002
      4.0286368226413696e-002 3.3645566055057120e-002
      1.9417764691265160e-002 -7.9859208191342245e-003
      1.9629850597231817e-003 4.1413973912923820e-003
      -2.1106754372369491e-002 9.4349837823686621e-003
      -1.5419914276174205e-002 1.1151950997702623e-002
      -1.4838222618070141e-003 -6.5596002929103215e-003
      -2.2442499278699152e-002 -2.1189510290852673e-002
      -1.2214260221269256e-002 2.2171713624604447e-002
      3.6751875275952799e-002 6.2076858835515211e-003
      1.9935686361235636e-002 -1.2806791357879558e-003
      -1.9920784646705329e-002 -2.6015631536304033e-002
      -1.8629708998114468e-002 -1.4454412242486461e-002
      -2.5117973729022264e-002 -3.1789182668032268e-003
      -9.2123920092783539e-003 9.4296084719818415e-003
      4.5916102043811260e-003 -1.6517274447651862e-002
      1.0167161943197417e-002 -1.9469511101519503e-002
      -7.6171197544947144e-003 -2.1673593687220803e-002
      -2.0554856904733493e-002 -3.1134866172132560e-004
      -2.0638604707274525e-002 -1.6859312994244369e-002
      1.8990683809557356e-002 2.1558902056694338e-002
      4.1849899603728742e-003 -1.9090607407438395e-002
      -1.4528952169723906e-002 5.8453037148367259e-003
      1.3525764038004538e-002 -3.5205485368339173e-002
      9.7837111124929044e-003 2.4176071477745972e-002
      4.7416315170131394e-003 -2.7646089170942963e-003
      8.7225911457514439e-003 -7.3264854464822823e-003
      -3.2229418280084348e-003 1.2373819273559031e-002
      -1.7591757918042506e-002 9.6740637249282131e-003
      -7.0550279964859885e-003 -7.5692517404833673e-003
      -1.6618209287867134e-003 2.3026361875892722e-002
      -1.5026354204856601e-002 -2.7305640983907331e-004
      -6.0978744851920598e-003 -2.7112524428238947e-002
      -6.1514485436920180e-003 2.2919513598441105e-002
      6.5850101382008376e-003 -3.2465699503523897e-002
      1.8185909291896906e-002 -9.0684012769820330e-003
      -2.4363989859002743e-002 -2.6048071114433231e-003
      2.0473256783226857e-002 -2.1323684892574260e-002
      2.0732401258411737e-002 1.2147224253124469e-002
      -9.7638387167725132e-003 2.5137489580966052e-002
      1.0012538787028458e-002 1.5502938981902510e-003
      -1.8641593857727162e-002 3.2316940462354352e-002
      -1.2304805431904224e-002 -1.6259414103402169e-002
      2.5535020670884537e-002 -7.1280684353554162e-003
      4.5439729189408577e-003 2.6658545355791784e-002
      1.0526872789965483e-002 3.1071284635685491e-002
      -4.5534598933023446e-003 -3.8401608047245600e-002
      1.5376140840317102e-002 -3.3124010404281478e-003
      1.4566287816177272e-002 -2.4185249342312070e-002
      1.4188880162358032e-002 -2.2643655394786188e-002
      1.7599628076107616e-002 2.8121840946763641e-003
      -1.5904952483894969e-002 -6.2339171135850384e-003
      -1.5348712147818638e-002 3.5814268498387663e-004
      -4.1499994713244885e-002 2.3518776383456880e-003
      -1.4247725416684013e-002 -6.9052277117905639e-003
      -3.2800995494848550e-003 2.9941156760623189e-003
      2.5057173633195083e-003 -3.5157288857540709e-003
      -1.2013378372539186e-003 -2.4182648535825738e-003
      1.5898171801120959e-003 -9.1178056277359237e-003
      -2.8042874473540279e-002 6.5361567057614653e-003
      8.7744735769729760e-003 1.0917990561589765e-002
      -7.2128366224229997e-003 7.8430289470488718e-003
      6.5476955929209112e-003 3.7183949794855342e-003
      8.3837153340439591e-003 1.8239949407379913e-002
      -1.2675015829616007e-002 1.0727277542992526e-002
      -2.5282325302471931e-002 -2.2120480629902975e-002
      -1.2101741828413641e-002 1.5624138335569537e-002
      1.5847572306836259e-002 -8.0836615612335794e-003
      -6.3324901723978430e-003 -1.6735545784178338e-002
      1.1721543586231894e-002 -8.4120308748597845e-003
      9.2082240843874320e-003 -2.5956869740455215e-002
      6.8125483623637448e-003 -7.2701859995250792e-003
      -5.0033587314992269e-003 -5.2513573666060614e-003
      -4.7488747983601819e-003 -4.8189974233235362e-003
      -5.9870019635244092e-003 -1.0942165992863687e-002
      1.8311463822024598e-002 -4.8829067584456526e-004
      2.5860236972836518e-002 2.4556851643297989e-003
      1.3167264909386309e-002 3.2529110779712066e-002
      -1.8893945362477144e-002 6.8624390156280359e-003
      -1.1688793231079346e-002 -1.2463488371726803e-003
      1.0655434395452825e-002 8.0242052646066903e-003
      -7.7856517426140069e-003 1.6061679378828395e-002
      2.9131826737913768e-002 -1.6291579255935617e-002
      -1.7312771943510354e-002 2.6829815274788258e-004
      -9.0952473090251699e-004 -9.4691424425748655e-003
      -1.3033454967938318e-003 1.7674227019166506e-002
      -2.4998418269955587e-002 2.4641002687322599e-003
      2.5503228868578469e-002 -2.7492657041715367e-002
      2.0240418069212906e-002 -2.5118895483855114e-002
      9.1079762710354686e-003 9.4940953969343458e-003
      2.1947709579998267e-002 1.0112362571997723e-002
      -9.9139912612279304e-003 1.1320864819390102e-003
      2.4780317822475258e-002 2.5981563020478434e-002
      -6.1153730610675463e-003 -2.8375384141309835e-002
      1.2429821428303678e-002 -1.7046148580868406e-003
      -1.9672794346866050e-002 -3.6249010122831361e-002
      -1.8575274041576901e-002 -9.1904579785114255e-003
      1.2829518971056041e-002 1.0171111203476914e-002
      -3.0490388708334520e-002 2.9704422746321502e-002
      -1.8045334650545169e-002 -2.4115956883212032e-002
      -2.0858649842053632e-002 1.2147546718030545e-002
      -8.9062172864665373e-003 2.2490190924620890e-002
      1.9858657101086374e-002 1.8485402477451101e-002
      2.3143749913509128e-002 -2.0275067334824967e-002
      2.3148026761375645e-002 -3.6638988876549323e-003
      -2.9348048130702011e-004 1.7005146630931094e-002
      -1.8858019396963778e-002 -8.0571933729762131e-003
      -6.9455389297367071e-003 -8.0761664973829229e-004
      1.7172442106240079e-002 1.3773972038421074e-002
      1.0147381488793482e-002 -7.3597335363522077e-003
      -3.3976044545052354e-002 1.6756207662298284e-002
      1.6506477854540399e-002 -1.2102164559575366e-002
      4.2343443380762658e-004 9.7387474791751534e-003
      1.4296229421855737e-003 -1.9050829002494132e-003
      -4.1331224279781922e-004 -1.2361058597230957e-002
      4.0946096697339236e-003 4.8981689607238820e-003
      -2.1271725077188389e-002 -9.8092059376633789e-004
      -2.6814129020964493e-002 6.4911501794889170e-003
      -9.1139858382733030e-003 -4.1551525725955002e-003
      -3.1351156599171317e-003 -1.2399682361384564e-003
      -2.3773873959832451e-002 6.2906945994551672e-003
      -2.2478909105562505e-002 3.2291822619330709e-003
      -1.7932144327713348e-003 -1.0177724220191534e-002
      -2.5269495095415102e-002 -1.9724824293926191e-002
      -6.6601335185132136e-003 8.4190467070617836e-003
      -4.1408066442548304e-003 8.4636496477669288e-003
      -1.3191869269003382e-002 -1.0139482436800117e-004
      1.7038065283973905e-003 1.9467267618333308e-002
      -9.0213685889514780e-003 6.6996389069709800e-003
      1.8855692059198705e-002 2.5062077053470539e-002
      1.3636630081125931e-002 3.2198396982846593e-002
      1.7164908991652968e-002 -2.0824656094848720e-002
      -4.1138267315851677e-002 2.0033069307137424e-002
      -1.2014418944316752e-002 5.3754448637082942e-003
      -1.2827169765115942e-002 -7.3443158451352106e-003
      8.2122316028074131e-004 -1.3720117039906447e-002
      2.2338202677752866e-002 4.3348754868350308e-003
      -1.0929406768808178e-003 2.4654533682633529e-002
      1.4946202656629515e-002 1.4021933704881823e-002
      8.7743785935508658e-003 1.1385593871305023e-003
      1.5472951914751450e-002 1.5093091086366897e-002
      -3.1950023610581357e-002 -3.9856167039228627e-003
      -1.4265629105868911e-002 -1.3475007948820696e-002
      2.8569586922253899e-002 -3.4740426461862935e-002
      8.7737406078275994e-003 3.0381833590609150e-003
      -1.3393941156007781e-002 8.6251522556261284e-003
      -7.2758989316375026e-003 -5.7832787604127720e-003
      -1.0194210398284642e-005 -1.0174717969914119e-002
      -9.0217768157148694e-003 -1.4130976768292584e-002
      9.4330676290073946e-003 -1.0790281513849727e-002
      5.8875987123117894e-003 -1.8728351350695831e-004
      9.2887798683824723e-003 1.9490025593704999e-002
      1.5968586358931738e-002 1.2363973283662731e-002
      2.0050897955911581e-002 2.5966531164389813e-003
      3.1858077451186804e-003 -2.0512471802140476e-003
      -7.8663690609071680e-003 9.5382058878303658e-003
      2.1203399134484879e-002 -1.3470589769500664e-003
      5.9780634271996997e-003 -2.5348508207430646e-004
      9.8124525750883235e-003 1.3276669039221861e-003
      4.9742805587876049e-003 -6.8388716417203789e-003
      2.0014182266110715e-002 -1.9615529476481808e-002
      -5.4742771569037995e-003 -6.3165113307085382e-003
      -1.7103011557941777e-002 -7.1315119502751313e-003
      8.3674731612227559e-003 3.2853931727738418e-003
      -1.0218224158162478e-002 -1.3540475010654029e-002
      1.7295598609573342e-002 1.6928589370598206e-002
      3.2540473800548100e-002 1.6719999625811992e-002
      7.6948265875667766e-003 2.2837532356356008e-002
      -5.1937787623119675e-003 -2.5111564729846654e-003
      2.5462611901108909e-002 -7.9353767617966996e-003
      -9.1825701714250887e-003 6.3246430560005718e-003
      -7.5003597527932408e-003 -1.3276511142029936e-002
      1.6710230529459157e-002 -2.1258902453512890e-002
      -2.6559077138768200e-003 2.3379830794509338e-003
      2.5964169953661763e-002 -8.8320315022078332e-003
      -8.3340526368641168e-003 -5.7970182011611226e-003
      2.4961527316586383e-002 -1.5964215463228171e-002
      -9.3584888984385647e-003 3.0990361324417810e-002
      2.0333262791095538e-003 -1.0869778956561823e-002
      -3.9069394749037759e-003 4.2616760736002444e-005
      -6.9331351353329133e-003 -9.2147554677326083e-004
      5.1910876755667844e-003 2.5595781359401830e-003
      -4.6434920210697925e-003 7.8450438561699764e-003
      -3.8637316285392528e-003 -1.5447775625629306e-002
      -2.4578458419384459e-002 5.4159893145719271e-003
      -3.8856438810795950e-004 1.1884412847330651e-002
      3.9679864040069743e-003 2.4294192620301542e-002
      8.5492312391793317e-003 1.5301134702219650e-002
      1.3631640218127317e-002 -6.2943148148879788e-003
      -3.8101322061518754e-003 -2.8025509224045002e-002
      1.8610213563823781e-005 -3.2829911744284212e-003
      -7.9001539006221290e-003 5.9042728832527326e-003
      -7.4495522574734218e-003 3.1073119897815733e-003
      -5.0632442715503687e-003 -1.5448749271641925e-002
      8.1038386406590418e-003 -1.8058145379583466e-002
      -1.3387637064551022e-002 2.3024735455424898e-003
      -2.1464178690447536e-002 -6.5281188691515193e-003
      -4.5236164182149777e-003 6.5624463409762294e-003
      4.1968529710649117e-003 -3.6561451911743668e-002
      -1.3858009403015672e-002 -9.6199084979223734e-003
      -7.3624126892034613e-003 -2.3038016733981904e-003
      1.8079645201416226e-002 -2.6127491101890579e-002
      -4.4415573866460632e-002 -3.6450816087959123e-002
      1.4730676420025785e-002 2.2691072645814755e-002
      3.4750612677836232e-003 9.8626779426063110e-003
      8.3954821279307642e-003 -9.9420250251871351e-004
      4.5185628334703590e-003 -6.1638754044290641e-003
      -2.6033819239585695e-002 -9.8207247100199721e-005
      1.4125677182486951e-002 -3.0390455572498719e-002
      -1.7426592975115448e-002 6.1503259541757999e-003
      7.1668436230295377e-003 -2.2262280761292198e-002
      -6.9208358530232633e-003 6.2774721874055616e-003
      1.0821935367482298e-002 -1.7357789042102539e-002
      2.0306585671301201e-003 1.8126703036322005e-002
      8.3380450389624935e-003 6.3040186024211475e-003
      1.9275364776939068e-002 -8.7992432523674741e-003
      7.2547401764987609e-003 -3.0241736635184167e-002
      -3.4196883329945311e-002 -1.2516387431355670e-002
      2.4332470630616184e-003 2.1178680972654611e-003
      -6.4144380411567661e-003 2.2409085705360786e-002
      2.3437083918428445e-003 1.4855615028240059e-002
      -1.8649176931726623e-002 -1.7132215379725809e-002
      -2.3032885203505691e-002 -2.0826670330081110e-002
      -2.5205994534388664e-002 -1.7185068797469203e-002
      -7.8142484126840039e-004 -1.0687887948719218e-002
      -1.0793840791289713e-002 1.1314140799596443e-002
      1.3337842162219974e-002 1.0092625324994881e-002
      -2.2421950804520040e-002 -4.7541638367189542e-003
      -1.0553778802796529e-002 2.3613361727580582e-002
      2.3082767861604589e-003 1.1125912648409248e-002
      -9.1882682039861070e-003 1.2211793888152734e-002
      1.8910330917187718e-002 -3.5084324388162898e-002
      -7.9736514801010856e-003 3.8018098597592557e-003
      1.9408493428569953e-004 1.9925779834050604e-002
      -2.6201243706896207e-002 -1.2212646717829690e-002
      2.5889203755619472e-003 3.7705301829405520e-002
      1.2537074400191332e-002 1.0358857159147736e-002
      3.2340457068454160e-003 -6.1377263814393998e-004
      3.3738361163965572e-002 1.8337747885470330e-002
      -1.4213855377821348e-002 1.0714836061614956e-002
      -1.5307373642742086e-002 1.5802523032138617e-002
      8.4766026999208433e-003 -2.5698035444866610e-002
      4.5646480140357258e-003 6.3468468678851602e-003
      1.2318461724182155e-002 -1.1697225803665231e-003
      -1.1871509353319308e-002 3.6077054794701013e-003
      1.7345622538333322e-003 -2.5232391195541413e-002
      4.7990765755495284e-003 -3.7363052851793776e-003
      7.2617111791967491e-003 2.7260528078796378e-003
      4.3637853979015834e-003 1.8342178731012845e-002
      -5.1908372999544886e-002 -5.2574363301332002e-003
      3.4599118856529412e-003 -1.7543850823870832e-002
      -2.1952944382215879e-002 -1.9611677145506888e-003
      -1.4675594045415540e-002 -5.0591958368023573e-003
      -1.6012551049227122e-002 2.6407275467203339e-002
      -4.5780719545337693e-003 -2.1722409415133238e-002
      9.1300666499722835e-003 -5.2511594932311426e-003
      9.3094192502134014e-003 3.4655320663424499e-002
      1.2389339090915366e-002 2.7794242758156503e-002
      -1.2291107669847012e-002 2.5080624013607146e-002
      9.0956980847035854e-003 -1.8397077138162875e-002
      -4.2096750120741867e-003 -1.3758268647595944e-003
      9.3477087678870145e-004 6.7804091043290504e-004
      3.1310734832857616e-002 -1.6130275431684596e-003
      7.1522768189905524e-003 3.8745384668757233e-003
      9.3509713404076149e-003 2.9476703032541438e-002
      -8.0771585343710657e-003 4.3180115414486596e-002
      2.5668705684341219e-002 2.5509593558353066e-002
      -8.0747985911320177e-003 -1.1465890629598291e-002
      1.2443970802135572e-002 4.9005661487589877e-002
      -2.4782503607844817e-002 -2.3999149936191708e-002
      1.8517509318910182e-004 -2.0348993632111966e-002
      2.6172531534865869e-002 -2.8925709345591664e-002
      4.1613011989644330e-002 -4.2716088618969394e-004
      -8.0241650692867734e-004 1.4156420892814348e-002
      8.4213852784569096e-004 -3.9339797724794560e-003
      -6.7586265917370285e-003 -2.4699370882586932e-002
      -2.0365674738916577e-003 -2.1615655384376674e-002
      1.0820808652378751e-002 6.7634433849439847e-003
      5.0603411664210422e-003 -2.1890614996061642e-002
      1.7138097830177952e-002 2.3030067196649233e-002
      1.9690503118954209e-002 -8.0963005811430268e-003
      6.4306289606090765e-003 1.3941717114336541e-002
      2.2729359656301360e-003 1.5759395459443565e-003
      3.1115366286532209e-003 -8.5244330556020816e-003
      1.7820149421249772e-002 -2.1282106102362957e-002
      1.1997508090181299e-002 9.3162071981539533e-003
      1.5624197547362559e-002 -2.4332546934700511e-002
      1.3188904138880658e-002 6.5530089555917315e-003
      -1.4864194917385567e-004 -1.4857707022880378e-002
      1.5113467349735408e-002 1.3462856209989008e-002
      -4.1278352529912172e-003 -5.5710644818525437e-003
      -2.8764921482783791e-002 2.0779949495381266e-002
      6.2362692573140607e-003 -1.0989120652847200e-002
      1.0504826387132812e-002 1.9823025136878600e-002
      2.0194349569563275e-002 -7.2124120913110521e-003
      9.6515600852048467e-003 3.5940128483756607e-003
      -2.1012806036592405e-002 2.0786009573093477e-002
      6.8096580226378375e-003 -4.2728445753909558e-003
      -1.0735624588283962e-002 -1.6134506671652456e-002
      7.8788613304060801e-003 6.3962765419813949e-003
      2.0810492483167860e-002 -2.8953378426485980e-002
      -3.3353041124246488e-002 2.3586204706001087e-002
      2.7877534483092603e-002 -1.0349700138270019e-003
      -2.6692954798317342e-003 2.4569784582080131e-003
      1.1542908528441058e-002 -4.3477588336915778e-003
      -2.2032824470539298e-002 2.8491131462250598e-002
      -2.5235683610868139e-002 -2.3220762014849925e-003
      1.0964338995082727e-002 1.5592755483004369e-002
      3.0149843026278669e-002 8.5488835421908826e-003
      -7.6256316139932494e-003 -1.2134308485040551e-002
      4.6029181797701772e-003 2.1815131441049546e-002
      -6.9465379492104830e-004 -2.1730768181555175e-002
      -4.0479235495068121e-002 -2.3768373146393486e-003
      4.9068295167388970e-003 2.8747901948874173e-003
      -1.4222811187070262e-002 1.5765092188053442e-002
      1.2013688246185849e-002 3.7014151732044989e-003
      2.8275547617348257e-004 1.7011775092976657e-002
      -5.6756856374867498e-003 -1.1785167433985531e-002
      -1.2295457376854856e-002 -1.5961458546426263e-002
      -2.4565588821069359e-003 -5.1181789822422451e-003
      -1.1320713476647560e-002 1.7736881811843054e-002
      -5.2064031399606985e-003 2.3360646417660273e-002
      4.9681345158129951e-004 -3.5465651694814658e-002
      -3.7637860590513483e-003 -2.1597455880340715e-002
      -3.2877278207716049e-002 -1.9626036686728705e-002
      -1.0669643229136343e-002 2.2373802622836062e-002
      -6.8928547047259299e-003 -2.8183466976277008e-002
      -7.5001283852069549e-003 1.2303996167044822e-004
      -1.3560102723572703e-002 1.4450252149654846e-002
      4.5716737542938937e-002 -2.9664783527913632e-003
      -1.6119636384752022e-002 -3.1840313212000398e-002
      1.6661930390679272e-002 3.3667037793474033e-002
      1.5198249540621874e-002 5.4890398393111521e-005
      2.2745114598269702e-003 -1.5565827960158578e-002
      -2.0062625955239711e-002 -1.9524308239573823e-002
      -1.6979066125916008e-002 -2.5853158484102773e-003
      2.3377922041710780e-003 -2.8966160727326364e-002
      -4.8885116201912117e-005 -1.4957049666314622e-002
      2.0885168994669207e-002 -1.3388670875943092e-002
      1.2653334227483149e-002 1.0571614131442236e-002
      1.8813294912330681e-002 7.1985600371432935e-004
      1.3914702033270285e-002 1.2203738523492335e-002
      1.5921922653574467e-002 1.6307899980805170e-002
      8.1391205051455102e-003 -1.0726123853745837e-003
      -3.8733663903934190e-003 -2.1224675569497708e-002
      -8.2445999054042794e-003 -1.4499502286030894e-002
      -3.0056194893068834e-003 -1.4991623798865846e-002
      -2.3444968418772725e-002 1.0742288526666099e-002
      8.8423587842826855e-003 -4.6103411696651444e-003
      -7.1394506780579963e-003 -8.9418002299755227e-003
      -1.9319750768227319e-002 -2.8287953844819270e-003
      -3.5434796171619737e-002 -1.7879182053120037e-002
      1.2465816108353593e-002 4.8230930050886999e-003
      -1.4058075488297449e-002 1.4216760746188734e-002
      1.6022465482701191e-002 -2.7332532051939631e-003
      -2.5570339727704781e-003 1.0437917340602872e-002
      -1.0201182876630719e-002 6.0138553593576862e-003
      -3.8879130848117022e-003 -3.6008786703902881e-003
      1.1553208727746138e-002 3.3966365318572013e-003
      2.5793660241079226e-002 -2.8133528796075937e-004
      -5.0737712977202950e-003 -2.0379729799133852e-002
      2.6922876460408990e-003 -2.5136232732729967e-003
      2.0855741827905858e-003 -1.6433015877951467e-002
      1.2936086205532058e-002 4.7112355943374637e-002
      5.7156028813693171e-003 2.5262965342783810e-002
      2.0830463151675018e-003 2.1128487317422777e-002
      4.0101561297473387e-002 -1.9057088342763549e-003
      4.5394779631178859e-003 1.2062319777454587e-002
      1.0937219637348108e-002 -8.9491803894528720e-003
      2.0394300257987798e-002 3.7434790918420714e-003
      -9.6341254074424759e-003 2.7182490785960679e-002
      -1.4764576815276771e-002 9.8823792175705277e-003
      -8.8756615700836192e-003 -7.1398194617791977e-003
      4.6784078742746031e-003 -2.2613024791965875e-003
      3.9995718995285328e-003 -3.5753042932429148e-003
      1.3565663597490955e-002 6.1627401009302328e-003
      -8.3096336013284717e-003 1.6922233161425611e-002
      -3.5601192558603424e-002 -1.6004343719607021e-002
      2.2443397517638256e-002 -7.3184812465644164e-003
      -7.0808139612210386e-003 6.5705195860454009e-003
      -1.9069311314158330e-002 -2.0878885391541185e-002
      1.7484002627945999e-002 -4.5853024315758743e-003
      -1.2546786016707006e-002 -1.7971600771459310e-002
      1.0680737038859016e-002 -2.9654245259355064e-002
      -1.5292987964764687e-003 3.0192301120218097e-002
      -3.0372715597753929e-003 1.0262699481621054e-002
      -8.5003518351978048e-003 1.3191880721355093e-002
      -2.4184952029224778e-002 -5.5407144635266125e-003
      1.0269138525508221e-002 1.8558674537699771e-002
      -1.9633299434115025e-002 -3.7738105999248418e-003
      1.5856603748734488e-002 4.1834104827480887e-004
      -1.4386598316633218e-002 3.2069529239891495e-002
      8.6633743490780141e-004 1.7953780921022861e-002
      3.5200631371509190e-003 5.4398597906015226e-003
      2.1155528495105422e-002 -1.0809952095138162e-002
      -1.9231083860484820e-003 1.2900499720074525e-002
      -2.4130962433278051e-002 1.2527077250413153e-002
      -3.7307863971927551e-003 1.2875585169366193e-002
      -9.7842645314239456e-003 -1.1667224815302260e-002
      1.5610702718808208e-002 -2.9494947379656380e-002
      9.0442199551700724e-003 6.4387917632231122e-004
      -1.3028391522690729e-003 1.7759839715910337e-002
      1.2541716825449044e-002 -3.4499607273421324e-003
      1.6008505260484949e-002 -2.2876389797238342e-002
      -1.3554643138352668e-002 -1.4872718240702356e-002
      4.0240357124101218e-003 3.0664005441253541e-003
      -7.1712583773271520e-003 -1.1739071386161563e-002
      6.2247558079987228e-003 2.1272523195166974e-002
      3.6910337580395192e-002 -2.7524671648274969e-003
      9.0129501893598321e-003 -3.3089875748440578e-002
      9.0444573673393331e-003 1.0996986676994903e-002
      -2.3862704164900640e-003 8.4693300000784877e-004
      9.8754750010797837e-003 -1.7051035048776201e-002
      -1.1490107440809512e-002 1.7503029951864855e-003
      5.7501099664980151e-003 -1.1381513591465789e-002
      -1.3377195604001853e-002 -2.4283056184325542e-002
      -6.0243090235445085e-005 6.1545458265831144e-003
      -7.8774822526821633e-003 8.2434497603241629e-003
      -2.4075329054153480e-002 -1.0320345699059104e-002
      1.0995847866538297e-002 -1.9050211826362434e-002
      -1.7148451661239857e-002 4.4886997400466772e-003
      2.3657533118725635e-002 1.6144534729582954e-003
      1.7084562741622972e-002 7.8412486123878179e-003
      2.9945076166632122e-002 2.0552595843688262e-002
      -9.0261268111632102e-004 1.9245121532902398e-003
      1.3062840554364416e-002 -1.7558011982076120e-002
      -1.6958926647172199e-003 2.0773927220957386e-003
      -7.6803772940684358e-003 1.3497423632833679e-002
      1.3773214530083372e-002 -1.2008840925831418e-002
      2.0868147529977971e-002 -3.4218277450610403e-003
      1.2167870575080304e-002 1.4071612243885307e-002
      2.0166916168281326e-002 7.0519368911670024e-004
      4.8035174320736748e-003 -8.5589582365143101e-003
      -9.5997318260747366e-003 4.3262835029287180e-003
      5.5264780184326638e-003 -1.4512760108874981e-002
      -1.6961360934859802e-002 -2.0358118525390007e-002
      -3.1016833085617812e-003 -3.9317119477296604e-003
      -5.6353627338405477e-004 -6.3737131575018185e-003
      -1.0087133808757824e-002 5.7314108062038209e-003
      7.0156182052788507e-003 2.4785522672991719e-002
      2.4051642470536037e-004 1.2084515606041778e-002
      4.4732972327954784e-003 1.8464216404621567e-002
      -1.9802446953960381e-002 1.4670763389145977e-002
      -1.3611305414776918e-002 -1.7486644896730469e-003
      -2.8439630610111082e-003 2.8050330935501665e-003
      6.0040960634012803e-003 -1.1719012658363144e-002
      -2.8613538014245453e-002 -3.2539302773187009e-003
      1.8442449605190713e-002 -9.4751938300732721e-003
      -1.7485704952095213e-002 3.4717657915694254e-003
      3.0145495434979988e-003 -4.8094397320202400e-003
      -9.0438456531303606e-003 -3.9959417365423300e-003
      -2.9063794666356928e-002 -1.6401946079101292e-002
      -2.5630772207419217e-002 1.1032834392522969e-003
      1.8075260218114262e-002 -3.3018855946384319e-003
      6.0336982800631295e-003 6.9531268192372854e-004
      6.7050720349237387e-003 1.5356045561651739e-002
      4.6088086051156198e-003 -7.4760978434524348e-003
      1.2388662738672999e-002 -3.5782330685837768e-003
      -3.0222601891316585e-002 -2.3744109055700711e-002
      -1.0478755251620911e-002 1.4237341437068781e-002
      -9.4670251079045486e-003 7.7472876317732130e-003
      5.0479208877012849e-003 -1.3526430389293095e-002
      1.2527917275230376e-002 1.5532031721593113e-002
      4.4760435024049560e-003 -1.3186455788684531e-002
      -4.0106369195336208e-003 4.0792966278808337e-003
      -6.9850362755042653e-003 1.4942173483975165e-003
      1.2626991837261951e-002 8.0337315872996053e-003
      -1.2162070974825717e-002 1.9762302005399340e-002
      1.2670261112882766e-002 -2.3756176262512248e-002
      3.6043313805125552e-003 1.6237068169109931e-002
      1.0683739276667948e-002 -7.3342663819585202e-003
      1.3508105033702448e-002 -4.7175208079285203e-003
      1.9692485414690309e-002 -4.8327843345489221e-003
      9.8044246134137552e-005 -1.6951474639322405e-002
      -1.9377389762172219e-003 -9.6033326505657012e-003
      -2.5916990872881466e-002 1.8543343218359661e-002
      -4.6508498386619605e-003 2.0864680658822174e-002
      -1.5576823989736173e-002 -1.0250505329663815e-002
      -6.9922001218467303e-003 4.7549342955527331e-003
      -2.4658542433860876e-002 -1.2260440487469313e-003
      6.7484525030330330e-003 -1.5104923947278390e-002
      2.6331768953724393e-002 2.1383655173815932e-002
      2.0982330244053046e-002 2.7107981457882169e-002
      -1.4424879228425117e-002 -2.3344832376591585e-003
      -1.0110247526240079e-002 1.8435520226851253e-002
      -6.1117433213512123e-003 -8.7059955625943871e-003
      -2.8402795154605674e-002 5.7229099774018886e-003
      7.3476270613206688e-003 -1.3368028204128966e-002
      9.2906025461604103e-004 -7.4672003145846008e-003
      -1.3187466364320674e-002 2.8048121929047775e-003
      6.6394007573412142e-003 4.8159799845463099e-004
      -1.0222648725234332e-002 -5.4868664214867966e-004
      8.5534416795534259e-003 1.9722839710067989e-002
      -5.8819754585661028e-003 -1.1652244488701082e-002
      9.1249962232138673e-003 1.2746682806985273e-002
      4.6526677832922749e-003 3.1543607890580472e-002
      -1.2504362366166444e-002 1.1738930622055527e-002
      8.7822260408039424e-003 -3.0485103077593982e-003
      3.0497564336291721e-002 2.1451759936772261e-002
      -3.5340446834782485e-003 1.4939246116279494e-003
      -9.1441682625843703e-003 8.4374611317346981e-003
      5.2040912102563237e-003 -4.0560252470847220e-003
      1.6198888361929648e-002 -1.7521636360634440e-003
      1.7822163832663534e-002 8.0260471402968953e-003
      1.6841337977802011e-002 -6.3654936177889899e-003
      -2.0817757987467090e-002 6.9919812390723205e-003
      -8.8439621028052577e-003 -1.1025441945031131e-003
      -5.0203348145585712e-003 -2.8700647022362701e-002
      -1.3981900722944278e-002 1.9992300775830547e-002
      -1.6075614837059649e-002 -1.0676397245691414e-003
      -3.0013552568287055e-002 -6.2266638471486094e-003
      1.8558890252769696e-002 -1.1600263845656720e-002
      1.8303873769098349e-002 1.5528173513248303e-002
      4.4737693401618100e-003 -2.7626331201039086e-003
      -1.8031808606580380e-003 6.9795800201161396e-003
      6.4538045506471820e-003 -1.1721584519500715e-003
      -6.8738178021098091e-003 2.7256499383488043e-004
      -4.2507804591412728e-003 -1.9207476805213396e-003
      5.1323181868418765e-003 6.2852453880373298e-003
      6.7983308459166596e-003 -9.4558241032237610e-003
      3.3128999713419299e-003 1.1989836588043982e-002
      -1.5156529301195319e-003 1.8958795198402417e-002
      2.1424692021646360e-002 1.1326764814169476e-002
      2.1467714669763299e-002 1.0789799289599091e-003
      -3.9812834583467941e-003 -3.0179086984567782e-003
      4.7280109328721792e-004 -2.5154898095848879e-003
      -1.7190261562004882e-002 5.5567358168602992e-003
      5.9310295416179840e-003 -3.0825696147156433e-002
      -7.5177474515321216e-003 -6.5716570948052971e-003
      -1.7125207429702954e-002 1.3915035644422992e-003
      5.5777728553653245e-003 -5.4972410528609413e-003
      -2.0353949412999368e-004 -2.7250865837758022e-002
      -1.6542006738914747e-002 -3.0982878579561592e-002
      2.4163795886891472e-002 2.0635203342400963e-002
      8.5195902065340681e-003 -1.0205437235662015e-002
      1.2980914308210863e-002 1.8036323778415565e-002
      3.9910720138681854e-002 -1.5729865160900497e-002
      7.9814391914350153e-003 -1.4494448650489440e-002
      -4.9654699219445738e-003 -5.1072124833506961e-003
      6.5924390942791594e-003 6.7764168510476754e-003
      1.0958949267192384e-002 -2.5613733339691542e-002
      7.1246522033035541e-003 -1.1200604028296682e-002
      1.3567886344122839e-002 -9.8149802257421533e-003
      -4.4283244866117795e-003 -1.5038211621640027e-003
      1.5979116887158543e-002 1.9201979824855178e-002
      -2.4781538579081173e-005 1.6457545995933517e-002
      -2.2766423038295670e-002 -8.6531340721589661e-003
      -1.6016529666199330e-002 -3.4009206380933639e-002
      1.0665697831010170e-003 8.5678835524763703e-003
      1.5524837409422673e-002 2.5514938186452472e-002
      3.0998479145289731e-002 -4.6614177489083019e-003
      2.1870402456361248e-002 4.5377980200100934e-002
      2.7971851007326928e-003 1.0417283557685817e-002
      1.2549156478420295e-003 -1.0104048762037124e-002
      -2.3826906484158555e-002 1.0960080203938696e-002
      -2.1829787669736415e-002 2.0953208101292899e-002
      1.0027217610345519e-002 -1.9166296261403794e-002
      9.7254433543244798e-003 1.0477473875938054e-002
      2.5496431987870844e-002 1.3821717691693649e-002
      2.8299314320349000e-003 1.9645252868026868e-002
      -9.5153379242031155e-003 -1.4757617247157741e-002
      -2.6517906582830368e-002 1.9765686816556102e-002
      -1.7223995900065906e-002 -1.6568565214710965e-003
      -1.5690952142176189e-002 2.2666992290984117e-003
      1.2501144621224492e-002 1.1481503617731294e-002
      -7.8761694012723493e-003 -2.5711656748387268e-002
      -1.2788196528417667e-002 2.5457104978794259e-002
      1.3573319208633946e-002 -7.9361430091560523e-003
      -1.1725586037204045e-002 3.0018772866222680e-002
      -8.5523459003139773e-003 1.6097790792790497e-002
      1.9709271874330677e-003 -1.4330417612724413e-002
      1.8126850950602826e-003 9.0108679286213527e-005
      -1.2265735319555451e-003 -2.6499575729103698e-003
      1.1225746956975603e-002 -2.9082104626413995e-002
      -1.4776924728757964e-002 9.9840636065881613e-003
      1.1877230789711540e-002 -1.3969451199619077e-002
      -1.8357716755187700e-002 1.6946256469590699e-002
      -3.2982520677895588e-002 7.4598489048075334e-003
      1.0846092407770383e-002 -8.2241409433375171e-003
      -3.8522575678344405e-002 -8.1556633209388541e-003
      -2.4694446912371687e-002 -4.1919022994559236e-003
      -5.0661151915809234e-003 1.2897083758586765e-002
      2.1174738603008114e-002 -1.0512970768160077e-002
      -4.7156203810111317e-003 5.4816562728629810e-003
      -2.1325041106168400e-002 -9.5606191969473137e-003
      2.2637698134906487e-002 -4.2198499949014654e-003
      -3.6208882393207915e-002 -2.2850506870247662e-002
      -6.5008650899562054e-003 2.4323280332338968e-002
      -1.2469690326514070e-004 -2.4454871882795856e-003
      -7.7795163265337395e-003 -1.0519064322562933e-002
      2.3434681652432624e-002 1.7701415338789050e-002
      -9.1600072382598471e-003 -1.1752899020792476e-002
      -8.2064328881742540e-004 -2.5272008547802073e-002
      -1.8635403557342969e-002 2.9753792977204479e-004
      3.8516414475730644e-003 4.1711375097800386e-003
      -5.0445551719828681e-003 1.9746987479914768e-002
      1.5270410408130821e-002 -4.7011326909579196e-002
      -1.6178247030168069e-002 1.9162407930536116e-002
      1.9286346442616908e-002 -9.3820448883753377e-003
      -1.9156634218021492e-003 -7.4416490025138241e-003
      4.6841348140381264e-003 -1.0776045829191241e-002
      -3.3828787710824801e-002 -2.1427001907007512e-002
      -1.7443258714318968e-002 -7.6223715136588847e-003
      -2.2474192939647579e-002 1.9068095682258382e-002
      2.2185795369499845e-002 2.7537160654693263e-002
      -1.4417332114260082e-003 -8.8896459017982297e-003
      -2.7891825214572001e-002 1.6509031206253582e-003
      -3.4918538007855875e-002 -3.5726902745910512e-002
      1.4490381744578008e-003 -2.2441860600786765e-002
      2.9464536819424701e-002 2.9942967835481290e-004
      1.8065998198963668e-002 3.5514918938724549e-002
      -1.5518684710934025e-002 -2.0565621200614736e-002
      -7.2508740229168204e-003 2.0440378836381657e-002
      6.6668332742613216e-003 -1.2060334408102111e-003
      -1.1428287063227146e-002 1.3987382746825119e-004
      1.5976256080553430e-002 -2.7214068256710067e-002
      9.6779472069576794e-003 -1.0147526860179281e-003
      -1.3894435729265402e-002 2.6503973148981196e-002
      -7.4411061455113370e-004 -1.2941168921415992e-002
      -1.1800044170552882e-002 -6.9287015990445561e-004
      2.3222469355961423e-003 3.5185466249195302e-002
      9.4727919863072281e-003 -7.1811393487140086e-003
      3.6529342201333526e-002 7.8181312104994034e-003
      -1.9760372921765166e-002 3.6453302942994530e-002
      7.6796945424558089e-004 1.4438043895653140e-002
      1.7623160654333558e-002 7.8564361224254357e-003
      1.4949867856116456e-002 1.9539805799869043e-002
      1.2611909297364150e-002 -1.5611814946728440e-002
      -1.4323045180927405e-002 7.7142537419724634e-003
      7.1503400221220219e-003 -8.3605129500581316e-003
      2.0824580449704529e-002 3.3812709882485447e-003
      1.8760578281546293e-002 -1.7064042508075944e-004
      -1.4971475032959619e-003 -1.1047886347256130e-003
      -4.0171104288580978e-002 5.4193656822232672e-003
      4.0491480379169038e-003 -1.4146263730184210e-003
      1.8306230522240491e-003 -2.5341550449759428e-002
      -2.7276456911356330e-003 8.0403593992279809e-003
      -1.1525795935221564e-002 3.0434856134198170e-003
      -3.3868683535695672e-002 -4.2600505753895436e-002
      2.7803654432290350e-002 -2.4935150730362416e-002
      1.9892180909901171e-002 1.4245677124143907e-002
      -7.5481361907472405e-003 1.3375413116820330e-002
      -1.5612515138534431e-002 -1.0542903782935510e-003
      1.7780974178465039e-002 -1.7579271441048296e-002
      -1.7915322058751897e-002 1.3525013337810619e-002
      -1.7917936223967384e-003 -1.5091815845683369e-002
      -5.6619672849177356e-003 -1.8593799451987247e-002
      1.2301402977003030e-002 -5.9131038551285047e-003
      -2.8935953081135914e-002 3.7806601507266453e-002
      -4.5489206921729940e-003 3.4222642542335445e-002
      -3.2895411798903318e-003 1.9388668683432791e-002
      1.9790463439864174e-002 9.9596424417940504e-003
      3.9212768050994280e-002 3.7871152235386812e-002
      -8.9980734174714139e-003 -4.5441980248400946e-002
      -3.3980767331169129e-002 -2.4227103087914141e-002
      6.8640475538691136e-003 -1.9725758226366973e-002
      5.4856467551050489e-002 2.1866518588025803e-002
      -1.7681756224880388e-002 2.1313266680451998e-002
      1.4320646649134645e-002 -2.8693452403323666e-003
      1.0798492890993052e-002 -1.9814676705370522e-002
      -8.3112047935997510e-003 -2.7920768130329992e-002
      1.3501529061386516e-002 2.6650696781972887e-002
      1.1899613799891368e-002 -1.1102693358091014e-002
      3.2245549504719079e-003 2.6923040615039594e-002
      2.6599187897104908e-002 -1.2464563478270036e-002
      -1.0068158998528903e-002 -2.8656249854096816e-003
      -9.1245830095843562e-003 -2.9783722866730407e-003
      6.4321805204781042e-003 1.0336787195288709e-002
      3.5944239263278867e-002 -2.3650025646044310e-002
      9.1569146786534810e-003 -1.1539222150917051e-004
      9.5488452347118804e-003 -1.8269681215628605e-002
      2.9300249703953941e-002 -1.3091560245182080e-002
      -1.8255392289927324e-002 6.2304205531286154e-003
      2.7423723454773841e-002 1.6387526671653451e-002
      -6.8472061052839914e-003 -8.3885129692540215e-003
      -4.9567974483457615e-002 -9.3535798407745584e-003
      -1.4404523445642048e-002 -2.2353445976927955e-002
      9.8981806193510491e-003 2.3887666157039175e-002
      -3.2736569729641327e-003 -8.9631717560427460e-004
      1.8943548112076367e-002 -5.1685030997641662e-003
      -9.1559262067803810e-003 1.9630048965289418e-002
      3.0419153445658528e-002 -2.5212344423046835e-002
      4.8928382453127320e-003 -1.7765937801391723e-002
      -2.0950268494694191e-003 4.9560882077979481e-003
      3.6019683569813638e-002 -8.4143367581568478e-003
      -7.8960712208831999e-003 1.9636955134737025e-002
      3.0256188430910387e-002 3.2514664179853658e-002
      -1.2741115244403155e-002 -5.2446525590746536e-004
      1.3470579777048505e-002 8.9008497299306790e-003
      -2.8287030454816463e-002 4.9772722489800504e-002
      -2.9807632540329376e-002 -3.7090042661601250e-002
      2.1180102188045103e-002 -2.1041971384124928e-003
      1.1713033446681252e-002 3.5788846758350673e-002
      -1.2831451859136141e-002 -1.9155919370940130e-002
      2.7582364779603040e-002 2.7463362252593493e-002
      1.5001384288685651e-002 -4.8033825766775007e-002
      -3.8713009848990912e-002 9.0813648163238000e-003
      -3.3885504784095119e-002 3.3990362435499036e-002
      8.3980588705089097e-003 2.3103768163547003e-002
      1.7795800159091667e-002 -2.1410299367227645e-002
      -1.2226541861809430e-002 -6.7752284860901667e-003
      -9.9533951877061027e-003 -2.8678095775788878e-002
      -1.6258932819796783e-002 -1.7815012580660296e-002
      2.0670033772150439e-003 -6.4207888740407757e-003
      -5.1171337147508386e-003 9.8409069823600995e-003
      -1.5190766814836762e-002 1.2694235891666825e-002
      2.1976101230633486e-002 -5.2421196529169864e-002
      -5.8698087965560744e-003 -1.0910304003972042e-002
      -5.5036738791692928e-002 -1.7293597238164825e-002
      -1.4836917036319388e-002 1.1808263525085032e-002
      -1.2219245563533390e-002 -7.3562420519726873e-003
      -3.3774281276711157e-002 -1.4624045658964286e-002
      -3.2672135717963416e-002 2.1658287391710655e-002
      5.7026349309229153e-002 -2.8794581233075570e-003
      -3.7320816618163624e-002 -4.1503763232414198e-002
      3.8719952325589828e-002 -5.7161706399393946e-005
      9.7935495919516703e-003 8.7162276884833207e-004
      -3.2930550351365016e-002 -2.5628261640468355e-002
      -8.8099793297826464e-003 -2.2676339030204280e-002
      -8.0000411978011984e-003 -1.4680375883187307e-003
      -6.3424276635204728e-005 -1.7880828567720275e-002
      2.5609429973665322e-002 -2.5057668971647469e-002
      -2.7788833798733162e-003 -6.7221886353719621e-003
      2.9378952299370549e-002 -8.8741670665396320e-003
      1.6495806679234965e-002 5.8227739988891501e-003
      -1.7190549230286040e-002 3.9628460640507304e-002
      -1.1479565132373633e-002 8.7768734228354309e-003
      -9.0099176814257206e-003 -2.9933643397597044e-005
      1.9071219891697237e-002 2.0396750444445257e-002
      -1.7814401509508294e-002 -7.2372154319958358e-003
      -2.5763573749003593e-002 -7.0919336006928819e-004
      -4.5470465387682367e-002 6.7294942453583360e-003
      2.2677617687150058e-003 -1.8094427845261267e-002
      2.3882136351061050e-002 -7.0936099489930168e-003
      -2.6911448897363657e-002 -2.9554230208621622e-003
      -3.7748257203262928e-002 -2.8008746995456524e-002
      -1.2025112691337166e-002 5.0616637553519946e-003
      6.2583326194159267e-003 1.0958334131172382e-002
      3.3307001692159083e-002 2.5253427400154717e-002
      -1.5374698930566377e-002 7.6173165867841593e-004
      1.3975347873255847e-002 1.6755478054366779e-002
      -3.0183123106796043e-002 2.8188643846736000e-002
      1.6471408135148836e-002 -1.9121042193756009e-002
      5.1185818435761955e-002 -1.6179575867918523e-002
      -4.2962949856429657e-002 -2.1863346795719704e-002
      -2.1884571841633459e-002 -6.8307210201512978e-003
      -4.9253677840761078e-003 -3.5400269042732246e-002
      2.1905759188039758e-003 1.4788039739305691e-002
      2.3939562648828867e-002 2.7679138372481760e-002
      -1.5779981379883585e-002 2.7464346030320056e-002
      2.6624263680433774e-002 4.2186423500293864e-003
      -3.7871998944302445e-003 5.1659489834481161e-002
      3.9930229597687689e-002 -4.3627631016373587e-003
      4.7683058801938023e-002 1.5418950115607450e-002
      1.5014045317399024e-002 2.0547700655945474e-002
      1.0155747299364064e-002 1.6653594698631487e-002
      8.1060780906397432e-003 -2.4892142985859206e-002
      1.7996164424233709e-002 1.2062342766729196e-002
      -5.2891490495674508e-004 -2.4008500550144972e-003
      -1.4896561128119883e-003 -2.1951300569380164e-004
      1.3288972492481834e-002 2.3965402517763305e-002
      -6.3459290292440823e-002 -2.9644459166907680e-003
      3.9052824507621160e-002 -2.5752786258361884e-002
      -1.2345482414417443e-002 1.0271793007152460e-002
      7.4454110464339121e-003 -2.5981933962139124e-002
      5.5540320069140097e-003 2.3646988653097452e-002
      -1.0490497767686222e-002 -4.5021280298914543e-002
      3.4238908046847948e-002 -4.8039211898946325e-002
      5.0665369703442402e-004 2.8389776092233483e-002
      1.6789147723651480e-002 2.3754479213889318e-002
      -4.7555342717655264e-003 -1.4102780188476096e-002
      -3.5214810130451608e-003 -2.1686353842529281e-002
      3.1200601171017970e-003 1.1384302126568640e-002
