<?xml version="1.0"?>
<opencv_storage>
<opencv_ml_ann_mlp>
  <format>3</format>
  <layer_sizes>
    128 128 128 128 10</layer_sizes>
  <activation_function>SIGMOID_SYM</activation_function>
  <f_param1>1.</f_param1>
  <f_param2>1.</f_param2>
  <min_val>-9.4999999999999996e-001</min_val>
  <max_val>9.4999999999999996e-001</max_val>
  <min_val1>-9.7999999999999998e-001</min_val1>
  <max_val1>9.7999999999999998e-001</max_val1>
  <training_params>
    <train_method>BACKPROP</train_method>
    <dw_scale>1.0000000000000000e-003</dw_scale>
    <moment_scale>1.0000000000000001e-001</moment_scale>
    <term_criteria>
      <epsilon>1.0000000000000000e-004</epsilon>
      <iterations>10000</iterations></term_criteria></training_params>
  <input_scale>
    1.9587741291308115e-002 -1.5439855704898702e+000
    1.6829745807310101e-002 -1.7878488300673037e+000
    1.7541860408630733e-002 -2.2689421890763373e+000
    1.9987220338985437e-002 -3.0597843403016838e+000
    2.4998267926934797e-002 -4.0724956038302000e+000
    1.9728765402339171e-002 -2.7636712201110125e+000
    1.7669077456483932e-002 -1.7049678130092745e+000
    2.0967412229653530e-002 -1.3501848619661894e+000
    2.0591929039880132e-002 -1.7140492933584670e+000
    1.5865744469641695e-002 -2.0260849497815214e+000
    1.5467354479788238e-002 -2.3725489609543322e+000
    2.0501817274064589e-002 -3.5239206924571351e+000
    2.6477727450828579e-002 -4.9151978386174244e+000
    1.9521107805234427e-002 -3.3578835938977969e+000
    1.7681195205901338e-002 -2.1504262524866227e+000
    2.0964101378960383e-002 -1.4571215130676298e+000
    2.2478686961957033e-002 -1.7820603497062601e+000
    1.5146163491362790e-002 -1.8773389163035079e+000
    1.7659855520229185e-002 -2.2493423382988209e+000
    2.0738870378236730e-002 -2.5736554086236629e+000
    1.9725981253629007e-002 -2.7914820545529038e+000
    1.7652106710081793e-002 -2.7346382202566710e+000
    1.5973005715021603e-002 -2.0465265674170365e+000
    2.1373945637624694e-002 -1.5509964070561548e+000
    2.1279840836788369e-002 -1.6772455290655306e+000
    1.3683074347203013e-002 -1.6384721359978540e+000
    1.9047046926145627e-002 -2.0395860026989716e+000
    1.4864876150359696e-002 -1.4741002182440033e+000
    1.4399287369383743e-002 -1.6361323600197180e+000
    1.5884175912987887e-002 -2.1268617396084983e+000
    1.4421849338806036e-002 -1.8173132594599917e+000
    2.0266193694589003e-002 -1.5195516972226186e+000
    2.1464916114987329e-002 -1.6322876210108144e+000
    1.3980611640216989e-002 -1.6215697201142791e+000
    1.8310721970399835e-002 -1.9228292593583205e+000
    1.4330539621458093e-002 -1.4698091424712156e+000
    1.3997600022101113e-002 -1.5413431342855120e+000
    1.5708586208476670e-002 -1.9384977180749412e+000
    1.3824595655795196e-002 -1.6894423924473718e+000
    1.9308718713362278e-002 -1.4631002820617736e+000
    2.1317758764929074e-002 -1.5626311948003473e+000
    1.3478145337959567e-002 -1.5712771915936457e+000
    1.6670970459329970e-002 -1.9427237575272525e+000
    1.4809896806411911e-002 -1.6702272509453431e+000
    1.5411198270008263e-002 -1.8096742264837480e+000
    1.6534839655195380e-002 -2.1295342472219874e+000
    1.3963017626825022e-002 -1.6704164846491172e+000
    1.9384380545988088e-002 -1.4173212909208288e+000
    2.1829571089994938e-002 -1.5028042690195589e+000
    1.3711402245583721e-002 -1.6103534107725281e+000
    1.4916776114411298e-002 -1.9845941910440099e+000
    1.4868049270860639e-002 -1.9565802171961086e+000
    1.6784814595989284e-002 -2.3713523895233677e+000
    1.7559894262769001e-002 -2.7139792132790754e+000
    1.5630134088623356e-002 -1.9128100208271750e+000
    2.0063780844597930e-002 -1.3690186462963987e+000
    2.1912369598342162e-002 -1.4096957774933456e+000
    1.4239611240959031e-002 -1.6040394669931426e+000
    1.3768122339367427e-002 -1.8808784906946947e+000
    1.5544495968069194e-002 -2.2095061713428130e+000
    1.8579415905825434e-002 -2.9907698659516222e+000
    1.8056025126599245e-002 -3.1167374335195719e+000
    1.6236030769628883e-002 -2.1001305800514958e+000
    2.0524537690557513e-002 -1.3775005462614545e+000
    2.1186915273626941e-002 -1.3292827582786682e+000
    1.4645767856524630e-002 -1.5282045104513644e+000
    1.3771707592572889e-002 -1.6919817935586219e+000
    1.5412802698530025e-002 -1.8840724187591982e+000
    1.4871997520932649e-002 -2.1603779658046665e+000
    1.8342152895511766e-002 -3.0156877046707797e+000
    1.4557090377242650e-002 -2.0319541560648928e+000
    1.9817708311047507e-002 -1.4703271588403839e+000
    2.0543757925114797e-002 -1.3637250862660464e+000
    1.3068709456007913e-002 -1.3740779940440024e+000
    1.4120493985287667e-002 -1.4953603130419639e+000
    1.7101969575399591e-002 -1.6321296334596629e+000
    1.3878535747202632e-002 -1.6312933721230471e+000
    1.8546790735388015e-002 -2.5966537406806300e+000
    1.3664163013110081e-002 -1.9430186764586734e+000
    1.8569815955267098e-002 -1.5613776363573098e+000
    2.0455119368748682e-002 -1.4900796863119758e+000
    1.3188671640422258e-002 -1.5137419992624650e+000
    1.6276806184100195e-002 -1.6677697891967846e+000
    1.5459091306525433e-002 -1.3718225857729487e+000
    1.3876347090061672e-002 -1.5001616051309452e+000
    1.7135520962842796e-002 -2.1121116209015121e+000
    1.3801658265637933e-002 -1.9242067484941063e+000
    1.7568670219357124e-002 -1.6097782107103169e+000
    2.0810245822853363e-002 -1.6470924193865792e+000
    1.3920717425448970e-002 -1.8211907467375332e+000
    1.6832647012001562e-002 -1.9504050435943290e+000
    1.5451575173089125e-002 -1.5064141232637964e+000
    1.3746535482446393e-002 -1.5366081014656094e+000
    1.6579379316887702e-002 -1.9698758832805832e+000
    1.3673441282977591e-002 -1.8832633248545527e+000
    1.7364580976969139e-002 -1.6768718596407586e+000
    2.1384837844824856e-002 -1.6646908215649217e+000
    1.4286753703754951e-002 -1.9977643929084008e+000
    1.5627372036337458e-002 -2.1363196365230204e+000
    1.6921140470465761e-002 -1.9073572209199638e+000
    1.3346097272562165e-002 -1.6121096905457128e+000
    1.7701309978234506e-002 -2.1908976920468173e+000
    1.3215510493021715e-002 -1.8076860501047334e+000
    1.7617528698575167e-002 -1.6760794802974084e+000
    2.2115361582488328e-002 -1.4833674009587543e+000
    1.6283371928138272e-002 -2.0661186625410703e+000
    1.5245932301788456e-002 -2.2597012659967457e+000
    2.3864578957866287e-002 -3.2598130983150608e+000
    1.8912130608828927e-002 -2.6616022034799478e+000
    1.9248292552346721e-002 -2.7415984692059179e+000
    1.4082587385415958e-002 -1.8974721769916290e+000
    1.9811134107344832e-002 -1.6787368045997868e+000
    2.1094721922691028e-002 -1.2087666304700526e+000
    1.7945879111448477e-002 -1.7340371856984420e+000
    1.4327992032638097e-002 -2.0343626020859777e+000
    1.6665051016408132e-002 -2.7495791116794122e+000
    1.9777332084991647e-002 -3.4540011745766526e+000
    1.6328712453538455e-002 -2.6376313516615784e+000
    1.5890534163584099e-002 -1.9466492888692877e+000
    2.0330896184014915e-002 -1.4570852096621505e+000
    2.0806304561528911e-002 -1.1797945290259542e+000
    1.8965146389467884e-002 -1.3808031397191098e+000
    1.8189782907263089e-002 -1.9263316946623226e+000
    1.8406198881653520e-002 -2.5793220032823796e+000
    1.8352914513905097e-002 -2.8031357969691677e+000
    1.8154323847452192e-002 -2.3681979267819022e+000
    1.8055174865944403e-002 -1.6326224694985172e+000
    2.0545744557940136e-002 -1.2943058118000139e+000</input_scale>
  <output_scale>
    5.2631578947368418e-001 4.9999999999999994e-001
    5.2631578947368418e-001 4.9999999999999994e-001
    5.2631578947368418e-001 4.9999999999999994e-001
    5.2631578947368418e-001 4.9999999999999994e-001
    5.2631578947368418e-001 4.9999999999999994e-001
    5.2631578947368418e-001 4.9999999999999994e-001
    5.2631578947368418e-001 4.9999999999999994e-001
    5.2631578947368418e-001 4.9999999999999994e-001
    5.2631578947368418e-001 4.9999999999999994e-001
    5.2631578947368418e-001 4.9999999999999994e-001</output_scale>
  <inv_output_scale>
    1.8999999999999999e+000 -9.4999999999999996e-001
    1.8999999999999999e+000 -9.4999999999999996e-001
    1.8999999999999999e+000 -9.4999999999999996e-001
    1.8999999999999999e+000 -9.4999999999999996e-001
    1.8999999999999999e+000 -9.4999999999999996e-001
    1.8999999999999999e+000 -9.4999999999999996e-001
    1.8999999999999999e+000 -9.4999999999999996e-001
    1.8999999999999999e+000 -9.4999999999999996e-001
    1.8999999999999999e+000 -9.4999999999999996e-001
    1.8999999999999999e+000 -9.4999999999999996e-001</inv_output_scale>
  <weights>
    <_>
      -2.8240733784063762e-002 5.7244039706009199e-002
      4.5048060419553886e-002 2.3546896708525365e-002
      -4.3389706398938445e-002 8.2675087489850647e-003
      4.7638407971854826e-002 2.8680115741356833e-002
      -4.3023652499542622e-004 -1.4895588885127867e-004
      -2.2793596878935656e-002 -5.1592986061656507e-002
      3.7209405053787096e-003 -3.2197501916407002e-002
      1.7025795662424369e-003 -3.3822117544568603e-003
      -3.6037958481487792e-004 5.8112608304510809e-002
      -4.0020838418427636e-002 -3.1024509971691898e-003
      -3.0455052668740577e-002 1.2338248057213209e-002
      -2.0601583847921693e-003 3.4260667363263324e-002
      1.0032794567241141e-002 2.1559707885539021e-002
      2.5609860811875718e-002 -7.5197745947310169e-003
      -2.4345682288294271e-002 -1.2751450255117501e-002
      -5.9830704224445794e-003 5.4198254844058384e-004
      -2.8066586994501558e-003 -2.0079270512033320e-003
      3.5712728640313225e-002 -1.0961696833234088e-002
      2.5297289713916617e-002 2.2257796486202165e-002
      -2.2507631167803320e-002 2.6365531403791877e-003
      3.9628690547670500e-002 3.7749404534352382e-002
      -7.0623943233257712e-003 -3.6048406428058989e-002
      3.4476377259709277e-002 4.9002727933410747e-002
      4.0412969291787761e-002 -6.9020995980726236e-003
      -5.4988060116958712e-002 1.4551520507882356e-002
      3.3701146223999230e-002 3.6794408099638533e-003
      -9.1700607506154091e-003 2.4337286552592971e-002
      2.1750561860485563e-002 5.8853036806213996e-002
      4.3561239366058671e-002 -6.1441449032074349e-003
      -3.9967486238996520e-002 -6.3825379351728304e-003
      -2.4241012904854347e-002 3.2915601109520650e-003
      -6.4826982562533357e-003 -7.2997391087173515e-003
      3.0366706852706683e-002 -4.4379760635906519e-002
      1.0574588587181865e-002 -2.7520510783908846e-002
      1.7723544682360162e-002 -1.3472641380440234e-002
      -3.3853986993651573e-002 -1.2421509053596241e-002
      -1.7391391020375416e-002 4.3630417189431406e-002
      3.3758015579016074e-002 2.1886748939887263e-002
      -2.3609848426204071e-002 7.2683556771765846e-003
      -1.5163130668444545e-002 3.4863027973326632e-002
      1.3751781329148437e-002 5.8539158807503093e-002
      6.1978775105153610e-003 3.1830466120536653e-003
      1.7645492004230174e-002 -2.5728736697419281e-002
      5.7750050370249315e-002 -7.5069803667885489e-004
      8.8632591057030655e-002 1.8663114636478757e-002
      -3.2242174371047393e-002 -7.5706208515806617e-002
      -4.1084196680986715e-002 1.7310861730307037e-002
      -9.9574166267970103e-003 2.6446921236372101e-002
      -9.5222166798162840e-004 -7.8211985096224734e-002
      1.4531235335071607e-003 -6.9682865713299499e-002
      2.3874847921718594e-003 -2.5021661297841002e-002
      -8.1751986998514735e-003 1.8436979551777279e-002
      7.0215385014923845e-002 -5.4923187833582155e-003
      -5.1079268815490110e-002 -4.6883822553393149e-002
      6.9207469187174322e-003 1.2392747113656860e-003
      -4.4263448049873762e-002 -3.7078518284059982e-002
      2.2455848103544257e-002 -2.9870224931895995e-006
      -4.6175121720133924e-002 -2.9775551495003313e-002
      4.0041130673591684e-002 -7.9771034998872923e-003
      -3.8558646567614790e-002 -3.5417062350922943e-002
      6.8400518946773764e-002 1.1875946058077187e-002
      3.8170857399682208e-003 4.4218021660428000e-003
      -5.5908655646060602e-002 1.6301282206407735e-002
      -3.2765276049474538e-002 -3.5583739150352720e-002
      -2.5415752326519638e-002 6.2060544554155293e-002
      7.5929858842774603e-002 2.4115211839781707e-002
      -4.0453420882993203e-002 3.8519947445818020e-002
      8.6869202427869135e-002 3.6560953062500533e-002
      -2.8553245210464315e-003 3.8969591138338019e-002
      4.6576524694607394e-003 -7.0035585810395554e-002
      1.8495273111045044e-002 -4.8429703056963258e-002
      -1.3324380095232787e-002 3.3430440939766062e-002
      -7.7664014181841904e-003 5.1114562272661423e-002
      -7.7421140035051211e-002 -1.1034052896914965e-002
      -1.5017554569207833e-002 7.7348329831130385e-003
      -2.3678203686711568e-002 6.1609260480378084e-002
      2.4580221203333918e-002 1.7294074953437183e-002
      2.9880987643999012e-002 -1.1123444676258948e-002
      -3.1077171280620198e-002 -3.6877259404280972e-002
      -1.5985356936905268e-002 9.0842975811145799e-003
      -1.2660688572184777e-002 -4.1857075915313652e-002
      4.6539211764894159e-002 -2.0760256336159601e-003
      4.8869924881637494e-002 9.4141038712541279e-003
      -4.5774291205364637e-003 -4.6404249418614835e-003
      3.4118294243084463e-002 4.2837321109766041e-002
      5.8614910952971781e-003 -5.0517507169212772e-002
      3.2229240844707949e-002 4.0183323796995234e-002
      6.3494939420553273e-002 -9.8359674482047937e-003
      -6.6664605686744663e-002 5.8493661409938615e-003
      2.4116740168266586e-002 -7.4468040465415497e-004
      -8.6512470660212882e-003 3.7325216316636094e-002
      5.5537227072758278e-003 6.9699067832368441e-002
      5.9318117177651397e-002 5.9202421713450129e-003
      -3.5259767992956492e-002 1.2481302233699280e-002
      -6.5399083340979297e-002 3.6531294909151954e-002
      -3.2735575440337894e-002 -1.7652432790583754e-002
      9.2630097014182768e-003 -2.3066644500513541e-002
      3.5114760587217859e-002 -3.7065835131364036e-002
      4.4217084233496330e-002 -3.0562291271508047e-002
      -4.2085168607966510e-002 1.1473530602156841e-002
      -2.4325324392569965e-002 3.2947229290443664e-002
      3.6723298989310822e-002 4.4224632548130999e-002
      -5.6297131685111403e-004 -1.9078089674517355e-002
      -2.8009579603876081e-002 2.2403563787292802e-002
      9.2160190965759285e-003 7.8302079524511459e-002
      1.7924758259442557e-002 -1.2179520034145547e-002
      -4.8282397136341975e-003 -1.3236103702291479e-002
      7.0861913935807375e-002 2.1944620695151209e-002
      1.2626779785194434e-001 3.2467329351122724e-002
      -6.4915287322039779e-003 -9.4548261382843335e-002
      -5.0610632197071452e-002 1.9662718719998605e-002
      9.5539174903760300e-003 1.9234067482987751e-002
      1.2106448699129118e-002 -6.2746445583243063e-002
      2.0661506012965500e-002 -8.2396283602231363e-002
      -1.8438831475987818e-002 -4.2615271971065002e-002
      -3.1043260601452294e-002 1.2866768933639611e-002
      5.9425298262044124e-002 -4.5584587020139440e-003
      -8.9359057240643303e-002 -3.3706951117275043e-002
      3.0124400070846793e-002 -8.7435774362103584e-003
      -5.3380846620936395e-002 -4.2287932710772580e-002
      2.7716683354207142e-002 -3.5519851043472897e-002
      -4.4038414898775136e-002 -1.0242175793070404e-002
      6.2475399708517003e-002 -1.1932970044568846e-002
      -6.1571110932018717e-002 -6.5304266775291081e-002
      6.8539774264227457e-002 1.1371773068063210e-002
      -2.5743579735565680e-003 6.9913242736712525e-003
      -5.4858123963974083e-002 4.2925733400398090e-002
      -4.2119792856149162e-002 -4.3202703310956034e-002
      -2.9360146383786912e-002 4.7602777249667182e-002
      6.9983209256149995e-002 1.1573747263567890e-002
      -3.7075238021056313e-002 -6.8909489202250880e-003
      8.9420131107037309e-002 3.2630315326169848e-002
      1.1706988331269142e-002 2.3616550657990856e-002
      6.5503267501653912e-003 -4.9507925603363208e-002
      -1.0969177826945861e-002 -3.6038358830990887e-002
      1.5831018994764207e-002 2.7635048526817682e-002
      -1.9544810573842733e-002 6.1928763225432455e-002
      -8.0098102204242003e-002 -1.4348968626624253e-002
      -2.4314703896318204e-002 -2.1672377106600379e-004
      -1.3202550516091351e-002 1.7160394769224395e-002
      -5.4772692789667725e-004 2.7616116360295116e-002
      9.1417615325181997e-003 1.0525338596965047e-002
      -1.4761834390679948e-002 -2.1379835888250993e-002
      -3.9539281868389217e-002 -5.2119729351558048e-004
      -3.5740924800253572e-003 -3.7242661629234272e-002
      2.3965366379740026e-002 9.1885572816688670e-003
      4.4556125929471842e-002 -7.1590096283910363e-003
      8.3460766987697096e-003 -8.8350347669906275e-003
      2.6088723766876577e-002 3.3940494437190799e-002
      2.7863520210029070e-002 -2.6657283029506269e-002
      2.6679097298739844e-002 3.0888410956283866e-002
      3.6259238977199224e-002 1.8100231937327317e-003
      -9.9271494801276249e-003 -1.5965572930864535e-003
      2.3608505804539773e-002 1.6933034156384363e-002
      -1.9622658147634402e-002 3.7268767494859946e-002
      -1.9061742173108905e-003 5.8666379688591473e-002
      3.4922576091451919e-002 -5.7081576026939756e-003
      -9.3530751156197210e-003 2.1756889107665385e-002
      -2.2133753906702913e-002 6.2387601447062672e-003
      -1.4087458978144946e-002 5.0335077707491654e-003
      2.7904796618114774e-003 -1.1841491447670140e-002
      2.3753174361746395e-002 -9.9261661958425888e-003
      1.9858497853845886e-002 -1.9124249345241890e-002
      -4.2397783982501713e-002 3.8707810096190922e-003
      6.3642352749446393e-003 1.9758344844197591e-002
      6.3616711577605151e-002 7.4719144042311059e-006
      1.3284902281377008e-002 -1.3581354720825623e-002
      -1.5502321987755500e-002 -1.5578471044317258e-002
      -1.3674973983026921e-003 3.3543836741891320e-002
      1.3104945721648935e-002 3.9904441465324330e-003
      -2.0303383751242524e-002 4.8768594536695705e-003
      5.1241979142315826e-002 3.6299545016701229e-003
      1.0571836922856459e-001 3.9375318702375268e-002
      -1.8918038254257693e-002 -5.9761441017702359e-002
      -3.5680325486903489e-002 -3.8184248088434037e-003
      -4.8049493366138463e-004 -1.0953433397524305e-003
      1.1449134602236431e-002 -3.1319524634985267e-002
      1.1628429390150323e-003 -4.7734611153193697e-002
      -2.2999843441182631e-002 -3.7495676996903010e-002
      1.8565167953818903e-002 -1.0805950425064026e-002
      4.5335505035388933e-002 3.4881024926852210e-002
      -8.3629797632743322e-002 -4.2979999733489581e-003
      1.3045191522048402e-002 -2.0941339466331588e-002
      -4.7412011390526192e-002 -4.6133235164034406e-002
      2.4236091243917544e-002 -3.4386966153417596e-002
      -2.3279831171210113e-002 -2.0125363238535827e-002
      7.0413946878343237e-002 1.2177086324533168e-002
      -2.7342387011360006e-002 -1.7006416746138692e-002
      5.0247052903673949e-002 6.6159474822913471e-003
      -3.6516977480766322e-002 2.2354761313316700e-002
      -4.2054221323042089e-002 3.4010540370075122e-002
      -1.2184033373899616e-002 -2.2267138207327924e-002
      -1.4177737031391758e-002 3.2201632750648489e-002
      2.9704661137646672e-002 2.0652739679948611e-002
      -4.1172035180229570e-002 2.7091596045890676e-002
      7.7312673637498089e-003 -1.3214020773301449e-002
      -2.2405758525454268e-002 -6.7441627989402696e-003
      -2.4656193624543417e-002 -3.1800890461987898e-002
      -2.3148235115854691e-004 9.9931662571502520e-003
      1.7187470621127500e-002 -3.4780129885346865e-002
      -1.0839060204296674e-002 3.9035944081259370e-002
      -6.3793390086162218e-003 -8.7508172970951030e-003
      -4.1535078523579239e-002 3.1000552607313749e-002
      -2.3124862598737611e-002 2.8789375678244144e-002
      2.5670122021478718e-002 6.7907244915070370e-003
      2.7666067891758531e-002 -2.4598338313205306e-002
      -1.5585192725994082e-002 1.5855869890774029e-002
      9.0034069211240731e-003 -8.6546506982249482e-003
      1.4878341457616082e-002 -5.1217501475296398e-002
      6.3087656258629518e-003 8.5368470847759625e-003
      1.0861473201616827e-002 3.1272597612783407e-002
      -6.3332671562451436e-003 -7.9658899353990849e-003
      -7.3201676467140190e-003 1.6369556994619693e-002
      4.2673546020668808e-003 5.4890871046539705e-003
      1.1627395123611170e-002 1.8168794759257964e-002
      1.1365319257453408e-002 2.5493491569624070e-002
      -3.3747959443631438e-002 2.0227997892365301e-002
      2.3500767922717089e-002 1.0336841299901176e-002
      -1.6795831113842315e-002 1.9714928744297283e-003
      -1.2915008999332116e-002 6.6437744004569288e-003
      3.4871113622642877e-002 -3.4045409329000356e-003
      -3.0714297957009591e-002 -2.9527495294651370e-002
      -7.6492223827405604e-003 1.5720148910017783e-002
      -1.4896482140298919e-002 1.9294762883291189e-003
      1.0245495876923852e-002 5.9817199722125586e-003
      1.5339358181543328e-002 -2.5866209923498348e-002
      2.7176492863937699e-002 -7.3952231561859672e-003
      -1.2264545824661021e-003 -2.2653545458090587e-002
      -1.8037666697443180e-002 -1.0757848195871276e-002
      2.0884805513249026e-002 3.4301841429908358e-002
      -2.0047565978179225e-002 -1.3539029543401704e-003
      1.6147457803709946e-002 1.0970617658668164e-002
      1.7760919847266847e-002 2.7689190770186584e-002
      6.8880891999841933e-003 -1.4286147021629897e-002
      -8.6757591451733906e-003 -1.7422216246720041e-002
      2.5783729780003387e-002 -1.3899102942867884e-002
      4.9994892546981508e-002 1.6061304236404415e-002
      -1.4531435687527726e-003 -9.9625363641415911e-003
      1.9790937554287655e-002 -1.3331690321626235e-002
      2.4162889399484948e-002 1.6889328715402284e-003
      -1.8285451665425181e-002 -3.4997486849514051e-002
      1.9092202326430101e-002 -3.6387352435080816e-002
      -9.0719374861026464e-003 -1.4399452744876536e-002
      -2.8555748650909929e-002 1.2246743012436907e-002
      5.2098315384428155e-002 2.8285904323964790e-002
      -3.0669303428479733e-002 -1.0994332428981818e-002
      5.1339505318166896e-003 -1.3321429807938290e-002
      -3.7383307174407424e-002 -6.2500420737422284e-003
      3.1355066550964837e-002 -7.0703190431346003e-003
      -3.4653132391287901e-002 -2.8283387966072219e-002
      1.5075221534312472e-002 -1.4679147273899332e-002
      -2.0996366333963574e-002 -1.2238331724637048e-002
      2.2097646702393448e-002 -1.9405822620968356e-002
      3.0548415939765143e-002 6.0935199780728651e-002
      -6.8108520338040490e-003 -3.3486356808183682e-002
      -2.9261484129493684e-002 -2.9928958211795267e-002
      1.4786485718651753e-002 -3.0796452563068465e-002
      -3.4979925254210752e-002 1.2793592395202717e-002
      -1.9988193407733792e-002 5.1014141512797694e-003
      -6.1199000064594812e-002 -4.6456158139832157e-002
      -3.8338273581994667e-002 -6.7016888749086317e-002
      -2.9027893728419244e-002 2.7564625345117912e-002
      -6.7615306263555820e-003 6.7910110388585132e-002
      -1.8819272604350533e-002 -3.2482695580810891e-002
      3.7900291425320251e-003 -5.5852826080794657e-003
      5.7561865524015952e-002 3.0355408999641242e-002
      -4.1172056513746592e-002 3.7317642167480201e-002
      -5.5107533041410597e-003 -2.4095627201658708e-002
      3.9476141766250007e-002 -4.3569373252643788e-003
      2.3417152809187877e-003 -2.5335100657365515e-002
      1.5739148620333671e-002 2.5871565952066317e-002
      5.4392568535655876e-002 -2.4403487146446651e-002
      1.0594984503046025e-002 -5.1620794371668353e-002
      -3.6608813704749350e-003 -3.0280277408513852e-002
      -3.3342927236566421e-002 1.9920220747762188e-002
      -1.6858814246945963e-002 -4.5156843627699372e-003
      -3.1885662702030866e-002 -1.5591190655319139e-002
      -2.9507925114836121e-002 1.2433874448920242e-002
      -2.1768206404085551e-003 -8.3195766221943104e-003
      -1.9716572457837533e-002 1.4072903075096753e-002
      -1.2178208997438782e-002 2.3095681865572978e-002
      1.6728722143784635e-002 -4.5024639026819803e-003
      -1.8515133967026101e-002 -3.7733415716973605e-002
      -5.2899073397011994e-003 -1.5595040198471647e-003
      2.9062489696556897e-003 2.2892065393398935e-002
      -2.3714997731280128e-002 -4.5942684125196621e-002
      -1.5341415371236996e-003 1.8566175320874630e-002
      -9.5495399125018494e-003 -4.4672022802703694e-003
      5.7804620642812887e-003 7.7431748801135535e-004
      -2.4243687746820931e-002 7.3629696534897211e-003
      -5.9194843957318475e-003 -9.6580988678532740e-003
      1.6750322958253176e-002 -1.8092868858052856e-002
      -8.7542790311900445e-002 -7.3615743456406353e-004
      -3.1871251223155005e-002 -9.8294129765671913e-004
      -9.4925800680992680e-003 -1.6943186436467368e-002
      1.2758007870935766e-002 -7.6984457764354940e-003
      9.1112174728001458e-003 -1.5984931929055094e-002
      -7.3627264214542315e-004 1.1026515159139810e-002
      2.9055146121527882e-002 -2.6968683504534956e-002
      -2.6056527808776705e-002 -5.9867733162241137e-003
      -4.4422175149181661e-002 -2.3053017323602359e-002
      -2.8707868877326802e-002 3.8809521958884756e-002
      3.5843363663097157e-002 -4.2059501854551137e-002
      1.8262179206807682e-002 -3.3162968500867612e-002
      -2.5607164327152689e-002 -4.0346023486813910e-002
      2.7798257766459215e-002 1.7145912066106547e-002
      3.6222227831416993e-002 5.5054932994713826e-002
      -2.0146340560954931e-002 3.2750882937758088e-002
      4.8940536523675186e-002 -1.3711257942910232e-002
      5.9303117356391391e-002 3.8114407674056023e-003
      -2.5750495381026452e-002 2.9939872370631233e-002
      -7.1342724609656571e-002 6.5982845963811973e-003
      2.6050249643675097e-002 3.0891640501070468e-002
      -1.6139937745906087e-002 -1.7324311313466619e-002
      -6.7760601609470381e-002 -1.4947991756355510e-002
      2.5636481473133632e-002 -3.6716321073624035e-003
      -2.6412623301064392e-002 -4.8547565534367919e-004
      5.7878337989949062e-002 1.0012424424823756e-001
      2.3255623186414806e-003 -7.6457461789266989e-002
      -1.8359127771608814e-002 -1.8919622353326976e-002
      2.0700519209887694e-004 -2.2013651855228716e-002
      -2.4893766925281467e-002 8.0880232924897787e-003
      -1.0704656174244593e-002 1.4332896199066201e-002
      -1.6780383793886289e-002 -2.0484775686889684e-002
      -1.1744219953368747e-002 -5.2848534201036593e-002
      -3.2509340066032497e-002 -1.5871302322710435e-002
      1.4589571299459921e-002 1.5115678771222503e-002
      -3.5702539075713559e-002 -1.5600591851967473e-002
      -7.3207765026548893e-003 -1.3366239867143406e-002
      5.5371226323404294e-003 -7.5193377615437047e-004
      -2.9532712869038535e-002 3.0760081800518570e-002
      -1.7499575595417555e-002 -2.8960479669548463e-002
      5.8654991108816959e-003 -2.1163518662922001e-003
      -1.5584179026588690e-002 -2.0397668494456936e-003
      6.7822979265400370e-003 1.7070582196981019e-002
      1.5496026521329814e-002 -2.8342866357537296e-002
      1.2322342283566833e-002 -5.2784541747711466e-002
      -5.4548197718968603e-003 -2.2225571155591387e-002
      -2.1179407532183763e-002 9.7437519001847966e-003
      -1.0515776973138869e-002 9.6768268574027698e-003
      -1.7424418056514821e-002 1.0272429538337562e-002
      -3.7136066370743313e-002 -3.6171148151728631e-003
      1.5420293530204588e-002 1.1267318823872283e-003
      -2.0415592711158434e-002 -1.2669984067110037e-002
      -7.3006767966998223e-003 1.1611581281557010e-002
      1.2003769556139045e-002 1.9440896039701532e-003
      -2.4847787105075916e-003 -2.2460137238909859e-002
      2.5024718527415373e-002 -1.1923442176704300e-002
      2.9554821510980454e-002 5.4625431103709253e-003
      -1.1883063157400899e-002 -1.7524758349728175e-002
      -3.0355708756443019e-003 2.9278228037894302e-002
      -2.0571255059177607e-002 -8.4954958936020245e-003
      1.1577103114999300e-002 5.0889972344163367e-003
      1.1693973180964986e-002 1.4072490727266967e-002
      9.4465712601942507e-003 4.4408118031231889e-003
      -2.1481739667195735e-003 -1.6883044527293380e-003
      -5.0416168518080305e-002 1.4139417828388446e-002
      -4.4742602356689726e-002 1.2583260677088478e-002
      -3.1439439354744685e-002 -1.9377737040968757e-003
      1.8967044722444631e-002 -1.0650064837435396e-002
      -2.8126745871322545e-003 -6.9944970061375979e-003
      1.4151841858790087e-003 -6.8453128692143178e-003
      9.9445750144765165e-004 -1.9233388001697844e-002
      4.5544200107251491e-003 4.7080453061848241e-003
      -2.2424409059271098e-002 -9.5187707513951399e-003
      -2.6647308950399897e-003 1.0576081114900349e-002
      3.7485275099186754e-002 -1.8784182343229254e-002
      1.2370649438143000e-002 -1.6807001322232222e-002
      -1.6538029207284546e-002 -3.9341716985145353e-002
      1.2309714510522938e-002 3.4802502261576857e-003
      1.3617458544608238e-002 2.1001561652747709e-002
      -3.2199421201559039e-002 3.9665040490546130e-002
      2.7641555716786812e-002 -3.7985323572122302e-002
      1.7419285635709354e-003 -1.0266256718485680e-002
      -2.0838758202970129e-002 7.0919676177897874e-003
      -5.9086599158422501e-002 -9.6157189265410007e-003
      3.3522564583373396e-002 3.6255375328825439e-002
      -2.1914948821853179e-002 1.0164249911680495e-003
      -2.3606988818875574e-002 -2.0120685900899264e-002
      2.3879209212574578e-002 -1.5824046534036018e-002
      1.4471237124606275e-002 -5.0494702757948604e-003
      2.1246084466801360e-002 4.8813936457132549e-002
      1.2708755409219626e-002 -5.3007152780731030e-002
      -1.9065613051873685e-002 -9.3248157132841472e-003
      1.3219134150172283e-003 2.5377486076485371e-002
      2.3069538286746759e-002 4.2297759289685009e-002
      -7.3033651425880568e-003 2.8293659299366222e-002
      3.0615257503645306e-002 7.2685814139345217e-003
      1.8482459304583483e-002 7.7524767637103279e-003
      -2.7150067296873733e-003 -5.5542383320322269e-002
      -1.0095166457104409e-002 -2.4772857112084015e-002
      -3.2747654630667249e-002 1.4294783299681426e-002
      5.8196884608352597e-003 -8.6268676596306152e-004
      -4.9588102951250955e-002 -2.4162081975339283e-002
      -1.4559426484919386e-002 3.4359424654696702e-003
      -1.1194093509518291e-002 3.0725381620662628e-002
      -1.0808255872350077e-002 -2.1759611176178483e-002
      -5.6171190129188911e-003 -2.2737820457578075e-002
      -1.2039345197238541e-002 9.5616725063251654e-004
      -3.7441237102444620e-003 9.6855654391222543e-003
      4.0270133410904843e-003 -4.1400665323680787e-002
      4.1626242057343367e-002 -1.9603648236812311e-002
      -7.7620177992831236e-003 -4.5948232308689315e-005
      -7.1595799533260649e-003 7.7979817787783325e-003
      4.5476072052049636e-003 1.1356490875409474e-002
      4.3792104249427161e-003 -5.6811026584484926e-002
      4.3822870188696732e-002 2.7513022320469115e-002
      5.6524778042561091e-002 -9.2247612241405236e-003
      -4.2601219617596102e-002 1.1556653118059442e-002
      2.8536647268453844e-002 2.1676814016261372e-003
      1.9211411436750665e-002 -2.3123082156276266e-002
      3.4918699656802756e-002 3.5792614396904031e-002
      3.0742034280455546e-002 1.5202170215990423e-002
      -6.9700198399726392e-004 3.5547267406741221e-003
      -3.6627998691694870e-002 4.3048003245665697e-002
      1.3755731058930148e-003 -4.9108198267114028e-003
      -5.5083232562289476e-003 -5.6815365361319252e-002
      1.5550415152850279e-002 -1.0089526726146500e-002
      1.2145757762140688e-003 5.6068793372976537e-003
      -4.0387481112882574e-002 8.2390680176227561e-003
      -5.2084912294739709e-002 2.7574451340162690e-002
      -4.6789230507806381e-003 3.3991621225758245e-002
      -7.0490884509960246e-003 -2.5069436279988090e-003
      -1.5719183756434170e-002 2.0410949197445870e-002
      1.8721383182462325e-003 4.5261130713462383e-002
      -2.4484683761347055e-002 -1.6530613014596667e-002
      3.7501557421965669e-002 -1.0771397225735320e-002
      2.6734034416213668e-002 2.4408212995884294e-002
      5.9048148888183487e-002 -5.7167912360510100e-003
      -9.3753423849830802e-003 -6.0124360965615103e-002
      -2.7441324661211720e-002 1.3312707037580971e-002
      -8.4314153902786022e-003 5.9987365503426935e-003
      -6.7404717232288679e-003 -7.3138320276968857e-002
      9.3400425814046863e-003 -6.5551944632190107e-002
      -8.4230716467994758e-003 -2.1445670973816278e-002
      -3.9971847598952968e-002 1.5423385870172163e-002
      6.7260182868524282e-002 -4.4116527284019186e-002
      -3.9573192938387181e-002 -4.3541242468516705e-002
      2.7994354876881580e-002 1.9091437364981517e-002
      -2.2788480713591526e-002 -9.8225242299135214e-003
      2.5505830294962624e-002 1.0100201670366420e-003
      -5.3621056848050987e-003 -1.5659398314405777e-002
      4.1654854770135956e-004 -3.4918420657452535e-002
      -1.8068520804555187e-002 -3.2408282322461859e-002
      5.8510131994422711e-002 -1.7176713810960543e-003
      -1.8292750916790348e-002 3.8606221518293883e-002
      -3.8616209574723552e-002 -8.8465217091123257e-003
      -6.8897892539181412e-003 -3.2756545752637548e-002
      -1.8765289980921262e-002 4.2382339021661500e-003
      3.2257347592931827e-002 7.5009232024931738e-003
      4.9339554665758104e-003 -5.9346906051053194e-003
      5.3875078620397074e-002 3.5964285312104036e-002
      1.4893847575260031e-002 2.5148587233831041e-002
      5.2906271638562971e-002 -1.8702924011385055e-002
      -4.1538199709712899e-003 -3.9540903489658011e-002
      -4.2922838442486094e-002 4.6355409037867619e-002
      3.4762397643491240e-002 5.9821953456100224e-003
      -6.2819315501611059e-002 -1.4611500149649088e-002
      1.2310420779665040e-002 -2.8279681133116151e-002
      -8.0552083017413900e-003 -9.6479405967505802e-003
      -3.1117958291802781e-002 -3.4755727594765536e-002
      -1.7943604217457394e-002 9.0109006797432813e-003
      -1.2924650866160771e-002 -1.0926252966364546e-003
      -2.7777508546440951e-002 5.0403471261916584e-002
      -7.1489725963751055e-003 -2.2088698944456944e-002
      6.2277681466158141e-002 1.6103418861242520e-002
      -3.2232510839047871e-003 -3.1549134045770343e-003
      -9.6533981092946520e-003 3.6253682196713275e-003
      1.7120740055328303e-002 -2.3668763503441281e-002
      7.8890287901113160e-003 -2.7226859481026516e-002
      3.8806425730437813e-002 -1.0560769094585918e-002
      7.2845347606639257e-002 -8.2320394676661861e-005
      -1.2113696470699785e-002 -1.3269567210761455e-002
      1.7788565190731010e-002 -5.6230467136896625e-002
      2.4034660491092194e-002 -6.3372289735214409e-003
      2.7514003480776993e-002 4.8697010658299268e-002
      -1.1779614496220871e-002 7.8140452471324156e-003
      1.8561914227857780e-002 3.8168151059043254e-002
      -1.6813086957434362e-002 2.2486260522399448e-002
      2.3798665448253549e-002 1.9093662405709210e-002
      -1.8158507448994405e-002 -8.2148898518603908e-002
      5.3131885350636374e-003 2.7679243994995413e-003
      5.6476746319770003e-003 6.4695919584024182e-004
      -1.7208703938787151e-002 2.6891869785627388e-002
      -1.3725043942859170e-002 4.1392758030622374e-002
      2.4637956503285621e-002 -1.6319188142466502e-002
      2.8683853418573688e-002 -3.7044877083855246e-002
      -3.7622768494177797e-002 -4.0846860518194868e-002
      -1.1999803607506991e-002 4.9858597826846748e-002
      -3.5879860302148327e-002 3.7758176527040270e-002
      4.5295839302170023e-002 2.7166755252261244e-002
      3.8282376703383260e-003 1.0935558029385199e-002
      4.4017823671585778e-002 2.3666286765238798e-003
      -8.3203386251032886e-003 -6.1321889088814245e-002
      -4.9805387609814497e-002 4.7578181107958875e-002
      -1.5652129725862052e-002 2.7587030720249935e-002
      4.1801645554287753e-002 -5.4359332745052190e-002
      -1.0471000996605412e-002 -3.0301874044579537e-002
      -2.3051165708923630e-004 -3.3129920553167352e-002
      4.2158617122942672e-002 4.6988571360841831e-004
      5.2570456951659510e-002 -3.6210323556267021e-002
      -2.7119239096407548e-002 -2.0391330785980082e-002
      1.2168535171337239e-002 -6.2421207740518325e-003
      -3.3525983530461233e-002 -1.3370753071731049e-002
      -8.7339783550221331e-003 -4.8094391420571052e-003
      1.1454221366986929e-002 -1.1642185752430791e-002
      1.5986336779107334e-002 -2.7678986980677060e-002
      -3.6513086771620545e-002 -3.3913543826674511e-002
      3.3258263618351699e-002 3.2092538344581714e-003
      -5.0485007237278556e-002 -1.9872082800020098e-002
      -2.7060265069415498e-002 3.5426739013540334e-002
      -6.8032987949209617e-003 5.1960305995845321e-003
      -1.6351441760733887e-002 6.1486085804962086e-002
      4.0804270934070408e-002 1.9483791500831474e-002
      -3.0319102874395820e-002 -5.8514328632770069e-004
      5.7319798141288743e-002 1.3571075401337418e-002
      -1.4894054448461850e-002 9.3819392883462520e-003
      -1.1504051695241763e-002 -7.6010473346469570e-002
      -1.2819288024656308e-002 -1.0695414785547162e-002
      -8.5771207577738737e-003 1.2775528426100778e-004
      -2.9541848496182604e-002 6.6888639617175338e-002
      -5.0917355592017960e-002 3.2018726412351112e-003
      -4.6753749029517386e-002 2.5093627620679067e-002
      -1.8687198367022258e-002 2.3081043255530360e-002
      2.4031289889122544e-002 3.2454939241311154e-002
      2.9028599256797943e-002 -8.2982504929716792e-003
      -4.0239879184547127e-002 -1.3928262366094825e-002
      8.2532931947979921e-003 -1.6460634323692139e-003
      1.1997524664692700e-003 -3.2923934205082613e-002
      2.8184810685430949e-002 8.6296194955189261e-003
      5.6498752657110345e-002 1.6328262664364952e-002
      -1.3252191934476226e-002 1.8834003126025109e-002
      3.0773023128072053e-002 5.3249977585185071e-002
      2.6061946534591072e-003 -1.9937479482304513e-002
      3.1432281237576361e-002 2.4563638934565087e-002
      4.4078970619908391e-002 -2.1471506729323635e-003
      -4.0816956003727541e-002 -2.5431056305140393e-003
      3.0033206692175064e-002 5.1237201061160162e-003
      -3.0244929674361626e-002 3.3791553501197703e-002
      2.9008657472081024e-002 6.4404782361215468e-002
      5.9245453095428308e-002 7.7277163675595088e-003
      -3.9519421705547966e-002 -1.7517832261733791e-002
      -4.0640625769123320e-002 -4.6601638844212447e-003
      -1.5097701873430049e-002 -6.7979395224853356e-003
      7.1717685587856682e-003 -1.8204041745424327e-002
      1.2607225188833787e-002 -2.5372426093101197e-002
      3.4666402559574185e-002 -3.3547934467332834e-002
      -1.6181812805571318e-002 -4.2367681705620161e-004
      -1.0107686139903692e-002 8.6119181190829428e-003
      3.0116829318289629e-002 -2.4742384497095514e-003
      1.4169604245836023e-003 -1.6738493980172804e-002
      -2.4875087544595009e-002 1.2554360780643731e-002
      2.3999915796816935e-002 5.4502463358796292e-002
      -9.5522582518280073e-003 1.5596347661912152e-002
      -8.9671066144204493e-003 -2.4368918612408037e-002
      8.6646021760079864e-002 3.0208099803411197e-002
      9.7051209028627378e-002 4.3690790049087325e-002
      -2.6496149698467829e-002 -6.9095794121477344e-002
      -2.6963702032661928e-002 -1.6083570909644237e-002
      3.5695275731105385e-003 1.3242945260970720e-002
      2.3136095792590475e-002 -3.7730786081931408e-002
      2.4654486214875433e-002 -5.6507051545371299e-002
      6.5856838368218784e-003 -4.1736643426566078e-002
      8.2844991943122354e-003 -7.0049892750071096e-003
      7.7871589784566375e-002 3.7631420589109982e-002
      -4.1779024784271993e-002 -2.9833217393156055e-002
      3.1959162234877000e-004 -1.9166712624103986e-002
      -5.3222271603450007e-002 -7.0723026076318460e-002
      2.5846099570077573e-002 -1.0352647981186019e-002
      -4.4606485377269516e-002 -3.5710320530633811e-002
      6.3636536723602949e-002 -9.6479014449968193e-003
      -6.3381459859593592e-002 -3.8910950410563097e-002
      3.5758739077112432e-002 -1.4937549869937989e-002
      -1.1959998511225204e-002 1.4115843535924813e-002
      -3.0770091417055723e-002 -1.5589507905961260e-002
      -2.6221140269929676e-002 -3.7860284753336838e-002
      -1.8044213258159504e-002 5.6866523123918461e-002
      4.2782088023548513e-002 5.3210233913986533e-003
      -4.2210013745474055e-002 2.7413298455808491e-002
      8.3371354006095758e-002 1.7559645072241968e-002
      1.3839244297099216e-002 4.3182099668830361e-002
      1.2387265936154830e-002 -8.9858030347675658e-002
      2.0442242030975763e-002 -5.2247152721991548e-002
      2.3456781178503960e-003 2.6365370842071811e-002
      -1.9987984069627190e-002 7.2427574703306824e-002
      -8.3173642416775592e-002 -2.1960613957178684e-002
      -2.3351428059551847e-002 4.8850126051419081e-003
      -1.4254355177636209e-002 4.5670460558847922e-002
      2.8512366752964295e-003 5.6468448159299669e-004
      2.3417202752742595e-002 6.3913326589460058e-003
      -2.3152905169730890e-002 -1.7934907790244928e-002
      -3.3663289988921714e-002 2.2108065955672870e-002
      -7.4707806009857653e-003 -4.8361071333787767e-002
      4.3665248492019332e-002 -5.2198215263603198e-005
      4.6473555911662891e-002 -1.1556672925607444e-002
      2.6114767906016191e-003 1.9635930515693522e-002
      4.2401504380446368e-002 1.7762266896324309e-002
      7.0691606581385650e-003 -4.1764414610263749e-002
      1.4362998111068587e-002 3.3065385683937465e-002
      5.1860101924990548e-002 7.4223040676713453e-003
      -3.4892589402815824e-002 1.2905279150492010e-002
      1.4213534298592019e-002 1.2153254731823410e-002
      -3.2832029464745496e-003 4.4530450665582408e-002
      2.4964075791994174e-002 6.1286369330562383e-002
      6.2475110322177112e-002 -2.0281411267489183e-002
      -1.6260223774621121e-002 1.9354948983813139e-002
      -4.5569034137702892e-002 2.2782123715335986e-002
      -2.8015277995151664e-002 -1.3915951645414844e-003
      4.6912660917633386e-003 -2.6898676741329921e-002
      4.0170198440987355e-002 -9.7372094896849212e-003
      2.4116361948114614e-002 -3.2709948577598930e-002
      -5.0815250404459826e-002 1.6578646132628414e-002
      2.7025826639689641e-002 6.0363741626707212e-003
      5.6693002951424626e-002 3.5819715371654653e-002
      -2.4814098104233352e-003 -1.0540440865300251e-002
      -3.1572547093064132e-002 3.0055199709282506e-004
      5.1436601731830950e-003 7.0422391766359463e-002
      -4.9586080669492211e-004 2.7120073869400456e-002
      2.1045355378565152e-003 -7.3005389350434243e-003
      6.9500398087235238e-002 4.9117283202122167e-003
      1.1359989502641422e-001 4.4059471917210380e-002
      -1.6386468607230580e-002 -7.4748242134318840e-002
      -3.9100141813651575e-002 -3.4779244044523330e-003
      1.2714292505253922e-002 7.1254144965410601e-003
      3.9071917582667983e-003 -5.3070798872263833e-002
      1.5136100000281134e-002 -4.5269452340417515e-002
      -1.1778440715620266e-002 -3.5725058399821694e-002
      2.1352434823241017e-002 -3.7473057267529523e-003
      5.2524392996254443e-002 3.7272325731016437e-002
      -8.8267896472852533e-002 -3.9044617653325051e-002
      -3.3515323654837417e-003 -2.1188592786754338e-002
      -5.6933289407254985e-002 -3.0693739991639227e-002
      1.5177396255382336e-002 -3.2949613654277697e-002
      -4.5051925682051144e-002 -3.6861160676912828e-002
      7.5777109419639957e-002 -1.6367706750336587e-002
      -5.2184114315515263e-002 -2.7502412457417465e-002
      4.9594013559144674e-002 -1.0258040466623899e-002
      -2.8447350202234281e-002 3.6716811124579987e-002
      -2.3322033603599104e-002 2.8848592156968635e-002
      -8.9219085810077568e-003 -1.2117248233621369e-002
      -1.7827269133126929e-002 3.8518723925395487e-002
      3.9255435649102582e-002 5.6158066195544842e-003
      -4.4202109260619869e-002 1.5042145652355060e-002
      8.3508838339328220e-002 3.6438411198015157e-002
      2.6723654642371040e-003 3.3744896054568020e-002
      2.3373135395196062e-003 -8.3871483203861619e-002
      1.9200227158705858e-002 -4.3498778312446265e-002
      1.4335698264391426e-002 2.6417318160712387e-002
      -1.4940784001460587e-002 6.1997676962626889e-002
      -5.2277757173970096e-002 -2.1640724349133954e-002
      -2.0850061887627027e-002 1.0898100380003724e-002
      -2.5358907541043044e-002 3.6645482779858379e-002
      -6.6396624570002217e-003 8.0163634426714762e-003
      1.9467825791097446e-002 1.0099282572490521e-002
      -1.7332573301578447e-002 -2.4295317582589890e-002
      -4.1283135108211029e-002 -1.6634735229596583e-002
      -5.9279393856113147e-003 -2.5664303951359980e-002
      1.5894523307538384e-002 1.1810109370088098e-002
      6.7643970612516549e-002 -1.5085633581275062e-002
      -1.1423932215404775e-002 1.2325521075895919e-002
      3.5454060671800680e-002 1.1957572430663749e-002
      1.2944355192666809e-002 -4.2873198325217889e-002
      -1.4954414566375215e-002 3.6660172446487262e-002
      2.5038595464349677e-002 -1.4047602228711077e-004
      -2.6302482981879285e-002 5.9571884167811974e-004
      7.3506780319939720e-003 3.8191130061824129e-003
      -4.0054688541736334e-002 6.5116664381769773e-002
      1.2641404957890854e-002 2.7807008009839883e-002
      4.8987892557911090e-002 -1.7533292827143322e-002
      -8.6119060509308350e-003 7.8881361444435808e-003
      -4.6696732494991358e-002 -7.6469217348153476e-003
      -1.5169271176149940e-002 6.6357615066276300e-004
      -2.6755850593455088e-003 9.2302463956561061e-003
      2.7341239080547010e-002 -1.8180617706106020e-003
      3.6196535435546545e-002 -2.4340134153986150e-002
      -3.1377999582976920e-002 4.5527805339372843e-003
      6.5940547816946193e-002 -9.8733306658570254e-003
      7.8021107233399431e-002 9.0419739207940886e-003
      5.7926011205523291e-003 -5.4194553054265123e-003
      -1.8099288613402473e-002 -1.8706378444291762e-002
      1.1206961819950380e-002 2.2655124134684748e-002
      9.6680657269773151e-003 -2.4993475684048504e-003
      -3.2485978599563134e-002 7.7149433739564042e-003
      6.3873283174717216e-002 7.0314203999667733e-003
      9.3637266524799118e-002 5.1607567838841267e-002
      1.7280031236492832e-003 -3.7089165408724659e-002
      -1.1869129714226183e-002 -1.1739106599491980e-002
      8.1899019055452684e-003 1.9763589801288336e-002
      -4.4369822801385769e-005 9.9962349828773278e-003
      4.3947594720580494e-004 -4.2269211381627647e-002
      -2.9238826234093976e-002 -5.6631796641263110e-002
      4.1540694540712297e-002 -7.9477229620276146e-003
      1.5938063326733004e-002 6.0727065209149333e-002
      -9.0408197454271991e-002 -1.7358434023339364e-002
      -1.6616470262481295e-002 -4.3316271101837410e-002
      -2.7395396400605510e-002 -4.9199500002436884e-002
      -4.2676356725057357e-003 -3.9045064298789671e-002
      -4.4443642537281378e-002 -3.5942279905809310e-002
      7.1813399851304499e-002 2.0345797523855732e-002
      -2.5314753843488937e-002 -2.3643189833675592e-002
      3.6502373848300122e-002 5.0625407062800708e-003
      -2.6140479056150277e-002 4.1778324350880032e-002
      -7.8200485101787408e-003 4.6684950274981450e-002
      -1.0613442039834043e-002 -7.1460220091395911e-005
      1.0711086509015250e-002 6.0049121180451685e-002
      4.8616867825951655e-002 3.0628614798112806e-003
      -8.4379021070651983e-002 2.0612331833678105e-003
      2.3421569462521150e-002 5.3338244066912311e-003
      -2.1811911476272199e-002 -4.6508312372962593e-003
      -4.2249928787576461e-002 -5.5841070346646281e-002
      -3.5764687118723215e-002 5.3746246980027473e-003
      1.8235827739106265e-002 -3.9906114895814603e-002
      -2.8948890985332966e-002 6.5771069574896007e-002
      2.5966740417393609e-003 -1.5718382659568556e-002
      -3.3722092621832921e-002 2.1161489661222183e-002
      -1.4676288196057112e-002 4.4468167211649763e-002
      7.2517891427043638e-002 3.2337921630627500e-002
      5.8113278406539272e-002 -4.2124079388485572e-002
      -1.3931981517403704e-002 -1.3892364893048655e-002
      2.6132395641841291e-002 -3.1673406361561587e-002
      -1.3857114742861047e-002 -5.4005055404641324e-002
      2.9803318583024557e-003 -9.6574335938871022e-004
      3.5243429236424817e-002 2.5702006059917508e-002
      6.7424430331261822e-003 1.2366067770419967e-002
      2.5736102735727920e-002 4.0812782890179221e-002
      3.1672884480723335e-003 1.0821466980045236e-002
      5.6737414950275731e-003 5.1003149945197203e-002
      3.6246400119131723e-002 5.1087538273726432e-002
      -2.8402653750209939e-002 2.4217062611532423e-003
      -4.9729952719036481e-004 2.8066265870611883e-003
      -4.1357938894485705e-002 6.1878098753423948e-002
      2.0688131191425470e-003 4.5866664252037906e-002
      5.2974698112522811e-002 7.8492388671050212e-003
      -6.9208413873215649e-002 -2.5709072309795220e-002
      -2.6826300714763225e-002 -9.1699290708981019e-003
      -5.0065532415683671e-002 5.9510404583143096e-003
      -1.0188051497071781e-002 2.0973489204502014e-002
      -1.9824818542837925e-003 -1.3612917150225053e-002
      2.4970714964587439e-002 -2.8025765638711071e-002
      -4.1587956317334814e-003 -8.9244530304518049e-004
      -5.0465866885464972e-003 -1.3222350344742879e-002
      3.1696947523998251e-002 1.9836216179859565e-002
      -4.2246847274569309e-002 1.2344884237320025e-002
      -1.4333057832204114e-002 -1.8755742742852726e-002
      6.6352107259820365e-003 5.1001493127180574e-002
      2.0016183284802258e-003 4.6653345748726097e-003
      -1.0319520438515416e-003 -2.1352791415478689e-002
      5.3660999965010496e-002 6.7168248406982546e-003
      6.9806133142743337e-002 6.1194728797054135e-002
      -4.7050359266384715e-003 -2.7501645043409580e-002
      1.0730996650184137e-002 -2.6854321226897043e-002
      3.1655456174044271e-002 -1.4434670417766773e-002
      8.7639329583004118e-004 -2.3458512653902849e-002
      1.5270242270370932e-002 -6.7193514615754665e-002
      6.3960339964908314e-003 -9.9069883794460339e-003
      -6.4664790833262277e-003 -1.0762000267088123e-002
      5.2979532235358798e-002 7.5816213794299855e-002
      -2.9406337405884241e-003 -1.9546202028232158e-002
      -1.4061416021592912e-002 -4.2643207179790168e-003
      -5.8359246964180024e-002 -5.4324222950625237e-002
      2.3263974376363981e-002 -2.1966231197688476e-003
      -4.6587921758975519e-002 -3.5957766446220576e-002
      2.9292223706767841e-002 8.6205776777901824e-003
      -4.6089885563237620e-002 -3.7720687298524208e-002
      3.3728035239562415e-002 -1.9119399396129454e-002
      4.1767439989284574e-002 6.7057821902644130e-002
      -2.8726679203963490e-002 -4.4993160550135497e-002
      -2.9330627229241429e-002 -4.4930452536497890e-002
      2.7037051580875295e-002 -2.5614099950361294e-002
      -1.8764852151774588e-002 2.5305406965980628e-002
      -2.6486461283954228e-002 -6.5837041640777021e-003
      -7.1936142286787630e-002 -5.0438233856761709e-002
      -4.0570008526466417e-002 -5.9835101668872563e-002
      -1.7132375978348262e-002 1.6174781927010464e-002
      -1.3869376858601618e-002 7.7766030626181884e-002
      -5.3208609258634772e-003 -2.2391662848202314e-002
      2.5580322290567236e-002 1.1875138672118828e-002
      7.7241184918366845e-002 8.4822632501332582e-003
      -3.0400142025346383e-002 1.5637763352455390e-002
      4.2652162684862042e-003 -1.7979722308718721e-002
      5.1613045849914593e-002 -1.9361749027397412e-002
      2.4673502685978087e-002 -1.9656182361285340e-002
      2.5964263301785716e-002 3.4005667517497853e-002
      7.0215030587880700e-002 -2.3603202510823332e-002
      -3.1308936393373401e-003 -8.3322745017959027e-002
      5.8291053190965524e-003 -9.4706594894132263e-003
      -3.6375686921476025e-002 2.1793603403910799e-002
      -1.3919864197632426e-003 3.7829949020581556e-003
      -4.8427013465278002e-002 -3.9175602690035879e-002
      -1.3355547299723254e-002 1.8869712799182779e-002
      1.3042414674983524e-002 -1.2008810232559619e-002
      2.0549805692717891e-002 3.9401591862510160e-002
      1.2905376081368188e-002 5.7203819494993239e-003
      -3.1563631846767194e-003 -3.3777098715028889e-002
      -8.1859045695391215e-003 -1.4439555980181385e-002
      1.2273498038499050e-002 1.2687466358997580e-003
      -1.7497215386135950e-002 3.9311053564041430e-002
      -1.3780582886429428e-002 -4.3954064159459072e-002
      3.6943069510097633e-002 -5.1870808645153288e-004
      1.1846845978719208e-002 -4.0984986424859576e-003
      5.4188081379013672e-003 -2.7968773639994705e-002
      -1.2429255954252571e-002 -3.0621504439667332e-003
      2.8170154472550884e-003 1.9496968896538364e-002
      5.0977410095239685e-002 2.1028705964674685e-003
      -6.8265070112560819e-002 2.3913400651124940e-002
      -4.9615601648856610e-002 -3.8117723374437391e-004
      -1.1178627292851573e-002 9.4821903077557546e-003
      4.5278718242063700e-003 -6.0916353598774578e-002
      -1.3706640722402193e-002 -2.5765435943586379e-002
      -2.0926669180991116e-002 2.9328219551291970e-002
      8.6035260768338780e-003 -1.2719752780593136e-002
      -5.4568225162333226e-003 2.7298569606664182e-002
      -3.0977541835626867e-002 -1.3644199823356800e-002
      -1.5110988272110212e-002 1.9883696108831384e-002
      1.8420141210299654e-002 -5.3598875591216984e-003
      1.0153748957335264e-002 -4.3834101616497586e-003
      1.9263866879104433e-002 -1.4678335060460601e-002
      2.8471244492899863e-002 -4.4202414146295808e-003
      3.5670317605361525e-002 6.2337384916370295e-002
      2.4974768427719080e-003 2.3391585283146728e-002
      4.1736212777646102e-002 1.1936334647142763e-003
      8.7178228748565179e-002 -1.0220174349762452e-002
      -1.5390808673019921e-003 1.9214326672272231e-002
      -6.6899528397412797e-002 -3.6693618675850935e-002
      1.1614468293120690e-002 3.7023393503143362e-002
      7.5280369386359518e-004 -5.1590033579730944e-003
      -6.2250129056483222e-002 -2.3927656396265439e-002
      8.4343711859336448e-003 -2.3384282827636493e-002
      -3.0816636651406475e-002 4.8631657084012700e-003
      5.2193541489077275e-002 9.5471594710020327e-002
      -1.0495792428406522e-005 -9.3816442569036068e-002
      8.0358657180809104e-003 -4.2142116280378582e-002
      -1.5338020700360966e-002 -1.8157952187030701e-002
      -1.2974159443408162e-002 1.3607511656793324e-002
      5.2878778859227222e-003 -4.4120942976922737e-003
      -1.4705712947393800e-002 -9.2857053472099292e-003
      -7.3318629655888725e-003 -8.7642001656101122e-003
      -5.3032208288921528e-003 -1.8976369079358492e-002
      2.5976122126900626e-003 -9.4329629230010727e-003
      -1.2225373254592881e-002 -1.3346289663891160e-002
      -1.3115075266648365e-002 1.5276255695797882e-002
      -4.3890115332238079e-003 2.3751373090096537e-002
      -3.0625448639545836e-002 3.0322406896836164e-002
      1.1386504691917007e-002 -9.6053430263951817e-003
      3.1084953254566332e-003 8.9617296077952168e-004
      8.8831762803698051e-003 3.9802984125761227e-003
      -2.2557411205239818e-002 -1.2185509560186512e-002
      -4.3225054624999801e-003 -3.8870412447440292e-004
      1.8822625893712190e-002 -4.1785546950792098e-002
      5.6847011772079613e-003 -2.5709826972636508e-002
      8.4853385234564781e-003 -1.0484009200468705e-002
      -7.6589590732211365e-003 1.2530600235130297e-003
      -5.1071628959896420e-003 -1.5454638566405549e-002
      -6.6704717101570277e-003 6.8500971780101391e-003
      -1.1501765276888015e-002 -1.7498310633497400e-002
      -2.0255395072474289e-002 -8.8485636066211945e-003
      -1.6343775679271123e-002 1.1389772715369454e-002
      -1.1815191427129029e-002 1.7425054683602476e-002
      8.5706149446364358e-003 1.5060343716117459e-002
      1.5379423665849516e-002 -2.7802346046486504e-002
      3.6338877475889216e-002 2.7109095349876541e-003
      1.4122345169696926e-002 -1.4171338553400829e-002
      4.4340280074996298e-003 -1.1637328886577973e-002
      -8.3193276243373280e-003 -7.9709898001225268e-003
      2.3397984438792006e-005 3.5505531116943954e-002
      -2.5243424396004478e-003 1.5726843365492182e-002
      5.5172666845389913e-003 -1.5611795518405767e-002
      -1.8794604495640535e-002 -1.8085517664030364e-002
      1.3477498119037460e-002 6.9698279994569016e-005
      -7.6530333235134635e-003 1.0167689092734505e-003
      -5.1495844387152850e-003 9.7140046082797721e-003
      2.1608766664548425e-002 -8.4204616528901887e-003
      1.6919430659287107e-002 -7.1884688565717744e-003
      1.9245651038122046e-002 2.9958767456128597e-002
      -6.1981782602557696e-003 -1.9233329710861918e-002
      8.2378051900936448e-003 1.7715209534241889e-002
      -1.6517329136028443e-002 -1.2784404003792360e-002
      1.8675554552937258e-003 4.1247704177485829e-003
      3.1094859339252469e-002 -3.0415391728077355e-002
      -1.3867972564079217e-002 7.7770647761818681e-003
      1.3751534957747655e-003 -1.6821070041511944e-002
      4.1198688367721633e-003 -3.6245434206727566e-003
      1.4880836465358213e-002 1.2204817880266639e-002
      3.9693682033699433e-002 8.4148385655475194e-003
      9.7433346335891996e-006 2.3818826566580083e-002
      -4.7520429145063312e-002 2.4753481576267099e-003
      4.3725561262255192e-004 -1.7750829124367169e-002
      -4.7938341015116813e-002 -1.5534106057086000e-002
      9.6301688041888246e-003 -2.5220185785689627e-003
      -1.4233530187643501e-002 -2.9159592751011663e-003
      7.8320285757060553e-003 -7.3542608804225652e-003
      2.1073842841386130e-002 9.6315684182652055e-003
      1.6924829160154302e-002 -1.1678153496932629e-002
      -1.5917551392544672e-003 7.4627291739632354e-002
      1.1647834694282863e-002 -3.0544577652359947e-002
      -2.1287063463644377e-003 1.5468088099257867e-002
      -2.9697052214823348e-002 4.4614801025515030e-002
      3.6492704821785286e-002 3.7167506657508190e-002
      -4.4096863277527806e-002 7.4405850485836722e-003
      3.3212450089169010e-002 8.1851528441045929e-003
      2.2157260274817000e-003 2.2286962413759989e-002
      -3.8041224712696373e-002 -7.2552424083600936e-002
      -8.5503743247122704e-003 -3.0986290401644117e-002
      9.3103389720519472e-003 -3.4986345490703591e-003
      -3.5677605292902856e-002 5.7178732028806939e-002
      -5.0019696290419566e-002 -1.5198291377124301e-002
      -4.4484220201356367e-002 2.4790791890259248e-002
      -1.6594170242139716e-002 3.5395336080606903e-002
      4.8219571939336625e-003 2.5820372535202394e-002
      1.0865253900435074e-002 -6.5555476621107648e-003
      -4.0998835953104988e-002 -2.1892294878546551e-002
      -2.9461116481418883e-002 -1.1575120611195125e-002
      8.7344947349465157e-003 -3.7482649950044286e-002
      3.7495511018524642e-002 1.0112212497533006e-003
      2.8431245715185242e-002 1.5726609069041050e-002
      -1.2960796735403032e-002 1.8872221498036903e-003
      2.3279640322545637e-002 2.9796899291212420e-002
      -9.1338859444697971e-003 -3.6583315314401281e-002
      2.9450191677987403e-002 4.4871080909117213e-002
      3.5743401570407694e-002 5.6886101457363546e-003
      -5.1737125781978165e-002 5.0872828184386158e-003
      1.5156726774580848e-002 2.6925060024816427e-002
      -1.8858810030099208e-002 3.3367952775103113e-002
      1.6490186729684213e-002 3.1123498192278498e-002
      6.4349680558131978e-002 -9.1088761556192156e-003
      -6.3540101380512304e-003 -2.8001998760382053e-003
      -4.8513249735766172e-002 2.1450716244176615e-002
      -3.9540322195998678e-002 -2.0281837068951730e-002
      1.4336970847757643e-002 -1.2992738381381076e-002
      2.2552454979295079e-002 -3.0431833533508819e-002
      3.8201078276033341e-002 -1.6535059688596854e-002
      -4.4728049784858309e-002 -1.7365555799337021e-002
      -2.0139338772352730e-002 1.4845792929115151e-002
      2.9511081737190629e-002 3.5978811031049530e-002
      -3.0822305148808050e-002 -1.5738089870547742e-002
      4.6492009705834340e-003 1.7974256202605753e-002
      2.6777770245398288e-002 5.9846593578809344e-002
      1.6901490241448113e-002 -9.2217372643649854e-003
      5.8106047871464334e-004 -7.2249935497938674e-003
      4.2013615386070610e-002 1.5641535114698821e-002
      8.0722776143414804e-002 3.4580719340766272e-002
      -1.5439897435619552e-002 -5.4713561435798155e-002
      -2.2439045496033122e-002 -3.1499094315319857e-003
      -4.2463080098566553e-003 1.4347912426240927e-002
      -2.2757853847268486e-002 -5.8628530648991081e-002
      6.3864597169400832e-004 -6.7964885404546774e-002
      6.3549050971599182e-003 -8.8381590807798897e-003
      -2.0568762134536504e-002 1.5863829824726602e-002
      6.3832296727213869e-002 3.9278945252794063e-003
      -8.3052030246090217e-002 -1.3737859859164085e-002
      1.6919754750974268e-002 -2.0125713378975148e-004
      -6.0575657600983233e-002 -3.9070203912433682e-002
      2.3424210325875310e-002 -9.7994624416322378e-003
      -3.7082199289521750e-002 -1.5524407370898869e-002
      4.6852133893732821e-002 -1.7542928830283587e-003
      -3.5073559716326301e-002 -5.2367918707433958e-002
      5.1636935982865229e-002 -3.6905592382642329e-003
      -1.1604940057647492e-002 6.4734768532184767e-002
      -4.0839723030776411e-002 1.6638541766350656e-002
      -2.3732181820920364e-002 -3.3167578513683439e-002
      -1.6209378897698218e-002 2.8872138140806466e-002
      4.1799658465185935e-002 1.2738086227248608e-002
      -1.1448610824237553e-002 4.4128372758294165e-004
      6.3348059739213772e-002 5.2738674993408646e-002
      3.3975055060017981e-002 4.9369632879412692e-002
      4.0960431951665127e-002 -5.4636805696860408e-003
      -1.6236682715287127e-002 -4.8898595193336260e-002
      -1.4724133465463227e-002 1.9407208009373161e-002
      4.8193152031061733e-002 4.0838504275743204e-002
      -6.2319857493622600e-002 -2.1452990136613816e-002
      1.5330899141699571e-002 -1.9561426415210706e-002
      -6.5013519417868879e-003 2.4364895022050449e-002
      -1.4232850974921173e-002 -2.0348642936404548e-002
      9.8323372193554609e-003 4.7292105081777067e-003
      6.4877320539695827e-003 -7.5824682744910065e-003
      -1.3105476954534703e-002 3.1325486407484691e-002
      -2.5434929523234028e-002 -2.1809337734512596e-003
      1.4824828521194313e-002 2.4428852447926183e-002
      2.8195581337908421e-002 -2.8870384041092055e-003
      -2.2918942896620756e-003 9.3465475153358402e-003
      2.3826473651776332e-002 -2.4315554269472021e-002
      2.4550144276048479e-002 -2.7490950863994838e-002
      7.5735154735334367e-003 6.4287627026108499e-003
      6.3109404509948161e-002 3.9493625767762037e-004
      -4.3532686092389982e-003 -8.6217194417626576e-003
      1.4648091373600845e-003 -2.2931204657693167e-002
      3.2328296677993348e-002 2.4363580496007519e-002
      -1.3651102147295429e-002 5.5815253209050578e-002
      -2.1824949604281468e-002 -3.2311800459538246e-004
      4.9998086332338825e-003 1.7327447466780253e-002
      -9.3256281949142649e-004 -1.2731928386636936e-003
      3.7769997027378493e-004 2.5883356186220861e-002
      -2.1544503104820572e-002 -6.0322458210619871e-002
      -1.3269882626188294e-002 -1.6082189560261435e-002
      -1.4622278878843398e-002 -1.3273248812075707e-002
      -3.0222871628699150e-002 8.3066253050679550e-003
      -2.5042238324816941e-003 2.7284998456256798e-002
      1.0622071207844721e-002 -2.7449427087679376e-002
      2.0123354100906661e-002 -1.2097823274604352e-002
      -1.8819926938136541e-002 -2.2770111712107351e-002
      -5.6372714993662516e-003 2.0441547420056945e-002
      -2.0770840636047987e-002 2.3740821825838532e-002
      1.9563444716503512e-002 1.7392130895322828e-002
      3.5868227511739501e-002 1.8551168110280649e-002
      7.1569218949669833e-002 2.1594136859980614e-002
      -2.1534435892568735e-002 -6.5982360724757994e-002
      -4.4293897469947753e-002 4.7703070057076448e-002
      7.9738855675171531e-003 1.0260519740327609e-002
      4.0551669232194533e-002 -2.2789214831956697e-002
      -6.2036674353730427e-003 -1.7207583127466928e-002
      -8.9863236920902003e-003 -2.7192393250555506e-002
      3.2936230573313865e-002 -6.4141820809157767e-003
      2.7282349161241622e-002 -2.3165095076238960e-002
      -3.0466687058457557e-002 -4.8650501863042933e-003
      3.3302774411820710e-002 -9.2740952549553446e-003
      -1.8361778748697072e-002 -2.0500397011826949e-002
      -2.7038184365935775e-002 -7.3690219065738775e-003
      -1.7373184134731766e-003 -1.8691441905224503e-002
      3.5579338693241931e-002 -1.0666482759245087e-002
      -4.4529874224073257e-002 -9.3248956149029668e-003
      1.9271043331901865e-002 -1.5794191800040335e-003
      -4.8701367853719500e-002 -2.6163763343257228e-002
      -2.3452251067277243e-002 3.9062031876979222e-002
      4.5160591746231538e-003 -2.4127380672270870e-003
      -1.4993374355333738e-002 -3.6742110871488230e-002
      -1.3874812710569256e-002 -2.7090897206623649e-003
      4.8558475705108711e-002 1.7543932471837927e-003
      3.6858861898234198e-003 -2.0547669823116108e-002
      8.2206768506909028e-003 -1.0082434666052397e-002
      2.4083430201693500e-003 -3.0173775495199191e-002
      3.4509795333393101e-002 -1.1656501923413226e-002
      -3.6878467861880475e-002 2.8621476952102034e-003
      -1.5869147705857414e-002 9.8121279564856809e-003
      -3.3924364997252869e-002 1.3510532378105225e-002
      -2.8048615076674166e-002 1.4061895405270867e-002
      8.8302811039533882e-003 -2.9604730226611243e-002
      -4.9854538058842116e-002 -2.3372021160240883e-002
      -1.0346490752273084e-002 -7.6019324041129233e-003
      3.4434883665181684e-003 -2.2977151233639762e-003
      1.1931278375655193e-003 -2.5520698600602673e-002
      1.7822466677058987e-002 -5.5091902476342554e-002
      4.3017686383499468e-002 3.3201168229724052e-003
      -1.2082430833764554e-002 -1.9746587370523275e-002
      -2.5045297517904085e-002 5.4230067377355074e-003
      -1.6883460016167289e-002 -1.9110714910303236e-002
      -3.5729020871564425e-002 1.1226782310359123e-002
      2.7062075922210074e-002 -3.1155791387011632e-003
      8.7085407505745355e-003 -1.8548981295911943e-002
      2.8790779726480440e-003 -7.7806016545751630e-003
      2.7980076712524487e-002 -2.2167422162059358e-003
      1.8312135489903156e-002 1.5524881233202371e-003
      2.2875506493300047e-002 6.9794627811748207e-003
      1.3408167616321661e-002 -3.2326020879416384e-002
      3.3594611787789518e-002 -8.8869683876142025e-004
      1.2037254023182170e-002 1.5368128297466449e-002
      -1.9615087573678167e-002 -3.5159977672226746e-003
      -1.6341129182394380e-002 4.6486753486902014e-003
      1.3001771447194476e-002 2.6937263187580360e-002
      2.8142864970856000e-002 -1.7666155497940539e-002
      -9.0003878346039418e-003 3.6537707926881033e-003
      4.1819706978656154e-002 2.7257569353467154e-002
      -6.8123483745684069e-003 4.7142047415667208e-003
      2.2001590333958931e-002 -4.8426656172466748e-002
      -5.1309772046821099e-003 -3.5372851125828504e-002
      -1.7294247943181278e-002 7.8424389697600363e-003
      -2.7178068004859252e-002 2.2746124500287405e-002
      -1.2605874499796750e-002 1.0445168142464373e-002
      -7.8129457482710023e-005 8.7570430074886494e-003
      -3.1677590998255276e-002 -1.8160587503167278e-002
      -1.4105838560995928e-002 -1.3510003214742944e-002
      1.5550180031554202e-002 1.1743970988733886e-003
      -8.3883798930904120e-003 1.9720259831784447e-002
      1.5690789220752185e-003 -2.0842645491134102e-002
      4.3383353711844937e-002 9.4337863353144129e-003
      -7.6747119553347608e-003 4.1242120884947510e-003
      2.7100551762775378e-002 2.3285331697352366e-002
      4.6318571920734311e-002 -2.3577861210535015e-002
      -3.1726819456734841e-002 2.9371219529536467e-005
      -2.9260857983745858e-003 -8.3643509316659540e-003
      -7.3694695366350746e-002 -1.8620746672226449e-002
      2.3266192495407678e-002 2.7658668885338158e-002
      -1.5230397872745521e-002 -8.5379699244424387e-003
      2.2880569968349883e-002 8.1987978330778349e-003
      1.7302385226549401e-002 5.7624491484801850e-003
      2.6174801279604157e-002 2.6067823035792040e-002
      -1.3750973562521257e-002 6.4884137122547828e-002
      7.9256875460502075e-003 1.3728256605204952e-002
      6.3676498339675872e-003 3.5869789630571078e-003
      -4.2367444392989020e-002 -3.9184026478306530e-002
      -2.0418372859195389e-002 1.4002368716890264e-002
      7.9773305764562791e-002 1.4968744963902400e-002
      3.1356487365284749e-002 -1.5732284294171367e-002
      7.8825967549695439e-003 1.2472758913339911e-002
      -7.3683030552741903e-003 -7.4846844625960751e-002
      5.9369259339505792e-002 -4.1445524455161080e-002
      -5.3160505813962762e-002 3.8213468787650737e-002
      -8.7225842703335804e-003 -3.5559053557442481e-002
      -3.8796050484067722e-002 1.2924784733804002e-002
      -6.6052262884668074e-003 6.0963211333772390e-003
      8.8097622694738153e-003 -4.5941611599016373e-003
      -9.0108936601273795e-002 -4.2397430672187597e-002
      -4.5554777646011450e-002 9.0561315586426411e-003
      -3.7623645201314559e-002 5.8715607682934684e-003
      -5.9232069184356161e-002 2.3279880346217183e-002
      1.7206732062441468e-002 -6.5807125837637093e-002
      6.4174018756300633e-002 -1.8059227321665979e-002
      1.0525329476601791e-002 -5.8287759967057082e-002
      -2.9427212134938832e-002 -8.6956768422239428e-003
      -1.9394616525762839e-002 -5.9926720135160254e-002
      -2.3532586461716722e-002 -3.9843876652314821e-002
      1.3810958509708059e-002 3.4678762426433468e-003
      -2.2784140582545947e-002 -6.4372165661055095e-002
      -1.9787890613752999e-002 2.4229891945686772e-002
      2.6685625001375696e-002 -2.2169420992074911e-002
      4.0302673933332374e-002 1.1499381907771973e-003
      7.8216708874100319e-003 -3.2747998916994939e-002
      5.3159544599526931e-002 -5.1700149786204699e-002
      5.8141418532984192e-002 3.2496623118063762e-002
      -3.0255481284843490e-002 5.3853084245157369e-002
      1.2337561205711463e-003 -2.6619922488368364e-002
      -3.6783550824203569e-003 9.7031249922099085e-003
      4.6171230709736687e-002 1.4291009748506325e-002
      8.0892722794506412e-003 -1.2703862657777941e-002
      -5.2589310514790169e-002 2.6710368889202887e-002
      5.9843215600981020e-002 5.7878009783579566e-004
      1.5192953144374974e-002 4.1819674665457773e-002
      3.4125895508670484e-002 -5.2349602941925762e-002
      -8.1283466152996028e-004 -6.4006242154500794e-003
      -1.2796438369094406e-002 3.4849934752845917e-003
      -2.6433206232708722e-003 2.4999487794987695e-002
      -4.1160638172527103e-002 2.3792548156316908e-002
      7.4224936124512848e-004 -1.5394073280554872e-002
      -1.0974336936854493e-002 -3.5522757796621146e-002
      3.5178002365478566e-003 -2.4765596443674254e-002
      7.1391934960172391e-004 1.8880819991998639e-003
      -5.6759030707365680e-003 2.5735714492349085e-002
      1.9225702657752721e-002 -6.9478017880476028e-002
      3.7192164326382664e-002 3.3995733955798794e-002
      -2.8866096819989587e-002 -3.6654210919338140e-002
      4.9648073394776941e-002 8.2253390659074044e-003
      6.5262170890508744e-002 -2.2547440410569483e-002
      -9.9687218129692320e-002 -3.0935746939614751e-003
      -9.8519240794573554e-003 -1.7720254312855784e-002
      -7.5065669037170463e-002 6.8573028125985206e-004
      1.3810587206166212e-002 -6.6213282718382170e-003
      -3.0604097108519884e-002 9.5170133642828499e-003
      1.7382028826894894e-002 -2.5794630292502820e-002
      2.5958701640321481e-002 2.7826183117509892e-002
      3.7713157803022937e-002 3.4366877610177662e-002
      -7.0804144120101720e-002 5.9586561262846678e-002
      6.8551627634976433e-003 6.3800349725749522e-002
      -8.4054235257075144e-003 4.2052715941686677e-002
      -4.9641843132356332e-002 2.7003797511825373e-002
      1.9327801874217083e-002 -7.0890759269787631e-003
      4.7453707573607180e-002 1.4140502050055792e-002
      5.8338190740674922e-002 2.9784737597663088e-002
      5.3837805612937549e-003 5.1421628251865227e-002
      -3.3455561998299663e-003 -5.6355171424204639e-002
      5.3724468130485849e-002 -4.4332601353084616e-002
      9.4890909739312121e-003 1.6551117489602689e-002
      -4.5047088342078608e-002 6.6096926014864391e-003
      -5.8650485208355828e-002 1.7666527185232492e-003
      2.8822793323040243e-002 1.0756938584784631e-002
      1.1449083429108650e-002 2.0761490851752544e-002
      -6.0004095712713028e-002 1.4388325619157268e-002
      -5.8026352044802823e-004 2.0840129213966111e-002
      -2.0752406777466492e-002 -4.0472557195796489e-002
      -5.3907191149136072e-002 1.0793163208769661e-003
      1.4720841346723943e-002 -3.6365614200242889e-002
      2.7300902738251386e-002 2.4306096929974527e-002
      6.5977421611684947e-002 -1.8894171990177656e-002
      -8.7438209092952270e-003 8.8628477310751085e-003
      2.5291949078519345e-002 -2.9014956990618023e-002
      1.4035417919112123e-002 -1.8571897356863976e-002
      -1.5493091482571223e-002 3.2300651138291114e-002
      -2.4833666897282603e-002 -3.3771996633944999e-002
      -1.5236378750803669e-002 9.0675416717951075e-003
      -5.7404346090501063e-003 1.7955991419150857e-002
      -2.2807948873372594e-002 4.7608215215734093e-002
      -5.4017410586192091e-003 4.4858401812491967e-004
      5.6096804975507959e-002 -4.4137688474319182e-002
      3.2216878984402238e-002 2.3671729505982491e-002
      -4.2429959067939636e-002 1.7536897866390611e-002
      -1.2474013183756627e-002 -9.1979336270495288e-003
      1.8187054664705819e-002 3.4189556973936781e-002
      5.3167291889148670e-002 1.6876269971452241e-002
      9.0168527055177975e-003 -1.5865097402110482e-002
      -5.9783442997375300e-002 1.4973860808486035e-002
      8.1727006664313137e-002 -1.5156358657237868e-002
      6.3992495880781708e-002 1.6587003333542683e-002
      3.1079520804572193e-002 -2.4704360621968544e-002
      -5.9907317634212993e-003 -3.1255573770360791e-002
      1.7693490622324587e-002 2.6253390079614226e-002
      8.8959443803616773e-003 3.8131125207221624e-002
      -3.9827534563268617e-002 2.5166449224845094e-002
      2.2196566797377526e-002 1.6910334571613830e-003
      4.3563662743316175e-002 7.8256756456353931e-003
      1.2127453835177405e-002 -2.7168348325139143e-002
      2.5809452241988047e-004 -1.3023260430797221e-002
      -2.3219119426748071e-002 2.6012222777811764e-002
      1.3536730217325254e-002 2.3207203602689593e-004
      1.7344033542517266e-002 3.1209498167897341e-002
      -1.8876198148245090e-002 -5.2717537722303753e-002
      6.4019736050509590e-002 -2.9748522892670475e-002
      -2.2732548419507480e-003 6.0790126609026704e-002
      -1.2148841529484884e-001 -7.1664134823172130e-003
      -1.7173045281569658e-002 -4.9581428980088840e-002
      -2.5875898086799794e-002 -1.0310415962768585e-002
      1.7677637532743293e-002 -3.0216373203161694e-002
      -4.4131703679945213e-002 -1.1253245801304004e-002
      7.7633588909247792e-002 2.5563444016134512e-002
      -2.1560339896307464e-002 2.0768825647546733e-002
      5.4535428855414007e-002 1.3730640999394575e-002
      -6.4749676557896860e-002 2.3874311121704992e-002
      -6.7279162782256053e-003 8.7960575941441452e-002
      -6.4645161192066428e-003 4.6809537615636124e-002
      7.9346002469324137e-003 3.1240517611229413e-002
      3.9126073933675003e-002 -8.8134451133846138e-003
      -3.9431701298806611e-002 -1.1429453618350667e-002
      2.4668060998928724e-003 9.9250614928763619e-003
      -2.3279478162894075e-003 4.5355102855457611e-003
      -3.0080776556108677e-003 -1.7520550104030277e-002
      -2.2438037948451527e-002 2.8116733669822518e-002
      2.0845482178290412e-002 -1.5353293521686899e-002
      -1.9080976138627966e-003 2.8410289843977605e-002
      8.3995740353688952e-003 -2.7113464993616322e-003
      -2.8069308430257764e-003 4.6445116294152886e-003
      3.3733148141623756e-003 3.1707379491498267e-002
      1.7522219137247694e-002 -1.2810066814472450e-002
      3.4359100605889537e-002 -4.2115344544057746e-003
      -3.6860240616334761e-003 -2.6119379581534315e-002
      3.0110555056158846e-002 -1.8385723456019402e-002
      -1.5175137178401835e-002 -1.1633386287717774e-002
      2.6853270658002651e-002 6.7341516744765023e-003
      -9.4107077890891958e-004 -3.1431245044794983e-003
      -1.8462569536305911e-003 -3.3964988661310718e-003
      -8.0525651302326903e-003 7.9873208169881061e-004
      1.0287917912256771e-002 8.9039168243941324e-003
      2.7983925836044785e-002 -2.6369861554823887e-003
      5.4463767913854731e-002 3.3514981582716243e-002
      -5.2827202147549390e-004 -3.3406057466072524e-002
      -1.7428814749346058e-002 -3.8521936183682604e-002
      -9.2138720695635942e-003 3.2940241205251262e-002
      1.5136371602783897e-002 3.4228949649212241e-002
      -7.4080828446343764e-004 2.2496536870331926e-002
      -3.3727152650992263e-002 -1.1019888452239484e-002
      7.5912239437122180e-003 -3.1484950805014109e-002
      -2.5924619707748869e-002 1.1435944647006081e-002
      -1.0387472605232611e-002 -3.5183890731230495e-002
      1.1599522693295021e-002 5.7492662496846855e-003
      1.9239408105122136e-002 9.3994146366302711e-003
      5.5536480258091365e-003 1.7638352349553445e-002
      -2.9253903579894582e-002 3.1409775444509722e-002
      7.3730891478416549e-003 -2.6241707452946971e-002
      -1.2029585845743568e-002 -7.2244280138647077e-003
      -1.9306076904603231e-002 -6.2596586479604838e-002
      5.1087290080790489e-003 3.6551366380250624e-002
      -2.0861628049508125e-003 2.1463049943429912e-002
      1.3092566941917331e-002 -8.8400111334639639e-003
      3.9999989661552007e-002 7.1605747373796437e-003
      4.1627560430257525e-002 2.4366135035230031e-002
      -1.5609590633449544e-002 -2.7601675508648782e-002
      -2.8223764221503727e-002 -4.8684038266092024e-003
      6.5805279693355555e-003 4.9011242445282715e-003
      2.4273554180691149e-002 1.1418977276740863e-002
      8.3905628543266258e-003 -3.8436424025848535e-002
      -1.0111250273757828e-002 5.2260929639824493e-003
      4.5230343070365005e-002 -1.1352495917370671e-002
      1.3700702800753419e-002 1.2215241633119005e-002
      5.8652887294210108e-002 -1.9640915552008649e-002
      -5.7269338217905757e-003 -7.3647848980391848e-003
      -1.5951981492000819e-002 -5.0338857651158683e-002
      -3.3466564101167781e-003 -6.4423331091217270e-003
      -1.2048512323017381e-002 -8.6447656149421480e-003
      1.4649320748852827e-002 3.9047789994141290e-003
      -5.8931972713453164e-002 -3.5505699991240675e-002
      6.7341443326872754e-003 1.2820101861647608e-002
      8.8907814903080116e-003 -2.5716956267839250e-002
      -3.2294778637883242e-002 -3.0961469839544289e-003
      -1.4897600317380083e-002 -1.9567397689945521e-002
      2.9735647845257066e-002 -1.8608338589784432e-002
      1.3442421194933885e-002 1.0759214109103138e-002
      -2.5740772230579776e-003 -2.4987717485146384e-002
      1.0163995955545752e-002 2.1969153122781002e-002
      1.5600947979736782e-002 -1.3113743932683353e-002
      6.2442765359763674e-002 1.3439788517668251e-002
      -2.8821329959600638e-002 4.1752662930835266e-002
      -1.1322945105240192e-002 3.4448883254761760e-002
      7.1687438804391448e-002 3.2937525035265446e-002
      -5.4028786475216880e-003 1.2107140513269516e-002
      -1.3304897048963671e-002 -2.7983278043675525e-002
      1.8231034924700375e-002 -2.3831650557533200e-002
      3.1815603849597765e-002 -3.8476083690013721e-002
      1.9757181196199472e-002 4.2693596349928382e-003
      3.2706099397971887e-002 -1.9348784894316254e-002
      4.0876699327890210e-002 1.3916108099643332e-002
      -5.2597801423778302e-004 -1.2889790253117850e-002
      3.5106849626823367e-002 9.9985386682139472e-003
      -2.2604915604566834e-002 -1.4463561874431636e-003
      -3.1422909568831564e-002 7.8690238674733563e-003
      -3.6044446875049707e-002 -7.1751411642499568e-002
      4.7561574655040498e-003 3.4466662477455758e-002
      4.1666692627862378e-002 -4.8009140004920278e-002
      5.7880168112039901e-002 1.3108989195295653e-002
      7.1818143640226132e-003 -2.4875980806931940e-002
      -2.0998180524872966e-002 -9.1709240382952070e-002
      2.7310753689105641e-002 1.7824910569015381e-003
      3.1679181405431293e-002 4.2303803139221129e-002
      -4.3978821459591776e-002 -3.4309676916993068e-003
      1.0172172618328717e-002 -1.6161054100493843e-002
      4.7834162979011087e-002 -1.3158870969950309e-002
      3.2910030237178083e-002 3.0304609572029385e-002
      -3.4027204307936577e-002 -9.9793357289735596e-002
      -9.4175465163113935e-003 -1.6956208548946771e-003
      4.9830459718891995e-003 -6.2110731665411360e-004
      2.3500503342221059e-002 3.5292288832815447e-002
      -4.6060110224721659e-002 6.3641098697120368e-002
      -9.7917646955493192e-003 -2.9558074454444697e-002
      2.2405101332051380e-002 -1.1325471333261934e-002
      -4.5608826167223990e-002 -8.7032792766465666e-002
      -1.5729308317318683e-002 3.1601289053076040e-003
      -6.1893044619761244e-002 5.2684492658128183e-002
      3.6901138357474758e-002 7.3776704677176166e-003
      2.0685245235639318e-002 1.4416458484406560e-002
      -1.2264289900821455e-002 1.9055196195901281e-002
      -1.9735839439032187e-002 -3.7966931482857312e-002
      -4.3179676890324419e-002 7.3971597285013638e-002
      -1.8823037946031802e-002 2.6838723643933200e-002
      7.5919687577995096e-002 1.2046414431175842e-002
      8.6052374050622380e-004 4.2971790570474795e-003
      -1.2459653749193195e-002 3.9300056353856454e-003
      4.0260606255985897e-002 1.5113496350199382e-002
      1.1353249384395619e-002 -2.4074143132476907e-002
      7.3052142111439469e-002 -2.1853088976663337e-002
      1.5295324633328101e-002 2.0932831908341786e-002
      -2.7400532739533925e-002 -3.5475966723085783e-002
      -2.4869018661025973e-002 1.2209435213732231e-002
      1.6648011577172737e-002 -2.0645472645988299e-002
      -7.4295614013644732e-003 -3.0082535227982979e-003
      -4.4542362285999240e-002 -3.0228673017340925e-002
      -2.8030551162800125e-002 1.3889887703275349e-002
      3.9362349467234898e-003 -7.1365555170734083e-004
      -1.8410805403394945e-002 -3.0193893279027832e-002
      2.3205258122926748e-002 -4.4729194291156911e-002
      -3.8559394714180004e-002 5.4628752674692277e-002
      2.0953479698234447e-002 -7.7147119621680965e-004
      -4.2014494176409546e-002 -4.0888608999546088e-003
      5.2655007197326305e-002 4.8649548200327273e-004
      -3.8145743339267867e-002 2.5073025149267014e-002
      -2.0870495999790462e-002 -5.1429249385493016e-002
      8.0601689045358971e-003 -1.5881378673226247e-002
      1.7550559889353688e-002 1.1808436727589180e-003
      -5.4833053931234936e-002 6.4270631818247062e-002
      -5.2193486627814353e-002 1.3383685986401604e-002
      -3.5994952666047395e-002 3.8638304940196759e-002
      1.6102661517013773e-002 3.5240135320729525e-002
      -7.9732492549053585e-004 4.0964065166681933e-002
      3.4680142364227048e-002 -5.1623995211692968e-003
      -2.7376229994134676e-002 -2.9348927262943508e-002
      -1.7764342997146357e-002 -5.4506275792443500e-003
      4.4468644695478043e-003 4.0567088633021149e-004
      6.4878186502965165e-003 1.5883525004104938e-002
      6.5514881904352701e-002 -2.2477300422967993e-002
      -1.2810664636992528e-002 2.5500536043684303e-002
      2.1802020830323871e-002 4.1191041453765051e-002
      -2.8378367249422023e-002 1.3225069222728410e-003
      -2.1674179594720434e-004 2.2172271346545577e-002
      1.8337397799800603e-002 -1.4745570903862516e-002
      -2.4882327511299131e-002 4.6933086195702417e-003
      2.1875547426496819e-002 1.4063229500503536e-002
      -1.1528565793191338e-002 6.3058917261474903e-002
      2.0774163957016149e-002 1.9965238039255120e-002
      6.2883039266485918e-002 -2.4942340550233640e-002
      -1.7762642897858824e-002 -1.0792551560992545e-002
      -3.0874024658610492e-002 -2.0092364198855267e-003
      -4.2384345362124785e-002 1.8682994760717516e-003
      1.6908320489162007e-002 2.7895421821797297e-002
      3.0253793598879308e-002 2.4688981061402634e-003
      3.0860677365771045e-002 -2.0678166905840383e-002
      -4.0897596364544986e-002 1.3208742339541491e-002
      4.0447849078011397e-002 -2.7198084745066436e-002
      4.3219955836580677e-002 3.4394376617877575e-003
      -1.3346938113448203e-002 4.3872015475815039e-003
      1.0010437959329292e-002 9.3140282430999484e-003
      1.3394932293774439e-002 3.3255798802707584e-002
      1.0272996631202260e-002 1.3306986190168641e-002
      -3.4541621972938891e-002 -2.8217192033746730e-002
      6.2051389782460643e-002 1.5261773276292100e-002
      5.9049266972861406e-002 4.9028035562541483e-002
      -2.1311592714558143e-002 -4.1775184260240315e-002
      -4.7343769692170402e-003 -2.3382995727369828e-002
      1.4599680053805483e-003 2.3979160537844740e-002
      -1.7062646309969624e-002 5.5470753254143563e-003
      2.2966042348071276e-002 -5.1485107796948093e-002
      -3.6575315504471489e-002 -1.3823927385627365e-002
      1.2948543388510019e-002 8.9670836471057742e-003
      1.5132484933865147e-002 6.8905506979493200e-002
      -8.6157639146086970e-002 -2.0492345947462930e-002
      -9.3058134512856508e-003 -4.6648168214539251e-002
      -3.2106798505718098e-002 -5.0898035403930154e-002
      1.7648816482219505e-002 -2.5757717841440250e-002
      -4.9073770698216057e-002 -3.2524034540948404e-002
      5.1808463857496920e-002 2.2926823766463542e-003
      -4.2158588324618114e-002 -4.0404662171357561e-002
      2.2340406406705742e-002 7.6476526809063639e-003
      -9.7252810456239754e-004 4.5460525051457548e-002
      -2.6311651783620899e-002 -1.4890236277895217e-002
      -2.5956199796956771e-002 4.9966076065235971e-003
      -2.5249987258803099e-002 6.0196387378785438e-002
      8.3269857335076265e-003 8.7848161991837901e-003
      -4.1715864456751926e-002 1.9024827414576451e-002
      2.5199304523799489e-002 -1.1835727184432668e-002
      -3.5569726229019979e-002 7.7028407991072499e-003
      -4.6103525403761586e-002 -9.3300751632551596e-002
      1.0675011313523436e-002 1.1729388181830008e-002
      3.4919366730451387e-002 -1.8690732489816314e-002
      -6.8026172363551976e-002 8.3945619617980763e-002
      -5.1455739078238270e-002 1.2031053111656578e-002
      -7.1958832917418503e-002 8.4150370214426104e-002
      5.6186025126099149e-003 3.8238985300397314e-002
      2.1337981666785414e-002 4.2465849613672148e-002
      5.1702281129167714e-002 -9.0065409887353422e-003
      -4.7987749118726823e-002 -3.7690771294637319e-002
      -7.8956784735441828e-003 -5.8335241975691531e-002
      4.1221573364739431e-002 -2.7570698649052688e-002
      2.3605685200726496e-002 3.5620369589203049e-003
      5.4342906257948104e-002 8.3948106153767816e-003
      -5.6107758765843192e-003 3.8010142957820283e-003
      1.4479022630813595e-002 7.7106998415340952e-002
      -1.6137499796402933e-002 -9.1653502545481162e-003
      1.4548515553726184e-002 2.8228919051207817e-002
      7.3760458595887547e-003 1.1135888730927229e-002
      -5.9671251787203929e-002 -1.8990420739935114e-002
      8.4355488913225463e-003 3.2714784365916114e-002
      -3.2976540602269705e-002 7.4649264460945858e-002
      1.6223960391852574e-002 3.2723213655392082e-002
      8.0281551372975726e-002 -2.3240751511669048e-002
      -4.2032672677688371e-002 -3.1078454213550447e-002
      -2.9276881267345671e-002 -2.2355147453429629e-002
      -7.2278838499173811e-002 -2.0721799557162683e-002
      9.3478447666195275e-003 1.6031309369597912e-002
      3.2046157963219489e-002 -6.8120489665515335e-003
      5.7547320938238521e-002 -2.5110945973603530e-002
      -1.5615250738329022e-002 2.0258981128002961e-002
      4.1478999179717403e-002 -1.9809873211547858e-002
      5.3090526836180034e-002 8.1163044574073199e-003
      -1.8505560646459841e-002 1.3004376427208661e-002
      -4.1029308170359166e-003 3.5404464847306201e-002
      2.4402481667131722e-002 3.9840364231711348e-002
      2.1020719969033142e-002 1.0823244430118487e-002
      -3.6244571677414288e-002 -5.2671858450714260e-002
      7.6596671036030600e-002 2.7549880584875362e-002
      7.0381058324720844e-002 4.3439566652919731e-002
      -2.9894467208374003e-002 -2.0178928460073482e-002
      1.2929355856856430e-002 -4.3151191456668000e-002
      1.6576266279296797e-002 6.1317193168127426e-003
      -2.9729310393367226e-002 -2.3714815898156581e-002
      2.6763645885384477e-002 -6.4955579742022651e-002
      -2.8202646869240733e-002 7.4948789068504391e-004
      4.1881142777560280e-003 9.2078982610692937e-003
      5.5062937150679996e-002 6.0932839019084237e-002
      -8.6263609115487833e-002 -2.3124300562895168e-002
      -1.0270151341862254e-002 -3.6293489955781286e-002
      -5.3984564747983965e-002 -9.5657346603003332e-002
      3.1188107199049186e-002 -5.1553365765697899e-004
      -6.7328288428819896e-002 -3.5331708523858911e-002
      5.7103965486543194e-002 -1.1972760250739498e-002
      -4.3877660626633237e-002 -4.5551314602397121e-002
      5.8121763757082431e-002 1.1835253471821815e-002
      2.0722659957344670e-002 8.5739058776146126e-002
      -4.3053514326550753e-002 -3.6160307536790989e-002
      -1.7641623443854507e-002 -3.4712847877755665e-002
      -2.0752170428413007e-003 1.5047506505998266e-002
      2.5464006600141770e-002 -1.2912298188062509e-002
      -1.1433880708976003e-002 -2.2423684081934420e-002
      1.3176812227740795e-002 1.6578755546663052e-002
      5.3233125390247053e-003 1.3679597886432419e-002
      8.9841859914663088e-003 6.1050215064777143e-003
      -1.1053679340439595e-002 2.2768933657801149e-003
      2.3539735837360007e-002 -2.3689743579536671e-002
      2.3443912036765807e-003 5.9837348288137797e-002
      -2.5276640876646529e-002 -2.2549131023571381e-002
      -1.0315231616795850e-002 -7.5760505059095391e-003
      -1.0285940596546467e-002 4.4920970949329040e-003
      -1.0964747235656613e-002 -3.5161812236037459e-003
      4.0814438783198771e-002 9.1775818877065964e-003
      1.6641266891363193e-002 -1.5685131949070473e-002
      -1.8386952414081895e-002 -1.9494177300111465e-002
      6.1465638636355117e-004 -1.1715994781116181e-002
      -1.0984989310016404e-002 4.1056914708940344e-002
      3.0867327293818712e-002 1.4826430822431722e-002
      2.0474653927870099e-002 8.3661136115057433e-003
      -2.1060513389523231e-003 1.4803633373751471e-002
      4.0075231277601320e-002 4.5272279937248168e-003
      -3.4584329042269403e-003 2.7951523964212721e-003
      3.9729675665669116e-002 -1.0989741230587608e-006
      2.1349494936500214e-002 -2.3613421652682574e-002
      -1.0963662030333346e-002 -1.7539426216298868e-002
      -2.1990849429390016e-002 2.5672558557514439e-002
      -4.9825887212472933e-003 4.7875493207515732e-002
      -3.7185956143296638e-002 1.3575330603468253e-002
      -1.6610524261152056e-002 1.6815811846830296e-003
      2.2022504336669111e-002 -4.0375240672416067e-002
      6.8664756694066060e-003 4.3554238496188100e-002
      -2.4521260744125303e-002 -5.0835275831756432e-003
      -2.0711209150539322e-002 -1.5249638108724156e-002
      -2.7441408112878559e-003 3.9148329461428464e-003
      1.4344102217543573e-002 -6.8969676953119351e-003
      4.2293217110095642e-002 1.4327995925568651e-002
      3.4351828272544155e-002 -5.0859705099984977e-002
      1.9004187981610941e-002 -6.2140504812845969e-003
      -1.7591282074017865e-002 -2.6125972244131910e-002
      -2.3869098563412574e-003 1.2556426872339406e-002
      -1.5569929564697866e-002 -1.0621364414374513e-002
      -1.0527534185016108e-002 2.6220888694015364e-002
      2.9758681714923605e-002 8.8724288491622404e-003
      2.3334029850032547e-002 3.9206043441472591e-002
      -1.8985548525412759e-003 -1.1351458247093781e-002
      3.3004308772690322e-003 -4.1255493526070851e-003
      3.1760246643550471e-003 -1.2606317276284112e-002
      1.9070126513731685e-002 1.9522609125292776e-002
      1.4462271682011110e-002 5.7369725582414235e-003
      -2.3360276072647312e-003 2.5121848217035938e-003
      6.3835496404400907e-002 1.9430182467441231e-003
      -1.4990312333081133e-002 3.4437228417449825e-002
      -7.1716536960493267e-003 4.7158759529860525e-003
      -1.7620436197869255e-002 -9.7074722761489787e-003
      -1.7513972814550142e-002 -5.8340764036287990e-002
      -2.0063740253336088e-002 -1.4174251832925878e-002
      1.1961270573631338e-002 -2.2338969367476827e-002
      3.8628462366716881e-002 2.2799866653945074e-002
      -1.8638373669457697e-002 -1.4372705939936814e-002
      -2.2492406405908348e-002 -7.7056954629853716e-003
      -1.2179317903551484e-002 -1.4113720722503815e-002
      -2.2368334148533630e-002 1.8096736388748771e-002
      -4.8322544721135567e-004 -2.5079616903590458e-002
      -9.6726264843719899e-004 -2.4780695976454631e-002
      -6.3049197234059592e-002 1.2439972169699689e-002
      4.4207288588510585e-002 -1.1963825205259801e-002
      -3.4917985605164133e-002 -3.4785890000294216e-002
      4.9131955522947754e-003 -7.7108173472686479e-003
      -3.9140404021102283e-002 -1.5705586106767075e-002
      6.0452472420119030e-002 9.9108293409778062e-003
      -2.1636986257616640e-002 -2.7578243243545807e-002
      -3.4934913890783674e-002 -3.8719398380988673e-002
      1.4793523574932617e-002 3.4601201097760603e-002
      -1.4627460170652589e-002 1.4238094191530114e-002
      1.7798334825531750e-002 -2.6663081789367174e-002
      -5.4156388490751044e-002 -1.8271539149426242e-002
      -4.9387394890516155e-002 -2.8612733198942467e-004
      -1.9542880303307926e-002 6.5314611229054373e-003
      -2.2367476803279288e-002 -2.3332157715904432e-002
      3.3454623176943130e-002 -5.0600613634007620e-002
      1.1455655614084013e-002 -2.2716996834812941e-002
      -2.0344899522716575e-002 -2.8020241810191530e-002
      -6.9887774468671430e-003 -1.4858797173606537e-002
      -3.7387041307089475e-002 -4.1373258023639344e-002
      -4.8490279650021922e-002 6.0379478511145739e-003
      -1.3108340068793068e-002 2.8725326977657117e-003
      -4.6177552267457428e-002 -3.7453661555086080e-002
      -1.0797096465643141e-002 2.2725979725112559e-003
      1.8168992127425232e-002 2.1775726543148188e-002
      -7.0663271480376853e-003 -1.4075203912169636e-002
      1.3924980258321585e-003 -4.5823355071451632e-002
      2.5384777105328410e-002 -3.2180601037348829e-002
      4.3601882260584049e-002 8.3664708408114248e-003
      -1.7679880573334202e-002 2.7123507929133501e-002
      -2.0743683738430378e-002 -1.1115083097386957e-002
      -2.4555954259197726e-003 4.7871706164439046e-002
      3.8840951122513156e-003 3.3134461219646832e-002
      3.1334208318169782e-003 -4.4816639156188189e-003
      -2.0421950520086246e-002 7.9826200360336840e-003
      2.1413395013729890e-002 -2.0842599595711667e-002
      -3.0720982660891734e-003 3.4131488252172985e-002
      1.5317547475945906e-003 -1.4040614263635653e-002
      5.5408060543767805e-003 -8.4235861388822740e-003
      5.8588625768733723e-003 -3.3271414350712347e-002
      -3.4263986753106709e-003 2.9420399220538442e-002
      -7.7016028259972238e-003 -4.8795570937409764e-004
      -3.7648017160503484e-002 -1.4354191547763196e-002
      -6.4153254833423032e-002 -4.6594464023032404e-002
      -1.4539632169424084e-002 1.2863529688595325e-002
      4.0792458437451044e-002 -1.3796900631358038e-002
      -1.3382278929516298e-002 1.4564276785732503e-002
      -1.1869715365843882e-002 -3.7322876872525286e-002
      2.9406390611771627e-002 2.5113237248172188e-002
      5.0704088013864496e-004 6.6688940378843509e-003
      7.0509141819807639e-003 1.8722456040920505e-002
      4.0328610234142297e-002 -3.4088214754216688e-002
      -1.4431787356383860e-002 -8.2145137334285502e-003
      -1.8812220118116011e-002 -5.1633652522216624e-003
      -4.6743946790885067e-002 8.1160099496476613e-003
      2.4985207665443616e-002 2.1997934854482891e-002
      -2.1052501541271505e-002 -8.4295127239789273e-003
      -1.5665233328925998e-002 7.9063534979094772e-003
      3.2525220374925300e-002 3.5917483799401108e-002
      1.2831017369026299e-002 1.9736522043416829e-002
      -1.0959285438761792e-002 4.2572126310212476e-002
      3.3411502752914338e-002 -5.5467718699147798e-003
      -4.5863247179320010e-004 4.3409369104843269e-002
      -6.4883779111941015e-002 -3.1274481309755069e-002
      -5.3459033295779217e-002 3.8261502385642604e-002
      9.7365954605683674e-002 9.4628272563269718e-003
      1.1337343946617994e-002 -2.9558930676111411e-002
      2.1021880267858960e-002 2.9767277486926112e-002
      -3.3082835820291423e-002 -3.9167548403413896e-002
      8.3337609951300920e-002 -3.5381345759448388e-002
      -2.6546684661804789e-002 3.5522928405602845e-002
      -4.9136698735561792e-002 -5.1583007093530538e-002
      -4.7437109252992021e-002 3.4752333832668653e-002
      -6.3932673585936923e-003 9.9087680107636800e-003
      1.0404072088865426e-002 1.5050975288898618e-002
      -1.0904602116800280e-001 -1.8397813924700010e-002
      -5.8996445519958987e-002 1.5863133359518739e-002
      -4.2772559020525514e-002 -8.0510609082314367e-003
      -5.0746329417474915e-002 -6.5677198753311223e-003
      2.7899098644103962e-002 -7.0929323209338202e-002
      4.5379138810893616e-002 -3.5433424593014580e-002
      4.3527938095510596e-003 -6.0505198932349596e-002
      -3.0602146078068233e-002 -1.4119835334603890e-002
      -1.7611088376787876e-002 -4.8318347240374392e-002
      -5.0924007667239118e-002 -3.4256573353871167e-002
      2.9714701279754344e-003 1.3633884887826788e-002
      -4.0302904051987887e-002 -7.5001338185010716e-002
      -3.9742063338571977e-002 2.1297814951027453e-002
      3.1330528730611235e-002 1.5574422970096539e-002
      1.6636987777566191e-002 -3.2969655136424504e-002
      1.0436727007628880e-002 -6.6751877222882477e-002
      7.0354922878286860e-002 -4.8887725195330342e-002
      5.3984577181451977e-002 2.9406331785851229e-002
      -2.1962199192915987e-002 5.4585245129678411e-002
      -1.1160416956149471e-002 -3.7979134901273102e-002
      3.1163536534788691e-002 3.3032526468086500e-002
      4.1551793743610350e-002 3.1018863326271150e-002
      2.3887732391175431e-002 9.7324592021792514e-003
      -6.4453885439552563e-002 2.1949118596861831e-002
      8.1925010566933326e-002 -2.9449007041657312e-002
      1.4754328443062752e-002 6.4015243767218011e-002
      2.5308791320252270e-002 -6.4718061599794693e-002
      2.0267862406342756e-002 9.8353193136618070e-003
      4.1612414304857352e-003 -1.3517435878066910e-002
      7.5058233783739815e-003 2.0939422952600151e-002
      -3.7991973676045530e-002 8.2140383772142354e-003
      -1.4515638638806876e-002 5.4515702243078416e-003
      -6.6370345816843160e-002 -5.5555757124682970e-002
      2.1278771985000375e-002 -2.2019088896275494e-002
      1.1517895298927227e-002 1.2994575889489737e-002
      -1.5707737246074265e-002 1.7180511354558413e-002
      -3.1608582005176809e-003 -6.5316098997324934e-002
      3.1044423608017999e-002 3.2521886103936540e-002
      -3.4044039426604500e-002 -2.4516233819896961e-002
      5.8552884293565485e-004 1.6562608973795551e-002
      5.6087525505678339e-002 -3.2778521974977749e-002
      -1.0473453768872372e-001 -1.6033219864085450e-002
      2.9265117346569621e-003 -3.2851101103119590e-002
      -4.8794052656660709e-002 6.0172958074583879e-002
      3.8351605882696690e-002 -2.7803408944186820e-003
      -3.0744345721479587e-002 1.9009949170996385e-002
      1.7259858321945127e-003 -8.5547681613377426e-003
