<?xml version="1.0"?>
<opencv_storage>
<opencv_ml_svm>
  <format>3</format>
  <svmType>C_SVC</svmType>
  <kernel>
    <type>LINEAR</type></kernel>
  <C>1.</C>
  <term_criteria><iterations>3000</iterations></term_criteria>
  <var_count>60</var_count>
  <class_count>10</class_count>
  <class_labels type_id="opencv-matrix">
    <rows>10</rows>
    <cols>1</cols>
    <dt>i</dt>
    <data>
      0 1 2 3 4 5 6 7 8 9</data></class_labels>
  <sv_total>45</sv_total>
  <support_vectors>
    <_>
      6.14192724e-001 2.03323826e-001 -6.82421267e-001 8.51313770e-002
      -3.55134457e-001 4.79898632e-001 -8.92823040e-001 -1.48864448e+000
      -4.07566339e-001 1.96070946e-003 -7.16166273e-002 -3.25991184e-001
      2.52238661e-001 1.54415727e+000 4.28312868e-001 9.85467583e-002
      -3.70944738e-001 -3.74853998e-001 6.74569532e-002 9.85467583e-002
      3.32167208e-001 -4.75121409e-001 -6.02901459e-001 -1.44957706e-001
      1.05620302e-001 -2.61287391e-002 7.67364725e-002 -9.26339403e-002
      -5.00073023e-002 8.59463140e-002 -2.61287391e-002 6.03462309e-002
      -1.96761098e-002 -6.42645806e-002 -5.74271893e-003
      -2.61287391e-002 1.31094426e-001 -9.11923349e-002 -9.61175635e-002
      -2.61287391e-002 4.91216332e-002 6.02418222e-002 4.78586555e-002
      -1.46652022e-002 6.49314225e-002 1.73819751e-001 8.57511282e-001
      4.98313695e-001 6.20944798e-001 -7.66069517e-002 -1.03411309e-001
      1.96180448e-001 -7.73167796e-003 -4.12258618e-002 -5.36108017e-001
      2.08444223e-002 1.48275065e+000 2.54171044e-001 -1.19870536e-001
      -9.77164388e-001</_>
    <_>
      2.84233689e-001 3.97182330e-002 -1.45139635e-001 -1.36638835e-001
      -4.99075763e-002 4.31369171e-002 -9.16693807e-002 -2.00069964e-001
      -6.84987009e-002 1.89197570e-001 -3.47413532e-002 1.29440069e-001
      2.55492240e-001 -1.11249220e-002 -1.11249220e-002 -1.11249220e-002
      -4.82822478e-001 -3.53020951e-002 6.97766393e-002 1.39412165e-001
      5.62612712e-002 -4.11569834e-001 2.41615828e-002 1.12744361e-001
      5.06005585e-001 -1.13525651e-002 -6.27189577e-001 5.18162102e-002
      1.14840142e-001 8.16291273e-001 -1.13525651e-002 -6.92661583e-001
      -7.41311982e-002 8.40369985e-002 6.80732787e-001 -1.13525651e-002
      -5.89155316e-001 1.21171530e-002 7.62985125e-002 6.56159818e-001
      -5.33844344e-002 -4.48244125e-001 3.51486951e-002 8.22490379e-002
      4.83655989e-001 -1.47550747e-001 6.78160489e-002 5.31861037e-002
      1.31405964e-001 2.53083020e-001 4.86564189e-002 -1.43248394e-001
      -1.14619665e-001 -6.95248693e-002 2.77658135e-001 6.28293827e-002
      2.94241488e-001 -2.22469479e-001 -4.00056571e-001 5.68526052e-002</_>
    <_>
      2.86368698e-001 5.01235388e-002 2.05807649e-002 3.24666873e-002
      3.69642526e-002 1.05688289e-001 -2.47868255e-001 -2.48253286e-001
      -1.64886028e-001 1.17778674e-001 -5.59500158e-002 -6.47892430e-002
      2.69421071e-001 5.31879701e-002 5.01235388e-002 5.01235388e-002
      -6.60387456e-001 -2.67043799e-001 1.99568868e-001 9.68748257e-002
      2.33096763e-001 -4.19489294e-001 -1.33324176e-001 -2.16580659e-001
      2.16585636e-001 5.37329257e-001 1.02658169e-002 -2.08278924e-001
      -5.90086937e-001 3.52722824e-001 2.10488081e-001 -7.32761562e-001
      -5.25073409e-001 -5.93897104e-001 2.64044702e-001 3.04895103e-001
      -6.19612969e-002 -6.31758213e-001 -7.06206739e-001 2.32150108e-001
      4.66746867e-001 4.74534221e-002 -2.60178268e-001 -2.23719150e-001
      5.49089193e-001 4.90498357e-002 1.87675908e-001 -1.50067925e-001
      -2.25030616e-001 4.85700071e-001 2.14543287e-003 6.57939240e-002
      -2.66368240e-001 -7.42977381e-001 -9.97226536e-002 2.14543287e-003
      2.14543287e-003 -1.52134255e-001 -1.29838467e-001 2.69637462e-002</_>
    <_>
      -1.38916612e-001 1.72068760e-001 2.81627476e-001 2.09424645e-001
      1.61669813e-002 -1.38916612e-001 -3.28586727e-001 8.03429559e-002
      7.43031427e-002 2.51234144e-001 -2.79429764e-001 -2.71248907e-001
      4.89507139e-001 5.85707843e-001 4.36773866e-001 -1.38916612e-001
      -3.81187260e-001 -5.40951602e-002 1.13680609e-001 3.93724412e-001
      7.27793500e-002 -3.77254218e-001 -1.19481264e-002 1.09677978e-001
      4.00528193e-001 7.27793500e-002 -3.48398566e-001 -9.59265232e-002
      3.70425060e-002 4.31305736e-001 7.27793500e-002 -2.96780974e-001
      -4.48117971e-001 -1.71851277e-001 4.07520771e-001 7.27793500e-002
      -3.80912870e-001 -4.45319980e-001 -1.21924572e-001 3.09778869e-001
      -1.44577548e-002 -1.30381972e-001 -3.25043678e-001
      -1.24430455e-001 1.01647027e-001 1.16363630e-001 4.06780630e-001
      -1.86011285e-001 -1.27178490e-001 -1.61947347e-002 1.06345145e-002
      -3.47583629e-002 -1.19944341e-001 -9.27528962e-002 5.21414727e-002
      1.06345145e-002 3.99374843e-001 1.24884188e-001 -1.87657252e-001
      -2.00686753e-001</_>
    <_>
      1.85285066e-003 3.73220414e-001 3.94946486e-002 4.25342843e-002
      -1.08134709e-001 2.48048771e-002 8.58176127e-003 -5.00018895e-001
      -4.00445253e-001 1.32163353e-002 1.35737851e-001 9.07344744e-002
      -5.63689843e-002 7.07377121e-002 4.00709033e-001 4.35987800e-001
      -3.68563756e-002 -4.29359585e-001 -3.57650757e-001 1.39217675e-001
      4.06515449e-001 -3.61073256e-001 -5.08090854e-001 -2.61807323e-001
      2.97335714e-001 4.04897541e-001 -2.38283530e-001 -4.74829286e-001
      -2.31292590e-001 3.20518166e-001 5.78170359e-001 -1.20790258e-001
      -5.00203192e-001 -4.94678497e-001 1.21614300e-001 1.28644243e-001
      -3.30443792e-002 -3.16626191e-001 -3.82297903e-001 1.36826485e-001
      2.14113504e-001 2.48256866e-002 -9.47191417e-002 -2.81852871e-001
      9.19559821e-002 7.85520524e-002 6.64104670e-002 -9.24883112e-002
      -1.59110039e-001 8.34873505e-003 -7.02556595e-003 -1.76017843e-002
      -1.62887070e-002 -5.63106015e-002 4.46754470e-002 -7.02556595e-003
      -7.02556595e-003 1.82704497e-002 -1.08097807e-001 6.63513988e-002</_>
    <_>
      2.02910140e-001 5.37041947e-002 -8.08998942e-002 6.62481487e-002
      6.48742467e-002 2.58884370e-001 -2.33788222e-001 -4.60384279e-001
      -4.43311155e-001 1.16358034e-001 1.83755606e-001 -7.29764998e-002
      1.29207447e-001 2.69103199e-001 5.32107890e-001 5.13506055e-001
      -2.74176836e-001 -4.76068109e-001 -3.70771706e-001 3.53136063e-001
      1.52208045e-001 -4.96025622e-001 -4.24514323e-001 -3.77962798e-001
      5.01428962e-001 1.40152603e-001 -3.96217436e-001 -1.32341400e-001
      -1.54181004e-001 3.05271327e-001 7.77549744e-001 -1.37980893e-001
      -6.29399538e-001 -6.74642742e-001 2.47744501e-001 2.57067770e-001
      -9.24245790e-002 -2.31614396e-001 -5.09051979e-001 1.40152603e-001
      9.47353169e-002 -1.11302912e-001 1.15171373e-002 -1.73262849e-001
      2.34526880e-002 2.00213403e-001 2.83819795e-001 8.76311436e-002
      -1.56042561e-001 -3.85730714e-002 2.08023973e-002 -3.28585282e-002
      -6.65017515e-002 -1.97826624e-001 -1.42752647e-001 2.08023973e-002
      2.08023973e-002 5.51568642e-002 -1.84231609e-001 5.50460182e-002</_>
    <_>
      -4.00274657e-002 1.79571912e-001 -4.79002833e-001 3.84559557e-002
      3.46861966e-002 -4.00274657e-002 -1.79176018e-001 -3.95113438e-001
      7.52216298e-003 2.45447010e-001 -2.88078308e-001 1.49470389e-001
      -3.23476940e-002 1.88824207e-001 4.01244849e-001 -4.00274657e-002
      -7.34433174e-001 -2.12978870e-001 1.80601433e-001 5.51703990e-001
      -1.09509230e-001 -4.07105647e-002 -9.25387889e-002
      -2.77457293e-002 3.75623792e-001 -3.06264579e-001 -9.40365419e-002
      7.79291764e-002 -3.70908552e-003 6.15933776e-001 -3.06264579e-001
      -5.77754319e-001 -6.95698559e-002 4.48946618e-002 7.82263219e-001
      -3.06264579e-001 -7.95112669e-001 1.08917184e-001 5.68138137e-002
      7.52306044e-001 -4.07719165e-001 -3.28140110e-002 1.62713572e-001
      1.21452898e-001 8.19750249e-001 -4.39741641e-001 2.23007008e-001
      5.15479982e-001 5.05383909e-001 2.43421316e-001 -3.41649950e-001
      -2.69557536e-001 1.67491123e-001 3.05665527e-002 5.25579095e-001
      -3.41649950e-001 1.46702349e-001 3.86001021e-001 4.24379073e-002
      -1.79298931e-005</_>
    <_>
      1.22247986e-001 3.25501502e-001 1.48127168e-001 5.32678962e-002
      -2.46522501e-001 2.04098389e-001 8.42733979e-002 -5.37475049e-001
      -4.29417819e-001 -8.62918422e-002 -1.09461382e-001
      -4.39999141e-002 2.40847021e-001 2.65680134e-001 1.41803548e-001
      9.72515568e-002 -5.27978659e-001 -5.18786490e-001 -2.32988894e-001
      1.40310273e-001 2.98459351e-001 -4.17480916e-001 -6.39264822e-001
      -3.58101010e-001 5.21179914e-001 2.52045065e-001 -4.62970585e-001
      -4.13145542e-001 -4.47254747e-001 4.50262874e-001 3.81549120e-001
      -2.94232428e-001 -6.76812410e-001 -6.37417197e-001 2.36323029e-001
      4.50933963e-001 -4.82018813e-002 -3.57968450e-001 -6.62894249e-001
      2.52045065e-001 -7.69421160e-002 -9.85653922e-002 -5.62232174e-002
      -2.22578943e-001 -6.34926781e-002 1.14346564e-001 2.27464959e-001
      1.11440709e-002 -2.35435784e-001 -2.33388226e-002 6.51663393e-002
      3.91901992e-002 -5.74992821e-002 -4.08775926e-001 -1.86938226e-001
      6.51663393e-002 6.51663393e-002 1.13019034e-001 -1.13301128e-001
      1.09221980e-001</_>
    <_>
      -1.92437600e-002 -1.92437600e-002 1.03169456e-002 -1.31299168e-001
      -2.00140253e-001 -1.92437600e-002 8.47013947e-003 -1.09917196e-002
      -2.91555338e-002 -9.57247615e-002 1.52717382e-001 1.89310730e-001
      3.16634357e-001 -1.92437600e-002 -1.92437600e-002 -1.92437600e-002
      -2.47165784e-001 -3.56942713e-002 4.30401601e-002 -1.92437600e-002
      4.40530121e-001 -2.85353154e-001 -3.46393436e-001 -4.00086552e-001
      1.31273687e-001 6.54846489e-001 -5.24379075e-001 -6.54535770e-001
      -6.26095414e-001 3.69912386e-001 1.97774500e-001 -6.14866018e-001
      -2.74328560e-001 -3.50301340e-002 3.94853413e-001 2.24423662e-001
      -5.27793348e-001 -6.49912596e-001 -2.71557927e-001 3.09775472e-001
      3.94702762e-001 -2.70231545e-001 -4.91352707e-001 -3.60849440e-001
      4.19761062e-001 1.10207899e-002 2.18234345e-001 1.21810928e-001
      -5.60368784e-002 3.07896622e-002 1.97396800e-001 -1.25459284e-001
      -4.44812030e-001 -2.42428899e-001 1.39199449e-002 1.19294830e-001
      1.19294830e-001 -6.34451285e-002 -3.05973232e-001 -1.57581851e-001</_>
    <_>
      1.15091354e-001 5.40376529e-002 -2.88524449e-001 -1.83453590e-001
      -1.18402287e-001 -4.96010892e-002 1.03085168e-001 1.69982001e-001
      7.72855477e-003 1.42356098e-001 1.14345243e-002 1.91716433e-001
      -5.23862243e-002 -3.66997868e-001 -3.37622136e-001 2.60136127e-002
      -8.18321630e-002 1.05759956e-001 2.08189003e-002 3.90053727e-002
      -5.12733012e-002 -1.47502571e-001 3.73233765e-001 5.27711697e-002
      4.00428116e-001 -1.47129167e-002 -4.14556414e-001 1.10154815e-001
      4.67792973e-002 3.47402185e-001 -1.47129167e-002 -4.70047235e-001
      1.79729462e-002 3.40515785e-002 6.25030518e-001 -1.47129167e-002
      -4.53125298e-001 2.99976151e-002 5.10721584e-004 5.02895892e-001
      6.39190376e-002 -4.93914872e-001 -1.15800887e-001 9.18435771e-003
      3.07228476e-001 2.60012485e-002 -3.83168221e-001 -5.12091935e-001
      -3.16140771e-001 2.69869536e-001 2.26733685e-001 -3.97464216e-001
      -1.29265204e-001 -1.39402241e-001 2.91250706e-001 2.08819285e-001
      -1.93438660e-002 -5.18579841e-001 -4.85071659e-001 2.43688315e-001</_>
    <_>
      -8.34208950e-002 7.75091946e-002 3.32027599e-002 -1.30643055e-001
      -7.21734157e-003 -7.14921728e-002 1.57673478e-001 2.11265385e-001
      -1.05685316e-001 5.33513874e-002 1.06907412e-002 5.47939492e-003
      2.86136307e-002 -4.22308952e-001 -2.18149990e-001 6.91649541e-002
      -2.16182992e-001 -2.79731750e-002 7.39654899e-003 1.07214060e-002
      -7.93059617e-002 6.61530718e-002 2.52556860e-001 -1.82424307e-001
      1.05671860e-001 1.07180789e-001 -3.40073034e-002 -5.69301955e-002
      -3.24588776e-001 1.03452303e-001 1.89060301e-001 -4.19193983e-001
      -3.02890480e-001 -4.95998472e-001 1.95432872e-001 1.59746796e-001
      -2.00433973e-002 -4.76710558e-001 -5.07611215e-001 1.89060301e-001
      2.92164505e-001 -8.35206658e-002 -2.28047505e-001 -2.13070795e-001
      3.84796441e-001 1.03434205e-001 -3.33959937e-001 -5.73217869e-001
      -5.17439783e-001 4.15032417e-001 4.23578881e-002 -1.63724393e-001
      -2.07279995e-001 -5.71086407e-001 1.94802776e-001 4.84659933e-002
      -5.73393285e-001 -5.15470028e-001 -1.36226207e-001 4.47477937e-001</_>
    <_>
      -3.38584423e-001 2.98765182e-001 2.06458345e-001 1.10421702e-002
      -6.03341982e-002 -1.43646955e-001 -7.83606723e-004 4.09526527e-001
      1.22916531e-002 1.13584228e-001 -3.49666148e-001 -3.09188031e-002
      5.62958300e-001 1.04017682e-001 1.43184662e-002 -9.96873230e-002
      8.25271606e-002 5.37121706e-002 -1.66246578e-001 3.58764946e-001
      1.33273304e-002 1.18912533e-001 4.14834619e-001 1.79348774e-002
      3.05274397e-001 8.64625871e-002 -4.90594953e-001 1.55045679e-002
      7.52621051e-003 2.31459379e-001 1.07250139e-001 -3.00634950e-001
      -5.31672895e-001 -4.76937056e-001 6.26032472e-001 1.07250139e-001
      -5.44173300e-001 -5.00677526e-001 -2.77479976e-001 4.05115187e-001
      1.94711298e-001 -3.39924186e-001 -5.96652746e-001 -2.16253161e-001
      -1.41494364e-001 3.43176544e-001 -1.48478732e-001 -7.87058771e-001
      -5.16451299e-001 2.08519362e-002 1.81378871e-001 -3.53802413e-001
      -2.58211553e-001 -7.81959370e-002 1.67340800e-001 1.81378871e-001
      -4.76580933e-002 -2.18677118e-001 -1.64757833e-001 1.81378871e-001</_>
    <_>
      -2.26300165e-001 2.64378697e-001 8.22291151e-002 -1.04593277e-001
      -1.26526818e-001 -1.60178423e-001 1.77664816e-001 -1.57931313e-001
      -3.61505061e-001 7.53130540e-002 8.93494412e-002 7.26710930e-002
      -1.22148775e-001 -1.25945196e-001 2.28789493e-001 3.95214707e-001
      1.90046728e-001 -3.39914709e-001 -3.09164554e-001 1.74604699e-001
      2.93327302e-001 -1.85279220e-001 -1.10114850e-001 -2.58667767e-001
      2.92382151e-001 3.58390659e-001 -1.59186110e-001 -2.97649384e-001
      -2.70359635e-001 8.45029652e-002 5.28864563e-001 -4.75629531e-002
      -4.91421908e-001 -5.06811857e-001 1.11147441e-001 1.09614685e-001
      -3.30862105e-002 -2.43105948e-001 -3.60687286e-001 1.21701166e-001
      1.62146613e-001 -4.24592346e-002 -1.02889620e-001 -2.89805174e-001
      2.08422076e-002 8.65838900e-002 -3.39215428e-001 -3.78993779e-001
      -4.52761978e-001 9.42524448e-002 1.65931821e-001 -2.05446303e-001
      -3.92845497e-002 -4.10610028e-002 2.03416169e-001 8.99663270e-002
      -5.94471157e-001 -3.00172389e-001 -1.31824806e-001 4.24566835e-001</_>
    <_>
      -1.33999333e-001 8.50858688e-002 6.17094524e-002 -7.72387683e-002
      -3.78472805e-002 -5.18063717e-002 5.88254258e-002 6.46808445e-002
      -3.06857407e-001 1.08314879e-001 1.08652055e-001 7.02666491e-002
      1.39931723e-001 -6.07709177e-002 1.67400315e-001 3.67744088e-001
      3.57090011e-002 -2.25022882e-001 -5.03489912e-001 1.88716799e-001
      -1.18406322e-002 4.72017191e-002 -5.58233494e-003 -3.98567706e-001
      3.39009494e-001 1.13973208e-001 -3.25731903e-001 -7.66991079e-002
      -2.84621567e-001 1.44927412e-001 7.78270602e-001 5.81060424e-002
      -5.87645829e-001 -7.71439910e-001 3.25985789e-001 3.62663090e-001
      -8.78259167e-002 -3.77367109e-001 -6.00961685e-001 1.31825596e-001
      1.13562711e-001 -3.96210402e-001 -8.99933353e-002 -1.58372089e-001
      1.07042432e-001 1.99569821e-001 -3.63156945e-001 -3.52759778e-001
      -4.71203089e-001 1.43923566e-001 2.33220786e-001 -2.94444948e-001
      -1.69446707e-001 -3.85146499e-001 1.72676727e-001 1.57255292e-001
      -6.25567615e-001 -3.65322828e-001 -8.75071734e-002 4.40560609e-001</_>
    <_>
      -1.90843046e-001 -6.33901507e-002 -4.75728810e-001
      -9.06814784e-002 9.64365602e-002 -8.19426477e-002 2.49569178e-001
      2.46077269e-001 4.99457866e-003 -6.26495555e-002 -1.57231778e-001
      4.47386682e-001 -3.70710343e-001 -6.06993496e-001 -1.54521227e-001
      -3.33801173e-002 -6.56648651e-002 1.85729146e-001 2.86346544e-002
      4.17209327e-001 -2.99445122e-001 6.30318344e-001 4.68100309e-001
      1.26451775e-002 1.96544111e-001 -3.42687726e-001 -1.80623576e-001
      2.27826610e-001 7.20164254e-002 4.02097613e-001 -3.42687726e-001
      -3.03370267e-001 1.08250991e-001 2.38541700e-002 8.42471540e-001
      -3.42687726e-001 -7.33783901e-001 1.77271277e-001 3.00950333e-002
      9.39405084e-001 -1.98238239e-001 -2.87711650e-001 1.35048730e-002
      1.95849854e-002 5.50047874e-001 -1.98238239e-001 -3.91691178e-001
      -1.94235202e-002 -1.49497287e-002 2.43256882e-001 -1.98238239e-001
      -5.91814816e-001 7.17029423e-002 8.33518244e-003 9.10769701e-001
      -1.98238239e-001 -5.16652465e-001 2.57966723e-002 -1.39737260e-002
      5.82356036e-001</_>
    <_>
      -1.55824557e-001 2.28361621e-001 1.45781323e-001 -1.59364834e-001
      -3.11851591e-001 -1.14498623e-001 2.93573499e-001 1.30241904e-002
      -3.45349371e-001 -7.15799257e-002 -4.91258502e-002 7.74512962e-002
      1.57137960e-001 -2.62605846e-001 -1.84255719e-001 1.15425497e-001
      -1.58712804e-001 -2.14774728e-001 -1.76138595e-001 6.79808930e-002
      7.52941668e-002 -1.11033749e-002 -9.58580077e-002 -3.18874449e-001
      2.95408934e-001 2.11307973e-001 -2.99248099e-001 -2.70198882e-001
      -4.14626151e-001 2.54550517e-001 3.36957812e-001 -2.37997591e-001
      -5.56968331e-001 -6.22004867e-001 2.13454649e-001 4.05030817e-001
      -1.13743328e-001 -4.11697000e-001 -6.86509013e-001 2.18533903e-001
      3.44560556e-002 -2.40950957e-001 -1.14619225e-001 -1.86464295e-001
      7.95046389e-002 1.07521556e-001 -3.62975985e-001 -4.92755055e-001
      -5.96547484e-001 1.36172935e-001 2.43037805e-001 -2.81986266e-001
      -1.07102007e-001 -4.34784681e-001 1.74960554e-001 1.67072311e-001
      -7.02824235e-001 -4.18269962e-001 -9.58121791e-002 5.58084905e-001</_>
    <_>
      -3.04936439e-001 1.54792136e-002 6.59528002e-002 -1.36485875e-001
      -1.13123305e-001 -8.95671919e-002 3.22175086e-001 2.96671897e-001
      5.56460246e-002 -1.44737124e-001 2.18042180e-001 1.38759628e-001
      7.89133739e-003 -3.26334447e-001 -1.72336221e-001 -6.59499271e-003
      -4.72980775e-002 7.09837452e-002 -1.98263843e-002 -2.85476260e-002
      2.15600699e-001 5.97703131e-003 -2.11983286e-002 -2.77246356e-001
      7.11543411e-002 3.24258178e-001 -3.32494617e-001 -4.03092712e-001
      -4.06159490e-001 1.29388943e-001 1.78170785e-001 -3.84311587e-001
      -1.33255720e-001 -5.55982031e-002 2.42457971e-001 2.15302855e-001
      -3.49056840e-001 -4.19670701e-001 -2.22502813e-001 1.85636684e-001
      2.33281717e-001 -3.50802720e-001 -3.73520046e-001 -3.82084221e-001
      3.44720006e-001 5.45506589e-002 -2.23292500e-001 -2.49773845e-001
      -4.19432133e-001 2.28021502e-001 2.14852586e-001 -4.30277139e-001
      -3.18053693e-001 -2.12205186e-001 1.96526870e-001 9.85000357e-002
      -4.44945872e-001 -3.82487953e-001 -2.62144953e-001 3.10090572e-001</_>
    <_>
      -2.75245726e-001 -4.16774005e-002 3.19949567e-001 7.50666335e-002
      2.66746129e-003 -8.34388752e-003 -5.25191836e-002 1.34259433e-001
      -1.53976455e-001 -2.16676176e-001 -1.61175765e-002
      -1.45557120e-001 1.29797593e-001 2.68267188e-002 2.45835427e-002
      1.76469982e-002 -1.78548116e-002 -6.29247651e-002 1.32182300e-001
      -2.70600319e-002 1.31110981e-001 2.32842952e-001 -1.47028476e-001
      -2.60523617e-001 -5.02373219e-001 4.46936697e-001 6.86711550e-001
      -1.84272632e-001 -4.76480812e-001 -4.60734457e-001 1.86370701e-001
      1.86370701e-001 -3.00865114e-001 -5.45471549e-001 -4.71290857e-001
      2.30448097e-001 5.88010192e-001 -3.01224202e-001 -6.53224051e-001
      -5.48860669e-001 4.64136571e-001 5.42308569e-001 -1.87557891e-001
      -2.36983582e-001 -1.72069725e-002 1.68834567e-001 1.37196079e-001
      -1.27772301e-001 -1.85206056e-001 -9.88771990e-002
      -1.30996644e-001 1.79248869e-001 6.77455738e-002 -3.88081908e-001
      -4.12982821e-001 -1.84472904e-001 -2.08903924e-001
      -5.73800039e-003 2.19252869e-001 1.22629136e-001</_>
    <_>
      -8.98250103e-001 1.32852733e-001 7.92010903e-001 4.15421247e-001
      1.92157418e-001 -1.92808434e-001 -1.01786830e-001 3.69182497e-001
      9.41899344e-002 9.84919220e-002 -1.99009269e-001 -6.69532537e-001
      4.79918092e-001 1.03363693e+000 9.28557277e-001 -1.56375155e-001
      -1.56375155e-001 1.82752579e-001 6.52795359e-002 4.68078375e-001
      -1.05563618e-001 8.27731863e-002 3.07505075e-002 1.11758541e-002
      -2.00613048e-002 4.68091331e-002 8.65669847e-002 -5.22936620e-002
      -7.80277103e-002 -2.82737255e-001 5.60809746e-002 1.01955429e-001
      -3.62231940e-001 -9.73545387e-002 -1.16580553e-001 2.48402841e-002
      7.69700035e-002 -5.05500793e-001 -7.82232955e-002 -1.20149381e-001
      3.51641327e-002 4.07340258e-001 -4.37858313e-001 -4.51888174e-001
      -5.45513749e-001 5.45857191e-001 6.19155943e-001 -8.95694867e-002
      -3.74333948e-001 -4.38047022e-001 -5.47234621e-003 1.01943538e-001
      -1.11933216e-001 -1.08048692e-001 -2.09087417e-001
      -6.52890801e-002 -1.75095424e-001 5.27023375e-001 -3.20988111e-002
      -6.07425153e-001</_>
    <_>
      -1.93402991e-001 3.73152614e-001 1.68923140e-001 -3.97439748e-002
      -5.37607260e-002 -1.94266960e-002 1.22801838e-002 -9.16594267e-002
      -3.68029863e-001 -3.00954692e-002 1.71963617e-001 7.49219358e-002
      -1.19322859e-001 -6.18992187e-003 4.57471877e-001 4.58953768e-001
      2.21319437e-001 -2.87602931e-001 -3.34896892e-001 1.27326414e-001
      1.71729103e-001 2.70503182e-002 -4.66673553e-001 -3.94625157e-001
      -8.00428465e-002 3.78612399e-001 1.85139477e-001 -2.69772798e-001
      -3.60375583e-001 -1.65478557e-001 5.96637428e-001 3.82996053e-001
      -3.04061532e-001 -5.41119576e-001 -4.59774435e-001 1.73974633e-001
      3.35914791e-001 -9.18250307e-002 -4.47221905e-001 -4.20490831e-001
      3.01224977e-001 3.29903603e-001 -9.27406624e-002 -2.76009530e-001
      -6.81155473e-002 4.50382084e-002 3.61339487e-002 -6.73488900e-002
      -5.48960119e-002 -8.12173337e-002 -6.22556917e-002
      -4.44029318e-003 1.78437918e-001 7.23903477e-002 -7.10082501e-002
      -1.57244101e-001 -1.65917531e-001 7.40896612e-002 2.76429474e-001
      -2.93151531e-002</_>
    <_>
      -2.43718192e-001 -3.23396288e-002 3.08109164e-001 1.62557706e-001
      7.84240663e-002 3.80095802e-002 -1.42574206e-001 -2.61353794e-002
      -1.68791324e-001 -5.68370484e-002 2.06942074e-002 -1.30737782e-001
      1.47952110e-001 3.22407246e-001 3.30975026e-001 2.83317327e-001
      1.42903000e-001 -3.04193199e-001 -2.47807503e-001 1.24325998e-001
      1.04220606e-001 1.53198257e-001 -5.69009483e-001 -2.29895756e-001
      -9.89692509e-002 1.76765949e-001 1.78905338e-001 -1.38180614e-001
      -1.39779076e-001 -3.65588158e-001 7.12271392e-001 5.24974406e-001
      -4.12362039e-001 -6.70794129e-001 -3.44092250e-001 2.95695812e-001
      4.03015226e-001 -1.62352771e-001 -5.66052377e-001 -4.79921281e-001
      2.05245361e-001 2.88529724e-001 6.22375533e-002 -1.95641935e-001
      -3.81027311e-001 2.83058584e-001 1.61183372e-001 6.27818033e-002
      -2.12255672e-001 -3.24044317e-001 2.38562264e-002 7.03926682e-002
      2.16954380e-001 -9.98786166e-002 -3.88090074e-001 -9.99076068e-002
      -1.96419805e-001 1.17967412e-001 2.47193724e-001 6.60015047e-002</_>
    <_>
      -4.90708556e-003 1.28540492e+000 -4.00895119e-001 -6.06594265e-001
      2.53458977e-001 -2.31366321e-001 -4.74177711e-002 8.50175694e-003
      -7.00513050e-002 -4.35181335e-002 -5.30823320e-002
      -3.00844073e-001 -8.01189125e-001 1.05686439e-002 1.06263077e+000
      -1.08542196e-001 -4.84337620e-002 -2.65097260e-001 1.15709580e-001
      9.16905701e-001 -3.88502717e-001 3.53196897e-002 2.72984747e-002
      3.98222059e-002 -7.70629719e-002 -1.05810314e-001 6.22496963e-001
      3.96829844e-002 1.30130677e-002 -1.10844560e-001 -1.05810314e-001
      3.46916348e-001 2.15255424e-001 1.23161431e-002 -1.35709643e-001
      -1.05810314e-001 8.78231600e-002 8.09169039e-002 1.90297067e-002
      -2.41902262e-001 -5.57284236e-001 4.39618416e-002 6.01490475e-002
      5.07250838e-002 -8.75508264e-002 -5.57284236e-001 2.21338645e-001
      1.34313035e+000 7.38223553e-001 7.70051107e-002 -5.57284236e-001
      5.89931235e-002 4.72290218e-001 1.38962150e-001 -2.30553076e-001
      -5.97691774e-001 1.41716510e-001 2.38743973e+000 1.21350431e+000
      -2.90392935e-001</_>
    <_>
      -2.98044205e-001 1.55008480e-001 1.95203662e-001 -5.50568625e-002
      -2.57668525e-001 1.96882918e-001 1.55421663e-002 -1.54527664e-001
      -5.80896437e-001 -3.03760648e-001 -5.58104366e-002
      -1.03016399e-001 2.26224139e-001 1.81966141e-001 1.09377928e-001
      1.09377928e-001 7.12103620e-002 -2.47331306e-001 -2.57808957e-002
      3.24648656e-002 2.67292172e-001 1.09222487e-001 -6.79493785e-001
      -3.38804036e-001 -1.39535517e-001 2.75985062e-001 2.75985062e-001
      -2.06197709e-001 -1.64647415e-001 -2.23056599e-001 5.26713371e-001
      3.01318049e-001 -4.18003350e-001 -6.85724735e-001 -5.58769882e-001
      4.24284130e-001 3.30503941e-001 -3.28203619e-001 -7.85120785e-001
      -6.80554688e-001 4.19661179e-002 2.16047943e-001 1.32547125e-001
      -2.93340951e-001 -5.36178887e-001 2.48871118e-001 3.30575407e-001
      8.86783674e-002 -3.47288936e-001 -4.06548530e-001 3.44780535e-002
      1.69861883e-001 2.44807452e-001 -1.27277836e-001 -5.73181331e-001
      -2.08684444e-001 -1.58678442e-001 1.02532320e-001 2.83232898e-001
      1.84732869e-001</_>
    <_>
      -9.75985005e-002 -1.10569865e-001 1.42493606e-001 -1.25773415e-001
      -2.59459883e-001 1.19204201e-001 1.47210091e-001 3.28506678e-001
      -1.06301919e-001 -4.53912288e-001 4.80166197e-001 1.42517433e-001
      2.11810529e-001 -7.66644925e-002 -7.66644925e-002 -7.66644925e-002
      2.56857365e-001 1.87774450e-001 -1.37003198e-001 -1.19516514e-001
      3.42197090e-001 1.89665899e-001 -3.05616856e-001 -4.43220317e-001
      -3.07299912e-001 6.70277774e-001 1.68266580e-001 -7.01996386e-001
      -7.90764153e-001 -1.51891947e-001 1.67850077e-001 1.67850077e-001
      2.74366401e-002 -3.46649662e-002 -2.71650910e-001 1.78386301e-001
      1.67850077e-001 -4.28152323e-001 -5.04039526e-001 -3.59233975e-001
      6.18057549e-001 3.70383739e-001 -5.27086914e-001 -6.01628959e-001
      -1.02044158e-001 2.77263165e-001 4.33151096e-001 7.55571127e-002
      -3.97377342e-001 -2.52312392e-001 -1.39500186e-001 2.34703377e-001
      -2.51015127e-001 -3.05586338e-001 -4.55288380e-001
      -3.31294775e-001 -1.06939554e-001 1.11489281e-001 3.17131490e-001
      -1.25539172e-002</_>
    <_>
      -4.50493008e-001 2.71442771e-001 4.36910510e-001 2.51623422e-001
      5.56167252e-002 -2.41335586e-001 -2.33394668e-001 3.02857935e-001
      2.44286150e-001 3.19898218e-001 -2.92040288e-001 -3.77795398e-001
      4.23202097e-001 7.87903368e-001 6.01677179e-001 -2.02776745e-001
      -7.54852071e-002 4.76421900e-002 1.79125220e-002 4.62308258e-001
      -7.06503689e-002 -2.53663927e-001 1.01039387e-001 3.21780711e-001
      4.76981312e-001 -3.64768356e-001 -5.09248674e-001 4.10776138e-002
      2.03364149e-001 1.34862036e-001 -4.90638800e-002 1.59635469e-001
      -1.30246133e-001 3.46933782e-001 3.47691894e-001 -1.48892790e-001
      -5.64469397e-001 2.72522420e-002 3.56829733e-001 1.61402568e-001
      -2.99790770e-001 -2.25420117e-001 -2.27123037e-001
      -2.53003150e-001 -3.32462907e-001 2.97050867e-002 3.03864300e-001
      4.87732142e-002 -9.32826288e-003 -3.33806545e-001 4.28748876e-002
      -1.50851935e-001 2.24719308e-002 3.37320387e-001 1.24278687e-001
      4.87732142e-002 5.11882067e-001 3.74964088e-001 -3.12922001e-002
      -3.43414307e-001</_>
    <_>
      -4.21367019e-001 5.73244691e-001 1.61659747e-001 1.17932176e-002
      -3.51017654e-001 -1.95243806e-001 8.10519606e-002 -3.84153843e-001
      -5.49965799e-001 6.73261881e-002 4.45989698e-001 1.64665833e-001
      -4.28923577e-001 1.16313428e-001 7.56890178e-001 8.53333950e-001
      5.32716215e-001 -3.65996718e-001 -1.08102405e+000 1.33500010e-001
      2.64317065e-001 -3.21892679e-001 -7.84534156e-001 -1.24745414e-001
      5.93185902e-001 1.98058918e-001 -5.33377886e-001 -5.76434314e-001
      2.52950311e-001 4.48872089e-001 7.18362808e-001 5.19606769e-001
      -1.49677187e-001 -1.23192221e-001 -6.99305236e-002
      -2.05294639e-001 -1.58070415e-001 2.19977781e-001 1.01663992e-001
      -6.20286502e-002 -3.05338204e-002 -9.65924934e-003 9.73693952e-002
      -3.04040760e-001 -3.10200602e-001 -2.08118945e-004 1.88740250e-002
      3.80453989e-002 -2.16844589e-001 -4.85695362e-001 3.83130740e-003
      -3.05021815e-002 4.20622110e-001 6.92592978e-001 2.43918240e-001
      1.11709228e-002 1.11709228e-002 1.12105802e-001 -1.37206599e-001
      -1.81800500e-001</_>
    <_>
      -1.26100287e-001 -4.86790128e-002 1.66139558e-001 1.18547834e-001
      6.31053224e-002 1.08430035e-001 -1.19503982e-001 -3.30548614e-001
      -4.53240275e-001 1.10684805e-001 2.35381171e-001 -7.82948211e-002
      -5.32443561e-002 6.48108304e-001 7.49006331e-001 7.37495542e-001
      2.73830950e-001 -2.02614442e-001 -1.00563502e+000 4.39460456e-001
      -1.11086583e-002 -1.92973793e-001 -6.78693473e-001
      -1.50721639e-001 6.95205450e-001 -5.64936340e-001 -8.80136073e-001
      -1.17412604e-001 5.83132803e-001 1.72372833e-001 9.71038699e-001
      8.16700995e-001 -1.38724044e-001 -1.63315237e-001 1.14946239e-001
      1.24054834e-001 -1.01039618e-001 2.69452870e-001 1.06848888e-001
      -1.49856629e-002 -5.69152892e-001 -3.62375617e-001 3.79613429e-001
      7.47541264e-002 -7.09047914e-001 1.33683175e-001 7.52543239e-003
      3.08258474e-001 9.64721385e-003 -4.04132158e-001 9.20969620e-002
      3.28773670e-002 2.31968984e-001 4.76389378e-001 1.36575559e-002
      8.57422128e-002 3.50194126e-002 2.58914798e-001 1.64641157e-001
      -7.91276321e-002</_>
    <_>
      1.26767233e-002 1.63775384e-001 -2.61234850e-001 -4.03390266e-002
      2.89370771e-002 -1.22582518e-001 4.71986160e-002 2.67422274e-002
      1.86507672e-001 1.28904134e-001 -6.51718453e-002 1.34446546e-001
      -2.27955610e-001 -5.48719522e-003 1.71541438e-001 -7.83663243e-002
      5.78142554e-002 4.36183549e-002 2.71363929e-002 2.47594163e-001
      -1.64648086e-001 5.69307171e-002 9.66877490e-002 1.70356467e-001
      2.41729423e-001 -4.30237174e-001 -1.43348888e-001 2.42753178e-001
      3.02087635e-001 1.75099179e-001 -2.58264929e-001 9.31502879e-002
      2.96028614e-001 4.40018564e-001 2.57683694e-001 -3.03793162e-001
      -2.52693474e-001 4.38115954e-001 4.86861885e-001 1.73993081e-001
      -5.35770297e-001 -1.51253477e-001 2.69274324e-001 2.41539657e-001
      9.70957894e-003 -3.24177772e-001 2.45286827e-003 5.05686462e-001
      4.72460598e-001 -4.22648750e-002 -1.82810530e-001 -8.07144269e-002
      2.53087133e-001 4.35758561e-001 2.18684822e-001 -1.82810530e-001
      3.45261768e-002 4.77950245e-001 3.15582603e-001 8.02502129e-003</_>
    <_>
      -1.58993751e-001 2.28891224e-001 2.76422411e-001 -1.61717292e-002
      -4.49194819e-001 1.40452787e-001 3.96895260e-001 -2.95633048e-001
      -8.11295450e-001 -4.78756785e-001 -1.34525090e-001
      -1.77366473e-002 1.58325896e-001 2.69320369e-001 8.73869658e-002
      1.67685241e-001 1.67685241e-001 -1.22496367e-001 -5.40199280e-001
      2.45649368e-002 2.66861528e-001 -2.36654371e-001 -8.54317904e-001
      -1.22823641e-001 5.42373240e-001 -8.44472289e-001 -1.08404529e+000
      -2.43489608e-001 3.33823949e-001 4.05673742e-001 5.55974066e-001
      4.68556494e-001 -8.83983299e-002 4.26627472e-002 -6.94642514e-002
      2.43367866e-001 -2.93339103e-001 3.50127578e-001 6.86425120e-002
      3.30317803e-002 -1.19102252e+000 -3.63698632e-001 6.33858800e-001
      1.41201422e-001 -1.06933296e+000 -2.54797786e-001 1.72848031e-001
      2.94318259e-001 -1.65297408e-002 -7.44113743e-001 1.28282338e-001
      1.23115294e-001 5.03864884e-001 2.92048901e-001 -1.36765856e-002
      1.41925797e-001 1.41925797e-001 3.79804224e-001 1.02734216e-001
      -2.33552754e-002</_>
    <_>
      -3.32716882e-001 -9.59699228e-003 1.25079617e-001 -3.50787520e-001
      -4.74904150e-001 -6.51405454e-002 6.94522977e-001 4.87608790e-001
      -6.52456880e-002 -7.23892272e-001 4.18038398e-001 5.62043369e-001
      2.07379505e-001 -1.00090526e-001 -1.26472071e-001 -9.50528309e-002
      3.77783179e-001 5.58216691e-001 -1.62366793e-001 -2.99854457e-001
      6.00508630e-001 6.36510178e-002 -2.70871103e-001 -5.13381660e-001
      3.83271463e-002 3.31372410e-001 -1.02552629e+000 -7.28967905e-001
      -2.51187265e-001 2.24228159e-001 -1.88007206e-002 9.28722471e-002
      6.33504689e-001 1.02230012e+000 5.81068575e-001 -1.17235802e-001
      -1.09704936e+000 -3.80172282e-002 2.35440508e-001 3.10677290e-001
      6.73581809e-002 -5.38681805e-001 -3.45761448e-001 -5.55959523e-001
      -2.76010692e-001 2.80060083e-001 3.56097966e-001 3.77027869e-001
      3.93837802e-002 -2.06205204e-001 2.77848065e-001 -2.03205496e-001
      -3.80298823e-001 3.70144784e-001 9.11459997e-002 1.85187683e-001
      1.88708141e-001 2.13642895e-001 -3.86370003e-001 -3.75742823e-001</_>
    <_>
      1.19478323e-001 5.78915477e-002 -1.64793089e-001 -1.23974495e-001
      -1.70399770e-001 1.19478323e-001 2.63016224e-001 -4.19708550e-001
      -4.48537767e-001 -2.78588206e-001 3.42168361e-001 2.96059847e-001
      -6.00574553e-001 -4.71290946e-001 -3.17904800e-002 5.15601218e-001
      2.62883842e-001 -3.84546936e-001 -5.27933240e-001 -2.26187661e-001
      2.02430084e-001 2.39088796e-002 -5.00496566e-001 -3.63758951e-001
      -1.24756552e-001 4.85968292e-001 8.95441398e-002 -3.52578253e-001
      -9.93206277e-002 1.53448120e-001 5.42714477e-001 1.64026860e-002
      -2.66146287e-002 -3.03694814e-001 -3.40766907e-001 4.82213460e-002
      2.29246229e-001 1.63322911e-001 -1.85549870e-001 -1.09586798e-001
      2.83898592e-001 1.87007815e-001 1.51528478e-001 -1.03850685e-001
      1.31892249e-001 3.78513075e-002 -2.31118754e-001 1.93636175e-002
      -5.77338450e-002 9.97085590e-003 -3.81145068e-002 -4.56472822e-002
      1.74013183e-001 1.38081133e-001 1.05046533e-001 -3.81145068e-002
      -4.40699637e-001 -2.80358821e-001 3.18320282e-002 2.43330583e-001</_>
    <_>
      3.18554342e-001 -5.14908612e-001 -9.39879492e-002 -4.55930643e-002
      1.45800725e-001 3.17451686e-001 9.50043499e-002 -4.00112391e-001
      -4.69959289e-001 -2.83700705e-001 3.79384726e-001 2.20661506e-001
      -2.68946677e-001 -1.37897104e-001 6.76188171e-002 3.48531365e-001
      2.66169216e-002 -4.87283200e-001 -6.67408168e-001 -1.32249326e-001
      9.26037878e-002 2.98135996e-001 -6.79014862e-001 -6.43324077e-001
      -1.53066695e-001 2.99759619e-002 -8.00489485e-002 -3.05408776e-001
      -1.28364667e-001 1.81967214e-001 9.02088940e-001 4.57079828e-001
      -9.46647674e-002 -5.63099921e-001 -1.68179035e-001 5.38732469e-001
      3.26164365e-001 9.05526876e-002 -5.93081594e-001 -2.08634466e-001
      -2.09155127e-001 -3.03003699e-001 7.76425719e-001 4.15146500e-001
      1.12706684e-001 -2.32818216e-001 -5.58768511e-001 6.99125707e-001
      2.14977637e-002 3.39656323e-002 3.39656323e-002 4.40232344e-002
      1.19866379e-001 -3.45697016e-001 -1.03429362e-001 3.39656323e-002
      -8.07595551e-001 -9.70883109e-003 1.84092894e-001 2.95194566e-001</_>
    <_>
      2.61910588e-001 1.10595231e-003 -7.58305609e-001 -3.88074338e-001
      -1.24107577e-001 1.04851365e-001 3.68651271e-001 -3.16799372e-001
      -8.25356767e-002 -1.61926284e-001 1.22857593e-001 4.68604684e-001
      -6.98509455e-001 -6.77580595e-001 -4.13860828e-001 1.04851365e-001
      1.72566712e-001 -9.57788341e-003 3.98948491e-002 -1.76267743e-001
      -1.69130161e-001 4.29813206e-001 -3.90244573e-002 4.84992610e-003
      -2.30263434e-002 -1.69130161e-001 1.27277508e-001 1.31125882e-001
      3.56724896e-002 1.47117615e-001 -1.69130161e-001 9.39267948e-002
      4.40314531e-001 2.41072983e-001 8.62931088e-002 -1.69130161e-001
      -2.02366099e-001 5.28227568e-001 1.72136799e-001 2.02895150e-001
      -2.72094250e-001 -1.48674309e-001 4.86268908e-001 2.60578722e-001
      3.01098585e-001 -4.75522339e-001 -1.77706555e-001 8.58329594e-001
      6.01762474e-001 2.44711146e-001 -2.72094250e-001 -6.31467849e-002
      2.82607943e-001 1.14563003e-001 2.05310509e-001 -2.72094250e-001
      1.15341634e-001 3.51273924e-001 2.95206308e-001 2.40312554e-002</_>
    <_>
      4.67817545e-001 -1.69579118e-001 -3.47046226e-001 -3.21717054e-001
      -2.87670255e-001 4.53858882e-001 3.59749764e-001 -5.64763486e-001
      -6.15449309e-001 -4.80057925e-001 3.39271247e-001 3.89123201e-001
      -3.19939792e-001 -6.40040696e-001 -5.18513858e-001 3.39271247e-001
      7.20997974e-002 -3.15150827e-001 -2.48891890e-001 -4.92000669e-001
      2.48129085e-001 7.24959224e-002 -4.62826431e-001 -3.91973287e-001
      -1.90470561e-001 8.62404108e-002 1.06084645e-002 -5.94922416e-002
      -1.88379467e-001 1.12651112e-002 2.86320448e-001 -6.46873191e-002
      3.19063067e-002 -2.70380527e-001 -4.28493232e-001 2.54857957e-001
      3.38393837e-001 2.68305779e-001 -3.66404653e-001 -9.09001827e-002
      -9.72580463e-002 -1.18451966e-002 5.24520993e-001 1.08026229e-001
      -1.85105860e-001 3.86462584e-002 -2.44575992e-001 6.86092228e-002
      -2.20008902e-002 5.42331524e-002 5.42331524e-002 4.41932231e-002
      1.70565113e-001 -2.26875648e-001 -3.70749384e-002 5.42331524e-002
      -5.76438665e-001 -3.54120314e-001 5.19508347e-002 4.09486622e-001</_>
    <_>
      1.84143662e-001 -2.19116315e-001 -3.34519506e-001 -2.98054665e-001
      -2.40012735e-001 1.71046317e-001 4.17243838e-001 -5.29310144e-002
      -1.42950788e-001 -6.59329057e-001 5.17135680e-001 5.84945321e-001
      -3.50091517e-001 -7.54948497e-001 -6.08588994e-001 1.62863746e-001
      2.53606975e-001 6.06569313e-002 -6.42259791e-002 -6.44348204e-001
      3.41231465e-001 1.68726951e-001 -2.50600606e-001 -5.27990818e-001
      -5.43023229e-001 4.97114092e-001 -8.38566106e-003 -4.15944487e-001
      -3.18358272e-001 8.05278867e-002 4.40170988e-002 -2.95548383e-002
      2.80026585e-001 4.42923233e-002 -1.31144732e-001 1.23804353e-001
      1.86981000e-002 -9.52226073e-002 -1.15110055e-001 4.78272103e-002
      2.45767489e-001 -1.26700355e-002 -4.95881634e-003 1.30425359e-003
      2.20023334e-001 -5.20393178e-002 -2.64058132e-002 1.19605117e-001
      1.53253088e-002 -2.85092033e-002 5.74875623e-002 -4.40766104e-002
      -1.50228098e-001 9.91704538e-002 2.61030495e-002 1.64597631e-002
      -3.92804652e-001 -1.70492589e-001 -6.67835549e-002 1.48260653e-001</_>
    <_>
      1.25912577e-002 -1.66482794e+000 2.60178477e-001 2.50936002e-001
      9.29026842e-001 2.21990645e-001 -3.52435708e-001 1.08957365e-001
      5.24148405e-001 5.30779362e-001 1.70672596e-001 1.58883613e-002
      5.64820230e-001 3.42873305e-001 -2.65614510e-001 -1.12142704e-001
      -1.11796260e+000 1.82143375e-001 1.65641099e-001 6.90367460e-001
      -1.38475275e+000 3.81893426e-001 1.52227119e-001 3.02860409e-001
      5.42497098e-001 -2.41238642e+000 -2.75312159e-002 1.87331569e+000
      7.04942882e-001 -7.61195064e-001 1.93838477e-001 4.14101213e-001
      1.19849332e-001 -3.54291573e-002 9.14629281e-001 1.02989244e+000
      7.99274594e-002 -2.76098758e-001 -4.28428918e-001 1.87239140e-001
      -1.37603390e+000 -8.66122365e-001 1.14352334e+000 1.18599582e+000
      -1.31447792e+000 7.05202401e-001 3.89249921e-001 1.51569769e-001
      9.13706571e-002 -1.87380597e-001 5.51562011e-001 7.53997639e-003
      -4.99192297e-001 -1.33348143e+000 -2.89770931e-001 4.44961697e-001
      2.92259246e-001 -5.76808453e-001 3.67918015e-001 4.03829485e-001</_>
    <_>
      2.09063627e-002 -6.03997037e-002 -1.26668707e-001 -6.42312616e-002
      8.64172578e-002 -2.75526494e-001 -3.96891162e-002 2.04631358e-001
      3.03845704e-001 1.95629504e-002 -2.15653732e-001 -3.58352959e-002
      2.08212975e-002 -6.49630930e-003 -1.45142794e-001 -4.67063218e-001
      -2.18996748e-001 2.51387864e-001 3.66111219e-001 1.27352685e-001
      -3.07360083e-001 1.33734763e-001 4.39842612e-001 3.59128028e-001
      4.47370159e-003 -3.25439334e-001 -4.44912948e-002 3.11101347e-001
      3.17866355e-001 9.48765427e-002 -5.42849481e-001 -2.57483631e-001
      4.08335388e-001 4.75774884e-001 3.70085925e-001 -1.93383038e-001
      -2.55353481e-001 2.59218872e-001 3.99797946e-001 1.96904153e-001
      -3.86097133e-001 -1.80840865e-001 1.66614294e-001 2.15043917e-001
      9.56328660e-002 -1.90913469e-001 -1.86795113e-003 3.93521696e-001
      2.49266669e-001 7.00804070e-002 -7.98256099e-002 4.05093692e-002
      1.33062080e-001 2.28135474e-002 -2.29922011e-002 -7.98256099e-002
      8.26101378e-002 3.34381282e-001 1.15633532e-001 1.29128501e-001</_>
    <_>
      2.58706719e-001 -5.47265172e-001 -1.25425339e-001 -2.02762485e-002
      -2.66578555e-001 4.04133320e-001 2.18656257e-001 2.97193527e-001
      2.59796470e-001 -5.64022124e-001 -6.01160526e-001 8.64789486e-002
      6.98178768e-001 1.24829054e-001 -1.36618364e+000 -1.37836885e+000
      -1.22385859e+000 5.81191003e-001 7.62862742e-001 -3.54759932e-001
      -4.82814282e-001 3.11781615e-001 1.71235844e-001 -7.67594725e-002
      1.13168687e-001 -1.37958682e+000 -2.26995736e-001 7.64944911e-001
      3.43897380e-002 -1.65886909e-001 -6.39174402e-001 -4.74817753e-001
      1.17240570e-001 1.35617465e-001 2.72413909e-001 7.84889281e-001
      8.22832137e-002 -1.38053983e-001 -2.22506523e-001 4.09777388e-002
      -1.24789906e+000 -4.40911591e-001 6.31209791e-001 4.57120061e-001
      -6.01902187e-001 3.68465930e-001 3.01703691e-001 -7.89727718e-002
      -5.34264557e-002 -2.20168516e-001 2.44990528e-001 2.62612500e-003
      -6.80237859e-002 -9.32634473e-001 -3.36805463e-001 2.44990528e-001
      2.44990528e-001 -2.06874400e-001 3.22726481e-002 2.55643964e-001</_>
    <_>
      1.62288770e-001 -4.26855415e-001 -2.63033897e-001 -3.42685193e-001
      5.17483763e-002 1.42653510e-002 2.17661098e-001 6.16248369e-001
      2.94006497e-001 -3.99591088e-001 7.75977820e-002 3.38578105e-001
      3.37036461e-001 -1.78299189e-001 -6.54070377e-001 -6.14815712e-001
      -1.13296278e-001 7.58585036e-001 5.45682013e-001 -2.18217269e-001
      1.23859525e-001 2.49585122e-001 3.67316484e-001 -9.39770862e-002
      -3.10284734e-001 7.70973116e-002 -1.68436006e-001 -2.57480983e-002
      -3.28198284e-001 -1.36873916e-001 -6.75100029e-001
      -3.91143084e-001 5.05598068e-001 7.31899083e-001 2.45026618e-001
      1.57071814e-001 -3.77804309e-001 -2.44032264e-001 2.07887113e-001
      2.85098225e-001 1.03954934e-001 -3.15151572e-001 -1.28525376e-001
      -1.87290311e-001 1.83136053e-002 8.61617476e-002 2.79295921e-001
      3.09650868e-001 9.36477929e-002 1.06229626e-001 2.60845095e-001
      -3.91996317e-002 -5.21769464e-001 -3.65853488e-001
      -1.16993837e-001 1.03734456e-001 9.36477929e-002 9.50859860e-002
      -2.35164121e-001 -9.56381708e-002</_>
    <_>
      7.60270879e-002 1.98724300e-001 -3.36022645e-001 -1.76451132e-001
      -3.24967259e-004 -1.46998286e-001 1.52492121e-001 5.11297658e-002
      2.21728802e-001 -7.05167709e-004 -1.06549196e-001 1.46308318e-001
      -3.05963784e-001 -2.82750666e-001 -1.07720278e-001
      -2.68487811e-001 -6.32722825e-002 2.04068184e-001 3.39436203e-001
      6.47091046e-002 -1.76737860e-001 1.76363736e-001 3.62007737e-001
      2.93002039e-001 -9.04035196e-003 -2.25449264e-001 6.27968535e-002
      2.58429348e-001 1.94976211e-001 1.97246343e-001 -6.58247888e-001
      -2.60272890e-001 4.25034344e-001 5.92179894e-001 2.24433988e-001
      -4.26666498e-001 -1.89276949e-001 3.02608043e-001 4.14217770e-001
      2.96694934e-001 -2.86006331e-001 -1.79809779e-002 1.03345104e-001
      1.80783004e-001 3.33628267e-001 -3.66299838e-001 -4.02877182e-002
      2.47607574e-001 4.70487684e-001 2.66373932e-001 -1.78379193e-001
      -1.11335799e-001 1.44848675e-001 2.79702395e-001 3.01841974e-001
      -1.78379193e-001 5.99954976e-003 2.61396527e-001 1.59623072e-001
      9.46104825e-002</_>
    <_>
      -1.04221711e-002 1.00086617e+000 -4.26335968e-002 -3.85798663e-001
      -1.56012118e+000 5.49023561e-002 1.37181103e+000 -8.78567100e-002
      -3.94860208e-001 -1.74410009e+000 -7.41382301e-001 5.30021071e-001
      5.24149649e-002 -9.58795190e-001 -2.25954533e+000 -1.77399457e+000
      -7.28509068e-001 4.80991334e-001 1.33775604e+000 -1.26666176e+000
      3.99466604e-001 6.31116554e-002 -3.78358588e-002 -1.77280292e-001
      -2.58431345e-001 -1.35406539e-001 -6.03652112e-002
      -2.26942152e-001 -7.68297136e-001 3.03438127e-001 -1.31075835e+000
      -1.41938305e+000 1.49630070e-001 3.57235551e-001 -3.18896830e-001
      4.65203375e-001 -1.88712716e-001 -3.07838947e-001 3.51028331e-002
      2.85366982e-001 -5.75939000e-001 6.46248758e-002 1.45116240e-001
      -2.43358850e-001 -5.19326568e-001 5.79865873e-002 -3.75747867e-002
      -4.74616319e-001 -2.30030552e-001 6.90651983e-002 1.84646085e-001
      -1.85913607e-001 1.98767915e-001 -5.63439965e-001 7.38546550e-002
      2.03063384e-001 6.58456385e-002 -2.28612885e-001 -1.90985501e-001
      1.52240649e-001</_>
    <_>
      -3.77927981e-002 3.74661125e-002 -1.63171783e-001 -3.61563176e-001
      -3.03534776e-001 -1.62313849e-001 3.90425712e-001 4.05381739e-001
      2.12858602e-001 -5.11326551e-001 1.50513679e-001 4.29532707e-001
      6.54662400e-002 -4.61685389e-001 -4.86184657e-001 -3.90006334e-001
      2.09567007e-002 4.42454427e-001 4.77843881e-001 -3.56261879e-001
      2.50435203e-001 5.90910763e-002 2.37557471e-001 -7.39133507e-002
      -4.31305498e-001 4.82285500e-001 4.64638462e-003 -3.18598270e-001
      -4.26527679e-001 -1.22622529e-003 -6.32063210e-001
      -4.61709648e-001 4.40584570e-001 7.13718534e-001 6.13429546e-002
      -1.51242882e-001 -3.97199035e-001 -1.65763110e-001 2.11742997e-001
      1.03793606e-001 3.30642372e-001 -5.31956330e-002 -3.30353022e-001
      -3.79692137e-001 2.93838441e-001 2.51561571e-002 1.91740870e-001
      3.76385488e-002 -1.02103457e-001 1.14212349e-001 4.95797470e-002
      -1.69804350e-001 -2.65537173e-001 2.44396972e-003 4.48055752e-002
      4.22011353e-002 6.50529042e-002 -1.47125140e-001 -3.58309180e-001
      -1.55435592e-001</_>
    <_>
      -3.21252048e-002 -1.08799584e-001 3.07271540e-001 3.94191891e-002
      -2.41260678e-001 2.28151113e-001 -1.27375508e-002 -1.67491421e-001
      -3.72392595e-001 -2.42577836e-001 3.30913719e-003 -1.06367730e-001
      3.46786708e-001 1.45300567e-001 -1.31528482e-001 1.29866213e-001
      -1.08095612e-002 -1.98176518e-001 -1.60442486e-001
      -2.67280936e-001 3.05100679e-001 -2.12177917e-001 -4.21097457e-001
      -2.61986077e-001 -2.76408549e-002 2.88582146e-001 -5.25928810e-002
      -2.48161972e-001 -1.49851874e-001 -6.30909652e-002 3.44357073e-001
      2.10671946e-002 -4.39415097e-001 -5.28485119e-001 -3.01028579e-001
      4.18247193e-001 2.49316469e-001 -3.68751794e-001 -5.24850905e-001
      -2.43142232e-001 2.25457296e-001 4.91588898e-002 -8.47699121e-002
      -2.01540783e-001 -3.78253907e-001 4.13623363e-001 1.01544105e-001
      -3.33328962e-001 -5.14161527e-001 -2.48711884e-001 2.25457296e-001
      5.99649437e-002 -1.26790375e-001 -2.63963431e-001 -3.62334341e-001
      2.25457296e-001 -9.68534723e-002 -3.58619034e-001 -2.33716115e-001
      -4.03615385e-002</_>
    <_>
      -1.97986467e-003 -2.18688011e-001 1.47683725e-001 -1.75471697e-002
      -1.44548208e-001 1.06680617e-001 1.24964990e-001 1.23424612e-001
      -8.46553072e-002 -3.20722818e-001 2.74948955e-001 1.06369533e-001
      2.35712424e-001 -2.23645661e-002 -1.88602626e-001 1.57358591e-002
      7.53887445e-002 8.46221969e-002 -1.48100972e-001 -3.14160287e-001
      2.95231164e-001 -5.91280796e-002 -2.12668866e-001 -2.52863675e-001
      -1.70964375e-001 4.54723239e-001 -7.80431479e-002 -4.50965345e-001
      -3.87542814e-001 -2.93124560e-002 1.63422629e-001 -1.79626476e-002
      -1.44906461e-001 -7.30588138e-002 -1.16175309e-001 1.86352491e-001
      1.36922240e-001 -4.44509983e-001 -3.26213539e-001 -1.36692226e-001
      5.33374012e-001 4.11296226e-002 -3.84396523e-001 -3.84308666e-001
      -1.12180645e-002 4.40121382e-001 1.15980469e-001 -2.95323730e-001
      -4.28349912e-001 -4.73724119e-002 2.24999875e-001 3.70465219e-002
      -3.93476903e-001 -2.78704017e-001 -1.83820695e-001 2.13165253e-001
      -1.54929146e-001 -3.94698173e-001 -2.74237335e-001
      -2.74654012e-002</_>
    <_>
      -9.93990526e-002 -2.78952122e-001 -1.20431192e-001
      -2.09667623e-001 5.67815416e-002 -3.15459043e-001 1.79635257e-001
      8.61222804e-001 6.32764578e-001 -2.21484259e-001 5.39208531e-001
      2.40824714e-001 -1.45706535e-005 -2.39808336e-001 -2.22909063e-001
      -2.22909063e-001 1.70037776e-001 7.91895270e-001 4.68893088e-002
      -2.22909063e-001 4.17129658e-002 1.26591504e-001 5.09769082e-001
      -2.16932625e-001 -3.21606934e-001 7.42498636e-001 -9.72892195e-002
      -4.33271706e-001 -6.09018683e-001 -2.95300945e-003
      -4.93397474e-001 -2.36485198e-001 6.48994982e-001 7.82060087e-001
      3.54474157e-001 -3.68301272e-001 -3.19630593e-001 -1.67223096e-001
      3.84103268e-001 2.40611076e-001 8.22630823e-001 3.38899670e-003
      -7.91508734e-001 -4.98425663e-001 6.65187836e-001 5.04533798e-002
      1.03036113e-001 1.09343156e-001 4.73411754e-002 1.78890511e-001
      1.38607278e-001 -3.40267867e-001 -6.23927355e-001 4.50334884e-002
      2.00145215e-001 4.73411754e-002 4.73411754e-002 -1.71443298e-002
      -2.70374835e-001 -2.12316304e-001</_></support_vectors>
  <uncompressed_sv_total>280</uncompressed_sv_total>
  <uncompressed_support_vectors>
    <_>
      3.36764306e-001 2.52810478e-001 1.47840634e-001 2.59558577e-002
      1.11698978e-001 3.36764306e-001 5.87856881e-002 3.02418973e-002
      1.14572188e-002 2.69397855e-001 3.36764306e-001 1.27157807e-001
      2.79497415e-001 2.06209719e-001 3.36764306e-001 3.36764306e-001
      3.40308137e-002 3.94884497e-002 2.54760943e-002 3.36764306e-001
      3.60650122e-001 5.09742182e-003 1.04572866e-002 9.98112746e-003
      2.91519761e-001 3.60650122e-001 0. 5.84730366e-003 5.91309508e-003
      3.60650122e-001 3.60650122e-001 2.79500615e-003 1.15157999e-002
      6.92569558e-003 3.60650122e-001 3.60650122e-001 0. 1.92911439e-002
      8.28784425e-003 3.60650122e-001 3.31126243e-001 5.88280708e-003
      7.96601456e-003 1.11473417e-002 3.31126243e-001 3.31126243e-001
      1.45215154e-001 4.24299128e-002 2.21484497e-001 3.31126243e-001
      3.31126243e-001 2.94145066e-002 2.66437307e-002 4.81148530e-003
      3.09404641e-001 3.31126243e-001 3.31126243e-001 6.87210113e-002
      7.92018324e-002 2.20655829e-001</_>
    <_>
      2.27673352e-001 3.06340486e-001 2.40217984e-001 1.19119927e-001
      1.14057660e-001 3.06340486e-001 2.25530252e-001 6.60607964e-002
      5.82222566e-002 1.57060370e-001 2.61978149e-001 1.84937134e-001
      2.83268690e-001 3.06340486e-001 3.06340486e-001 3.06340486e-001
      1.00759596e-001 6.33568540e-002 1.28863186e-001 3.06340486e-001
      3.45890671e-001 2.61589549e-002 2.10414175e-002 3.97157520e-002
      3.45890671e-001 3.45890671e-001 1.13014858e-002 4.52826023e-002
      9.32713784e-003 3.45890671e-001 3.45890671e-001 2.46349815e-002
      5.39324544e-002 1.03835352e-001 3.45890671e-001 3.45890671e-001
      1.45949768e-002 1.00257486e-001 9.94465351e-002 3.45890671e-001
      2.25501344e-001 4.97799106e-002 5.70728779e-002 3.14341784e-002
      3.05648237e-001 2.70110488e-001 3.05648237e-001 3.05648237e-001
      1.83129549e-001 3.05648237e-001 3.05648237e-001 1.20901898e-001
      6.11491837e-002 1.64323263e-002 1.99021354e-001 3.05648237e-001
      3.05648237e-001 3.05648237e-001 3.48504446e-002 1.61425501e-001</_>
    <_>
      3.28288913e-001 2.22820148e-001 1.82569712e-001 3.53232473e-002
      1.27118394e-001 3.28288913e-001 8.54978934e-002 2.88090073e-002
      1.10342139e-002 2.99356997e-001 3.28288913e-001 7.36605674e-002
      3.12380761e-001 2.14458227e-001 3.28288913e-001 3.28288913e-001
      1.20245973e-002 3.88986319e-002 3.40144709e-002 3.28288913e-001
      3.50795507e-001 6.16193116e-002 1.19779976e-002 1.59447491e-002
      3.50795507e-001 3.50795507e-001 8.39052051e-002 1.98641177e-002
      5.30609712e-002 3.50795507e-001 3.50795507e-001 6.17959797e-002
      1.34346467e-002 1.39947021e-002 3.50795507e-001 3.50795507e-001
      2.30187431e-001 1.66610461e-002 3.19872051e-002 2.49330968e-001
      2.58314222e-001 5.32712042e-002 4.46811467e-002 8.21560174e-002
      2.99152583e-001 2.25059345e-001 2.43641123e-001 2.96299011e-001
      2.92986184e-001 2.99152583e-001 2.99152583e-001 2.05611572e-001
      5.40093668e-002 4.12321165e-002 1.49596468e-001 2.99152583e-001
      2.99152583e-001 2.99152583e-001 8.63227174e-002 1.46206856e-001</_>
    <_>
      3.28827173e-001 2.85405338e-001 1.15641989e-001 8.03165734e-002
      1.49566203e-001 3.28827173e-001 4.36709858e-002 2.80381665e-002
      1.19039752e-002 3.28677297e-001 2.90228963e-001 1.02531567e-001
      1.91560745e-001 2.94830412e-001 3.28827173e-001 3.28827173e-001
      2.69587357e-002 3.43794003e-002 3.59060466e-002 3.28827173e-001
      3.55291605e-001 0. 1.17193740e-002 3.47587396e-003 3.29949319e-001
      3.55291605e-001 0. 5.73585369e-003 2.44307071e-002 3.55291605e-001
      3.55291605e-001 2.88832914e-002 2.09001862e-002 2.08552461e-003
      3.55291605e-001 3.55291605e-001 2.89198291e-002 2.92044543e-002
      1.46584241e-002 3.55291605e-001 3.72975707e-001 1.36381714e-003
      3.70830810e-003 1.08580198e-002 3.72975707e-001 3.72975707e-001
      7.89458826e-002 5.79310581e-002 4.32251543e-002 3.72975707e-001
      3.72975707e-001 1.66831911e-002 2.32825577e-002 6.51481189e-003
      2.48775482e-001 3.72975707e-001 1.98283389e-001 4.94817756e-002
      1.12557411e-002 2.13013053e-001</_>
    <_>
      3.28097761e-001 3.22430491e-001 1.11308202e-001 9.22344849e-002
      8.94346982e-002 3.28097761e-001 6.81485906e-002 2.25300007e-002
      1.90782994e-002 2.55496860e-001 2.99672544e-001 1.12300411e-001
      1.96833089e-001 3.28097761e-001 3.28097761e-001 3.28097761e-001
      2.18081735e-002 2.90839635e-002 6.85708150e-002 3.28097761e-001
      3.55264068e-001 4.73125326e-003 1.17193367e-002 8.99557676e-003
      3.49303663e-001 3.55264068e-001 2.34061554e-002 1.74851082e-002
      2.00573895e-002 3.55264068e-001 3.55264068e-001 9.27037653e-003
      4.06681225e-002 1.15978941e-002 3.27903867e-001 3.55264068e-001
      3.56467590e-002 6.70762956e-002 2.23686788e-002 3.55264068e-001
      3.70513320e-001 2.05584131e-002 2.11959481e-002 9.22612846e-003
      3.09904486e-001 3.70513320e-001 1.04731537e-001 9.35081318e-002
      5.71562685e-002 3.70513320e-001 3.70513320e-001 2.21077837e-002
      2.92938463e-002 6.22777408e-003 2.99018353e-001 3.70513320e-001
      1.78406030e-001 6.62990287e-002 9.44201183e-003 2.50618041e-001</_>
    <_>
      3.06799501e-001 3.06799501e-001 2.26007476e-001 6.65413439e-002
      9.73592624e-002 3.06799501e-001 1.09210879e-001 4.88764904e-002
      2.33033467e-002 2.45619297e-001 2.69625217e-001 1.43177360e-001
      3.06799501e-001 3.06799501e-001 3.06799501e-001 3.06799501e-001
      5.44626005e-002 6.36932477e-002 5.94364293e-002 3.06799501e-001
      3.86270970e-001 2.96850111e-002 1.96090117e-002 3.25547508e-003
      2.61546344e-001 3.86270970e-001 2.14354098e-002 5.25466129e-002
      4.74776961e-002 3.86270970e-001 3.86270970e-001 4.89218011e-002
      2.07556430e-002 3.76738049e-003 2.78178483e-001 3.86270970e-001
      1.18477099e-001 7.36008435e-002 2.42616087e-002 2.73299992e-001
      2.22935751e-001 1.07531361e-001 1.05928414e-001 1.25238553e-001
      2.60706842e-001 1.51888296e-001 3.09233099e-001 2.93367058e-001
      2.72614658e-001 2.50200242e-001 3.09233099e-001 3.09233099e-001
      1.15980916e-001 3.10772285e-002 8.98463801e-002 3.09233099e-001
      3.09233099e-001 2.90281713e-001 3.43546644e-002 9.30638760e-002</_>
    <_>
      3.26872528e-001 3.26872528e-001 1.52755365e-001 1.31136775e-001
      8.16640109e-002 3.26872528e-001 1.42909020e-001 3.49252634e-002
      3.92592810e-002 1.65498078e-001 1.91782653e-001 1.47895530e-001
      2.41302341e-001 3.26872528e-001 3.26872528e-001 3.26872528e-001
      4.36107181e-002 5.71077466e-002 1.70284703e-001 3.26872528e-001
      3.68173897e-001 1.93573851e-002 9.25657619e-003 5.10716171e-004
      2.06688210e-001 3.68173897e-001 1.83277130e-002 1.40487533e-002
      2.30314154e-002 3.68173897e-001 3.68173897e-001 6.93775062e-003
      3.38776521e-002 1.15849148e-003 3.68173897e-001 3.68173897e-001
      1.09966276e-002 3.56382504e-002 2.50018481e-002 3.68173897e-001
      3.70571584e-001 1.41764544e-002 2.68051736e-002 3.25198807e-002
      3.35213393e-001 3.70571584e-001 1.09461688e-001 5.27158417e-002
      1.10672131e-001 3.70571584e-001 3.70571584e-001 4.33126837e-002
      3.16670164e-002 2.97019668e-002 2.56996423e-001 3.70571584e-001
      2.70790875e-001 6.37267083e-002 1.92991532e-002 1.44074827e-001</_>
    <_>
      3.17971349e-001 3.17971349e-001 1.81244865e-001 1.16815582e-001
      9.35172215e-002 3.17971349e-001 1.09329753e-001 2.80062389e-002
      3.26274894e-002 3.17971349e-001 1.18081890e-001 1.24939509e-001
      2.73637027e-001 3.17971349e-001 3.17971349e-001 3.17971349e-001
      4.52130698e-002 4.26319875e-002 1.03157498e-001 3.17971349e-001
      3.51516962e-001 1.08219124e-002 8.37378111e-003 5.01358835e-003
      3.51516962e-001 3.51516962e-001 2.11130083e-002 2.60072220e-002
      5.02020791e-002 3.51516962e-001 3.51516962e-001 1.24213565e-002
      1.52002051e-002 8.35598074e-003 3.51516962e-001 3.51516962e-001
      1.96614470e-002 2.92953830e-002 4.91892025e-002 3.51516962e-001
      1.58511057e-001 2.35591233e-002 6.73119277e-002 2.45047122e-001
      2.93311357e-001 7.11309761e-002 7.01330379e-002 2.56652743e-001
      2.93311357e-001 2.93311357e-001 2.93311357e-001 1.34025812e-001
      7.49833137e-002 1.06853910e-001 2.93311357e-001 2.93311357e-001
      2.93311357e-001 2.93311357e-001 2.85398364e-001 1.62026495e-001</_>
    <_>
      3.06557566e-001 3.06557566e-001 1.64721936e-001 1.46470204e-001
      8.91155973e-002 3.06557566e-001 2.11211622e-001 3.05865947e-002
      9.41515565e-002 2.17197239e-001 1.33678347e-001 1.92823991e-001
      2.42926016e-001 3.06557566e-001 3.06557566e-001 3.06557566e-001
      1.37666151e-001 3.78990993e-002 2.15704054e-001 3.06557566e-001
      3.57807368e-001 4.43839394e-002 1.70502327e-002 5.40782847e-002
      2.79840291e-001 3.57807368e-001 2.53695063e-002 2.26348750e-002
      3.06793079e-002 3.57807368e-001 3.57807368e-001 8.46566558e-002
      1.99269522e-002 4.69787009e-002 3.57807368e-001 3.57807368e-001
      2.45366823e-002 5.88659570e-002 2.84855906e-002 3.57807368e-001
      2.73888201e-001 6.68988824e-002 7.32853189e-002 7.84922615e-002
      2.87454456e-001 2.45420724e-001 2.97569484e-001 2.97569484e-001
      2.84869343e-001 2.39503622e-001 2.97569484e-001 1.51969820e-001
      7.61849433e-002 2.06146110e-002 2.07685366e-001 2.97569484e-001
      2.97569484e-001 2.97569484e-001 7.95914158e-002 1.20636977e-001</_>
    <_>
      3.33080977e-001 3.33080977e-001 1.66509256e-001 3.55829597e-002
      7.54467770e-002 3.33080977e-001 1.11217417e-001 3.50676961e-002
      8.62471946e-003 1.83655187e-001 2.56048292e-001 1.22712500e-001
      3.18733931e-001 2.49351785e-001 3.33080977e-001 3.33080977e-001
      3.90631407e-002 4.65942696e-002 2.90568098e-002 3.33080977e-001
      3.83180737e-001 2.13822350e-002 2.01158151e-002 1.57739799e-002
      2.40504906e-001 3.83180737e-001 3.39478180e-002 2.99634915e-002
      1.75997335e-002 3.31515938e-001 3.83180737e-001 2.44811270e-002
      1.01335496e-002 8.73185601e-003 3.45734715e-001 3.83180737e-001
      4.02343571e-002 2.50889882e-002 1.05598401e-002 3.39080155e-001
      3.48659575e-001 2.80815326e-002 2.77587511e-002 1.14035364e-002
      3.48659575e-001 3.48659575e-001 1.33511573e-001 9.39285457e-002
      1.30190909e-001 3.48659575e-001 3.48659575e-001 5.07090390e-002
      3.42411362e-002 2.03720457e-003 2.25608662e-001 3.48659575e-001
      3.48659575e-001 8.65453854e-002 1.64255593e-002 1.94622934e-001</_>
    <_>
      3.05510581e-001 3.08046609e-001 9.93690491e-002 1.59097195e-001
      1.39292076e-001 3.47308367e-001 1.21541187e-001 3.50846052e-002
      4.71308231e-002 3.47308367e-001 9.42028686e-002 1.06771700e-001
      1.70803040e-001 3.47308367e-001 3.47308367e-001 2.11410448e-001
      6.29741028e-002 6.27629161e-002 1.74140006e-001 3.47308367e-001
      3.50193828e-001 6.13899715e-002 3.04980110e-002 6.44327374e-003
      3.50193828e-001 3.50193828e-001 3.61107290e-002 2.35495139e-002
      8.13633017e-003 3.50193828e-001 3.50193828e-001 4.72782478e-002
      5.96250296e-002 2.85509843e-002 3.50193828e-001 3.50193828e-001
      2.56639626e-002 3.72873843e-002 9.79085919e-003 3.50193828e-001
      2.00070798e-001 1.52573138e-002 3.33931260e-002 5.73670231e-002
      3.08938086e-001 1.20922230e-001 6.42857552e-002 2.39405811e-001
      3.08938086e-001 3.08938086e-001 3.08938086e-001 5.29593043e-002
      2.94371061e-002 2.19426453e-002 3.08938086e-001 3.08938086e-001
      3.08938086e-001 3.08938086e-001 1.76826254e-001 2.77873695e-001</_>
    <_>
      3.23386192e-001 2.50444323e-001 1.88725039e-001 3.42747234e-002
      9.82379317e-002 3.23386192e-001 6.03859723e-002 3.42445187e-002
      9.60723963e-003 2.80482769e-001 2.97965437e-001 9.36314315e-002
      3.23386192e-001 2.69576639e-001 3.23386192e-001 3.23386192e-001
      1.78697016e-002 4.70265634e-002 6.16232380e-002 3.23386192e-001
      3.56881469e-001 5.73512912e-003 9.74766631e-003 1.79370574e-004
      3.22223157e-001 3.56881469e-001 3.37084266e-003 2.91346037e-003
      2.56243657e-005 3.56881469e-001 3.56881469e-001 0. 1.86884813e-002
      2.98950938e-004 3.56881469e-001 3.56881469e-001 1.31577370e-003
      2.35998463e-002 4.27072773e-005 3.56881469e-001 3.64885151e-001
      4.81652981e-003 2.76334793e-003 5.99962752e-003 3.64885151e-001
      3.64885151e-001 5.36847301e-002 1.64268930e-002 1.04720555e-001
      3.64885151e-001 3.64885151e-001 2.00966317e-002 2.13100296e-002
      3.65949911e-003 3.02676082e-001 3.64885151e-001 1.99264213e-001
      4.76686656e-002 4.58955616e-002 2.16225177e-001</_>
    <_>
      3.12168986e-001 3.12168986e-001 1.50546253e-001 4.83525135e-002
      1.77871108e-001 3.12168986e-001 7.58662224e-002 8.43596086e-002
      2.74569504e-002 3.12168986e-001 2.55007356e-001 1.16874151e-001
      2.63802171e-001 2.77047664e-001 3.12168986e-001 3.12168986e-001
      4.35145237e-002 1.19055085e-001 5.80099076e-002 3.12168986e-001
      3.74046057e-001 7.76871480e-003 4.51894775e-002 1.19864382e-002
      2.95687705e-001 3.74046057e-001 1.05751492e-003 1.28495293e-002
      6.42379001e-003 3.44802588e-001 3.74046057e-001 1.56243658e-002
      6.14121370e-002 1.02774715e-002 2.87020802e-001 3.74046057e-001
      2.42577330e-003 3.75577249e-002 4.29507578e-003 3.74046057e-001
      2.89829344e-001 2.08480842e-002 3.10962088e-002 3.65027674e-002
      2.89829344e-001 2.12224200e-001 2.10544482e-001 2.89829344e-001
      2.30624184e-001 2.89829344e-001 2.89829344e-001 6.14616573e-002
      5.50026000e-002 1.47876041e-002 2.89829344e-001 2.89829344e-001
      2.89829344e-001 2.89829344e-001 6.91537932e-002 2.89829344e-001</_>
    <_>
      3.22538465e-001 3.22538465e-001 7.34431818e-002 4.56190258e-002
      5.28212413e-002 3.22538465e-001 2.18856201e-001 2.05034558e-002
      1.05458628e-002 1.95512787e-001 2.28180394e-001 2.63095111e-001
      1.52499124e-001 3.22538465e-001 3.22538465e-001 3.22538465e-001
      1.43926203e-001 3.28279659e-002 7.28419498e-002 3.22538465e-001
      3.52739066e-001 4.49101068e-002 1.37976538e-002 2.07730941e-003
      3.42436314e-001 3.52739066e-001 1.96313597e-002 1.81671232e-002
      1.24638574e-003 3.52739066e-001 3.52739066e-001 3.11608147e-002
      2.90818885e-002 0. 3.52739066e-001 3.52739066e-001 2.96469294e-002
      5.09995855e-002 3.73424753e-003 3.52739066e-001 3.22984397e-001
      1.33600552e-002 1.17087923e-002 1.07655469e-002 3.22984397e-001
      3.22984397e-001 1.67433351e-001 3.49779725e-002 2.44101107e-001
      3.22984397e-001 3.22984397e-001 4.70856279e-002 4.26933356e-002
      7.34253554e-003 3.22984397e-001 3.22984397e-001 3.22984397e-001
      7.31424838e-002 8.28241780e-002 2.37999454e-001</_>
    <_>
      3.40755016e-001 2.83471823e-001 1.05058402e-001 6.47481382e-002
      9.96261165e-002 3.40755016e-001 6.84426799e-002 2.54412219e-002
      1.95065066e-002 2.86934525e-001 3.26944172e-001 9.64835137e-002
      1.70800388e-001 2.73184747e-001 3.40755016e-001 3.40755016e-001
      1.98940802e-002 2.86136512e-002 3.53819616e-002 3.40755016e-001
      3.52586955e-001 7.37807830e-004 8.82161781e-003 8.06027930e-003
      3.52586955e-001 3.52586955e-001 0. 8.81639216e-003 1.20366004e-003
      3.52586955e-001 3.52586955e-001 3.41153151e-004 2.51877792e-002
      4.67100227e-003 3.52586955e-001 3.52586955e-001 1.65026437e-003
      3.24747451e-002 7.22196070e-004 3.52586955e-001 3.67112994e-001
      1.20848906e-003 5.15616313e-003 4.03701281e-003 3.67112994e-001
      3.67112994e-001 6.17117211e-002 6.68872148e-002 7.35535473e-002
      3.67112994e-001 3.67112994e-001 7.43007846e-003 2.11052317e-002
      1.54461374e-003 2.74354011e-001 3.67112994e-001 1.81836143e-001
      6.66623637e-002 2.08508149e-002 2.45454147e-001</_>
    <_>
      3.05569053e-001 3.05569053e-001 1.60493910e-001 1.38523355e-001
      6.61536679e-002 3.05569053e-001 2.09181428e-001 9.18047875e-002
      4.75226529e-002 1.18956685e-001 2.11871877e-001 1.67520687e-001
      3.05569053e-001 3.05569053e-001 3.05569053e-001 3.05569053e-001
      7.96149001e-002 1.54188052e-001 1.70247331e-001 3.05569053e-001
      3.53073716e-001 9.92626399e-002 5.03110103e-002 8.56619030e-002
      2.22406477e-001 3.53073716e-001 1.33544385e-001 5.40231839e-002
      6.36651069e-002 3.53073716e-001 3.53073716e-001 9.14090723e-002
      4.97965030e-002 3.67711261e-002 3.53073716e-001 3.53073716e-001
      1.23899341e-001 2.99826525e-002 3.76146100e-002 3.53073716e-001
      2.81660408e-001 7.74234086e-002 4.32112142e-002 3.68247256e-002
      2.53422618e-001 2.00864121e-001 3.05628181e-001 2.16560125e-001
      2.28674546e-001 3.05628181e-001 3.05628181e-001 1.41199857e-001
      3.40997353e-002 2.17189956e-002 2.82477140e-001 3.05628181e-001
      3.05628181e-001 2.41587296e-001 1.20637275e-001 2.51614988e-001</_>
    <_>
      3.07764739e-001 3.07764739e-001 1.55595824e-001 6.99339285e-002
      1.08137608e-001 3.07764739e-001 9.37465131e-002 3.72721031e-002
      1.75695159e-002 3.07764739e-001 2.44942829e-001 1.39389277e-001
      3.07764739e-001 3.07764739e-001 3.07764739e-001 3.07764739e-001
      4.45314907e-002 6.50785863e-002 8.67583826e-002 3.07764739e-001
      3.46183032e-001 4.56020385e-002 1.25811398e-002 3.31710577e-002
      3.46183032e-001 3.46183032e-001 6.97369948e-002 1.89009104e-002
      6.66773617e-002 3.46183032e-001 3.46183032e-001 6.95685595e-002
      1.37723954e-002 1.85143929e-002 3.46183032e-001 3.46183032e-001
      1.33122012e-001 2.01251563e-002 3.60081904e-002 3.46183032e-001
      2.06985235e-001 6.98113889e-002 4.81526405e-002 1.28052726e-001
      3.00487012e-001 1.60424963e-001 1.64146364e-001 2.85013348e-001
      3.00487012e-001 3.00487012e-001 3.00487012e-001 1.91303924e-001
      7.13696629e-002 5.12799062e-002 1.95204124e-001 3.00487012e-001
      3.00487012e-001 3.00487012e-001 1.72056809e-001 2.29294747e-001</_>
    <_>
      2.97508508e-001 2.97508508e-001 1.81012422e-001 9.54525843e-002
      9.07073244e-002 2.97508508e-001 1.70749933e-001 4.22123224e-002
      6.25517070e-002 2.61885792e-001 2.59319633e-001 2.21087486e-001
      2.97508508e-001 2.97508508e-001 2.97508508e-001 2.97508508e-001
      1.01391107e-001 5.80334552e-002 7.49893561e-002 2.97508508e-001
      3.48162651e-001 6.89508319e-002 4.03157808e-002 7.76306987e-002
      3.10271084e-001 3.48162651e-001 1.14705376e-001 6.26308247e-002
      3.91031727e-002 3.48162651e-001 3.48162651e-001 7.90997148e-002
      3.27071138e-002 5.59885390e-002 3.32440615e-001 3.48162651e-001
      1.19068496e-001 6.85718730e-002 4.55787703e-002 3.48162651e-001
      2.95510203e-001 1.74178198e-001 8.21182802e-002 4.25267294e-002
      2.08653331e-001 2.95304269e-001 3.22933674e-001 2.48616144e-001
      1.64450765e-001 2.34428510e-001 3.22933674e-001 3.22933674e-001
      7.45585859e-002 8.76398385e-003 1.70196533e-001 3.22933674e-001
      3.22933674e-001 1.54215306e-001 1.50653217e-002 1.26343995e-001</_>
    <_>
      3.04052204e-001 3.04052204e-001 2.51194745e-001 1.73660547e-001
      1.07246965e-001 3.04052204e-001 1.19722709e-001 5.28293438e-002
      5.26153892e-002 3.04052204e-001 1.40502632e-001 1.06156647e-001
      2.63287902e-001 3.04052204e-001 3.04052204e-001 3.04052204e-001
      8.85912701e-002 5.49364164e-002 1.46735132e-001 3.04052204e-001
      3.08777779e-001 1.70907993e-002 2.00461093e-002 4.12043072e-002
      3.55375618e-001 3.55375618e-001 2.40669064e-002 1.70175415e-002
      7.68469051e-002 3.55375618e-001 3.55375618e-001 2.58659292e-002
      2.82835141e-002 3.61188352e-002 3.55375618e-001 3.55375618e-001
      4.01115082e-002 2.66646594e-002 5.29458970e-002 3.55375618e-001
      2.45207116e-001 4.20218594e-002 5.49300127e-002 9.45534185e-002
      2.98707336e-001 1.65524229e-001 1.62868202e-001 2.98707336e-001
      2.98707336e-001 2.98707336e-001 2.98707336e-001 1.41698942e-001
      5.33580370e-002 4.50545773e-002 2.98707336e-001 2.98707336e-001
      2.98707336e-001 2.98707336e-001 1.27971858e-001 1.57714516e-001</_>
    <_>
      3.14125121e-001 3.14125121e-001 2.40885168e-001 1.41010344e-001
      1.02574259e-001 3.14125121e-001 7.51869455e-002 4.52561043e-002
      3.91148627e-002 2.95295596e-001 1.01765819e-001 9.21512991e-002
      2.82901675e-001 3.14125121e-001 3.14125121e-001 3.14125121e-001
      2.41202228e-002 5.66782318e-002 1.36388198e-001 3.14125121e-001
      3.49940777e-001 2.35095378e-002 3.18084508e-002 2.71008201e-002
      3.49940777e-001 3.49940777e-001 4.09397930e-002 2.32329536e-002
      5.48807606e-002 3.49940777e-001 3.49940777e-001 1.67744178e-002
      2.64013745e-002 4.21033874e-002 3.49940777e-001 3.49940777e-001
      5.17654605e-002 3.10143065e-002 5.39982431e-002 3.49940777e-001
      1.72243863e-001 4.96914051e-002 5.70264198e-002 1.11154407e-001
      3.10812831e-001 1.14510171e-001 1.59823149e-001 3.10812831e-001
      3.10812831e-001 3.10812831e-001 3.10812831e-001 1.57129690e-001
      7.00873062e-002 4.07688916e-002 2.66543090e-001 3.10812831e-001
      3.10812831e-001 3.10812831e-001 1.44244224e-001 1.20587192e-001</_>
    <_>
      1.58817202e-001 3.53797853e-001 1.40862048e-001 4.25436022e-003
      1.41416788e-002 2.76683718e-001 3.53797853e-001 2.03897059e-001
      2.58282805e-003 3.78205776e-002 2.87363410e-001 3.53797853e-001
      2.68437266e-001 2.97805183e-002 6.07118420e-002 3.53797853e-001
      3.53797853e-001 1.47450194e-001 1.78726278e-002 1.56468377e-001
      3.35593015e-001 3.61502051e-001 1.26057655e-001 1.43258937e-003
      1.05921596e-001 3.61502051e-001 1.56677783e-001 3.48785073e-002
      3.81829552e-002 1.81686550e-001 3.61502051e-001 1.20621331e-001
      4.78651524e-002 1.11206225e-003 3.43044549e-001 3.61502051e-001
      6.78846166e-002 2.81195976e-002 5.55166006e-002 3.61502051e-001
      3.18676859e-001 3.69888879e-002 2.98277661e-002 4.05233055e-002
      1.99084714e-001 3.71135920e-001 4.92683332e-003 5.15125096e-002
      3.37393135e-002 3.71135920e-001 3.71135920e-001 4.13361527e-002
      2.06543468e-002 4.70734052e-002 3.71135920e-001 3.71135920e-001
      1.14771433e-001 4.78353985e-002 3.35124992e-002 3.71135920e-001</_>
    <_>
      2.45844528e-001 2.94135064e-001 1.72774166e-001 4.33212444e-002
      2.40517687e-002 2.75470376e-001 2.94135064e-001 2.94135064e-001
      2.29748394e-002 9.53518376e-002 2.94135064e-001 2.94135064e-001
      2.74043888e-001 9.96442065e-002 8.61342251e-002 2.94135064e-001
      2.94135064e-001 1.90519169e-001 4.94099297e-002 2.86384970e-001
      4.03842360e-001 2.22479224e-001 1.75912112e-001 1.31453900e-002
      9.94997919e-002 4.03842360e-001 3.87174822e-002 3.74427922e-002
      1.23168211e-002 1.30152687e-001 4.03842360e-001 7.56053552e-002
      4.86063175e-002 3.39907780e-003 2.97647744e-001 4.03842360e-001
      3.34813483e-002 4.04870994e-002 3.50909797e-003 3.65577251e-001
      3.93190116e-001 1.35735814e-002 7.95925409e-003 3.97515204e-003
      1.85625017e-001 3.93190116e-001 8.11630860e-003 3.99047276e-003
      4.24510596e-004 2.85806626e-001 3.93190116e-001 1.67961307e-002
      1.75348856e-002 3.39271105e-003 3.25300485e-001 3.93190116e-001
      8.94194283e-003 9.51012224e-003 4.84672986e-004 3.93190116e-001</_>
    <_>
      2.11129472e-001 3.26415092e-001 1.64415509e-001 1.49527686e-002
      7.21835047e-002 3.26415092e-001 3.26415092e-001 1.41395628e-001
      1.43884411e-002 1.10793777e-001 2.34557852e-001 3.26415092e-001
      2.66066164e-001 4.55280952e-002 2.29774356e-001 3.26415092e-001
      2.30271995e-001 1.16780564e-001 2.44932249e-002 3.26415092e-001
      3.98143470e-001 2.04708472e-001 6.96671456e-002 7.00076297e-003
      1.12217337e-001 3.98143470e-001 4.41223048e-002 3.46320681e-002
      2.49681380e-002 2.18915299e-001 3.98143470e-001 3.56541313e-002
      2.92656794e-002 4.36103903e-003 2.98588037e-001 3.98143470e-001
      1.99691020e-002 2.51223296e-002 2.41423631e-003 3.98143470e-001
      3.70941937e-001 1.99384950e-002 7.52064073e-003 2.30881926e-002
      2.42898911e-001 3.70941937e-001 9.43855383e-003 4.30498738e-003
      1.01900408e-002 3.27231973e-001 3.70941937e-001 3.49813327e-002
      1.75862368e-002 2.67321942e-003 3.70941937e-001 3.70941937e-001
      2.70462781e-002 1.35409571e-002 3.11819427e-002 3.70941937e-001</_>
    <_>
      1.60651520e-001 3.51453632e-001 1.08414702e-001 1.26190586e-002
      2.58000903e-002 2.00018778e-001 3.51453632e-001 2.53700674e-001
      9.94856562e-003 1.12936765e-001 2.41151005e-001 3.51453632e-001
      1.82935193e-001 8.83334130e-002 1.14300027e-001 3.51453632e-001
      3.51453632e-001 1.64201796e-001 4.77759168e-002 2.85563231e-001
      2.83369184e-001 2.73422301e-001 1.63054124e-001 9.27599706e-003
      1.87182352e-001 3.77985686e-001 6.12893812e-002 4.04836386e-002
      8.78237560e-003 1.47460297e-001 3.77985686e-001 9.92321074e-002
      6.65540397e-002 3.03911371e-003 3.77985686e-001 3.77985686e-001
      1.49588659e-001 3.47786509e-002 1.05861726e-003 3.77985686e-001
      3.95594031e-001 5.29312268e-002 9.18953773e-003 1.53081247e-003
      1.20363899e-001 3.95594031e-001 5.41526489e-002 8.82524718e-003
      9.92271770e-003 2.85487711e-001 3.95594031e-001 8.99008140e-002
      1.63192470e-002 3.50143039e-003 3.16882581e-001 3.95594031e-001
      3.73150222e-002 2.90858038e-002 2.39379946e-002 3.95594031e-001</_>
    <_>
      2.56203949e-001 3.37244600e-001 5.96978739e-002 2.24723555e-002
      2.93774735e-002 3.37244600e-001 3.37244600e-001 1.59193248e-001
      4.32210453e-002 9.97626930e-002 2.91473687e-001 3.37244600e-001
      1.56288221e-001 6.84369653e-002 6.96780756e-002 3.37244600e-001
      3.37244600e-001 1.18441127e-001 7.44248107e-002 2.60772973e-001
      3.30554485e-001 3.34767222e-001 2.50720978e-001 4.52616215e-002
      1.37607545e-001 3.34767222e-001 6.32864088e-002 1.34772226e-001
      4.19511609e-002 2.68745542e-001 3.34767222e-001 1.75513819e-001
      5.57675399e-002 2.81650200e-002 3.27740073e-001 3.34767222e-001
      3.71522754e-002 3.76098230e-002 4.61352095e-002 3.34767222e-001
      3.51987422e-001 5.80302859e-003 1.61724128e-002 1.73670501e-002
      3.46154571e-001 3.51987422e-001 1.35222962e-002 1.75020434e-002
      1.41200526e-002 3.51987422e-001 3.51987422e-001 1.76272839e-002
      4.63537946e-002 5.78482375e-002 3.49558234e-001 3.51987422e-001
      8.02920759e-003 4.39316034e-002 4.48653027e-002 3.51987422e-001</_>
    <_>
      2.07669809e-001 3.49688143e-001 7.19608516e-002 5.63527597e-003
      1.39475744e-002 1.34714857e-001 3.49688143e-001 2.95565754e-001
      3.13041173e-002 7.82264322e-002 2.23655537e-001 3.49688143e-001
      2.19816357e-001 2.82188356e-002 7.31591806e-002 3.49688143e-001
      3.49688143e-001 1.79939225e-001 7.21552223e-002 2.86155581e-001
      1.30093843e-001 3.51481766e-001 3.21549416e-001 4.64393049e-002
      1.93994597e-001 3.27413797e-001 6.13846183e-002 8.22324306e-002
      4.03574444e-002 2.28228137e-001 3.51481766e-001 1.86032385e-001
      8.09106305e-002 4.60282266e-002 3.51481766e-001 3.51481766e-001
      1.73779372e-002 3.23261656e-002 5.11372387e-002 3.51481766e-001
      3.91752064e-001 2.50773784e-002 1.87931489e-002 1.44041032e-002
      1.42488003e-001 3.91752064e-001 3.27326842e-002 8.06678906e-002
      3.64069976e-002 1.93071008e-001 3.91752064e-001 2.37071421e-002
      2.75763441e-002 2.12741494e-002 3.91752064e-001 3.91752064e-001
      5.57978861e-002 5.19385226e-002 3.03754141e-003 3.91752064e-001</_>
    <_>
      3.21089923e-001 3.31253082e-001 6.44569993e-002 2.30284780e-003
      3.29166129e-002 3.31253082e-001 3.31253082e-001 1.42693788e-001
      2.38583479e-002 6.88744485e-002 2.31342629e-001 3.31253082e-001
      2.58325696e-001 1.74529664e-002 9.89516601e-002 3.31253082e-001
      3.31253082e-001 1.76361501e-001 4.67963368e-002 2.01645687e-001
      3.24406743e-001 3.55779618e-001 1.95856780e-001 2.54032910e-002
      1.19453683e-001 3.55779618e-001 9.80812088e-002 1.48438781e-001
      4.69447076e-002 2.63313979e-001 3.55779618e-001 1.41941711e-001
      4.58569750e-002 2.93209516e-002 2.67317384e-001 3.55779618e-001
      6.88892156e-002 4.75881808e-002 1.62674338e-002 3.55779618e-001
      3.71945351e-001 3.43175195e-002 2.75902487e-002 2.45942753e-002
      1.74410626e-001 3.71945351e-001 1.61286127e-002 7.57121900e-003
      1.09021571e-002 3.49187016e-001 3.71945351e-001 4.59892675e-002
      2.08293945e-002 1.40873687e-002 3.71945351e-001 3.71945351e-001
      3.07375249e-002 5.62178269e-002 6.35658354e-002 3.71945351e-001</_>
    <_>
      2.73479193e-001 3.49159837e-001 5.49209788e-002 6.54249173e-003
      9.73496493e-003 3.49159837e-001 3.49159837e-001 1.45356953e-001
      4.00509760e-002 2.98992917e-002 2.49477834e-001 3.49159837e-001
      1.97377905e-001 8.18103477e-002 5.32901809e-002 3.49159837e-001
      3.49159837e-001 8.00637305e-002 1.03860870e-001 1.88512728e-001
      3.08756590e-001 3.40012074e-001 2.91302800e-001 5.69335110e-002
      9.58577394e-002 2.27211982e-001 1.31294295e-001 2.39260271e-001
      3.15760896e-002 2.05460697e-001 3.40012074e-001 2.27146015e-001
      3.08061354e-002 3.16282362e-002 3.40012074e-001 3.40012074e-001
      4.00958508e-002 3.68482545e-002 1.06512466e-002 3.40012074e-001
      2.69537657e-001 1.70703474e-002 5.34198433e-002 6.44673221e-003
      2.17522100e-001 4.01378930e-001 2.87119634e-002 2.65363790e-002
      5.19803772e-003 2.52097607e-001 4.01378930e-001 5.77287702e-003
      1.89582668e-002 2.76237587e-003 4.01378930e-001 4.01378930e-001
      1.19990828e-002 4.07289006e-002 0. 4.01378930e-001</_>
    <_>
      2.76676685e-001 3.24625880e-001 1.22144572e-001 1.00300722e-002
      6.02874942e-002 3.24625880e-001 3.24625880e-001 1.58508629e-001
      9.01394617e-003 1.51956558e-001 3.24625880e-001 3.24625880e-001
      1.93300128e-001 5.92713580e-002 1.71324074e-001 3.24625880e-001
      1.99180931e-001 6.90081194e-002 3.02651022e-002 3.24625880e-001
      3.04718614e-001 1.83702379e-001 1.10440418e-001 2.82404572e-002
      2.42298841e-001 3.63528609e-001 1.40355499e-002 4.03658301e-002
      4.08581607e-002 3.63528609e-001 3.63528609e-001 2.61909701e-002
      2.54645981e-002 7.15134619e-003 3.63528609e-001 3.63528609e-001
      5.37270331e-004 1.54118510e-002 5.23251342e-003 3.63528609e-001
      3.65781426e-001 1.03521449e-002 1.61808860e-002 1.45637011e-002
      2.41792858e-001 3.65781426e-001 1.64645575e-002 1.22697260e-002
      1.25846639e-002 3.65781426e-001 3.65781426e-001 1.25431665e-003
      8.86080414e-003 1.20314700e-003 3.65781426e-001 3.65781426e-001
      2.82343896e-003 7.67570967e-003 2.66089319e-005 3.65781426e-001</_>
    <_>
      3.14926565e-001 3.14926565e-001 1.14648543e-001 1.02333529e-002
      4.93565612e-002 3.14926565e-001 3.14926565e-001 1.57941371e-001
      3.32008116e-002 1.13128372e-001 3.14926565e-001 3.14926565e-001
      2.34327346e-001 1.70555878e-002 1.97725490e-001 3.14926565e-001
      2.12681517e-001 8.89430642e-002 3.81131135e-002 3.14926565e-001
      3.31660867e-001 2.28341356e-001 1.99666962e-001 4.23996933e-002
      2.13101685e-001 3.46787900e-001 4.71069403e-002 1.05848268e-001
      4.48000170e-002 3.46787900e-001 3.46787900e-001 4.81375903e-002
      3.04123573e-002 1.85079388e-002 3.46787900e-001 3.46787900e-001
      7.95384645e-002 1.88594926e-002 7.18706660e-003 3.46787900e-001
      3.60481411e-001 1.28052905e-002 6.76524872e-003 1.26625113e-002
      2.75206268e-001 3.60481411e-001 1.81640387e-002 5.78315789e-003
      2.99971038e-003 3.60481411e-001 3.60481411e-001 4.63050343e-002
      6.84421649e-003 1.41880009e-003 3.60481411e-001 3.60481411e-001
      8.60875547e-002 2.61796433e-002 1.53834320e-004 3.60481411e-001</_>
    <_>
      3.12291890e-001 3.12291890e-001 1.27842277e-001 9.02912673e-003
      3.20901833e-002 3.12291890e-001 3.12291890e-001 2.01953888e-001
      6.74844394e-003 3.25253010e-002 3.00851673e-001 3.12291890e-001
      2.79205620e-001 6.72523156e-002 1.40391991e-001 3.12291890e-001
      3.12291890e-001 1.75125822e-001 3.85362469e-002 1.73198625e-001
      3.31300348e-001 3.09866786e-001 2.16614246e-001 4.35960218e-002
      1.26605242e-001 3.31300348e-001 6.24268912e-002 1.17579512e-001
      9.44847912e-002 3.31300348e-001 3.31300348e-001 2.16327906e-001
      5.29436469e-002 3.54351685e-003 2.75897175e-001 3.31300348e-001
      1.55231521e-001 2.61490829e-002 9.94328409e-003 3.31300348e-001
      3.76080632e-001 2.38846224e-002 1.61246024e-002 2.09760014e-002
      2.56103098e-001 3.76080632e-001 2.67683454e-002 3.62806534e-003
      1.47365173e-003 2.59492964e-001 3.76080632e-001 6.25147447e-002
      2.17316765e-002 2.54487852e-003 3.76080632e-001 3.76080632e-001
      8.93106535e-002 1.82183161e-002 6.56599441e-005 3.76080632e-001</_>
    <_>
      1.56768024e-001 3.10822457e-001 2.67768055e-001 1.19086064e-001
      1.19226366e-001 1.80109903e-001 2.53705561e-001 3.10822457e-001
      1.19205423e-001 3.10822457e-001 1.97273001e-001 1.69839948e-001
      1.77298963e-001 2.06141338e-001 3.10822457e-001 3.10822457e-001
      6.42026737e-002 1.47315279e-001 1.18435912e-001 3.10822457e-001
      2.77826309e-001 2.72697322e-002 1.08320430e-001 4.55833599e-002
      3.28793198e-001 3.63939464e-001 2.01610615e-003 9.49154329e-003
      8.33464880e-003 3.63939464e-001 3.63939464e-001 4.56496654e-003
      3.54316346e-002 1.22626331e-002 3.63939464e-001 3.63939464e-001 0.
      1.46592269e-002 3.59587691e-004 3.63939464e-001 2.37378985e-001
      1.97294969e-004 9.75366123e-003 3.86373810e-002 3.96688551e-001
      1.49379835e-001 0. 1.63912121e-002 9.41855907e-002 3.96688551e-001
      3.96688551e-001 3.03071849e-002 1.75790135e-002 1.01775099e-002
      3.96688551e-001 3.00622910e-001 1.09659903e-001 1.00945674e-001
      7.69199058e-002 3.96688551e-001</_>
    <_>
      2.41289526e-001 3.39697689e-001 7.52274692e-002 9.70119331e-003
      2.08526216e-002 3.39697689e-001 3.39697689e-001 1.72860503e-001
      7.96061940e-003 9.80266109e-002 2.48823866e-001 3.39697689e-001
      1.94088653e-001 6.79083541e-002 5.58144711e-002 3.39697689e-001
      3.39697689e-001 1.26622140e-001 3.00508421e-002 2.75735617e-001
      2.98158675e-001 3.39907169e-001 2.34427124e-001 1.57915913e-002
      1.75201759e-001 3.39907169e-001 1.42718464e-001 1.12410940e-001
      1.41228018e-002 1.40405521e-001 3.39907169e-001 1.75092354e-001
      9.09815133e-002 9.17277671e-003 3.39907169e-001 3.39907169e-001
      1.75325498e-001 7.66507909e-002 5.60805108e-003 3.39907169e-001
      4.05334383e-001 5.04689813e-002 8.56833719e-003 4.79252124e-003
      1.07645221e-001 4.05334383e-001 3.28219198e-002 5.37044182e-003
      2.16072635e-003 2.95076340e-001 4.05334383e-001 8.26320350e-002
      2.05781832e-002 1.23991849e-004 2.38819495e-001 4.05334383e-001
      8.65912214e-002 1.65657718e-002 7.11971370e-004 4.05334383e-001</_>
    <_>
      1.06474102e-001 3.09937626e-001 3.07892054e-001 9.81628448e-002
      1.57533139e-001 3.09937626e-001 3.09937626e-001 1.79602116e-001
      9.83961374e-002 3.09937626e-001 2.58202404e-001 8.49712864e-002
      1.92070067e-001 1.29399151e-001 3.09937626e-001 3.09937626e-001
      3.05362251e-002 9.05499980e-002 7.27512538e-002 3.09937626e-001
      2.61584997e-001 4.72472273e-002 5.22792749e-002 4.57072929e-002
      4.02481169e-001 8.14383551e-002 1.33967306e-003 2.67344378e-002
      1.27383947e-001 4.02481169e-001 4.02481169e-001 2.33201846e-003
      4.12008204e-002 2.39091236e-002 4.02481169e-001 2.72919893e-001
      1.45627940e-002 4.98690456e-002 8.66501480e-002 4.02481169e-001
      5.07500805e-002 0. 1.47250965e-002 1.02058642e-001 4.46256548e-001
      1.23514265e-001 4.85874945e-003 2.42765713e-002 4.73955162e-002
      4.46256548e-001 1.94574937e-001 1.47023574e-002 4.63311374e-002
      6.13977872e-002 4.46256548e-001 2.34915286e-001 2.61866604e-003
      9.82614011e-002 2.42487431e-001 4.46256548e-001</_>
    <_>
      1.22568861e-001 2.67459065e-001 3.03937525e-001 1.28609195e-001
      1.18223123e-001 1.84163079e-001 2.75404096e-001 2.87901700e-001
      1.31774992e-001 3.03937525e-001 3.03937525e-001 1.00592941e-001
      2.50156671e-001 1.31924614e-001 3.03937525e-001 3.03937525e-001
      3.69432457e-002 1.06520697e-001 1.13101400e-001 3.03937525e-001
      2.94599801e-001 4.68319580e-002 5.11795133e-002 1.61829870e-002
      3.59755725e-001 3.59755725e-001 1.10251242e-002 7.47450721e-003
      3.31794657e-003 3.49834174e-001 3.59755725e-001 1.83391420e-003
      4.01238948e-002 1.55951297e-002 3.59755725e-001 3.59755725e-001
      6.41115941e-004 5.85257858e-002 1.19330594e-002 3.59755725e-001
      3.63007665e-001 8.33829492e-003 4.66250209e-003 1.21689988e-002
      3.55619967e-001 2.05915287e-001 1.13465684e-003 1.29153319e-002
      1.29863828e-001 3.63007665e-001 3.63007665e-001 4.16824734e-003
      3.83487977e-002 7.60829123e-003 3.63007665e-001 3.32247764e-001
      2.90317498e-002 1.18660174e-001 1.56537250e-001 3.63007665e-001</_>
    <_>
      9.69527289e-002 2.92618573e-001 2.92618573e-001 1.12501457e-001
      8.45294818e-002 8.17995742e-002 2.92618573e-001 2.92618573e-001
      1.70012772e-001 2.92618573e-001 1.85803592e-001 9.92847681e-002
      2.92504609e-001 2.48881504e-001 2.92618573e-001 2.51891524e-001
      9.51603726e-002 1.70079976e-001 1.98962301e-001 2.92618573e-001
      2.12130934e-001 1.14129446e-001 1.97586879e-001 8.33038688e-002
      3.52367789e-001 3.55794042e-001 1.70739815e-001 6.88782856e-002
      3.36770602e-002 2.75941104e-001 3.55794042e-001 6.23161681e-002
      5.57564311e-002 4.25903313e-002 3.55794042e-001 3.55794042e-001
      1.14753276e-001 4.58973385e-002 8.66380055e-003 3.55794042e-001
      1.94885492e-001 5.04527204e-002 1.91559196e-002 9.12240669e-002
      3.75447035e-001 1.11744866e-001 3.29815298e-002 4.54489067e-002
      1.05439454e-001 4.03467238e-001 4.03467238e-001 2.75332667e-002
      4.05789763e-002 2.65140440e-002 4.03467238e-001 3.27501744e-001
      1.14434436e-002 5.80819659e-002 1.18421450e-001 4.03467238e-001</_>
    <_>
      1.90143004e-001 2.89383531e-001 2.89383531e-001 9.00446922e-002
      8.55299681e-002 1.49304390e-001 2.25831449e-001 2.89383531e-001
      1.61583900e-001 2.89383531e-001 2.89383531e-001 1.16601393e-001
      2.89383531e-001 1.47326291e-001 2.89383531e-001 2.89383531e-001
      4.79501188e-002 1.95800319e-001 1.28475875e-001 2.89383531e-001
      2.30452836e-001 2.28377823e-002 1.24322489e-001 8.64215940e-002
      3.61675054e-001 3.61675054e-001 5.62128145e-004 1.69448350e-002
      4.03012224e-002 3.61675054e-001 3.61675054e-001 3.79601074e-003
      2.92839706e-002 2.31330693e-002 3.61675054e-001 3.61675054e-001 0.
      2.90979594e-002 2.07042065e-003 3.61675054e-001 3.34793359e-001
      2.55976636e-002 1.23444078e-002 1.41641553e-002 3.34793359e-001
      3.34793359e-001 4.11036536e-002 3.90480235e-002 1.55204087e-001
      3.34793359e-001 3.34793359e-001 6.97852811e-003 1.06430110e-002
      2.79349997e-003 3.34793359e-001 3.34793359e-001 5.02385832e-002
      9.04319063e-002 2.46535406e-001 3.34793359e-001</_>
    <_>
      2.34363824e-001 2.80985773e-001 2.80985773e-001 5.64045087e-002
      7.35120848e-002 1.36575446e-001 2.70306796e-001 2.80985773e-001
      1.48587868e-001 2.45525271e-001 1.45024240e-001 2.67961919e-001
      2.80985773e-001 1.79116651e-001 1.95696771e-001 2.80985773e-001
      9.67589095e-002 2.80985773e-001 1.85341820e-001 2.80985773e-001
      1.99370578e-001 5.15376031e-002 2.25626498e-001 8.77229124e-002
      3.55324566e-001 3.55324566e-001 2.28378084e-002 2.42780410e-002
      1.82462633e-002 3.55324566e-001 3.55324566e-001 3.48804556e-002
      6.31300136e-002 3.99352275e-002 3.55324566e-001 3.55324566e-001
      4.98230420e-002 3.04754078e-002 1.31973636e-003 3.55324566e-001
      3.62128556e-001 2.00639926e-002 7.86943547e-003 0. 2.32433781e-001
      3.62128556e-001 1.00338366e-002 1.64081715e-002 3.30722593e-002
      3.62128556e-001 3.62128556e-001 2.39802282e-002 2.90566292e-002 0.
      3.62128556e-001 3.62128556e-001 6.20782338e-002 5.13341688e-002
      1.20667189e-001 3.62128556e-001</_>
    <_>
      1.85127825e-001 2.98204541e-001 2.55659103e-001 7.23763779e-002
      8.94709527e-002 2.55541354e-001 2.98204541e-001 2.98204541e-001
      5.76900430e-002 2.98204541e-001 2.61781752e-001 1.95515558e-001
      2.11178064e-001 1.24458887e-001 2.98204541e-001 2.98204541e-001
      1.05941847e-001 1.00533381e-001 6.97047859e-002 2.98204541e-001
      3.33372802e-001 7.27451295e-002 1.20781325e-001 3.00266631e-002
      3.18467975e-001 3.54983956e-001 5.21687344e-002 1.62343793e-002
      3.26487273e-002 3.54983956e-001 3.54983956e-001 1.13535877e-002
      1.76796652e-002 5.22470148e-003 3.54983956e-001 3.54983956e-001
      3.09882034e-003 2.83720214e-002 4.11861464e-002 3.54983956e-001
      2.88177520e-001 2.57901717e-002 2.01785713e-002 1.96490809e-002
      3.75062078e-001 1.65524498e-001 1.83395464e-002 2.18055472e-002
      1.03308387e-001 3.75062078e-001 3.75062078e-001 9.99514386e-003
      3.92825529e-002 5.52164018e-002 3.75062078e-001 3.36588591e-001
      4.58293855e-002 1.64865062e-001 1.49141550e-001 3.75062078e-001</_>
    <_>
      1.26164913e-001 3.01358879e-001 2.48120397e-001 3.03965732e-002
      5.22893481e-002 8.97295699e-002 3.01358879e-001 3.01358879e-001
      1.28516331e-001 1.46617830e-001 2.55263150e-001 3.01358879e-001
      2.53100961e-001 6.93512782e-002 3.01358879e-001 3.01358879e-001
      1.43587872e-001 2.24652439e-001 1.70144856e-001 3.01358879e-001
      1.71827704e-001 1.56723440e-001 3.15764695e-001 8.18587318e-002
      3.12215924e-001 2.85777301e-001 3.58611345e-002 1.00474007e-001
      5.06409444e-002 3.55307430e-001 3.55307430e-001 2.00033542e-002
      7.05994293e-002 6.71209544e-002 3.55307430e-001 3.55307430e-001
      8.14338028e-003 3.29035781e-002 2.46253777e-002 3.55307430e-001
      2.27383792e-001 8.76394450e-004 2.91889664e-002 3.84625457e-002
      3.67044657e-001 3.05113077e-001 6.23704353e-003 1.00146355e-002
      5.11421785e-002 3.67044657e-001 3.67044657e-001 6.86312513e-003
      2.57402323e-002 2.39865128e-002 3.67044657e-001 3.67044657e-001
      9.80446348e-004 6.36060908e-002 1.81070164e-001 3.67044657e-001</_>
    <_>
      3.09699923e-001 2.00401023e-001 2.63124108e-001 4.00491506e-002
      3.09699923e-001 2.87707478e-001 7.87099376e-002 3.09699923e-001
      4.23488244e-002 3.09699923e-001 3.09699923e-001 8.39963481e-002
      1.21961832e-001 2.35056821e-002 3.09699923e-001 3.09699923e-001
      1.72309931e-002 6.83246478e-002 1.95521060e-002 3.09699923e-001
      3.30251843e-001 6.53383788e-003 6.14542477e-002 2.42150258e-002
      3.49411577e-001 3.49411577e-001 0. 7.39873573e-003 1.66467037e-002
      3.49411577e-001 3.49411577e-001 6.79616714e-005 2.71452907e-002
      3.20982151e-002 3.49411577e-001 3.49411577e-001 0. 1.10714495e-001
      1.18580267e-001 3.49411577e-001 3.50900441e-001 0. 3.07574868e-003
      1.35295987e-002 3.50900441e-001 3.50900441e-001 2.43197549e-002
      1.61355326e-003 3.95214930e-003 3.50900441e-001 3.50900441e-001 0.
      7.22577423e-002 5.18324152e-002 3.50900441e-001 3.50900441e-001
      4.43616249e-002 2.74552219e-002 3.66195012e-003 3.50900441e-001</_>
    <_>
      1.74123913e-001 2.82102138e-001 2.82102138e-001 9.60004628e-002
      3.34016569e-002 1.96331546e-001 2.82102138e-001 2.82102138e-001
      1.71904385e-001 1.66098416e-001 2.11650923e-001 2.82102138e-001
      2.82102138e-001 2.10250631e-001 1.55296668e-001 2.82102138e-001
      1.43891439e-001 2.19317362e-001 2.05591708e-001 2.82102138e-001
      3.60466272e-001 9.32439268e-002 1.71712250e-001 6.98921308e-002
      1.84576854e-001 3.60466272e-001 4.00704741e-002 1.14692943e-002
      2.08682660e-002 3.60466272e-001 3.60466272e-001 4.99337502e-002
      3.30992900e-002 4.19841632e-002 3.60466272e-001 3.60466272e-001
      4.02080975e-002 2.38811150e-002 1.62818283e-003 3.60466272e-001
      2.34329760e-001 4.72997967e-003 3.17264698e-003 2.71870848e-002
      3.75419170e-001 2.50430971e-001 4.29873774e-003 8.49317200e-003
      4.74459156e-002 3.75419170e-001 3.75419170e-001 5.76207740e-003
      1.75415445e-002 4.36827866e-003 3.75419170e-001 3.75419170e-001
      2.01635121e-004 6.82696626e-002 1.57644883e-001 3.75419170e-001</_>
    <_>
      3.30108255e-001 9.57653299e-002 2.46122286e-001 6.78697750e-002
      3.11428934e-001 3.30108255e-001 3.74416523e-002 2.01105550e-001
      8.04855898e-002 3.30108255e-001 3.30108255e-001 3.88316847e-002
      9.86241028e-002 1.10546313e-002 3.30108255e-001 3.30108255e-001
      7.83638377e-003 4.51916531e-002 2.78584249e-002 3.30108255e-001
      3.49860013e-001 3.17510311e-003 2.43500285e-002 1.74683258e-002
      3.49860013e-001 3.49860013e-001 8.98909115e-004 2.68427446e-003
      1.35426119e-004 3.49860013e-001 3.49860013e-001 7.70493571e-005
      3.99634130e-002 2.12709587e-002 3.49860013e-001 3.49860013e-001
      5.89853851e-004 1.12308420e-001 4.13408354e-002 3.49860013e-001
      3.51021171e-001 3.37012840e-004 1.53199793e-003 0. 3.51021171e-001
      3.51021171e-001 1.76143236e-002 1.26458320e-003 4.09478508e-002
      3.51021171e-001 3.51021171e-001 3.42128711e-004 6.45338818e-002
      1.99448522e-002 3.51021171e-001 3.51021171e-001 2.94411574e-002
      5.15580699e-002 2.62159836e-002 3.51021171e-001</_>
    <_>
      1.19275883e-001 2.91949719e-001 2.91949719e-001 1.08453244e-001
      8.96632820e-002 1.67393938e-001 2.29172722e-001 2.58519918e-001
      5.83279021e-002 6.39026985e-002 1.55364141e-001 2.24834546e-001
      2.91949719e-001 2.91949719e-001 2.91949719e-001 2.91949719e-001
      2.91949719e-001 2.52086937e-001 1.67737499e-001 2.12556973e-001
      2.63374209e-001 2.44063109e-001 5.92171848e-002 9.43505019e-003
      5.20844758e-002 3.64640206e-001 3.64640206e-001 1.16956688e-001
      6.26085908e-004 5.10952808e-002 3.64640206e-001 3.64640206e-001
      1.69741437e-001 1.99603965e-003 3.02336290e-002 3.64640206e-001
      3.64640206e-001 1.11572370e-001 7.37612741e-003 6.94109499e-002
      2.95719206e-001 2.95719206e-001 1.18426628e-001 1.70805342e-002
      5.48688583e-002 2.79750079e-001 2.95719206e-001 2.40754068e-001
      1.51687890e-001 1.30042240e-001 2.95719206e-001 2.95719206e-001
      2.39812151e-001 5.41844964e-002 6.11391924e-002 2.95719206e-001
      2.95719206e-001 2.95719206e-001 1.79095760e-001 8.78472552e-002</_>
    <_>
      1.72983378e-001 2.88188994e-001 2.88188994e-001 5.91439679e-002
      5.84041551e-002 1.51381657e-001 2.88188994e-001 2.28091940e-001
      7.23243430e-002 1.13668218e-001 1.89643070e-001 2.88188994e-001
      2.62766242e-001 2.88188994e-001 2.88188994e-001 2.88188994e-001
      2.88188994e-001 1.03773020e-001 6.27600998e-002 2.88188994e-001
      2.76497036e-001 2.12202370e-001 2.43386496e-002 2.87789050e-002
      6.91034496e-002 3.79006118e-001 3.79006118e-001 7.37490831e-003
      2.45528203e-003 1.91036556e-002 3.79006118e-001 3.79006118e-001
      5.45172803e-002 5.42411488e-003 3.81958298e-002 3.79006118e-001
      3.79006118e-001 4.03516702e-002 3.50754621e-004 1.22096809e-002
      3.00041646e-001 3.00041646e-001 2.47331373e-002 1.65864415e-002
      1.82062443e-002 3.00041646e-001 3.00041646e-001 1.69367790e-001
      1.37181595e-001 1.82718188e-001 3.00041646e-001 3.00041646e-001
      9.28651765e-002 3.65455709e-002 3.25508900e-002 3.00041646e-001
      2.59470165e-001 3.00041646e-001 2.61785477e-001 2.18673348e-001</_>
    <_>
      1.39335841e-001 3.02121490e-001 3.02121490e-001 1.23560846e-001
      1.08031772e-001 3.02121490e-001 3.02121490e-001 1.27385154e-001
      5.29762283e-002 9.28040668e-002 2.67267078e-001 1.76581219e-001
      2.34063372e-001 3.02121490e-001 3.02121490e-001 3.02121490e-001
      3.02121490e-001 5.40971421e-002 5.14121391e-002 1.72613353e-001
      3.27866524e-001 3.50522488e-001 1.61450803e-002 7.04473723e-003
      2.07708068e-002 3.50522488e-001 3.50522488e-001 2.42477097e-002
      2.28148070e-003 5.44874975e-003 3.50522488e-001 3.50522488e-001
      2.60777157e-002 2.06600246e-003 3.99251953e-002 3.50522488e-001
      3.50522488e-001 3.34759094e-002 1.59703661e-002 1.54662579e-001
      2.78065145e-001 2.78065145e-001 6.54415861e-002 4.94915769e-002
      5.64949736e-002 2.78065145e-001 1.98115319e-001 2.78065145e-001
      2.78065145e-001 2.09889218e-001 2.78065145e-001 2.78065145e-001
      8.68877545e-002 6.11291640e-002 1.97708964e-001 2.78065145e-001
      5.56481779e-002 2.78065145e-001 2.78065145e-001 2.78065145e-001</_>
    <_>
      9.45467800e-002 2.99999446e-001 2.99999446e-001 1.52116284e-001
      9.52295214e-002 2.47188538e-001 2.50892013e-001 1.29454806e-001
      5.98042458e-002 6.81016222e-002 1.97534457e-001 1.44674659e-001
      2.99999446e-001 2.99999446e-001 2.99999446e-001 2.99999446e-001
      2.99999446e-001 1.31610692e-001 9.77952406e-002 2.99999446e-001
      2.76485950e-001 3.55615675e-001 2.55312100e-002 1.02909496e-002
      2.68256236e-002 3.57725024e-001 3.57725024e-001 4.08846550e-002
      2.12501618e-003 4.36446927e-002 3.57725024e-001 3.57725024e-001
      1.01845250e-001 2.13490310e-003 4.46120612e-002 3.57725024e-001
      3.57725024e-001 5.39963618e-002 1.75331831e-002 7.11851195e-002
      2.95498937e-001 2.95498937e-001 8.84805471e-002 2.59121098e-002
      8.09962451e-002 2.95498937e-001 2.13144436e-001 2.95498937e-001
      1.28871202e-001 2.23488167e-001 2.95498937e-001 2.11892039e-001
      9.44162756e-002 1.19271487e-001 1.80712938e-001 2.58888006e-001
      6.10388741e-002 2.95498937e-001 2.95498937e-001 2.95498937e-001</_>
    <_>
      5.83035797e-002 3.01899135e-001 3.01899135e-001 2.23956794e-001
      1.08217016e-001 1.47873402e-001 1.80485293e-001 2.25424260e-001
      1.03996135e-001 1.59896001e-001 7.85476565e-002 1.06499173e-001
      3.01899135e-001 3.01899135e-001 3.01899135e-001 3.01899135e-001
      1.97000965e-001 1.34379014e-001 2.78740823e-001 3.01899135e-001
      2.43036732e-001 2.63588578e-001 5.50596751e-002 2.57147681e-002
