<?xml version="1.0"?>
<opencv_storage>
<opencv_ml_svm>
  <format>3</format>
  <svmType>C_SVC</svmType>
  <kernel>
    <type>LINEAR</type></kernel>
  <C>1.</C>
  <term_criteria><iterations>3000</iterations></term_criteria>
  <var_count>60</var_count>
  <class_count>10</class_count>
  <class_labels type_id="opencv-matrix">
    <rows>10</rows>
    <cols>1</cols>
    <dt>i</dt>
    <data>
      0 1 2 3 4 5 6 7 8 9</data></class_labels>
  <sv_total>45</sv_total>
  <support_vectors>
    <_>
      1.23415279e+000 2.73091376e-001 -1.23379648e+000 -9.95417163e-002
      -2.43090153e-001 1.72920480e-001 -4.59098935e-001 -1.55182612e+000
      -9.86124575e-001 -1.50972575e-001 -4.40033019e-001
      -1.46516562e-001 4.96774763e-001 1.21536934e+000 3.84764135e-001
      -6.78248778e-002 -5.65731764e-001 -2.13969320e-001
      -2.14285389e-001 1.81304052e-001 1.67896435e-001 -3.01898777e-001
      -1.69655681e-001 -1.88802108e-001 -1.03567936e-001 1.54647991e-001
      -4.87587303e-002 -1.44113138e-001 -4.41554487e-002 4.80822101e-002
      -9.08311978e-002 -5.87783791e-002 9.00858566e-002 -3.00064564e-001
      2.07220092e-002 4.80822101e-002 -9.24409479e-002 -9.39083323e-002
      -1.66788921e-001 4.80822101e-002 -4.97639813e-002 -1.06611904e-002
      -3.33130956e-002 7.20243454e-002 6.08306266e-002 -6.69042096e-002
      1.05399978e+000 8.12312484e-001 8.41779709e-001 -2.87388507e-002
      -2.87388507e-002 2.93461174e-001 -1.12176038e-001 -1.34895310e-001
      -6.12091362e-001 2.03945097e-002 1.83777750e+000 1.43586591e-001
      -6.87761605e-001 -1.35507452e+000</_>
    <_>
      3.24217141e-001 2.70638585e-001 -1.99655101e-001 -2.57674366e-001
      -2.02097699e-001 6.31377217e-004 -1.83641449e-001 -2.01738536e-001
      -3.02699232e-003 7.69705772e-002 6.31833747e-002 3.02698076e-001
      2.59880364e-001 -8.52707177e-002 -4.10468131e-002 -4.34924625e-002
      -1.26646608e-001 -4.44494933e-003 -3.52558792e-002
      -1.44808358e-002 -6.98476359e-002 -2.78152525e-001 5.49268238e-002
      2.42558137e-001 5.08107364e-001 -1.45754129e-001 -7.35011876e-001
      1.29843146e-001 2.83054560e-001 8.40229034e-001 -1.03991732e-001
      -5.78918099e-001 3.74279246e-002 1.58847898e-001 5.86179018e-001
      -1.03991732e-001 -7.55811632e-001 3.39383930e-002 2.07469448e-001
      8.42664361e-001 -1.99673623e-001 -6.27232909e-001 8.01937059e-002
      1.42314389e-001 5.68106115e-001 -2.05120921e-001 8.16621557e-002
      4.30193245e-001 1.64537445e-001 1.84671581e-001 1.53177707e-002
      -2.14016005e-001 -2.16203734e-001 -1.84631482e-001 4.00018305e-001
      7.91555643e-002 4.61212575e-001 -1.64306924e-001 -6.25523269e-001
      -9.29219201e-002</_>
    <_>
      2.05131754e-001 3.98388416e-001 -1.22525051e-001 -9.58571061e-002
      -1.57451145e-002 1.47942945e-001 3.01094800e-002 -1.74971163e-001
      -1.26927122e-001 -1.31115839e-001 -7.03725100e-001
      -1.93375871e-001 4.87506270e-001 3.55468512e-001 1.27063438e-001
      8.28047693e-002 -5.20395577e-001 -7.17715025e-002 1.83721676e-001
      1.01188742e-001 4.11741376e-001 -1.88254312e-001 6.61705583e-002
      -4.55456138e-001 -9.57168937e-002 7.88065135e-001 3.92396599e-002
      -1.22991003e-001 -5.17474949e-001 2.72388786e-001 4.57115948e-001
      -4.30691481e-001 -2.77965069e-001 -1.12731099e+000 2.50703186e-001
      6.02185905e-001 1.17941443e-002 -4.13553119e-001 -1.10732114e+000
      1.98460042e-001 3.97951454e-001 -1.12917917e-002 -4.76214141e-001
      -2.59553939e-001 9.47514594e-001 1.37160704e-001 1.87073976e-001
      -1.25884131e-001 -2.11329833e-001 6.61076248e-001 -1.46419844e-002
      2.43740007e-001 -2.95194834e-001 -6.70950890e-001 -2.65832543e-001
      -1.46419844e-002 -1.46419844e-002 -1.71173498e-001
      -2.93500900e-001 -2.50021458e-001</_>
    <_>
      -1.07232273e-001 1.92880690e-001 4.47848290e-001 3.06101024e-001
      -3.42472941e-002 -1.07232273e-001 -3.94267201e-001
      -5.51685467e-002 9.82665941e-002 1.83093131e-001 -4.72536564e-001
      -8.06949735e-002 5.00173330e-001 7.86948860e-001 1.23870514e-001
      -1.07232273e-001 -2.64956713e-001 -8.80653933e-002 2.25032404e-001
      1.18070841e-001 1.54507726e-001 -4.94669318e-001 -6.77914470e-002
      1.14776261e-001 2.83878803e-001 2.39152148e-001 -5.16327322e-001
      -3.72334033e-001 -5.72715513e-002 4.81100529e-001 1.50615513e-001
      -1.83690831e-001 -6.41126856e-002 -2.21877798e-001 3.07545096e-001
      2.08806932e-001 -4.63168681e-001 -3.59568477e-001 -2.63524055e-001
      2.17896476e-001 2.66868889e-001 -2.02462062e-001 -6.28796220e-001
      -3.29457402e-001 5.06492853e-001 4.99350168e-002 4.53243464e-001
      1.68536673e-003 1.11818269e-001 1.28018469e-001 1.86585531e-001
      -9.81766209e-002 -4.75104541e-001 -4.38101530e-001 2.26232391e-002
      3.31601091e-002 4.63747084e-001 2.36329302e-001 -2.66379982e-001
      -5.29099107e-001</_>
    <_>
      4.72185668e-003 3.62105161e-001 1.09672211e-001 1.14774510e-001
      -7.77688846e-002 5.30503951e-002 -8.65759403e-002 -5.64287543e-001
      -3.87795419e-001 7.71109760e-002 -2.51537990e-002 -1.26083955e-001
      -2.21251473e-001 9.91676971e-002 5.87986887e-001 6.50635123e-001
      -2.86782067e-002 -5.06668746e-001 -3.00057530e-001 2.40028784e-001
      4.38289225e-001 -4.73339826e-001 -5.25781155e-001 -2.87128538e-001
      2.85177082e-001 4.87775475e-001 -2.71788478e-001 -5.23690641e-001
      -3.99223715e-002 4.15019363e-001 7.48178899e-001 -1.73158541e-001
      -4.28903759e-001 -5.64335346e-001 1.18793599e-001 1.17304221e-001
      2.06694994e-002 -2.10849762e-001 -2.81590104e-001 1.29048645e-001
      9.73093882e-002 7.40084797e-003 -1.60708398e-001 -2.43372202e-001
      3.09676886e-001 3.07678208e-002 -3.36595289e-002 -3.26934829e-002
      -8.79500434e-002 6.88433647e-002 -3.42072593e-003 8.98795426e-002
      2.74348632e-002 -2.27776077e-002 -5.88235073e-002 -3.42072593e-003
      -3.42072593e-003 1.17126860e-001 -1.64029643e-001 -1.56710386e-001</_>
    <_>
      3.60869348e-001 -7.09588155e-002 -1.37264043e-001 1.26820967e-001
      1.09293140e-001 4.20371622e-001 -4.22257215e-001 -4.83489752e-001
      -4.51170504e-001 2.18076646e-001 2.99660731e-002 -2.73802757e-001
      4.02973741e-002 3.24758112e-001 5.95567226e-001 7.24789917e-001
      -3.26370478e-001 -4.54986155e-001 -3.29772234e-001 3.82165402e-001
      2.11724713e-001 -6.18580759e-001 -4.27017301e-001 -3.44739646e-001
      4.98691738e-001 9.37606841e-002 -4.46387261e-001 -2.87263710e-002
      1.42842337e-001 3.40792388e-001 9.72588241e-001 -1.72580838e-001
      -5.44542909e-001 -7.95677900e-001 2.69175380e-001 2.75330275e-001
      2.50198524e-002 -1.22591786e-001 -4.73432362e-001 1.45490482e-001
      -5.47508486e-002 -1.12059668e-001 -2.11281534e-002
      -1.29051179e-001 9.86767411e-002 1.48472339e-001 2.65555412e-001
      7.52855018e-002 -9.51960012e-002 3.23008560e-002 4.26560119e-002
      8.75566676e-002 -8.38230029e-002 -1.73585713e-001 -2.03242376e-001
      4.26560119e-002 4.26560119e-002 9.18204635e-002 -1.99577853e-001
      -6.61981478e-002</_>
    <_>
      9.43693817e-002 3.24501723e-001 -6.01375818e-001 -5.47865964e-002
      -6.33217245e-002 -9.27932560e-002 -1.51033163e-001
      -3.61538023e-001 -7.82512873e-003 3.03521216e-001 -3.23687762e-001
      1.48313001e-001 1.21689230e-001 3.15957665e-001 2.40772381e-001
      -1.05778933e-001 -7.11885393e-001 -1.47515342e-001 1.60483524e-001
      5.76288283e-001 -1.37789190e-001 -7.29541183e-002 -6.85476810e-002
      -2.25129500e-002 5.02505839e-001 -3.43134671e-001 -2.24274114e-001
      8.72401074e-002 6.58593699e-003 7.14487433e-001 -3.43134671e-001
      -5.25799096e-001 -6.93356022e-002 3.02213654e-002 8.28805029e-001
      -3.43134671e-001 -8.05115223e-001 9.16168988e-002 4.22710329e-002
      7.41367280e-001 -4.40824538e-001 -1.18152276e-001 1.67566776e-001
      1.15590870e-001 8.98073792e-001 -4.84946370e-001 2.65861064e-001
      5.43839931e-001 4.92057860e-001 3.32292050e-001 -3.61473441e-001
      -2.10209295e-001 1.57697603e-001 2.57089641e-002 4.66388017e-001
      -3.61473441e-001 2.79434413e-001 1.65756524e-001 -2.09750561e-003
      -8.03973079e-002</_>
    <_>
      2.88228750e-001 3.45098585e-001 1.56279951e-001 1.67258054e-001
      -3.93220246e-001 3.06864470e-001 7.06792809e-003 -5.74434638e-001
      -4.82765436e-001 -1.36775225e-001 -3.86977673e-001
      -2.75732458e-001 1.22900389e-001 3.82692486e-001 1.59092724e-001
      2.16650277e-001 -6.20213568e-001 -4.65897739e-001 -1.23416662e-001
      2.17770264e-001 3.37964743e-001 -4.77568299e-001 -6.30423069e-001
      -4.15917099e-001 4.88361895e-001 2.32015863e-001 -5.04917204e-001
      -3.78507495e-001 -2.73100406e-001 5.20300090e-001 4.62757617e-001
      -3.14344764e-001 -5.82529783e-001 -8.48273039e-001 2.80451000e-001
      5.58843613e-001 1.75124668e-002 -2.46959150e-001 -6.79979980e-001
      2.83207238e-001 -3.19260031e-001 -1.61927238e-001 -1.12399064e-001
      -9.43899304e-002 6.96963668e-002 -2.05413494e-002 2.13036537e-001
      -5.56503795e-002 -9.67862234e-002 6.84759840e-002 9.90619659e-002
      1.79298893e-001 -5.78270555e-002 -4.21507269e-001 -3.36480826e-001
      9.90619659e-002 9.90619659e-002 2.11358801e-001 -3.94013859e-002
      -4.29539382e-002</_>
    <_>
      8.23264271e-002 -1.22551009e-001 -4.97770682e-002 -2.90050427e-003
      -1.51257291e-001 5.61810397e-002 -1.12958653e-002 9.23521519e-002
      -1.66930389e-002 -2.29062527e-001 2.65851710e-003 3.59189510e-002
      6.22979514e-002 4.50783744e-002 4.50783744e-002 -2.96568573e-002
      -2.28881270e-001 7.59982541e-002 1.42889798e-001 4.50783744e-002
      5.11145592e-001 -2.87386209e-001 -2.11680487e-001 -3.89767587e-001
      -9.29537881e-003 7.12530315e-001 -5.16200960e-001 -6.27169371e-001
      -5.02595305e-001 4.38154787e-001 1.85605466e-001 -6.61853969e-001
      -5.15130684e-002 -3.09880939e-003 4.42499548e-001 2.52473027e-001
      -5.53943574e-001 -5.22872388e-001 -2.08616421e-001 3.30937117e-001
      3.08793217e-001 -3.07869345e-001 -6.50460601e-001 -4.64710444e-001
      6.45934165e-001 1.94375459e-002 2.62078464e-001 8.44691843e-002
      4.83563691e-002 1.92468092e-001 2.32317433e-001 7.24732690e-003
      -5.50229073e-001 -3.29064071e-001 -1.06101334e-001 1.51458248e-001
      1.51458248e-001 1.18023464e-002 -3.79172653e-001 -3.18802088e-001</_>
    <_>
      7.96813667e-002 1.89341828e-002 -1.48123071e-001 -2.74442762e-001
      -1.70192286e-001 -1.71626862e-002 -6.55384436e-002 1.69530511e-001
      1.98352531e-001 1.14093639e-001 9.54946727e-002 3.64357889e-001
      1.12925291e-001 -4.41845238e-001 -3.26138318e-001 -3.21456678e-002
      7.18503445e-002 7.43475333e-002 1.20461985e-001 1.43293133e-002
      -1.44032881e-001 -1.03011899e-001 1.92745045e-001 1.11223310e-001
      4.31995332e-001 -1.23597682e-001 -7.25722134e-001 2.23112956e-001
      2.44036764e-001 5.72978675e-001 -1.23493895e-001 -4.80080396e-001
      3.13755386e-002 3.28072190e-001 5.23095667e-001 -1.23493895e-001
      -6.99381351e-001 2.00970858e-001 2.78146178e-001 6.90351307e-001
      -1.09552005e-002 -6.77739441e-001 6.97549209e-002 1.29103184e-001
      4.29898292e-001 1.80668216e-002 -3.09537023e-001 -1.37906745e-001
      -1.55891553e-001 2.56467730e-001 1.00762703e-001 -5.13259113e-001
      -4.93737347e-002 -7.07876906e-002 4.77246523e-001 1.07324094e-001
      1.24857999e-001 -3.46059173e-001 -4.41600382e-001 2.39372104e-001</_>
    <_>
      -2.65722930e-001 1.98797703e-001 1.47697896e-001 -1.57373339e-001
      -2.69901357e-003 -7.10566789e-002 9.63438228e-002 4.03610915e-001
      1.47952467e-001 -8.44951533e-003 -2.25254551e-001 -1.00291535e-001
      2.79517680e-001 -1.18709266e-001 -1.28334895e-001 -4.36339621e-003
      -3.07200462e-001 1.41688421e-001 6.15204088e-002 -1.14864223e-002
      1.72930747e-001 6.83311746e-002 1.41209841e-001 -3.73347402e-001
      -1.20998146e-002 4.72428560e-001 -1.83296595e-002 -1.33685386e-002
      -3.47336084e-001 1.27955407e-001 2.94315308e-001 -3.09345037e-001
      -2.69189656e-001 -7.68759787e-001 1.03160173e-001 4.91077751e-001
      7.81670213e-002 -3.27601403e-001 -7.76411057e-001 7.84629732e-002
      4.10630196e-001 -5.92406765e-002 -2.94687271e-001 -3.04603606e-001
      5.34094036e-001 2.81868815e-001 -2.70127177e-001 -7.23910928e-001
      -6.15581810e-001 4.78484392e-001 1.85654201e-002 -1.02152102e-001
      -7.59339109e-002 -3.68074864e-001 1.49354488e-001 3.65577526e-002
      -5.53054690e-001 -4.04138088e-001 -4.34159413e-002 3.14710647e-001</_>
    <_>
      -3.41939837e-001 2.14843959e-001 2.74622053e-001 2.71074474e-002
      -7.52957836e-002 -1.39011025e-001 -2.67713778e-002 2.93100327e-001
      2.06089586e-001 1.22298740e-001 -4.70771581e-001 2.44332686e-001
      5.88819206e-001 2.75849372e-001 -1.88000932e-001 -1.14661254e-001
      1.01519182e-001 -7.25501627e-002 5.89028522e-002 1.92616239e-001
      4.93599772e-002 -6.30410686e-002 3.28678995e-001 7.48648867e-002
      2.76528448e-001 1.57038555e-001 -6.56574547e-001 -9.72872302e-002
      -1.30824342e-001 2.60684550e-001 1.59013301e-001 -2.82725185e-001
      -4.85959262e-001 -2.95437872e-001 5.78869402e-001 1.94931060e-001
      -6.21434748e-001 -5.25410771e-001 -3.10289770e-001 3.78343701e-001
      4.36656654e-001 -4.07799363e-001 -7.86601365e-001 -3.33931923e-001
      1.28789926e-002 2.50681221e-001 -1.53951034e-001 -7.88285971e-001
      -3.42054039e-001 7.36290291e-002 3.35666418e-001 -4.22611892e-001
      -4.35581654e-001 -2.97418714e-001 2.99586743e-001 1.72239289e-001
      2.84700468e-002 -2.04749942e-001 -1.00437179e-001 2.10850295e-002</_>
    <_>
      -1.99605972e-001 2.73578286e-001 1.15143761e-001 -9.14310664e-002
      -1.27633676e-001 -1.24839284e-001 1.73862010e-001 -3.07251096e-001
      -2.64623940e-001 1.08977713e-001 1.13011502e-001 1.17018372e-001
      -1.76753566e-001 -1.43756837e-001 3.30224723e-001 5.07855892e-001
      2.42441386e-001 -4.82293457e-001 -3.01603645e-001 1.43648341e-001
      4.03311014e-001 -3.00202608e-001 -3.42971027e-001 -3.05321187e-001
      3.67225707e-001 4.87378001e-001 -2.77974755e-001 -3.76127064e-001
      -2.13606313e-001 1.78011239e-001 6.65863335e-001 -1.03533804e-001
      -6.12508297e-001 -4.17081356e-001 1.01286352e-001 9.90408882e-002
      -3.02380417e-003 -1.93074480e-001 -3.22168261e-001 1.16747357e-001
      2.32790515e-001 -3.83608267e-002 -1.01720735e-001 -2.29751065e-001
      -1.61800743e-003 1.23449959e-001 -3.63615483e-001 -3.45417321e-001
      -3.65365118e-001 5.31825535e-002 1.13146089e-001 -1.28003016e-001
      1.28894493e-001 3.69510166e-002 2.00287610e-001 5.61508313e-002
      -4.85294551e-001 -1.81207761e-001 -6.93648234e-002 2.55794078e-001</_>
    <_>
      -1.66296527e-001 -3.81275453e-002 6.63128421e-002 -7.20672980e-002
      2.76103597e-002 -9.34255775e-003 -3.93357985e-002 -3.62425558e-002
      -2.88464636e-001 2.47411579e-001 1.60417646e-001 7.56889358e-002
      1.41369402e-001 -5.23913279e-002 3.45838070e-001 5.26006103e-001
      1.85672529e-002 -4.17522669e-001 -4.87955093e-001 2.75101334e-001
      -3.70381735e-002 -1.29688948e-001 -1.78229257e-001
      -4.68903929e-001 5.06105959e-001 5.69620840e-002 -4.19780046e-001
      5.21466602e-003 -2.10859343e-001 1.79289415e-001 9.66528058e-001
      1.17274411e-002 -7.83878565e-001 -7.45845079e-001 3.97478253e-001
      4.18768495e-001 -8.93948749e-002 -3.10966253e-001 -5.16785383e-001
      1.16574273e-001 5.53434044e-002 -4.19089437e-001 2.30103787e-002
      -1.34117603e-001 4.07248102e-002 2.83255577e-001 -2.98282564e-001
      -2.23187566e-001 -3.89548033e-001 5.22870272e-002 2.11179405e-001
      -1.96450993e-001 -2.47637909e-002 -3.81556004e-001 1.77381754e-001
      1.30572543e-001 -5.30327559e-001 -2.22412154e-001 -7.19517618e-002
      3.13463837e-001</_>
    <_>
      2.06610397e-003 3.54591817e-001 -6.24693811e-001 -3.82629856e-002
      2.86210980e-002 -1.24254458e-001 4.32631671e-001 3.22720408e-001
      2.10505515e-001 2.04979226e-001 -3.74693692e-001 3.67182195e-001
      -2.84456164e-001 -4.16913837e-001 -2.56087124e-001
      -1.97305486e-001 -2.35413611e-001 1.58877730e-001 2.52016902e-001
      5.84488809e-001 -3.49401534e-001 5.72402894e-001 4.62037534e-001
      8.38828757e-002 4.09369856e-001 -5.07395566e-001 -2.03269511e-001
      3.13903868e-001 1.69216871e-001 4.86478835e-001 -5.07395566e-001
      -3.50559622e-001 1.45971794e-002 1.86762795e-001 1.04068112e+000
      -5.07395566e-001 -6.66672409e-001 1.30619347e-001 1.58028841e-001
      9.15749907e-001 -3.64250869e-001 -2.74362296e-001 1.07760482e-001
      9.84420851e-002 6.77271366e-001 -3.51943165e-001 -2.73891747e-001
      1.33822799e-001 1.14964649e-001 3.70370090e-001 -2.98336864e-001
      -4.76904213e-001 1.38389871e-001 7.96824172e-002 8.63237560e-001
      -2.98336864e-001 -5.21010995e-001 1.69707816e-002 1.20671757e-001
      4.15034890e-001</_>
    <_>
      -1.81962043e-001 1.19096421e-001 2.67745167e-001 -1.24247469e-001
      -3.56057525e-001 4.25340831e-002 9.68545228e-002 -6.80787908e-003
      -3.58448416e-001 -7.16433600e-002 -2.10374668e-001 9.95723158e-002
      1.90695152e-001 -2.15588182e-001 -1.85573339e-001 1.84248939e-001
      -3.54435414e-001 -3.63368988e-001 -1.14699580e-001 9.87957343e-002
      2.48966366e-001 -9.84637365e-002 -3.41797978e-001 -5.53827047e-001
      4.57451373e-001 3.09834033e-001 -5.06526887e-001 -3.45629126e-001
      -4.42272037e-001 3.93789560e-001 3.80578429e-001 -3.84880096e-001
      -7.03046501e-001 -6.70768261e-001 2.82249898e-001 6.09414876e-001
      -1.39150247e-001 -4.21934545e-001 -7.00266421e-001 2.28791580e-001
      4.06697765e-003 -2.41964251e-001 -1.35976627e-001 -3.22768927e-001
      -1.48696275e-002 2.65878111e-001 -3.10147285e-001 -3.64584237e-001
      -5.39182782e-001 -2.69799270e-002 4.38169658e-001 -2.25431472e-001
      -6.34181798e-002 -5.53254664e-001 1.61023915e-001 1.57823995e-001
      -4.40753132e-001 -1.80667132e-001 -8.69554654e-002 4.25180882e-001</_>
    <_>
      -1.96034625e-001 -9.47344080e-002 1.41388318e-002 -8.99483338e-002
      -1.70607850e-001 -2.69156182e-003 2.17956439e-001 2.53134996e-001
      8.79779309e-002 -1.61644042e-001 1.99390367e-001 2.69962460e-001
      1.41525930e-002 -3.14691454e-001 -1.65287748e-001 9.62976087e-003
      -7.84796029e-002 -6.57998899e-004 1.34367883e-001 -6.79235980e-002
      4.03868645e-001 -6.80359825e-002 -1.70484364e-001 -4.03219014e-001
      2.58844644e-002 5.59028983e-001 -3.68221194e-001 -4.14078027e-001
      -4.53081846e-001 2.47121602e-001 1.39281973e-001 -5.60261190e-001
      -2.57281333e-001 1.61749184e-001 3.00809234e-001 2.22969294e-001
      -4.84935313e-001 -4.14733678e-001 -1.36081547e-001 2.11188659e-001
      3.78536284e-001 -2.78154105e-001 -4.38171059e-001 -4.57316786e-001
      3.95861447e-001 1.34999424e-001 -1.77063555e-001 -2.19112471e-001
      -1.79003626e-001 2.66302645e-001 2.01794177e-001 -2.93661505e-001
      -3.33763987e-001 -2.22424790e-001 2.03624412e-001 1.01349220e-001
      -3.42292875e-001 -2.38948300e-001 -1.20894752e-001 1.58788323e-001</_>
    <_>
      -2.51496226e-001 -6.70539886e-002 2.70999044e-001 9.40493494e-002
      6.29867688e-002 7.84315914e-003 -5.08721434e-002 1.17660284e-001
      -1.50576189e-001 -1.56538621e-001 -6.62386045e-002
      -1.83228984e-001 7.90211558e-002 3.78794186e-002 3.51479575e-002
      2.90194061e-002 -9.87620503e-002 -8.58653337e-002 1.42723620e-001
      9.14818607e-004 1.49556950e-001 2.02564508e-001 -1.32892147e-001
      -2.59604543e-001 -4.81569469e-001 4.54842716e-001 6.76409185e-001
      -1.94708794e-001 -4.71408397e-001 -4.64104593e-001 1.97142348e-001
      1.14190288e-001 -3.20343584e-001 -5.46907365e-001 -4.06341225e-001
      2.42465615e-001 5.99022925e-001 -3.27495992e-001 -6.55600250e-001
      -5.65723717e-001 4.87345189e-001 5.43410718e-001 -2.14248627e-001
      -2.37827539e-001 -1.36047602e-002 1.91208258e-001 1.05403580e-001
      -2.07454905e-001 -1.89212993e-001 -6.51035979e-002
      -8.43408778e-002 1.84200764e-001 6.95674196e-002 -3.74310136e-001
      -4.30397004e-001 -1.41994223e-001 -1.99676558e-001
      -2.76364130e-003 2.07655266e-001 8.99773464e-002</_>
    <_>
      -9.21686828e-001 -2.04349905e-002 7.25392938e-001 5.77712178e-001
      2.68475145e-001 -1.66064560e-001 -9.73322019e-002 3.75147074e-001
      1.11628421e-001 7.39836739e-003 -2.28785187e-001 -6.68041110e-001
      3.73024821e-001 1.06027174e+000 8.39453936e-001 -1.41550243e-001
      1.27106430e-002 8.99222195e-002 4.40244004e-002 2.64482737e-001
      4.51897364e-003 1.59385085e-001 -2.88946591e-002 -5.61299287e-002
      -2.16826513e-001 1.36068791e-001 1.61625981e-001 -3.38733643e-001
      -3.29872578e-001 -4.04022276e-001 1.60516575e-001 3.75823528e-001
      -2.81527013e-001 -7.90387094e-002 -4.73967999e-001 7.81418234e-002
      1.60516575e-001 -6.18146300e-001 -2.24352226e-001 -3.96335393e-001
      3.96647751e-001 3.96647424e-001 -6.08189702e-001 -5.34181237e-001
      -3.89563859e-001 4.96694863e-001 6.61729395e-001 -1.63412869e-001
      -2.39738539e-001 -2.34689713e-001 2.40730122e-001 8.21414888e-002
      -3.11744153e-001 -2.19218343e-001 -2.10490614e-001
      -2.45099828e-001 -7.15284199e-002 4.22413826e-001 -6.45996779e-002
      -6.62228823e-001</_>
    <_>
      -1.17998809e-001 3.35511386e-001 1.34183034e-001 -3.10856700e-002
      -1.28293540e-002 2.99677625e-002 2.78285407e-002 -1.24263644e-001
      -3.53483796e-001 1.15224887e-002 1.56141981e-001 4.98490296e-002
      -1.70282766e-001 -7.03299977e-003 4.65247124e-001 4.69251931e-001
      1.95235506e-001 -3.27670813e-001 -3.30944449e-001 1.31467357e-001
      2.05779031e-001 -2.08060946e-002 -4.62787062e-001 -3.99026871e-001
      -6.69523180e-002 3.85270506e-001 1.87496796e-001 -2.87851185e-001
      -3.65657300e-001 -1.66527018e-001 6.10545278e-001 3.67134720e-001
      -3.37558240e-001 -5.46971917e-001 -4.42649603e-001 1.83024660e-001
      3.49526167e-001 -1.32875443e-001 -4.60800081e-001 -4.27371502e-001
      3.07817668e-001 3.38456661e-001 -1.14740685e-001 -2.84368575e-001
      -7.34301284e-002 7.65922368e-002 4.68847454e-002 -1.51569203e-001
      -1.10173672e-001 -4.42890264e-002 -5.66685721e-002 1.01419247e-003
      1.71869203e-001 6.35629371e-002 -7.78016075e-002 -1.14080563e-001
      -1.65958315e-001 8.53576288e-002 2.02783868e-001 -6.49585668e-003</_>
    <_>
      -1.81582689e-001 -5.88995591e-003 2.27673873e-001 1.72359049e-001
      8.19992870e-002 -6.07063621e-002 -1.78653121e-001 -1.19311146e-001
      -9.02885273e-002 1.06453057e-002 2.11392716e-001 -9.04064998e-002
      -1.82287171e-002 2.30270863e-001 3.86905819e-001 3.83303702e-001
      1.69548728e-002 -3.71630758e-001 -3.64874363e-001 3.05592090e-001
      1.67607993e-001 6.70926422e-002 -4.82912272e-001 -2.43688151e-001
      -8.61801580e-002 1.98368728e-001 1.98101625e-001 -2.50093937e-001
      -2.13459596e-001 -3.67396861e-001 7.66014874e-001 3.70450288e-001
      -4.70380008e-001 -7.38893986e-001 -2.30764285e-001 3.27625036e-001
      3.54574382e-001 -3.19928437e-001 -6.84559941e-001 -4.88234967e-001
      1.29339024e-001 3.26157957e-001 3.53673734e-002 -1.73843905e-001
      -4.51528311e-001 2.39513308e-001 2.71881014e-001 6.69109374e-002
      -2.19333813e-001 -3.37271720e-001 2.83058025e-002 4.98989634e-002
      9.13221985e-002 -8.01609159e-002 -3.81858766e-001 -6.09458238e-002
      -1.88035071e-001 1.01737142e-001 1.82524607e-001 5.48619814e-002</_>
    <_>
      3.25886399e-001 1.10364890e+000 -4.63860989e-001 -7.33559549e-001
      4.14160192e-001 -2.35625535e-001 -2.40567531e-002 5.20694302e-003
      -9.54756141e-002 2.10029870e-001 -3.46131176e-001 -4.82976019e-001
      -6.84372842e-001 2.21706197e-001 1.02352250e+000 -1.70347437e-001
      -3.69570881e-001 -1.61867127e-001 3.85543942e-001 1.17347145e+000
      -6.42463326e-001 2.36015812e-001 1.61077246e-001 6.45993501e-002
      -1.38620943e-001 -1.47669822e-001 6.92176521e-001 1.93191171e-002
      2.21261270e-002 -2.19884619e-001 -1.47669822e-001 5.37583172e-001
      3.24505180e-001 3.24943513e-002 1.98564939e-002 -1.47669822e-001
      2.26732835e-001 1.51376307e-001 -1.01346727e-002 -3.85389477e-001
      -6.60966814e-001 1.12798013e-001 1.30089466e-002 3.17147672e-002
      -8.73611793e-002 -6.60966814e-001 2.47315958e-001 1.19831181e+000
      7.59490848e-001 2.86373138e-001 -6.60966814e-001 1.79951444e-001
      5.14272690e-001 1.03316337e-001 -3.35452288e-001 -7.08175600e-001
      4.50227797e-001 2.46851945e+000 1.05307043e+000 3.31425667e-002</_>
    <_>
      -2.44866312e-001 7.41124004e-002 1.46181449e-001 -4.74426933e-002
      -1.47889942e-001 2.36317754e-001 -2.44789254e-002 -1.86127886e-001
      -5.83703220e-001 -1.99314639e-001 -1.48159251e-001
      -1.61665842e-001 1.61406577e-001 2.14152977e-001 1.31057739e-001
      1.31057739e-001 -9.12374407e-002 -2.60931134e-001 -1.82581544e-002
      7.30130151e-002 3.57570320e-001 1.43665150e-002 -6.72771513e-001
      -3.25619876e-001 -1.22893207e-001 3.04547489e-001 2.75765657e-001
      -2.60120064e-001 -1.72956213e-001 -2.15580329e-001 5.32173514e-001
      1.74000144e-001 -4.69559312e-001 -7.12296665e-001 -4.80761170e-001
      4.82631654e-001 3.31220359e-001 -3.90918642e-001 -7.99776971e-001
      -7.11076498e-001 4.41275835e-002 1.96241170e-001 9.21312869e-002
      -2.66193241e-001 -5.42030096e-001 2.87448257e-001 2.94900298e-001
      2.18984522e-002 -3.45042109e-001 -3.68631244e-001 4.41275835e-002
      2.33601004e-001 2.77877837e-001 -1.29951850e-001 -6.58893943e-001
      -1.41476721e-001 -1.75233543e-001 1.29241109e-001 2.48178333e-001
      1.11358419e-001</_>
    <_>
      -5.51631413e-002 -1.42604783e-001 7.18509257e-002 -6.41657114e-002
      -1.44686297e-001 1.64546117e-001 2.01977864e-001 3.25480551e-001
      -7.27398619e-002 -3.27022851e-001 3.62913936e-001 4.35661636e-002
      1.23004101e-001 -5.76805584e-002 -5.76805584e-002 -5.76805584e-002
      9.04916301e-002 1.25152871e-001 -1.56035319e-001 -5.96769415e-002
      4.30938363e-001 6.93598315e-002 -2.90631860e-001 -4.59193677e-001
      -2.57337183e-001 7.44046628e-001 1.71320483e-001 -7.77258039e-001
      -8.48573625e-001 -1.57290980e-001 2.18547210e-001 -2.04454176e-002
      -5.68238758e-002 -6.29278272e-002 -1.11433484e-001 2.30237812e-001
      2.18547210e-001 -5.28204203e-001 -5.67635655e-001 -4.46672231e-001
      7.01200008e-001 3.56857747e-001 -6.22794747e-001 -6.21468186e-001
      -1.00561075e-001 3.92823696e-001 3.56154442e-001 -1.28308177e-001
      -4.21326041e-001 -1.68611214e-001 -5.01725823e-002 2.32377186e-001
      -2.18061507e-001 -2.98377007e-001 -5.99441767e-001
      -2.25326523e-001 -9.03045610e-002 1.42274320e-001 3.23116064e-001
      -1.40073016e-001</_>
    <_>
      -5.44021666e-001 -5.90988481e-003 7.28996515e-001 4.96500790e-001
      -1.39475778e-001 -2.30707243e-001 -2.73046613e-001 5.72957844e-002
      2.52666146e-001 1.35198951e-001 -3.83275121e-001 1.33546531e-001
      5.80164373e-001 1.17197573e+000 4.29642014e-002 -1.56928301e-001
      2.94222325e-001 3.48030888e-002 3.03473999e-003 -6.84129894e-002
      -2.89765047e-003 -4.47590649e-001 -2.65032202e-001 4.73482519e-001
      4.39662695e-001 -3.54397923e-001 -9.55148518e-001 -5.43281078e-001
      2.84248162e-002 1.30801007e-001 8.01812187e-002 4.25328851e-001
      2.63502479e-001 6.37427747e-001 5.80010042e-002 -1.92428175e-002
      -8.92435431e-001 3.88168730e-002 3.11840147e-001 1.38692796e-001
      2.76657455e-002 -3.04521382e-001 -5.49293458e-001 -4.04217094e-001
      -3.12000036e-001 -1.08202450e-001 4.37193215e-001 2.81161398e-001
      3.30512583e-001 -2.79251665e-001 4.89045262e-001 -3.22661400e-001
      -3.87771398e-001 -9.63940173e-002 3.35289478e-001 2.31529213e-002
      8.43064904e-001 5.32467544e-001 -1.03220984e-001 -6.51323497e-001</_>
    <_>
      -3.07135284e-001 2.39615217e-001 3.25301558e-001 5.53021245e-002
      -2.82049388e-001 -1.24153867e-003 7.61394054e-002 -5.73331296e-001
      -6.87517583e-001 1.20990671e-001 5.45030773e-001 -6.33593872e-002
      -4.67316270e-001 1.15985289e-001 9.04739797e-001 9.77405190e-001
      4.70854372e-001 -4.88226891e-001 -1.02956355e+000 1.67545676e-001
      3.41170549e-001 -2.31603399e-001 -9.50428247e-001 -1.83525905e-001
      7.56139278e-001 1.54217735e-001 -4.60848778e-001 -7.01606214e-001
      2.53145039e-001 4.98024374e-001 8.01640451e-001 4.09559816e-001
      -2.89295495e-001 -1.14539623e-001 4.44662496e-002 -1.76684067e-001
      -1.28290012e-001 8.20092559e-002 1.20040722e-001 4.01123194e-003
      -4.68254164e-002 -9.58981831e-003 2.94647887e-002 -2.33017683e-001
      -2.01832920e-001 -4.76059057e-002 -6.27291435e-003 1.74958687e-002
      -2.04128012e-001 -4.63580996e-001 1.64189283e-002 -6.32964969e-002
      3.87393922e-001 5.90115428e-001 3.12553525e-001 1.74958687e-002
      1.74958687e-002 5.68867363e-002 -1.73731700e-001 -1.28302753e-001</_>
    <_>
      -1.18350824e-002 -1.06782019e-001 9.03960392e-002 1.89582482e-001
      1.54581934e-001 1.58375442e-001 -2.19891176e-001 -4.81564224e-001
      -4.64723349e-001 2.21989661e-001 2.90653080e-001 -1.01531930e-001
      -1.70142010e-001 4.73591834e-001 8.78296018e-001 7.56830990e-001
      2.29302421e-001 -4.27787662e-001 -9.64969337e-001 5.34793854e-001
      -4.45328988e-002 -2.98924029e-001 -7.25212157e-001
      -1.93954766e-001 7.62988448e-001 -5.98396301e-001 -9.36461508e-001
      -1.72200635e-001 4.98852104e-001 2.61652857e-001 9.86874998e-001
      6.37392044e-001 -2.84053326e-001 -1.00366063e-001 2.17096031e-001
      5.35597801e-002 -1.65294275e-001 2.09345475e-001 1.38157055e-001
      2.08240636e-002 -6.36941552e-001 -3.75288934e-001 3.94108206e-001
      1.22376427e-001 -6.90191746e-001 1.75779015e-002 8.26090649e-002
      3.96130770e-001 8.57540891e-002 -5.09265542e-001 3.62629369e-002
      -3.21263783e-002 2.53487915e-001 3.62369508e-001 1.44910095e-002
      5.14241010e-002 5.14241010e-002 3.08863252e-001 9.23815593e-002
      3.73804313e-003</_>
    <_>
      8.99504647e-002 1.77884340e-001 -2.67688692e-001 -1.09942136e-002
      -7.88782444e-003 -1.21011764e-001 8.11111778e-002 5.97380809e-002
      1.83235809e-001 1.39095843e-001 -1.10770978e-001 1.21969476e-001
      -1.49541602e-001 4.27223518e-002 6.13522194e-002 -1.06816776e-001
      5.27914613e-002 5.79393655e-002 5.82451820e-002 2.27544248e-001
      -2.25903124e-001 6.57223463e-002 9.35798809e-002 1.88192174e-001
      2.85777301e-001 -4.53367561e-001 -1.65116772e-001 2.20196962e-001
      3.30898345e-001 1.70752719e-001 -2.82459736e-001 1.04592852e-001
      2.63360858e-001 4.57976699e-001 3.21659237e-001 -3.23559284e-001
      -2.64206827e-001 3.95066351e-001 5.09675801e-001 1.86901227e-001
      -5.58369339e-001 -1.51982278e-001 2.76669621e-001 2.53924668e-001
      -9.68533102e-003 -3.49088550e-001 -1.80850399e-003 5.05227268e-001
      4.68921870e-001 -2.06285884e-004 -2.00250030e-001 -5.73015437e-002
      2.40834549e-001 4.61800069e-001 2.16010183e-001 -2.00250030e-001
      1.01199590e-001 3.48713517e-001 3.11553150e-001 -1.86309777e-002</_>
    <_>
      1.56006232e-001 4.11664188e-001 4.00662988e-001 -4.90648001e-002
      -5.93386829e-001 4.75308388e-001 6.55451342e-002 -9.74137306e-001
      -1.20030832e+000 -4.47138399e-001 -4.66499589e-002 2.28605822e-001
      1.14401855e-001 -1.91345084e-002 2.14257821e-001 2.12692797e-001
      -2.08782777e-001 -4.87201571e-001 -2.00693488e-001 1.46407813e-001
      6.29872322e-001 -2.14131400e-001 -1.30089629e+000 -5.16038656e-001
      9.11174059e-001 -8.87443781e-001 -1.15463972e+000 -6.97859824e-001
      -1.37248889e-001 4.86004442e-001 2.35843837e-001 3.14968973e-001
      -1.73131242e-001 2.70491187e-002 5.04608080e-002 4.08888489e-001
      -9.07432213e-002 1.13597229e-001 1.59645602e-001 1.24034874e-001
      -1.14304960e+000 -2.74932534e-001 5.40564537e-001 -1.92941323e-001
      -1.29980230e+000 -2.22523689e-001 2.78621376e-001 4.74845231e-001
      5.78353181e-002 -1.05436349e+000 3.72067839e-001 1.94727287e-001
      3.60939890e-001 -2.30085105e-001 6.63895085e-002 2.24536881e-001
      2.24536881e-001 4.32476670e-001 6.61530867e-002 -9.13805589e-002</_>
    <_>
      -3.80481184e-001 -3.50443542e-001 3.44411656e-002 -9.02724639e-002
      -6.04207933e-001 -2.65585613e-002 5.57366967e-001 3.90045494e-001
      -7.18083560e-001 -7.74873793e-001 5.34196794e-001 5.94303012e-001
      -1.24418601e-001 -1.50386006e-001 6.36341795e-002 9.35728326e-002
      3.36193413e-001 3.97934318e-001 -4.72718894e-001 -7.71995112e-002
      7.77378976e-001 1.84516609e-001 -6.80981755e-001 -8.95161092e-001
      9.75670367e-002 5.18907666e-001 -7.40296185e-001 -1.10946214e+000
      -4.92772609e-001 4.81660724e-001 -4.33507971e-002 -3.64194214e-001
      1.23303771e-001 1.14148569e+000 8.46666992e-001 1.20176069e-001
      -1.31838632e+000 -4.48432207e-001 3.67060572e-001 6.25501454e-001
      -2.34371647e-002 -4.06750530e-001 -3.80412221e-001
      -1.00224078e+000 -1.79774955e-001 -1.26809806e-001 3.01457625e-002
      3.82556230e-001 4.56971169e-001 -1.28960475e-001 3.00503969e-001
      7.49961883e-002 -7.32620537e-001 2.30465651e-001 4.04429048e-001
      2.05183297e-001 2.05416277e-001 2.14740306e-001 -7.34062940e-002
      -2.14177847e-001</_>
    <_>
      6.96119145e-002 1.47999555e-001 -1.57403558e-001 -1.44331455e-001
      9.36674827e-004 7.39173666e-002 2.08079934e-001 -3.44816923e-001
      -5.23326457e-001 -2.82915942e-002 4.24923390e-001 -1.76198602e-001
      -7.85421908e-001 -6.15220904e-001 5.66553116e-001 6.75078750e-001
      7.94494078e-002 -5.27451932e-001 -6.39127493e-001 2.00691760e-001
      2.34334424e-001 4.04541939e-003 -4.71706420e-001 -4.04080242e-001
      8.73500481e-002 4.40074682e-001 1.44738212e-001 -1.73251092e-001
      8.44560117e-002 1.43373147e-001 6.42132699e-001 -1.14922300e-001
      -2.49382049e-001 -3.32645565e-001 -1.58336133e-001
      -1.36362135e-001 3.26040417e-001 1.95923597e-001 -6.25406876e-002
      -1.37007564e-001 2.92751566e-002 1.89422801e-001 3.01350623e-001
      4.47838008e-003 -2.03971881e-002 1.43169239e-001 -4.14371878e-001
      -1.52627930e-001 -2.71897137e-001 -7.69305453e-002
      -2.78337508e-001 1.57226622e-001 4.37756091e-001 4.96817797e-001
      3.34983580e-002 -1.06881671e-002 -5.28746009e-001 -3.36526841e-001
      1.08080693e-002 3.63770157e-001</_>
    <_>
      4.33321685e-001 -3.79269242e-001 -2.87091732e-001 -9.19375271e-002
      3.24116021e-001 3.34868610e-001 3.56219746e-002 -3.67835820e-001
      -4.99963969e-001 -7.44551793e-003 5.25838494e-001 -1.86804280e-001
      -4.71938938e-001 -2.69916058e-001 6.22823238e-001 4.83072609e-001
      -1.92149997e-001 -6.73142433e-001 -8.32279921e-001 3.89524668e-001
      4.75122929e-002 3.23552668e-001 -5.88844955e-001 -7.20509350e-001
      1.12895191e-001 -1.14236787e-001 -6.50353879e-002 -4.71404456e-002
      -3.44613492e-002 1.32947564e-001 1.06003523e+000 3.82536829e-001
      -4.41312850e-001 -6.69619679e-001 1.68259710e-001 4.86700594e-001
      4.28692579e-001 -7.72711937e-004 -5.14203787e-001 -1.87735409e-001
      -5.04212022e-001 -3.70271176e-001 9.90949571e-001 4.33803409e-001
      -1.45663545e-001 -1.15515076e-001 -5.77750504e-001 7.34517813e-001
      -3.35928053e-002 -7.78948739e-002 -1.21379890e-001 1.55063376e-001
      2.15796053e-001 -1.29126072e-001 -2.72001207e-001 7.42526427e-002
      -7.53232241e-001 -8.53156075e-002 1.39425576e-001 4.49919581e-001</_>
    <_>
      3.16404641e-001 7.64588937e-002 -7.91563392e-001 -4.37563837e-001
      -1.48135006e-001 9.11332592e-002 3.88469398e-001 -2.98173845e-001
      -7.82012492e-002 -1.61466166e-001 1.10799216e-001 4.21094209e-001
      -6.18326187e-001 -6.79230809e-001 -3.29260409e-001 9.11332592e-002
      1.20294049e-001 2.59144325e-002 5.22102639e-002 -8.95692632e-002
      -2.11057201e-001 4.32319969e-001 -2.45470405e-002 2.51796208e-002
      -7.70352408e-003 -2.12301075e-001 1.20970212e-001 2.35326692e-001
      1.19913608e-001 1.46088257e-001 -2.10671052e-001 5.55035360e-002
      4.15053964e-001 2.24277332e-001 1.65686220e-001 -2.11046755e-001
      -1.64034665e-001 5.94050825e-001 2.27948204e-001 2.47847363e-001
      -3.83155525e-001 -1.40028968e-001 5.62409759e-001 2.98003674e-001
      2.73927748e-001 -4.87257987e-001 -1.56409100e-001 8.91224444e-001
      5.74574471e-001 2.06138238e-001 -3.71377438e-001 -1.18071362e-002
      3.74791116e-001 2.02394098e-001 2.00081259e-001 -2.74952441e-001
      1.14756875e-001 3.44002396e-001 3.23418647e-001 -6.50049653e-003</_>
    <_>
      5.34463406e-001 1.72703750e-002 -4.78876263e-001 -4.52964902e-001
      -1.05838843e-001 5.35420239e-001 3.65735263e-001 -5.32206893e-001
      -9.80669498e-001 -4.42251384e-001 4.12610382e-001 -3.60803343e-002
      -4.42286700e-001 -9.57762539e-001 7.07554966e-002 3.64706635e-001
      -4.83970433e-001 -4.55724508e-001 -2.44422927e-001 5.47789820e-002
      4.21761990e-001 3.27369511e-001 -4.64388013e-001 -7.29406476e-001
      -7.30212703e-002 -9.56799164e-002 2.39139974e-001 1.95256859e-001
      2.97901183e-002 1.15941681e-001 1.95346251e-001 -3.59142959e-001
      -3.09704810e-001 -3.61705959e-001 -1.79243296e-001 4.51199830e-001
      6.64276063e-001 2.05713689e-001 -2.51021743e-001 -7.10459873e-002
      -8.90400589e-001 -1.70336977e-001 8.67324054e-001 2.94675440e-001
      -4.40847188e-001 6.99703023e-002 -3.55362117e-001 1.08297974e-001
      -1.71112701e-001 -1.02354191e-001 -1.03351604e-002 5.14574945e-001
      5.69722414e-001 2.95971539e-002 -2.97008723e-001 9.48653296e-002
      -4.91744488e-001 -3.04380029e-001 -6.09542690e-002 4.43900704e-001</_>
    <_>
      2.36145824e-001 -5.02250135e-001 -6.54609382e-001 -7.71939218e-001
      -2.09224567e-001 2.03724384e-001 6.52538180e-001 3.92738551e-001
      -2.38026932e-001 -6.56009614e-001 1.00838482e+000 1.36715353e-001
      -4.37809825e-001 -1.70687640e+000 2.97717936e-002 1.86123639e-001
      -3.04256529e-001 1.94840923e-001 -8.40699673e-002 2.77683251e-002
      4.97730225e-001 3.18551660e-001 -1.24024384e-001 -1.04828918e+000
      -4.79773879e-001 6.62858069e-001 1.63157925e-001 -1.02877170e-001
      -4.19457972e-001 -7.19940569e-003 -2.04570070e-001
      -8.21282148e-001 4.27751016e-004 4.69150692e-001 6.68169618e-001
      -2.39662275e-001 9.55246855e-003 -6.15690388e-002 1.59606889e-001
      1.76717073e-001 -6.11683019e-002 -8.87899399e-002 2.01696962e-001
      -1.79771438e-001 9.96359736e-002 1.19711705e-001 -1.62743121e-001
      2.11940736e-001 -2.76001304e-001 -5.36160357e-002 -4.07313824e-001
      2.04120591e-001 1.67483747e-001 3.47869068e-001 -1.94752589e-001
      2.18153670e-001 -6.60952330e-001 -4.30262059e-001 -4.05400962e-001
      5.50165951e-001</_>
    <_>
      -4.37845476e-002 -1.41729569e+000 4.80989069e-001 1.44793823e-001
      1.07792091e+000 2.53894806e-001 -5.92095196e-001 1.04793616e-001
      5.82220733e-001 7.30465174e-001 -1.09083816e-001 1.77331761e-001
      6.68570220e-001 2.11419299e-001 1.79235674e-002 -2.26443514e-001
      -1.01703548e+000 1.83048755e-001 1.78361952e-001 6.59339547e-001
      -1.46105659e+000 -1.26150414e-001 1.85939118e-001 3.31749678e-001
      3.88919324e-001 -2.62111712e+000 -4.25346076e-001 1.95933151e+000
      9.10775185e-001 -7.71911085e-001 2.14193851e-001 5.93078315e-001
      7.13100955e-002 6.57548830e-002 8.33328009e-001 8.70078266e-001
      1.63806945e-001 -2.12968737e-001 -4.91792917e-001 2.92633027e-001
      -1.49070847e+000 -9.06008542e-001 1.17585206e+000 1.10033953e+000
      -1.38874459e+000 5.75463772e-001 1.91670179e-001 2.19659209e-002
      9.69777405e-002 -3.66102815e-001 6.64363563e-001 8.11252967e-002
      -4.74879682e-001 -1.33640587e+000 -2.69248068e-001 4.91771847e-001
      3.39069396e-001 -3.97122353e-001 4.34821755e-001 3.60914916e-001</_>
    <_>
      5.84511533e-002 -4.91692498e-002 -1.32747263e-001 -4.39438894e-002
      9.81004313e-002 -2.50350624e-001 -2.93053258e-002 2.04682186e-001
      2.99231142e-001 1.77012943e-002 -2.32998878e-001 -5.54834045e-002
      1.35444039e-002 -4.58119856e-003 -1.29983947e-001 -4.73868310e-001
      -2.46286735e-001 2.46166989e-001 3.68079573e-001 1.16291918e-001
      -2.91445613e-001 1.26751706e-001 4.37038898e-001 3.61646414e-001
      5.03313309e-003 -3.33794206e-001 -3.45453657e-002 3.10718030e-001
      3.19889128e-001 9.39200222e-002 -5.51756144e-001 -2.42269158e-001
      3.95209640e-001 4.73129094e-001 3.48452449e-001 -2.03574374e-001
      -2.37553030e-001 2.47148350e-001 3.98363531e-001 1.96750253e-001
      -3.92164886e-001 -1.68172061e-001 1.67114019e-001 2.13347346e-001
      9.88410711e-002 -1.97247863e-001 -1.63318065e-004 3.88398111e-001
      2.52134144e-001 8.94238874e-002 -8.77133533e-002 5.35518788e-002
      1.33051664e-001 2.48302948e-002 -7.88386352e-003 -8.77133533e-002
      8.80572796e-002 3.29087615e-001 1.20519876e-001 1.34282023e-001</_>
    <_>
      2.25575298e-001 -2.32782796e-001 -3.55069816e-001 -1.48865327e-001
      -2.69098520e-001 3.57638657e-001 1.85488507e-001 3.54956895e-001
      2.24664778e-001 -6.25474334e-001 -6.42026305e-001 3.61730278e-001
      7.41924345e-001 3.11906002e-002 -1.41981649e+000 -1.55777729e+000
      -1.11812270e+000 5.15234232e-001 7.72020876e-001 -4.21580940e-001
      -4.46398109e-001 3.37301761e-001 2.91340917e-001 -1.16749756e-001
      -8.88797343e-002 -1.43753779e+000 -2.36303687e-001 7.19731688e-001
      -5.77972569e-002 -1.39686540e-001 -6.03923738e-001
      -3.97379577e-001 2.61575550e-001 1.12260588e-001 1.97710499e-001
      8.35288405e-001 6.51360229e-002 -1.79747358e-001 -2.45259210e-001
      -3.59536894e-002 -1.16993821e+000 -4.17270422e-001 5.58820605e-001
      2.65098393e-001 -6.22714937e-001 3.98389816e-001 3.30932528e-001
      3.29161957e-002 -2.38544606e-002 -3.81198466e-001 3.01794499e-001
      1.17105236e-002 -1.26369238e-001 -1.17016566e+000 -2.82822251e-001
      2.83614635e-001 2.83614635e-001 -1.72949091e-001 7.44467303e-002
      2.71497428e-001</_>
    <_>
      1.87249660e-001 -3.16933751e-001 -3.95204037e-001 -1.11352898e-001
      -5.97244464e-002 -4.31384444e-002 1.50979042e-001 7.19872236e-001
      9.00170729e-002 -5.78244448e-001 -1.65493101e-001 4.82598722e-001
      3.29538226e-001 -1.20317414e-001 -8.54630828e-001 -7.99912810e-001
      -2.63341129e-001 5.20360708e-001 5.04117548e-001 -2.73399025e-001
      3.09513211e-001 3.31971258e-001 4.50755447e-001 -2.94264495e-001
      -8.09674561e-001 2.86628306e-001 2.15705216e-001 -4.72742170e-002
      -4.36054051e-001 -2.35453486e-001 -8.15365672e-001
      -7.45591164e-001 1.66965783e-001 6.51504755e-001 4.57805723e-001
      4.25814778e-001 -5.83408177e-001 -4.02282327e-001 6.13736995e-002
      5.04955292e-001 1.02649018e-001 -1.47718519e-001 -3.88715863e-001
      -3.12745780e-001 1.59853533e-001 -6.38215151e-003 -6.43239841e-002
      1.71976864e-001 4.96444792e-001 2.46853054e-001 1.31535798e-001
      9.73164141e-002 -9.59376633e-001 -4.40605015e-001 9.21940356e-002
      6.86149001e-002 6.86149001e-002 5.48321791e-002 2.64243335e-001
      1.15511581e-001</_>
    <_>
      7.79141337e-002 1.97667018e-001 -2.31822193e-001 -2.69447893e-001
      5.35022318e-002 -6.70964122e-002 1.66684717e-001 1.21417254e-001
      1.23273484e-001 -4.35671173e-002 -1.88641384e-001 1.07338317e-001
      -1.76497459e-001 -2.53250360e-001 -1.06816158e-001
      -3.00818861e-001 5.19205304e-003 2.05878094e-001 4.45927531e-001
      -2.72543542e-002 -2.13806048e-001 1.97111726e-001 2.58822531e-001
      2.96918511e-001 -1.87386095e-003 -2.23564848e-001 1.24170426e-002
      3.07914168e-001 2.65795827e-001 2.33151704e-001 -6.36566758e-001
      -1.47088245e-001 4.61068779e-001 6.16419911e-001 1.19104862e-001
      -4.32220042e-001 -1.61682799e-001 4.36431199e-001 5.18942118e-001
      2.55660951e-001 -2.54320264e-001 -7.31492937e-002 1.02819391e-001
      1.62566692e-001 3.80494088e-001 -3.10932189e-001 -1.69864535e-001
      2.05656648e-001 4.68598753e-001 2.46682331e-001 -2.11392477e-001
      -9.03037786e-002 2.84614474e-001 2.90679365e-001 2.67193973e-001
      -2.11392477e-001 7.88229704e-002 3.32141340e-001 2.53316045e-001
      8.35090801e-002</_>
    <_>
      2.52953857e-001 9.61812258e-001 -2.33713478e-001 -3.68325502e-001
      -1.49060535e+000 4.50639307e-001 1.44636703e+000 -6.68768734e-002
      -8.02245796e-001 -1.78691947e+000 -1.18334341e+000 5.50299168e-001
      2.45287135e-001 -6.81135237e-001 -1.93314266e+000 -2.12457252e+000
      -4.60508794e-001 3.90807331e-001 1.36556435e+000 -1.50009656e+000
      2.43280515e-001 -2.33192160e-003 -4.34100330e-002 -1.97586030e-001
      -2.98014104e-001 -1.79014634e-002 -6.40313253e-002
      -1.83167726e-001 -7.73768008e-001 3.93713564e-001 -1.40356243e+000
      -1.22783089e+000 4.08731289e-002 3.91300231e-001 -8.75930786e-001
      7.43808508e-001 -5.41508608e-002 -7.50234276e-002 3.92712019e-002
      2.98509270e-001 -3.98747802e-001 -1.89583287e-001 4.81521450e-002
      -3.37239772e-001 -3.01638275e-001 -1.74708907e-002 8.10846090e-002
      -5.25377631e-001 -2.13104248e-001 1.28045812e-001 2.27548361e-001
      1.23639405e-001 9.03134942e-002 -7.50869334e-001 -6.77677291e-003
      2.42494419e-001 8.64699036e-002 -3.35984558e-001 -3.10526937e-001
      1.11026376e-001</_>
    <_>
      -4.70195804e-003 7.79074132e-002 -2.51014352e-001 -2.16275990e-001
      -3.48653615e-001 -7.64794201e-002 4.39043343e-001 5.05589306e-001
      -4.71666753e-002 -7.41497993e-001 4.81103398e-002 4.37363476e-001
      1.25391055e-002 -4.01094109e-001 -5.94262481e-001 -4.64563876e-001
      -3.26852538e-002 4.53670949e-001 4.59665596e-001 -4.32245344e-001
      3.55095744e-001 3.95475328e-001 2.73742706e-001 -3.52271944e-001
      -7.15444386e-001 6.24336183e-001 4.70304191e-001 -3.32896203e-001
      -6.40277803e-001 -2.79035065e-002 -5.86892247e-001
      -5.06225169e-001 2.37954438e-001 5.85487068e-001 6.92177489e-002
      -6.35010302e-002 -3.61032128e-001 -2.49380291e-001 1.52178615e-001
      1.88987941e-001 5.02418041e-001 1.35769054e-001 -5.28463483e-001
      -4.75414515e-001 4.49595064e-001 9.34663489e-002 -1.13026559e-001
      -9.05306339e-002 1.27678037e-001 2.59062141e-001 -1.62027981e-002
      -1.15798660e-001 -3.79586279e-001 -3.12596336e-002 1.36909992e-001
      -4.82745692e-002 -3.84489335e-002 -1.74428433e-001
      -6.58370852e-002 5.19478209e-002</_>
    <_>
      -5.63348606e-002 -1.39325544e-001 3.55250388e-001 4.44305614e-002
      -1.97671473e-001 2.60777920e-001 -3.48498486e-002 -1.90295041e-001
      -3.98484826e-001 -2.38779962e-001 1.05612166e-002 -1.09649323e-001
      2.85124093e-001 7.85795897e-002 -5.62132299e-002 1.62892789e-001
      -4.21851203e-002 -2.36116782e-001 -1.99230015e-001
      -2.67274886e-001 3.37680191e-001 -2.33056650e-001 -4.37002897e-001
      -2.74315149e-001 -5.19746616e-002 3.11101735e-001 -4.22240347e-002
      -2.57900983e-001 -1.60045683e-001 -6.52511492e-002 3.57442826e-001
      -1.86516196e-002 -4.58447695e-001 -5.30631900e-001
      -3.45684588e-001 4.39788222e-001 1.90288633e-001 -3.66881162e-001
      -5.22918701e-001 -2.39907131e-001 2.19616741e-001 3.60658877e-002
      -8.72778744e-002 -1.94926947e-001 -3.89254272e-001 4.01331365e-001
      9.00334716e-002 -3.29997867e-001 -5.08089840e-001 -2.70638019e-001
      2.19616741e-001 4.59607095e-002 -1.19567089e-001 -2.78492242e-001
      -3.23406100e-001 2.19616741e-001 -8.93228874e-002 -2.58471280e-001
      -2.27581665e-001 -2.62819305e-002</_>
    <_>
      -5.95234754e-003 -2.44381845e-001 1.54651895e-001 -3.35324556e-002
      -1.30801871e-001 1.50957316e-001 1.11509040e-001 9.72567722e-002
      -1.06470883e-001 -3.15143615e-001 2.84421474e-001 1.14513956e-001
      1.77446172e-001 -8.68049338e-002 -1.42146826e-001 4.14052531e-002
      8.40045959e-002 6.57228753e-002 -1.63510039e-001 -3.23854506e-001
      3.48368853e-001 -7.69867674e-002 -2.38594010e-001 -2.61319131e-001
      -1.81179374e-001 4.92280871e-001 -5.45531511e-002 -4.75874901e-001
      -3.95597517e-001 -3.75463963e-002 1.95050970e-001 -7.50846341e-002
      -1.63113132e-001 -6.21247962e-002 -1.57824740e-001 2.19729722e-001
      2.93654520e-002 -4.52814579e-001 -3.25270444e-001 -1.21860050e-001
      5.38894832e-001 3.61452214e-002 -3.84674817e-001 -3.76030087e-001
      -1.69468708e-002 4.36836869e-001 9.02181715e-002 -2.96857625e-001
      -4.32373136e-001 -5.43023050e-002 2.21629903e-001 -1.71944927e-002
      -4.06251729e-001 -2.91807741e-001 -1.50851160e-001 2.07373917e-001
      -1.52214766e-001 -2.93162972e-001 -2.42477059e-001
      -1.67498123e-002</_>
    <_>
      -1.91915333e-001 -5.56261241e-001 -1.88426599e-001 5.81074841e-002
      4.55161184e-003 -3.64176720e-001 2.80946642e-001 8.51175010e-001
      5.94344139e-001 -1.58874273e-001 6.41914368e-001 2.09751680e-001
      -3.54560673e-001 -2.37611532e-001 -1.16732135e-001
      -9.60211381e-002 2.75449663e-001 4.53913391e-001 -1.61286294e-001
      -1.75905630e-001 4.18131277e-002 2.43208203e-002 3.80026907e-001
      -2.43309662e-001 -5.31080723e-001 1.20270157e+000 1.77621841e-001
      -2.84446836e-001 -5.51172793e-001 -8.70018378e-002
      -3.46754819e-001 -5.08577228e-001 1.11114569e-001 9.30808783e-001
      7.02088714e-001 -3.85943055e-001 -7.85630226e-001 -1.83858663e-001
      2.80695081e-001 4.51823711e-001 1.03261340e+000 -4.85729538e-002
      -9.53207493e-001 -4.51130658e-001 8.99967849e-001 -1.27528548e-001
      -3.43510032e-001 -2.00483780e-002 1.83022782e-001 4.99431193e-001
      -1.47661477e-001 -4.20207202e-001 -8.47736001e-001 2.82635421e-001
      3.64858449e-001 3.15289237e-002 -2.35328913e-001 -1.54231116e-001
      1.40099257e-001 8.53347555e-002</_></support_vectors>
  <uncompressed_sv_total>366</uncompressed_sv_total>
  <uncompressed_support_vectors>
    <_>
      3.17209572e-001 2.19182789e-001 2.22407117e-001 2.35547230e-001
      1.44755185e-001 3.17209572e-001 8.71365294e-002 1.41122267e-001
      1.36960089e-001 2.49032900e-001 1.01497062e-001 5.93509078e-002
      1.69500068e-001 3.17209572e-001 3.17209572e-001 3.17209572e-001
      4.95158136e-002 1.70247868e-001 1.92047432e-001 3.17209572e-001
      3.09142202e-001 6.97322935e-002 1.67308494e-001 1.50435701e-001
      2.04442382e-001 2.70461887e-001 1.81285486e-001 1.38123021e-001
      2.28227720e-001 3.22191685e-001 3.22191685e-001 3.97329852e-002
      1.86755523e-001 7.66850710e-002 3.22191685e-001 3.22191685e-001
      1.35373190e-001 1.57929033e-001 1.48686752e-001 3.22191685e-001
      1.52317882e-001 1.00112088e-001 6.87734857e-002 1.06228635e-001
      3.10361743e-001 2.56326705e-001 2.05123216e-001 3.10361743e-001
      1.89831510e-001 3.10361743e-001 3.10361743e-001 2.59566694e-001
      7.52427503e-002 3.44448611e-002 2.08045647e-001 3.10361743e-001
      3.10361743e-001 3.10361743e-001 2.44392045e-002 1.07108779e-001</_>
    <_>
      3.43293399e-001 2.72649050e-001 1.00025982e-001 1.49062872e-001
      1.17366694e-001 3.43293399e-001 1.41849324e-001 5.22473566e-002
      8.48013461e-002 1.70235932e-001 2.08444178e-001 1.03416175e-001
      1.51474625e-001 3.43293399e-001 3.43293399e-001 3.43293399e-001
      6.65500835e-002 5.67688011e-002 1.59273639e-001 3.43293399e-001
      3.54482025e-001 5.45894839e-002 3.62188257e-002 6.61882311e-002
      2.77513593e-001 3.54482025e-001 2.54728179e-002 8.05049166e-002
      6.72065243e-002 3.54482025e-001 3.54482025e-001 2.63336226e-002
      3.40331271e-002 7.01534525e-002 3.54482025e-001 3.54482025e-001
      2.65198331e-002 9.05077606e-002 6.20855913e-002 3.54482025e-001
      2.55185306e-001 5.04425243e-002 1.02671675e-001 1.06780097e-001
      3.00962090e-001 1.90793380e-001 2.37102419e-001 3.05405349e-001
      3.05405349e-001 2.80322254e-001 3.05405349e-001 1.93826973e-001
      1.07553661e-001 4.16514762e-002 1.52353659e-001 3.05405349e-001
      3.05405349e-001 2.92692691e-001 1.02702484e-001 9.43415016e-002</_>
    <_>
      3.27236712e-001 3.27236712e-001 1.31046638e-001 1.38899878e-001
      1.31189451e-001 3.27236712e-001 1.18742913e-001 9.04877186e-002
      4.63806093e-002 2.62421787e-001 1.39690921e-001 1.46177575e-001
      1.69468746e-001 3.27236712e-001 3.27236712e-001 3.27236712e-001
      7.27424920e-002 1.15605697e-001 1.09108202e-001 3.27236712e-001
      3.51935804e-001 6.23934008e-002 6.28206059e-002 4.90133278e-002
      2.39563361e-001 3.51935804e-001 9.56455171e-002 1.06139876e-001
      1.31759703e-001 3.51935804e-001 3.51935804e-001 3.12907025e-002
      7.01639578e-002 2.93111205e-002 3.51935804e-001 3.51935804e-001
      3.78481932e-002 8.38326067e-002 9.40417573e-002 3.51935804e-001
      1.64574385e-001 8.99955183e-002 7.12101981e-002 1.53705582e-001
      3.10075939e-001 9.99122486e-002 3.01998168e-001 3.00711244e-001
      3.10075939e-001 2.90445209e-001 3.10075939e-001 2.67486542e-001
      6.53839633e-002 6.46395981e-002 1.74795702e-001 3.10075939e-001
      3.10075939e-001 2.26272076e-001 8.91043842e-002 8.13661292e-002</_>
    <_>
      3.15757841e-001 3.15757841e-001 1.76104203e-001 8.76735747e-002
      5.20267114e-002 3.15757841e-001 1.93171367e-001 9.39905792e-002
      4.83523458e-002 1.17283031e-001 1.81043521e-001 1.30162820e-001
      2.75442868e-001 3.15757841e-001 3.15757841e-001 3.15757841e-001
      1.82491511e-001 1.13727815e-001 1.53134137e-001 3.15757841e-001
      3.34604204e-001 8.59441012e-002 1.06285058e-001 6.55304193e-002
      2.23275736e-001 3.34604204e-001 1.62302162e-002 1.03201061e-001
      1.17883526e-001 3.34604204e-001 3.34604204e-001 1.42220140e-001
      1.67785600e-001 8.57785121e-002 3.34604204e-001 3.34604204e-001
      3.64789367e-002 1.73261255e-001 1.67960331e-001 3.34604204e-001
      2.03301549e-001 3.85209136e-002 3.04698125e-002 6.86893985e-002
      3.21486920e-001 1.63472563e-001 2.48523518e-001 2.24421218e-001
      3.21486920e-001 3.21486920e-001 3.21486920e-001 1.83203235e-001
      5.66378683e-002 4.84699830e-002 2.10156605e-001 3.21486920e-001
      3.21486920e-001 2.61491418e-001 1.48300022e-001 1.25274092e-001</_>
    <_>
      3.38624239e-001 2.89347380e-001 1.22251414e-001 1.56612694e-001
      1.05655879e-001 3.38624239e-001 1.69970036e-001 8.08540210e-002
      4.10367437e-002 1.89708516e-001 1.84919402e-001 7.57323131e-002
      1.42397881e-001 3.38624239e-001 3.38624239e-001 3.38624239e-001
      3.42877060e-002 8.76865014e-002 1.79129794e-001 3.38624239e-001
      3.47947001e-001 4.22017463e-002 8.61454681e-002 5.94078563e-003
      3.27209413e-001 3.47947001e-001 5.83588704e-002 9.06994715e-002
      1.99258905e-002 3.47947001e-001 3.47947001e-001 1.24107525e-002
      7.37736747e-002 1.51215419e-002 3.47947001e-001 3.47947001e-001
      4.14645337e-002 1.09881252e-001 3.32098156e-002 3.47947001e-001
      1.75960585e-001 8.24577585e-002 5.62593266e-002 1.25685096e-001
      3.02654952e-001 1.28684819e-001 2.19082639e-001 2.56429940e-001
      3.02654952e-001 3.02654952e-001 3.02654952e-001 1.75070703e-001
      9.47222561e-002 7.58005008e-002 2.32467756e-001 3.02654952e-001
      3.02654952e-001 3.02654952e-001 1.96442544e-001 1.75329655e-001</_>
    <_>
      3.27350795e-001 2.57671416e-001 1.05641678e-001 1.47969171e-001
      9.29974392e-002 3.27350795e-001 1.35238290e-001 5.46367392e-002
      8.87605399e-002 3.13264459e-001 1.57977074e-001 1.02716230e-001
      1.48807749e-001 3.27350795e-001 2.46864006e-001 3.27350795e-001
      1.35136232e-001 1.48058280e-001 2.58407682e-001 3.27350795e-001
      3.41794223e-001 5.59011735e-002 3.85481529e-002 2.80857645e-002
      3.38554263e-001 3.41794223e-001 7.64369220e-002 5.32918014e-002
      5.43564595e-002 3.41794223e-001 3.41794223e-001 8.01600516e-002
      9.96775180e-002 2.74372250e-002 3.41794223e-001 3.41794223e-001
      1.33103609e-001 9.96733382e-002 4.89948913e-002 3.41794223e-001
      1.93749800e-001 1.05721377e-001 3.68459858e-002 1.64585158e-001
      3.30797136e-001 1.42788529e-001 2.51394212e-001 1.29074082e-001
      3.30797136e-001 3.13866794e-001 3.30797136e-001 2.87072301e-001
      6.54635057e-002 7.14730993e-002 1.26202211e-001 3.30797136e-001
      3.30797136e-001 1.95437506e-001 1.36763141e-001 9.49095935e-002</_>
    <_>
      1.81850910e-001 2.74282932e-001 1.16320021e-001 2.11747378e-001
      1.49737597e-001 3.25046510e-001 2.49504507e-001 9.54827517e-002
      1.12845652e-001 2.75755674e-001 2.86772288e-002 7.61996359e-002
      2.03558087e-001 3.25046510e-001 3.25046510e-001 2.29655221e-001
      7.66278505e-002 1.12088583e-001 3.25046510e-001 3.25046510e-001
      3.55072707e-001 2.84959171e-002 4.43099253e-002 1.02511197e-002
      3.29173803e-001 3.47086012e-001 1.77509082e-003 2.29150821e-002
      1.64021086e-002 3.55072707e-001 3.55072707e-001 9.66107193e-003
      5.27412258e-002 5.30229881e-002 3.55072707e-001 3.55072707e-001
      1.24256359e-002 3.69625986e-002 1.68475900e-002 3.55072707e-001
      1.69132486e-001 6.08953908e-002 3.34842056e-002 7.06450194e-002
      3.20221752e-001 1.41565606e-001 2.39311874e-001 2.36102924e-001
      2.55046248e-001 3.20221752e-001 3.20221752e-001 1.65370122e-001
      6.59507439e-002 2.90540289e-002 3.20221752e-001 3.20221752e-001
      3.20221752e-001 2.76228428e-001 7.28541985e-002 1.75692096e-001</_>
    <_>
      2.48342082e-001 1.81260005e-001 1.07763439e-001 1.64724112e-001
      2.06864208e-001 3.47901672e-001 1.80492654e-001 5.06329685e-002
      6.23028725e-002 3.19011241e-001 8.09926838e-002 6.05306625e-002
      1.27913594e-001 3.47901672e-001 3.47901672e-001 3.47901672e-001
      9.08098072e-002 9.73429158e-002 1.73719481e-001 3.47901672e-001
      2.43228346e-001 7.00782761e-002 2.08647046e-002 5.11442646e-002
      3.11839253e-001 2.50716001e-001 1.71239451e-002 3.34314443e-002
      1.04362659e-001 3.85851324e-001 3.85851324e-001 4.19040285e-002
      5.03780544e-002 2.83374451e-002 3.85851324e-001 3.85851324e-001
      1.85816884e-002 7.38833025e-002 3.62130404e-002 3.85851324e-001
      1.69522882e-001 8.50296468e-002 6.56877458e-002 1.28076628e-001
      2.99463868e-001 1.58644333e-001 2.72909671e-001 2.86717981e-001
      2.94765800e-001 2.84518629e-001 2.99463868e-001 2.35785484e-001
      7.97005072e-002 3.59153524e-002 2.99463868e-001 2.99463868e-001
      2.99463868e-001 2.35513195e-001 6.80547878e-002 1.37479141e-001</_>
    <_>
      1.90570593e-001 1.21153831e-001 2.11408570e-001 2.34239921e-001
      1.80390507e-001 3.57197791e-001 7.27255642e-002 1.22124985e-001
      8.92895460e-002 3.65581363e-001 5.48409969e-002 1.85099393e-002
      1.58908650e-001 3.65581363e-001 3.65581363e-001 1.59634441e-001
      2.11459901e-002 9.15654302e-002 2.44882807e-001 3.65581363e-001
      2.82027990e-001 5.28282346e-003 1.44670578e-002 2.65758727e-002
      3.74794036e-001 3.74794036e-001 2.99456343e-002 1.38521241e-002
      3.55123058e-002 3.74794036e-001 2.35880628e-001 1.07677290e-002
      3.29839736e-002 8.90134126e-002 3.74794036e-001 3.74794036e-001
      1.86276399e-002 4.81816232e-002 5.62465563e-002 3.74794036e-001
      3.03831100e-001 7.48650283e-002 2.93744393e-002 9.80390087e-002
      3.03831100e-001 1.65337250e-001 2.54202813e-001 1.72091812e-001
      3.03831100e-001 3.03831100e-001 3.03831100e-001 1.78774580e-001
      5.52575402e-002 5.83087392e-002 3.03831100e-001 3.03831100e-001
      3.03831100e-001 1.99797884e-001 1.07470922e-001 1.75852299e-001</_>
    <_>
      2.27557167e-001 1.97576135e-001 1.74546123e-001 1.22958764e-001
      1.47479296e-001 3.19204688e-001 1.82293773e-001 8.90150145e-002
      1.57584041e-001 2.77973980e-001 7.84208402e-002 6.59059584e-002
      2.58594334e-001 3.19204688e-001 3.19204688e-001 3.02655995e-001
      7.77558461e-002 1.04549155e-001 3.19204688e-001 3.19204688e-001
      3.41955870e-001 4.42905650e-002 1.73904561e-002 4.47737463e-002
      3.19221228e-001 3.41955870e-001 6.85861707e-002 3.50943767e-002
      7.10318387e-002 3.41955870e-001 3.41955870e-001 2.29778476e-002
      4.13971953e-002 1.29178375e-001 3.41955870e-001 3.41955870e-001
      1.89411610e-001 6.52986988e-002 4.27217223e-002 3.41955870e-001
      1.47088066e-001 1.43166661e-001 9.76335108e-002 1.58795282e-001
      2.99482286e-001 9.99933109e-002 2.75984138e-001 3.03213060e-001
      3.03213060e-001 2.86333531e-001 3.03213060e-001 3.03213060e-001
      1.04713447e-001 3.99200171e-002 1.27520561e-001 3.03213060e-001
      3.03213060e-001 2.68407404e-001 7.25155398e-002 6.70665652e-002</_>
    <_>
      3.49732965e-001 2.24557236e-001 1.22829676e-001 1.56144515e-001
      2.10323766e-001 3.49732965e-001 8.81111696e-002 2.92802267e-002
      7.71116018e-002 3.49732965e-001 9.81759802e-002 6.76701590e-002
      1.14753045e-001 3.49732965e-001 3.49732965e-001 2.49574244e-001
      4.48044837e-002 6.06817715e-002 1.36258706e-001 3.49732965e-001
      3.23362440e-001 2.84986980e-002 1.30326971e-002 2.91873738e-002
      3.51364344e-001 3.47520649e-001 3.84105928e-002 2.45085061e-002
      4.54049706e-002 3.51364344e-001 3.51364344e-001 2.84671038e-002
      3.13323811e-002 2.56342571e-002 3.51364344e-001 3.51364344e-001
      1.41091362e-001 4.02609855e-002 2.15799063e-002 3.51364344e-001
      1.43670917e-001 8.80011916e-002 4.91150245e-002 2.17367649e-001
      3.12140316e-001 1.01925410e-001 1.88457802e-001 1.88164994e-001
      3.12140316e-001 3.09984833e-001 3.12140316e-001 3.12140316e-001
      9.11202505e-002 8.96094292e-002 1.26235649e-001 3.12140316e-001
      3.12140316e-001 2.75889665e-001 2.02071607e-001 8.73328671e-002</_>
    <_>
      3.36764306e-001 2.52810478e-001 1.47840634e-001 2.59558577e-002
      1.11698978e-001 3.36764306e-001 5.87856881e-002 3.02418973e-002
      1.14572188e-002 2.69397855e-001 3.36764306e-001 1.27157807e-001
      2.79497415e-001 2.06209719e-001 3.36764306e-001 3.36764306e-001
      3.40308137e-002 3.94884497e-002 2.54760943e-002 3.36764306e-001
      3.60650122e-001 5.09742182e-003 1.04572866e-002 9.98112746e-003
      2.91519761e-001 3.60650122e-001 0. 5.84730366e-003 5.91309508e-003
      3.60650122e-001 3.60650122e-001 2.79500615e-003 1.15157999e-002
      6.92569558e-003 3.60650122e-001 3.60650122e-001 0. 1.92911439e-002
      8.28784425e-003 3.60650122e-001 3.31126243e-001 5.88280708e-003
      7.96601456e-003 1.11473417e-002 3.31126243e-001 3.31126243e-001
      1.45215154e-001 4.24299128e-002 2.21484497e-001 3.31126243e-001
      3.31126243e-001 2.94145066e-002 2.66437307e-002 4.81148530e-003
      3.09404641e-001 3.31126243e-001 3.31126243e-001 6.87210113e-002
      7.92018324e-002 2.20655829e-001</_>
    <_>
      2.27673352e-001 3.06340486e-001 2.40217984e-001 1.19119927e-001
      1.14057660e-001 3.06340486e-001 2.25530252e-001 6.60607964e-002
      5.82222566e-002 1.57060370e-001 2.61978149e-001 1.84937134e-001
      2.83268690e-001 3.06340486e-001 3.06340486e-001 3.06340486e-001
      1.00759596e-001 6.33568540e-002 1.28863186e-001 3.06340486e-001
      3.45890671e-001 2.61589549e-002 2.10414175e-002 3.97157520e-002
      3.45890671e-001 3.45890671e-001 1.13014858e-002 4.52826023e-002
      9.32713784e-003 3.45890671e-001 3.45890671e-001 2.46349815e-002
      5.39324544e-002 1.03835352e-001 3.45890671e-001 3.45890671e-001
      1.45949768e-002 1.00257486e-001 9.94465351e-002 3.45890671e-001
      2.25501344e-001 4.97799106e-002 5.70728779e-002 3.14341784e-002
      3.05648237e-001 2.70110488e-001 3.05648237e-001 3.05648237e-001
      1.83129549e-001 3.05648237e-001 3.05648237e-001 1.20901898e-001
      6.11491837e-002 1.64323263e-002 1.99021354e-001 3.05648237e-001
      3.05648237e-001 3.05648237e-001 3.48504446e-002 1.61425501e-001</_>
    <_>
      3.28288913e-001 2.22820148e-001 1.82569712e-001 3.53232473e-002
      1.27118394e-001 3.28288913e-001 8.54978934e-002 2.88090073e-002
      1.10342139e-002 2.99356997e-001 3.28288913e-001 7.36605674e-002
      3.12380761e-001 2.14458227e-001 3.28288913e-001 3.28288913e-001
      1.20245973e-002 3.88986319e-002 3.40144709e-002 3.28288913e-001
      3.50795507e-001 6.16193190e-002 1.19779995e-002 1.59447510e-002
      3.50795507e-001 3.50795507e-001 8.39052200e-002 1.98641196e-002
      5.30609749e-002 3.50795507e-001 3.50795507e-001 6.17959797e-002
      1.34346476e-002 1.39947040e-002 3.50795507e-001 3.50795507e-001
      2.30187461e-001 1.66610479e-002 3.19872051e-002 2.49330997e-001
      2.58314222e-001 5.32712005e-002 4.46811467e-002 8.21560174e-002
      2.99152583e-001 2.25059330e-001 2.43641138e-001 2.96299011e-001
      2.92986184e-001 2.99152583e-001 2.99152583e-001 2.05611587e-001
      5.40093705e-002 4.12321202e-002 1.49596483e-001 2.99152583e-001
      2.99152583e-001 2.99152583e-001 8.63227248e-002 1.46206856e-001</_>
    <_>
      3.28827173e-001 2.85405338e-001 1.15641989e-001 8.03165734e-002
      1.49566203e-001 3.28827173e-001 4.36709858e-002 2.80381665e-002
      1.19039752e-002 3.28677297e-001 2.90228963e-001 1.02531567e-001
      1.91560745e-001 2.94830412e-001 3.28827173e-001 3.28827173e-001
      2.69587357e-002 3.43794003e-002 3.59060466e-002 3.28827173e-001
      3.55291605e-001 0. 1.17193740e-002 3.47587396e-003 3.29949319e-001
      3.55291605e-001 0. 5.73585369e-003 2.44307071e-002 3.55291605e-001
      3.55291605e-001 2.88832914e-002 2.09001862e-002 2.08552461e-003
      3.55291605e-001 3.55291605e-001 2.89198291e-002 2.92044543e-002
      1.46584241e-002 3.55291605e-001 3.72975707e-001 1.36381714e-003
      3.70830810e-003 1.08580198e-002 3.72975707e-001 3.72975707e-001
      7.89458826e-002 5.79310581e-002 4.32251543e-002 3.72975707e-001
      3.72975707e-001 1.66831911e-002 2.32825577e-002 6.51481189e-003
      2.48775482e-001 3.72975707e-001 1.98283389e-001 4.94817756e-002
      1.12557411e-002 2.13013053e-001</_>
    <_>
      3.28097761e-001 3.22430491e-001 1.11308202e-001 9.22344849e-002
      8.94346982e-002 3.28097761e-001 6.81485906e-002 2.25300007e-002
      1.90782994e-002 2.55496860e-001 2.99672544e-001 1.12300411e-001
      1.96833089e-001 3.28097761e-001 3.28097761e-001 3.28097761e-001
      2.18081735e-002 2.90839635e-002 6.85708150e-002 3.28097761e-001
      3.55264068e-001 4.73125326e-003 1.17193367e-002 8.99557676e-003
      3.49303663e-001 3.55264068e-001 2.34061554e-002 1.74851082e-002
      2.00573895e-002 3.55264068e-001 3.55264068e-001 9.27037653e-003
      4.06681225e-002 1.15978941e-002 3.27903867e-001 3.55264068e-001
      3.56467590e-002 6.70762956e-002 2.23686788e-002 3.55264068e-001
      3.70513320e-001 2.05584131e-002 2.11959481e-002 9.22612846e-003
      3.09904486e-001 3.70513320e-001 1.04731537e-001 9.35081318e-002
      5.71562685e-002 3.70513320e-001 3.70513320e-001 2.21077837e-002
      2.92938463e-002 6.22777408e-003 2.99018353e-001 3.70513320e-001
      1.78406030e-001 6.62990287e-002 9.44201183e-003 2.50618041e-001</_>
    <_>
      3.06799501e-001 3.06799501e-001 2.26007476e-001 6.65413439e-002
      9.73592624e-002 3.06799501e-001 1.09210879e-001 4.88764904e-002
      2.33033467e-002 2.45619297e-001 2.69625217e-001 1.43177360e-001
      3.06799501e-001 3.06799501e-001 3.06799501e-001 3.06799501e-001
      5.44626005e-002 6.36932477e-002 5.94364293e-002 3.06799501e-001
      3.86270970e-001 2.96850111e-002 1.96090117e-002 3.25547508e-003
      2.61546344e-001 3.86270970e-001 2.14354098e-002 5.25466129e-002
      4.74776961e-002 3.86270970e-001 3.86270970e-001 4.89218011e-002
      2.07556430e-002 3.76738049e-003 2.78178483e-001 3.86270970e-001
      1.18477099e-001 7.36008435e-002 2.42616087e-002 2.73299992e-001
      2.22935751e-001 1.07531361e-001 1.05928414e-001 1.25238553e-001
      2.60706842e-001 1.51888296e-001 3.09233099e-001 2.93367058e-001
      2.72614658e-001 2.50200242e-001 3.09233099e-001 3.09233099e-001
      1.15980916e-001 3.10772285e-002 8.98463801e-002 3.09233099e-001
      3.09233099e-001 2.90281713e-001 3.43546644e-002 9.30638760e-002</_>
    <_>
      3.26872528e-001 3.26872528e-001 1.52755365e-001 1.31136775e-001
      8.16640109e-002 3.26872528e-001 1.42909020e-001 3.49252634e-002
      3.92592810e-002 1.65498078e-001 1.91782653e-001 1.47895530e-001
      2.41302341e-001 3.26872528e-001 3.26872528e-001 3.26872528e-001
      4.36107181e-002 5.71077466e-002 1.70284703e-001 3.26872528e-001
      3.68173897e-001 1.93573851e-002 9.25657619e-003 5.10716171e-004
      2.06688210e-001 3.68173897e-001 1.83277130e-002 1.40487533e-002
      2.30314154e-002 3.68173897e-001 3.68173897e-001 6.93775062e-003
      3.38776521e-002 1.15849148e-003 3.68173897e-001 3.68173897e-001
      1.09966276e-002 3.56382504e-002 2.50018481e-002 3.68173897e-001
      3.70571584e-001 1.41764544e-002 2.68051736e-002 3.25198807e-002
      3.35213393e-001 3.70571584e-001 1.09461688e-001 5.27158417e-002
      1.10672131e-001 3.70571584e-001 3.70571584e-001 4.33126837e-002
      3.16670164e-002 2.97019668e-002 2.56996423e-001 3.70571584e-001
      2.70790875e-001 6.37267083e-002 1.92991532e-002 1.44074827e-001</_>
    <_>
      3.17971349e-001 3.17971349e-001 1.81244865e-001 1.16815582e-001
      9.35172215e-002 3.17971349e-001 1.09329753e-001 2.80062389e-002
      3.26274894e-002 3.17971349e-001 1.18081890e-001 1.24939509e-001
      2.73637027e-001 3.17971349e-001 3.17971349e-001 3.17971349e-001
      4.52130698e-002 4.26319875e-002 1.03157498e-001 3.17971349e-001
      3.51516962e-001 1.08219124e-002 8.37378111e-003 5.01358835e-003
      3.51516962e-001 3.51516962e-001 2.11130083e-002 2.60072220e-002
      5.02020791e-002 3.51516962e-001 3.51516962e-001 1.24213565e-002
      1.52002051e-002 8.35598074e-003 3.51516962e-001 3.51516962e-001
      1.96614470e-002 2.92953830e-002 4.91892025e-002 3.51516962e-001
      1.58511057e-001 2.35591233e-002 6.73119277e-002 2.45047122e-001
      2.93311357e-001 7.11309761e-002 7.01330379e-002 2.56652743e-001
      2.93311357e-001 2.93311357e-001 2.93311357e-001 1.34025812e-001
      7.49833137e-002 1.06853910e-001 2.93311357e-001 2.93311357e-001
      2.93311357e-001 2.93311357e-001 2.85398364e-001 1.62026495e-001</_>
    <_>
      3.33080977e-001 3.33080977e-001 1.66509256e-001 3.55829597e-002
      7.54467770e-002 3.33080977e-001 1.11217417e-001 3.50676961e-002
      8.62471946e-003 1.83655187e-001 2.56048292e-001 1.22712500e-001
      3.18733931e-001 2.49351785e-001 3.33080977e-001 3.33080977e-001
      3.90631407e-002 4.65942696e-002 2.90568098e-002 3.33080977e-001
      3.83180737e-001 2.13822350e-002 2.01158151e-002 1.57739799e-002
      2.40504906e-001 3.83180737e-001 3.39478180e-002 2.99634915e-002
      1.75997335e-002 3.31515938e-001 3.83180737e-001 2.44811270e-002
      1.01335496e-002 8.73185601e-003 3.45734715e-001 3.83180737e-001
      4.02343571e-002 2.50889882e-002 1.05598401e-002 3.39080155e-001
      3.48659575e-001 2.80815326e-002 2.77587511e-002 1.14035364e-002
      3.48659575e-001 3.48659575e-001 1.33511573e-001 9.39285457e-002
      1.30190909e-001 3.48659575e-001 3.48659575e-001 5.07090390e-002
      3.42411362e-002 2.03720457e-003 2.25608662e-001 3.48659575e-001
      3.48659575e-001 8.65453854e-002 1.64255593e-002 1.94622934e-001</_>
    <_>
      3.23386192e-001 2.50444323e-001 1.88725039e-001 3.42747234e-002
      9.82379317e-002 3.23386192e-001 6.03859723e-002 3.42445187e-002
      9.60723963e-003 2.80482769e-001 2.97965437e-001 9.36314315e-002
      3.23386192e-001 2.69576639e-001 3.23386192e-001 3.23386192e-001
      1.78697016e-002 4.70265634e-002 6.16232380e-002 3.23386192e-001
      3.56881469e-001 5.73512912e-003 9.74766631e-003 1.79370574e-004
      3.22223157e-001 3.56881469e-001 3.37084266e-003 2.91346037e-003
      2.56243657e-005 3.56881469e-001 3.56881469e-001 0. 1.86884813e-002
      2.98950938e-004 3.56881469e-001 3.56881469e-001 1.31577370e-003
      2.35998463e-002 4.27072773e-005 3.56881469e-001 3.64885151e-001
      4.81653027e-003 2.76334793e-003 5.99962752e-003 3.64885151e-001
      3.64885151e-001 5.36847301e-002 1.64268930e-002 1.04720555e-001
      3.64885151e-001 3.64885151e-001 2.00966317e-002 2.13100296e-002
      3.65949911e-003 3.02676082e-001 3.64885151e-001 1.99264213e-001
      4.76686656e-002 4.58955616e-002 2.16225177e-001</_>
    <_>
      3.22538465e-001 3.22538465e-001 7.34431818e-002 4.56190258e-002
      5.28212413e-002 3.22538465e-001 2.18856201e-001 2.05034558e-002
      1.05458628e-002 1.95512787e-001 2.28180394e-001 2.63095111e-001
      1.52499124e-001 3.22538465e-001 3.22538465e-001 3.22538465e-001
      1.43926203e-001 3.28279659e-002 7.28419498e-002 3.22538465e-001
      3.52739066e-001 4.49101068e-002 1.37976538e-002 2.07730941e-003
      3.42436314e-001 3.52739066e-001 1.96313597e-002 1.81671232e-002
      1.24638574e-003 3.52739066e-001 3.52739066e-001 3.11608147e-002
      2.90818885e-002 0. 3.52739066e-001 3.52739066e-001 2.96469294e-002
      5.09995855e-002 3.73424753e-003 3.52739066e-001 3.22984397e-001
      1.33600552e-002 1.17087923e-002 1.07655469e-002 3.22984397e-001
      3.22984397e-001 1.67433351e-001 3.49779725e-002 2.44101107e-001
      3.22984397e-001 3.22984397e-001 4.70856279e-002 4.26933356e-002
      7.34253554e-003 3.22984397e-001 3.22984397e-001 3.22984397e-001
      7.31424838e-002 8.28241780e-002 2.37999454e-001</_>
    <_>
      3.40755016e-001 2.83471823e-001 1.05058402e-001 6.47481382e-002
      9.96261165e-002 3.40755016e-001 6.84426799e-002 2.54412219e-002
      1.95065066e-002 2.86934525e-001 3.26944172e-001 9.64835137e-002
      1.70800388e-001 2.73184747e-001 3.40755016e-001 3.40755016e-001
      1.98940802e-002 2.86136512e-002 3.53819616e-002 3.40755016e-001
      3.52586955e-001 7.37807830e-004 8.82161781e-003 8.06027930e-003
      3.52586955e-001 3.52586955e-001 0. 8.81639216e-003 1.20366004e-003
      3.52586955e-001 3.52586955e-001 3.41153151e-004 2.51877792e-002
      4.67100227e-003 3.52586955e-001 3.52586955e-001 1.65026437e-003
      3.24747451e-002 7.22196070e-004 3.52586955e-001 3.67112994e-001
      1.20848906e-003 5.15616313e-003 4.03701281e-003 3.67112994e-001
      3.67112994e-001 6.17117211e-002 6.68872148e-002 7.35535473e-002
      3.67112994e-001 3.67112994e-001 7.43007846e-003 2.11052317e-002
      1.54461374e-003 2.74354011e-001 3.67112994e-001 1.81836143e-001
      6.66623637e-002 2.08508149e-002 2.45454147e-001</_>
    <_>
      3.15041542e-001 3.15041542e-001 1.13544799e-001 7.53465593e-002
      1.38189182e-001 3.15041542e-001 8.27441067e-002 2.11257134e-002
      8.16950854e-003 3.15041542e-001 3.03763717e-001 1.30177945e-001
      2.28459045e-001 3.03898841e-001 3.15041542e-001 3.15041542e-001
      3.34378295e-002 3.28156389e-002 3.32685895e-002 3.15041542e-001
      3.53898317e-001 9.69156343e-003 9.08811484e-003 1.46884227e-003
      3.44549835e-001 3.53898317e-001 1.17263459e-002 1.01397578e-002
      7.54725654e-003 3.53898317e-001 3.53898317e-001 1.53814396e-002
      7.89680798e-003 2.44807056e-003 3.53898317e-001 3.53898317e-001
      9.30175837e-003 1.10965995e-002 7.13962922e-003 3.53898317e-001
      3.22947472e-001 1.61545631e-002 1.33204032e-002 2.59822328e-002
      3.22947472e-001 3.22947472e-001 1.59537703e-001 9.39402953e-002
      1.89566225e-001 3.22947472e-001 3.22947472e-001 3.25345099e-002
      2.02704072e-002 1.14374673e-002 3.22947472e-001 3.22947472e-001
      3.22947472e-001 7.89265931e-002 4.59572040e-002 2.84859657e-001</_>
    <_>
      3.05569053e-001 3.05569053e-001 1.60493910e-001 1.38523355e-001
      6.61536679e-002 3.05569053e-001 2.09181428e-001 9.18047875e-002
      4.75226529e-002 1.18956685e-001 2.11871877e-001 1.67520687e-001
      3.05569053e-001 3.05569053e-001 3.05569053e-001 3.05569053e-001
      7.96149001e-002 1.54188052e-001 1.70247331e-001 3.05569053e-001
      3.53073716e-001 9.92626548e-002 5.03110141e-002 8.56619179e-002
      2.22406507e-001 3.53073716e-001 1.33544415e-001 5.40231876e-002
      6.36651143e-002 3.53073716e-001 3.53073716e-001 9.14090872e-002
      4.97965068e-002 3.67711298e-002 3.53073716e-001 3.53073716e-001
      1.23899363e-001 2.99826562e-002 3.76146175e-002 3.53073716e-001
      2.81660408e-001 7.74234012e-002 4.32112142e-002 3.68247256e-002
      2.53422618e-001 2.00864121e-001 3.05628181e-001 2.16560125e-001
      2.28674546e-001 3.05628181e-001 3.05628181e-001 1.41199857e-001
      3.40997353e-002 2.17189956e-002 2.82477140e-001 3.05628181e-001
      3.05628181e-001 2.41587296e-001 1.20637275e-001 2.51614988e-001</_>
    <_>
      2.97508508e-001 2.97508508e-001 1.81012422e-001 9.54525843e-002
      9.07073244e-002 2.97508508e-001 1.70749933e-001 4.22123224e-002
      6.25517070e-002 2.61885792e-001 2.59319633e-001 2.21087486e-001
      2.97508508e-001 2.97508508e-001 2.97508508e-001 2.97508508e-001
      1.01391107e-001 5.80334552e-002 7.49893561e-002 2.97508508e-001
      3.48162651e-001 6.89508319e-002 4.03157808e-002 7.76306987e-002
      3.10271084e-001 3.48162651e-001 1.14705376e-001 6.26308247e-002
      3.91031727e-002 3.48162651e-001 3.48162651e-001 7.90997148e-002
      3.27071138e-002 5.59885390e-002 3.32440615e-001 3.48162651e-001
      1.19068496e-001 6.85718730e-002 4.55787703e-002 3.48162651e-001
      2.95510203e-001 1.74178198e-001 8.21182802e-002 4.25267294e-002
      2.08653331e-001 2.95304269e-001 3.22933674e-001 2.48616144e-001
      1.64450765e-001 2.34428510e-001 3.22933674e-001 3.22933674e-001
      7.45585859e-002 8.76398385e-003 1.70196533e-001 3.22933674e-001
      3.22933674e-001 1.54215306e-001 1.50653217e-002 1.26343995e-001</_>
    <_>
      2.81326234e-001 3.06167662e-001 2.84935296e-001 1.63454235e-001
      1.15117826e-001 3.06167662e-001 8.15231949e-002 6.20009862e-002
      5.53750023e-002 3.06167662e-001 1.05462760e-001 6.85398728e-002
      2.99835891e-001 3.06167662e-001 3.06167662e-001 3.06167662e-001
      1.33548463e-002 5.91270626e-002 1.32346511e-001 3.06167662e-001
      3.51672858e-001 9.72023699e-003 1.71003100e-002 7.74055580e-003
      3.51672858e-001 3.51672858e-001 1.29226288e-002 4.49633785e-002
      3.31719182e-002 3.51672858e-001 3.51672858e-001 5.83214173e-003
      1.23058874e-002 1.01717804e-002 3.51672858e-001 3.51672858e-001
      7.75357708e-003 3.93542573e-002 3.82411554e-002 3.51672858e-001
      1.66593090e-001 1.37040149e-002 6.01604506e-002 1.12565726e-001
      3.07037979e-001 1.06683388e-001 9.92310941e-002 3.07037979e-001
      3.07037979e-001 3.07037979e-001 3.07037979e-001 6.87433258e-002
      7.87978172e-002 6.22674674e-002 3.07037979e-001 3.07037979e-001
      3.07037979e-001 3.07037979e-001 1.59481093e-001 2.06822097e-001</_>
    <_>
      1.41952395e-001 2.93572634e-001 2.93572634e-001 1.29580989e-001
      9.05463472e-002 2.93572634e-001 2.93572634e-001 1.87012121e-001
      7.74792284e-002 2.71121204e-001 2.77639449e-001 1.42511681e-001
      1.84831977e-001 2.69156039e-001 2.77754396e-001 2.93572634e-001
      7.32715800e-002 9.36405435e-002 1.58264831e-001 2.93572634e-001
      3.56714249e-001 4.25160006e-002 2.24667881e-002 8.42299778e-003
      3.11618447e-001 3.56714249e-001 3.60827148e-002 2.02230774e-002
      8.19784589e-003 3.56714249e-001 3.56714249e-001 1.13451816e-002
      2.98133101e-002 2.36268695e-002 3.56714249e-001 3.56714249e-001
      1.29310181e-002 5.19100465e-002 3.93643277e-003 3.56714249e-001
      1.85626075e-001 3.68259177e-002 3.07045691e-002 2.60057338e-002
      3.75288635e-001 2.76933670e-001 3.53109874e-002 7.29784444e-002
      1.43514827e-001 3.75288635e-001 3.75288635e-001 2.54743509e-002
      3.70235890e-002 9.36756004e-003 3.75288635e-001 3.75288635e-001
      2.92165000e-002 6.81038871e-002 4.80451435e-002 3.75288635e-001</_>
    <_>
      2.22881496e-001 3.43485594e-001 3.09079170e-001 7.18821883e-002
      1.05134204e-001 3.43485594e-001 1.70096144e-001 1.56923443e-001
      4.78168502e-002 2.43117750e-001 3.43485594e-001 9.90645364e-002
      1.74232945e-001 1.62607700e-001 2.33781397e-001 3.43485594e-001
      4.12431136e-002 7.76663944e-002 3.57865840e-002 3.43485594e-001
      3.08462292e-001 3.24416719e-002 2.71981210e-002 3.42597440e-002
      3.71921748e-001 2.49140635e-001 1.69872828e-002 2.06676610e-002
      3.03210728e-002 3.71921748e-001 3.71921748e-001 1.64221693e-002
      2.08000392e-002 1.44047057e-002 3.71921748e-001 3.71921748e-001
      3.17436941e-002 3.48516703e-002 3.70971859e-002 3.71921748e-001
      3.57073367e-001 1.75406970e-002 1.31147867e-002 1.92209370e-002
      2.90865660e-001 3.57073367e-001 1.16397487e-002 1.42168058e-002
      3.59020382e-002 3.57073367e-001 3.57073367e-001 2.96355318e-002
      6.46592453e-002 2.73753293e-002 3.57073367e-001 3.57073367e-001
      1.90622807e-002 5.15092090e-002 8.95508751e-002 3.57073367e-001</_>
    <_>
      1.92359477e-001 3.14710468e-001 3.10110092e-001 1.09450780e-001
      1.25824824e-001 3.14710468e-001 1.52915418e-001 1.23618387e-001
      6.74209371e-002 3.14710468e-001 3.14710468e-001 1.10310256e-001
      1.76933274e-001 1.98534876e-001 3.14710468e-001 3.14710468e-001
      8.04942697e-002 4.83629592e-002 8.75014067e-002 3.14710468e-001
      3.51876825e-001 3.10332198e-002 2.11262666e-002 2.61266064e-002
      3.51876825e-001 3.51876825e-001 3.62710804e-002 2.46186052e-002
      2.12895256e-002 3.51876825e-001 3.51876825e-001 6.94617350e-003
      2.53209770e-002 1.74019374e-002 3.51876825e-001 3.51876825e-001
      4.41381661e-003 1.94400139e-002 9.45366174e-003 3.51876825e-001
      3.38199943e-001 9.31813382e-003 1.15696313e-002 2.54427129e-003
      3.54449362e-001 3.54449362e-001 2.89470982e-002 5.90312947e-003
      1.35104172e-003 3.54449362e-001 3.54449362e-001 1.12025137e-003
      1.24955773e-002 2.12132069e-003 3.54449362e-001 3.54449362e-001
      2.47475058e-002 2.75941920e-002 1.29870535e-003 3.54449362e-001</_>
    <_>
      8.24156031e-002 3.02886218e-001 3.02886218e-001 9.24012363e-002
      1.05860531e-001 3.02886218e-001 1.77402645e-001 2.87143379e-001
      7.30713159e-002 2.40959600e-001 2.82187700e-001 1.53718293e-001
      3.02886218e-001 1.59102827e-001 2.86026448e-001 3.02886218e-001
      1.03163436e-001 1.18500173e-001 8.71976241e-002 3.02886218e-001
      3.23875904e-001 1.84407812e-002 2.21926831e-002 1.39246667e-002
      3.19198966e-001 3.60890806e-001 4.31458317e-002 2.26764800e-003
      3.32771912e-002 3.60890806e-001 3.60890806e-001 4.93116751e-002
      1.76465940e-002 1.19812097e-002 3.60890806e-001 3.60890806e-001
      1.77039690e-002 1.44773982e-002 2.73401942e-002 3.60890806e-001
      3.61809403e-001 6.18923716e-002 2.43923292e-002 3.32862921e-002
      2.44174883e-001 3.61809403e-001 7.09917247e-002 5.10827899e-002
      3.54312733e-002 3.35850865e-001 3.61809403e-001 2.71493681e-002
      1.07012149e-002 1.48975225e-002 3.61809403e-001 3.61809403e-001
      3.11068613e-002 7.54487067e-002 1.27905041e-001 3.61809403e-001</_>
    <_>
      2.51080424e-001 2.81037331e-001 2.55295634e-001 1.22380547e-001
      1.84357554e-001 3.33781153e-001 1.23997033e-001 7.66434222e-002
      1.40872505e-002 3.33781153e-001 3.33781153e-001 7.34230280e-002
      1.17369048e-001 1.46682397e-001 3.33781153e-001 3.33781153e-001
      8.61824080e-002 4.42038141e-002 2.30279490e-002 3.33781153e-001
      2.83499300e-001 1.22369491e-002 1.11387586e-002 5.26750926e-003
      3.74067992e-001 2.60466099e-001 1.54465260e-002 2.19757799e-002
      9.54448432e-003 3.74067992e-001 3.74067992e-001 1.70709565e-002
      3.74531709e-002 2.32066363e-002 3.74067992e-001 3.74067992e-001
      4.37059104e-002 3.11463997e-002 4.75410521e-002 3.74067992e-001
      3.33612233e-001 2.26542782e-002 2.33041532e-002 1.80576127e-002
      3.51997226e-001 3.51997226e-001 2.31532976e-002 3.37364413e-002
      3.56327519e-002 3.51997226e-001 3.51997226e-001 1.90467220e-002
      3.09746973e-002 6.72786981e-002 3.51997226e-001 3.51997226e-001
      3.02424328e-003 6.16669692e-002 6.23278581e-002 3.51997226e-001</_>
    <_>
      1.98593497e-001 2.75822371e-001 3.27683806e-001 1.08150624e-001
      2.04893157e-001 3.27683806e-001 1.00100830e-001 1.26895547e-001
      7.60464743e-002 3.27683806e-001 3.27683806e-001 3.44639271e-002
      1.47439316e-001 1.35298118e-001 3.27683806e-001 3.27683806e-001
      1.61085390e-002 3.32223140e-002 3.73266861e-002 3.27683806e-001
      3.57959986e-001 3.99914710e-003 1.46004548e-002 2.89925300e-002
      3.10645759e-001 3.57959986e-001 8.02316004e-004 1.56725794e-002
      2.01114360e-002 3.57959986e-001 3.57959986e-001 7.85347633e-003
      2.20794100e-002 9.24936123e-003 3.57959986e-001 3.57959986e-001
      4.68239514e-003 2.39143278e-002 5.11938892e-003 3.57959986e-001
      3.52213323e-001 8.82813882e-004 1.16403811e-002 2.72435229e-003
      3.52213323e-001 3.52213323e-001 5.77527890e-003 9.48747899e-003
      8.56048719e-004 3.52213323e-001 3.52213323e-001 3.73092899e-003
      1.19741997e-002 8.86234466e-006 3.52213323e-001 3.52213323e-001
      3.56022492e-002 4.81541418e-002 5.99234132e-003 3.52213323e-001</_>
    <_>
      1.36191785e-001 7.66622424e-002 3.14653218e-001 1.49096429e-001
      2.21947446e-001 3.14653218e-001 5.79637848e-003 3.14653218e-001
      1.57321498e-001 3.14653218e-001 1.42470837e-001 2.01145317e-002
      2.09470689e-001 2.94395089e-001 3.14653218e-001 3.14653218e-001
      5.17700948e-002 1.10971518e-001 1.29870653e-001 3.14653218e-001
      3.44416708e-001 1.58029050e-002 7.17910379e-002 7.27227628e-002
      3.44416708e-001 3.44416708e-001 5.82128838e-002 1.01548813e-001
      9.83179361e-002 3.44416708e-001 3.44416708e-001 2.56769098e-002
      2.53341664e-002 7.12142512e-002 3.44416708e-001 3.44416708e-001
      1.05542410e-002 3.49930041e-002 7.62083679e-002 3.44416708e-001
      3.33746135e-001 6.09933548e-002 3.92542221e-002 3.13178636e-002
      3.33746135e-001 3.33746135e-001 5.26751280e-002 1.69385783e-002
      9.24743712e-002 3.33746135e-001 3.33746135e-001 2.32824925e-002
      1.09859370e-002 2.79083606e-002 3.33746135e-001 3.33746135e-001
      9.26352218e-002 8.20694119e-002 2.66383618e-001 3.33746135e-001</_>
    <_>
      2.76607543e-001 1.86225981e-001 2.11875364e-001 6.61827996e-002
      1.23151943e-001 2.82138854e-001 1.98442534e-001 1.09139562e-001
      2.55197674e-001 2.82138854e-001 1.89688757e-001 2.28948265e-001
      2.45900825e-001 2.13352397e-001 2.72029430e-001 2.82138854e-001
      1.54190376e-001 1.22320160e-001 2.82138854e-001 2.82138854e-001
      2.76513129e-001 5.37107661e-002 5.26366048e-002 1.16362065e-001
      2.93054044e-001 2.93054044e-001 8.31149146e-002 1.70465052e-001
      1.63049161e-001 2.93054044e-001 2.93054044e-001 3.23849618e-002
      7.83263296e-002 2.86714643e-001 2.93054044e-001 2.93054044e-001
      1.75804228e-001 2.22188234e-001 2.60837972e-001 2.93054044e-001
      2.05307141e-001 9.22270864e-002 1.26599789e-001 1.45413905e-001
      2.11412787e-001 2.02594951e-001 1.22491285e-001 2.47512624e-001
      2.85998315e-001 2.85998315e-001 2.85998315e-001 2.34033152e-001
      2.07304180e-001 1.09618083e-001 2.79812396e-001 2.85998315e-001
      2.85998315e-001 2.85998315e-001 2.29302555e-001 1.26088709e-001</_>
    <_>
      1.22532271e-001 1.85818195e-001 3.01213294e-001 2.25563541e-001
      1.64366499e-001 3.01213294e-001 8.76368880e-002 2.98898131e-001
      1.58131853e-001 3.01213294e-001 2.61117160e-001 3.47004905e-002
      2.21979052e-001 2.21032336e-001 3.01213294e-001 3.01213294e-001
      1.87021177e-002 7.77609348e-002 1.70987964e-001 3.01213294e-001
      3.54210734e-001 8.60495940e-002 3.08583938e-002 2.49477215e-002
      2.84135222e-001 3.54210734e-001 6.92117810e-002 1.93861648e-002
      1.02796301e-001 3.54210734e-001 3.54210734e-001 1.82800256e-002
      2.18068641e-002 5.52113950e-002 3.54210734e-001 3.54210734e-001
      1.23805944e-002 8.41430575e-002 4.08384688e-002 3.54210734e-001
      2.90786117e-001 5.99615537e-002 4.29098047e-002 8.07373673e-002
      3.26943427e-001 3.26943427e-001 1.93950251e-001 4.76170406e-002
      5.41734658e-002 3.26943427e-001 3.26943427e-001 3.14423218e-002
      1.00034103e-001 4.42424975e-002 3.26943427e-001 3.26943427e-001
      1.37654707e-001 2.60647804e-001 9.65389460e-002 3.26943427e-001</_>
    <_>
      9.84204710e-002 2.79194117e-001 2.41244704e-001 2.50298917e-001
      1.43247440e-001 3.05659384e-001 5.12403697e-002 2.48594880e-001
      3.03193182e-001 3.05659384e-001 2.12833926e-001 4.77812663e-002
      9.58691463e-002 2.25518614e-001 3.05659384e-001 3.05659384e-001
      3.76005992e-002 1.34735480e-001 1.31353468e-001 3.05659384e-001
      3.51655155e-001 1.88892726e-002 3.47032845e-002 4.86834124e-002
      3.51655155e-001 3.38807374e-001 9.27825924e-003 8.57917964e-003
      4.87053953e-002 3.51655155e-001 3.51655155e-001 1.64401885e-002
      4.61195745e-002 2.92242467e-002 3.51655155e-001 3.51655155e-001
      5.75702405e-003 2.24266499e-002 7.62636140e-002 3.51655155e-001
      1.80715308e-001 6.91821938e-003 1.10194888e-002 6.57292157e-002
      3.63462299e-001 2.58003145e-001 5.65034896e-003 5.56578636e-002
      7.33074844e-002 3.63462299e-001 3.63462299e-001 1.58782732e-002
      2.26221457e-002 1.31706923e-001 3.63462299e-001 3.63462299e-001
      1.33111581e-001 1.20828077e-001 2.02716112e-001 3.63462299e-001</_>
    <_>
      1.11618415e-001 3.05687606e-001 2.98186511e-001 1.69765994e-001
      1.48622423e-001 3.05687606e-001 8.38447660e-002 3.05358261e-001
      1.64549604e-001 3.05687606e-001 1.00051738e-001 1.03585780e-001
      1.58751860e-001 2.77283251e-001 3.05687606e-001 3.05687606e-001
      7.78290629e-002 1.32865191e-001 1.00517951e-001 3.05687606e-001
      3.46224695e-001 1.09191742e-002 5.15904538e-002 6.61795959e-002
      3.46224695e-001 3.46224695e-001 5.63073764e-003 2.61508599e-002
      8.54612291e-002 3.46224695e-001 3.46224695e-001 1.95866916e-002
      6.12684451e-002 5.30068018e-002 3.46224695e-001 3.46224695e-001
      3.12940925e-002 1.04469895e-001 5.95661774e-002 3.46224695e-001
      1.92666054e-001 1.55077770e-003 1.98688563e-002 1.25808597e-001
      3.91554654e-001 2.28238091e-001 0. 1.71531960e-002 1.48573950e-001
      3.91554654e-001 2.73639947e-001 1.84981171e-002 3.65397297e-002
      8.38220790e-002 3.91554654e-001 2.79313713e-001 1.10343024e-001
      6.12896457e-002 2.78372794e-001 3.91554654e-001</_>
    <_>
      1.39087722e-001 1.34163037e-001 3.01773846e-001 2.19600707e-001
      1.02779843e-001 3.01773846e-001 2.28576213e-002 2.86716580e-001
      2.39680022e-001 3.01773846e-001 1.94310248e-001 6.30803183e-002
      1.88532531e-001 3.01773846e-001 2.87663430e-001 3.01773846e-001
      9.08439234e-002 9.52305794e-002 1.92144066e-001 3.01773846e-001
      3.52110058e-001 3.56040522e-003 2.16290373e-002 2.59442329e-002
      3.52110058e-001 3.52110058e-001 2.64193164e-004 8.38004332e-003
      4.26968979e-003 3.52110058e-001 3.52110058e-001 2.50555556e-002
      2.45110691e-002 2.87321266e-002 3.52110058e-001 3.52110058e-001
      2.77838716e-003 1.59779228e-002 3.27230692e-002 3.52110058e-001
      3.35789084e-001 0. 6.83661597e-003 1.18511319e-002 3.35789084e-001
      2.12903008e-001 0. 2.42317878e-002 1.91186234e-001 3.35789084e-001
      3.35789084e-001 1.27675943e-002 1.92830414e-002 3.01451553e-002
      3.35789084e-001 2.86655724e-001 1.57075971e-001 1.28150612e-001
      3.35789084e-001 3.35789084e-001</_>
    <_>
      1.48324624e-001 2.59080738e-001 3.01730156e-001 1.20737508e-001
      9.55142826e-002 3.01730156e-001 5.54424338e-002 2.64898658e-001
      1.67950198e-001 3.01730156e-001 1.92576975e-001 1.35764554e-001
      1.81142583e-001 2.62114912e-001 3.01730156e-001 3.01730156e-001
      1.54302016e-001 1.16536692e-001 2.05031186e-001 3.01730156e-001
      2.82748193e-001 4.17947071e-003 2.96227746e-002 5.26786894e-002
      3.59999985e-001 3.59999985e-001 2.63138525e-002 2.40410864e-002
      2.75957584e-002 3.59999985e-001 3.59999985e-001 2.92562917e-002
      2.14593261e-002 2.31316909e-002 3.59999985e-001 3.59999985e-001
      8.78664781e-004 3.36147547e-002 2.39293985e-002 3.59999985e-001
      3.43041718e-001 2.63069980e-002 2.19097026e-002 4.71690409e-002
      3.43041718e-001 2.14969829e-001 5.24887722e-003 4.20536026e-002
      1.49202496e-001 3.43041718e-001 3.43041718e-001 2.57012881e-002
      4.03936952e-002 4.91331778e-002 3.43041718e-001 3.43041718e-001
      2.12778077e-001 1.43808469e-001 1.68822855e-001 3.43041718e-001</_>
    <_>
      1.37983784e-001 1.31170750e-001 3.28120530e-001 2.39539459e-001
      2.08082870e-001 3.28120530e-001 4.08008732e-002 2.75793791e-001
      1.63571164e-001 3.28120530e-001 1.79142520e-001 2.72522401e-002
      1.17400549e-001 2.27489054e-001 3.28120530e-001 3.28120530e-001
      3.42555940e-002 5.89024015e-002 7.95347914e-002 3.28120530e-001
      3.51900637e-001 2.83893067e-002 4.61009964e-002 1.58457626e-002
      3.51900637e-001 3.38852108e-001 2.72299647e-002 7.59509057e-002
      4.96205762e-002 3.51900637e-001 3.51900637e-001 1.04605574e-002
      2.14783605e-002 4.69415309e-003 3.51900637e-001 3.51900637e-001
      2.69944710e-003 3.65555808e-002 2.70935483e-002 3.51900637e-001
      3.00925523e-001 3.06429733e-002 3.53360325e-002 3.66306342e-002
      3.28151554e-001 3.28151554e-001 4.23619784e-002 4.61227708e-002
      1.04918726e-001 3.28151554e-001 3.28151554e-001 9.13150981e-003
      2.83989273e-002 3.10320631e-002 3.28151554e-001 3.28151554e-001
      1.04643196e-001 1.31796077e-001 3.22100013e-001 3.28151554e-001</_>
    <_>
      1.27569333e-001 2.94413030e-001 2.45279491e-001 1.18741885e-001
      1.86387524e-001 3.19034666e-001 6.98806867e-002 2.95444012e-001
      1.83825716e-001 3.19034666e-001 1.58796996e-001 1.39782384e-001
      1.15545943e-001 2.42625281e-001 3.19034666e-001 3.19034666e-001
      8.73382390e-002 9.15464312e-002 1.30372599e-001 3.19034666e-001
      3.51327896e-001 1.63619372e-003 4.11556140e-002 3.87350433e-002
      3.51327896e-001 3.51327896e-001 2.81729624e-002 7.84831308e-003
      1.17751621e-002 3.51327896e-001 3.51327896e-001 8.43288749e-003
      3.06717046e-002 1.60145350e-002 3.51327896e-001 3.51327896e-001
      2.05087606e-002 5.09069487e-002 2.38340255e-002 3.51327896e-001
      3.29728693e-001 3.38173397e-002 4.81489720e-003 2.17628442e-002
      3.29728693e-001 3.29728693e-001 1.76996086e-002 2.35982891e-002
      1.24778531e-001 3.29728693e-001 3.29728693e-001 7.50483200e-002
      3.13036628e-002 3.67575735e-002 3.29728693e-001 3.29728693e-001
      1.32618576e-001 1.32851377e-001 2.56235391e-001 3.29728693e-001</_>
    <_>
      1.34860083e-001 1.41949221e-001 2.60504633e-001 1.86433822e-001
      1.67426482e-001 3.38652164e-001 2.13502869e-002 1.61353990e-001
      2.83017695e-001 3.38652164e-001 2.53198206e-001 2.01432053e-002
      1.08419776e-001 2.05528498e-001 3.38652164e-001 3.38652164e-001
      2.54053483e-003 5.60649000e-002 1.61088556e-001 3.38652164e-001
      3.51675004e-001 3.95389332e-004 1.24861849e-002 6.01669475e-002
      3.51675004e-001 3.51675004e-001 4.94817691e-003 6.74613379e-003
      1.61182415e-002 3.51675004e-001 3.51675004e-001 0. 1.08639384e-002
      3.48884575e-002 3.51675004e-001 3.51675004e-001 1.52631588e-002
      1.96240861e-002 3.20105664e-002 3.51675004e-001 3.42220277e-001
      5.61245717e-003 6.83819782e-003 9.58102662e-003 3.42220277e-001
      3.42220277e-001 4.01709648e-003 2.38968525e-002 8.98844749e-002
      3.42220277e-001 3.42220277e-001 3.17091569e-002 2.32128203e-002
      6.44115824e-003 3.42220277e-001 3.42220277e-001 7.28076920e-002
      1.63558185e-001 1.31104931e-001 3.42220277e-001</_>
    <_>
      1.58817202e-001 3.53797853e-001 1.40862048e-001 4.25436022e-003
      1.41416788e-002 2.76683718e-001 3.53797853e-001 2.03897059e-001
      2.58282805e-003 3.78205776e-002 2.87363410e-001 3.53797853e-001
      2.68437266e-001 2.97805183e-002 6.07118420e-002 3.53797853e-001
      3.53797853e-001 1.47450194e-001 1.78726278e-002 1.56468377e-001
      3.35593015e-001 3.61502051e-001 1.26057655e-001 1.43258937e-003
      1.05921596e-001 3.61502051e-001 1.56677783e-001 3.48785073e-002
      3.81829552e-002 1.81686550e-001 3.61502051e-001 1.20621331e-001
      4.78651524e-002 1.11206225e-003 3.43044549e-001 3.61502051e-001
      6.78846166e-002 2.81195976e-002 5.55166006e-002 3.61502051e-001
      3.18676859e-001 3.69888879e-002 2.98277661e-002 4.05233055e-002
      1.99084714e-001 3.71135920e-001 4.92683332e-003 5.15125096e-002
      3.37393135e-002 3.71135920e-001 3.71135920e-001 4.13361527e-002
      2.06543468e-002 4.70734052e-002 3.71135920e-001 3.71135920e-001
      1.14771433e-001 4.78353985e-002 3.35124992e-002 3.71135920e-001</_>
    <_>
      2.45844528e-001 2.94135064e-001 1.72774166e-001 4.33212444e-002
      2.40517687e-002 2.75470376e-001 2.94135064e-001 2.94135064e-001
      2.29748394e-002 9.53518376e-002 2.94135064e-001 2.94135064e-001
      2.74043888e-001 9.96442065e-002 8.61342251e-002 2.94135064e-001
      2.94135064e-001 1.90519169e-001 4.94099297e-002 2.86384970e-001
      4.03842360e-001 2.22479224e-001 1.75912112e-001 1.31453900e-002
      9.94997919e-002 4.03842360e-001 3.87174822e-002 3.74427922e-002
      1.23168211e-002 1.30152687e-001 4.03842360e-001 7.56053552e-002
      4.86063175e-002 3.39907780e-003 2.97647744e-001 4.03842360e-001
      3.34813483e-002 4.04870994e-002 3.50909797e-003 3.65577251e-001
      3.93190116e-001 1.35735814e-002 7.95925409e-003 3.97515204e-003
      1.85625017e-001 3.93190116e-001 8.11630860e-003 3.99047276e-003
      4.24510596e-004 2.85806626e-001 3.93190116e-001 1.67961307e-002
      1.75348856e-002 3.39271105e-003 3.25300485e-001 3.93190116e-001
      8.94194283e-003 9.51012224e-003 4.84672986e-004 3.93190116e-001</_>
    <_>
      2.56203949e-001 3.37244600e-001 5.96978739e-002 2.24723555e-002
      2.93774735e-002 3.37244600e-001 3.37244600e-001 1.59193248e-001
      4.32210453e-002 9.97626930e-002 2.91473687e-001 3.37244600e-001
      1.56288221e-001 6.84369653e-002 6.96780756e-002 3.37244600e-001
      3.37244600e-001 1.18441127e-001 7.44248107e-002 2.60772973e-001
      3.30554485e-001 3.34767222e-001 2.50720978e-001 4.52616215e-002
      1.37607545e-001 3.34767222e-001 6.32864088e-002 1.34772226e-001
      4.19511609e-002 2.68745542e-001 3.34767222e-001 1.75513819e-001
      5.57675399e-002 2.81650200e-002 3.27740073e-001 3.34767222e-001
      3.71522792e-002 3.76098230e-002 4.61352132e-002 3.34767222e-001
      3.51987422e-001 5.80302859e-003 1.61724128e-002 1.73670501e-002
      3.46154571e-001 3.51987422e-001 1.35222962e-002 1.75020434e-002
      1.41200526e-002 3.51987422e-001 3.51987422e-001 1.76272839e-002
      4.63537946e-002 5.78482375e-002 3.49558234e-001 3.51987422e-001
      8.02920759e-003 4.39316034e-002 4.48653027e-002 3.51987422e-001</_>
    <_>
      2.07669809e-001 3.49688143e-001 7.19608516e-002 5.63527597e-003
      1.39475744e-002 1.34714857e-001 3.49688143e-001 2.95565754e-001
      3.13041173e-002 7.82264322e-002 2.23655537e-001 3.49688143e-001
      2.19816357e-001 2.82188356e-002 7.31591806e-002 3.49688143e-001
      3.49688143e-001 1.79939225e-001 7.21552223e-002 2.86155581e-001
      1.30093843e-001 3.51481766e-001 3.21549416e-001 4.64393049e-002
      1.93994597e-001 3.27413797e-001 6.13846183e-002 8.22324306e-002
      4.03574444e-002 2.28228137e-001 3.51481766e-001 1.86032385e-001
      8.09106305e-002 4.60282266e-002 3.51481766e-001 3.51481766e-001
      1.73779372e-002 3.23261656e-002 5.11372387e-002 3.51481766e-001
      3.91752064e-001 2.50773784e-002 1.87931489e-002 1.44041032e-002
      1.42488003e-001 3.91752064e-001 3.27326842e-002 8.06678906e-002
      3.64069976e-002 1.93071008e-001 3.91752064e-001 2.37071421e-002
      2.75763441e-002 2.12741494e-002 3.91752064e-001 3.91752064e-001
      5.57978861e-002 5.19385226e-002 3.03754141e-003 3.91752064e-001</_>
    <_>
      3.21089923e-001 3.31253082e-001 6.44569993e-002 2.30284780e-003
      3.29166129e-002 3.31253082e-001 3.31253082e-001 1.42693788e-001
      2.38583479e-002 6.88744485e-002 2.31342629e-001 3.31253082e-001
      2.58325696e-001 1.74529664e-002 9.89516601e-002 3.31253082e-001
