<?xml version="1.0"?>
<opencv_storage>
<opencv_ml_svm>
  <format>3</format>
  <svmType>C_SVC</svmType>
  <kernel>
    <type>LINEAR</type></kernel>
  <C>1.</C>
  <term_criteria><iterations>3000</iterations></term_criteria>
  <var_count>420</var_count>
  <class_count>10</class_count>
  <class_labels type_id="opencv-matrix">
    <rows>10</rows>
    <cols>1</cols>
    <dt>i</dt>
    <data>
      0 1 2 3 4 5 6 7 8 9</data></class_labels>
  <sv_total>45</sv_total>
  <support_vectors>
    <_>
      6.89614415e-002 -7.27038365e-003 -1.36976400e-002 -1.49179983e-003
      2.62615969e-003 2.45198589e-002 -6.40861765e-002 -3.11281066e-002
      -8.34894553e-003 1.66423488e-002 2.44639348e-002 1.13432091e-002
      6.54459419e-003 -1.49146942e-002 -2.08297316e-002 1.76528506e-002
      -5.51076559e-003 -7.25429431e-002 -7.82592446e-002
      -3.39389518e-002 8.86648223e-002 -1.04345508e-001 -4.69518974e-002
      -2.26299744e-002 3.07144597e-002 1.36025310e-001 -1.37220219e-001
      -1.33360177e-001 -7.46389404e-002 6.89403787e-002 1.05063342e-001
      -8.59252438e-002 -6.91023692e-002 -5.37380055e-002
      -8.85885209e-003 8.21692646e-002 -1.43653095e-001 -7.79981464e-002
      -3.39979939e-002 9.40383077e-002 1.21785127e-001 -9.46613029e-002
      -1.40508711e-001 -7.50258043e-002 8.20907801e-002 9.03634429e-002
      -2.58998442e-002 -1.05676323e-001 -4.92019206e-002 1.07021876e-001
      3.97401415e-002 -8.77253115e-002 -7.36518800e-002 -2.42057759e-002
      4.36305925e-002 2.26733126e-002 -2.70050541e-002 -5.97551242e-002
      -1.28286574e-002 3.76494639e-002 9.11226496e-002 -4.79000099e-002
      -5.92378564e-002 -3.96914631e-002 8.26073438e-002 5.13433963e-002
      -4.60784957e-002 -5.24504073e-002 -2.06618961e-002 4.39627543e-002
      9.87856183e-003 -4.78702560e-002 -3.71687375e-002 -1.03495065e-002
      4.36525000e-003 -1.43908954e-003 -3.89494821e-002 -2.05003489e-002
      1.26796504e-002 2.77471845e-003 7.08664432e-002 -4.85582352e-002
      -3.40404361e-002 -3.47797982e-002 8.37908685e-002 4.82939593e-002
      -5.61910570e-002 -4.25354242e-002 -4.29915525e-002 3.72425914e-002
      -1.35012427e-002 -3.43880430e-002 -8.36427324e-003
      -1.77529864e-002 6.74208859e-003 -8.49361904e-003 -5.05310111e-002
      -1.41839320e-002 -1.72831379e-002 2.97068385e-003 5.45067340e-002
      -4.29898053e-002 -3.09270676e-002 -1.45167187e-002 8.31993744e-002
      2.09996179e-002 -4.36622389e-002 -2.68057920e-002 -1.92351954e-003
      6.20234571e-002 -1.29921194e-002 -4.02394831e-002 -2.33226065e-002
      -2.99784057e-002 2.95686792e-003 -1.22313490e-002 -3.20838653e-002
      -1.81892440e-002 -1.80025995e-002 -2.28515477e-003
      -1.19950054e-002 -2.52880659e-002 -1.45340580e-002 1.98514592e-002
      6.21758327e-002 -4.22369242e-002 -1.69068221e-002 -1.15264850e-002
      8.88665766e-002 4.52909656e-002 -9.42668468e-002 -1.65942535e-002
      4.39939322e-003 2.64843982e-002 -7.51871848e-003 -1.14983566e-001
      3.49188559e-002 1.55106941e-002 8.45068097e-002 -7.85341114e-003
      -6.94557354e-002 4.08305340e-002 1.02628008e-001 1.04450593e-002
      -8.28752145e-002 1.09530482e-002 4.55081500e-002 -1.42058460e-002
      -4.04285267e-002 -7.10175931e-002 -1.30656049e-001 7.33641791e-004
      1.03932910e-001 1.40845686e-001 -3.44298594e-002 -4.54717055e-002
      2.30936473e-003 3.22526954e-002 9.64505449e-002 4.51973416e-002
      9.90567058e-002 1.36187542e-002 -4.38578725e-002 -3.03827729e-002
      -1.78574529e-002 1.76405143e-002 -6.76185638e-002 -3.23955864e-002
      -1.00504169e-002 8.92763678e-003 5.53377606e-002 -1.44555746e-002
      -4.75574173e-002 3.14069651e-002 3.80122736e-002 8.66897218e-003
      -1.31437117e-002 -2.68868431e-002 -1.67830084e-002 1.88243780e-002
      -1.85197848e-003 -3.42047177e-002 -4.50875796e-003 2.34669205e-002
      -6.48374809e-003 -1.77844111e-002 7.85195548e-003 6.20289240e-003
      4.67945449e-002 1.24981636e-002 1.49785556e-004 1.40405772e-002
      5.69092529e-003 1.60720777e-002 8.88325088e-003 -1.09264790e-003
      3.17911357e-002 1.14713861e-002 3.11384108e-002 -1.09264790e-003
      -1.09720137e-002 2.58890516e-003 1.00978301e-003 3.08037736e-002
      -1.46386344e-002 -3.29994131e-004 2.37956941e-002 1.59365814e-002
      4.26882207e-002 -2.16077510e-002 -9.47826076e-004 1.08692059e-002
      3.94981541e-003 2.44554710e-002 -1.04742404e-003 -9.47826076e-004
      2.94259805e-002 8.41146149e-003 2.78271418e-002 -9.47826076e-004
      -2.19556410e-002 1.87418107e-002 2.22787485e-002 3.29943337e-002
      -5.24384566e-002 -2.18917988e-002 8.41684639e-003 4.46044095e-002
      4.01463322e-002 -2.07373165e-002 1.59807336e-002 3.39676850e-002
      9.56379715e-003 1.27693787e-002 9.27836262e-003 1.30292661e-002
      2.15994325e-002 2.57306062e-002 9.44506004e-003 1.30292661e-002
      -5.40570877e-002 1.96115300e-002 3.02503798e-002 1.16081014e-002
      -7.63442814e-002 8.25989153e-003 5.82203344e-002 4.12821211e-002
      1.43790245e-002 -3.21998671e-002 1.84873771e-002 2.69988850e-002
      1.97661053e-002 5.65634901e-003 -9.34095960e-003 1.82912126e-002
      7.36533627e-002 2.82932427e-002 3.09207640e-003 -2.72741467e-002
      -5.51965795e-002 6.41578436e-002 4.40886505e-002 1.31658874e-002
      -8.52438435e-002 -2.06646323e-002 1.65721640e-001 7.72246867e-002
      3.59436795e-002 -6.71890900e-002 9.85156395e-004 1.17640480e-001
      4.44591045e-002 -1.81266274e-002 -1.37424245e-001 2.81226598e-002
      1.58667952e-001 5.78328967e-002 -7.09612370e-002 -1.44762948e-001
      -1.36721835e-001 -5.05234450e-002 4.00997922e-002 1.54137507e-001
      1.43047767e-002 -1.09109752e-001 -5.37828356e-002 -3.36225778e-002
      1.18788108e-001 3.51065025e-002 -1.68073148e-001 -5.36533371e-002
      -2.83152927e-002 1.36163652e-001 8.81160945e-002 -1.36947706e-001
      -6.63127452e-002 -2.94276420e-002 1.37626499e-001 9.38384458e-002
      -2.37794518e-002 -3.08409818e-002 -3.58189121e-002 3.20018530e-002
      5.07872552e-002 4.39373078e-003 -1.09677892e-002 -1.19316187e-002
      -1.65890008e-002 3.77716788e-004 -4.87010181e-002 -2.16463115e-002
      -2.43882023e-004 4.44250591e-002 7.69107714e-002 -3.59246857e-003
      -1.65026623e-003 -1.01994420e-003 -3.62196448e-003
      -3.59246857e-003 3.30553530e-003 -5.54186874e-004 -3.04457586e-004
      -1.57903449e-003 3.28109134e-003 2.98863067e-003 -1.14878092e-003
      1.06109088e-004 1.34607544e-003 9.53998999e-004 -2.85577169e-003
      2.16841535e-003 1.27198591e-005 6.22457475e-004 4.35365317e-003
      -2.85577169e-003 5.62817883e-003 1.60256773e-003 9.72370792e-004
      -2.73136073e-003 2.04227515e-003 -4.80261818e-003 -1.24441646e-003
      3.64443217e-003 -1.79478396e-002 -1.23942830e-002 6.12900779e-003
      -1.95089274e-003 1.39231444e-003 -1.69453602e-002 3.83853912e-002
      1.42672081e-002 -1.96323311e-003 -5.88389288e-004 -1.17487432e-002
      6.09622672e-002 2.97036171e-002 -1.83680113e-002 -3.86131369e-002
      -1.23942830e-002 6.45416463e-003 1.52550619e-002 9.30453418e-004
      -9.41076688e-003 -2.01456323e-002 8.69168784e-004 -1.41183927e-003
      7.65669742e-004 -5.34893479e-003 -1.29898055e-003 6.77963495e-002
      1.84458122e-002 -3.67493592e-002 -8.49357471e-002 3.25576472e-003
      6.22183979e-002 -7.58947665e-003 -3.82588543e-002 -7.02291653e-002
      1.40477596e-002 6.07589399e-003 -2.47918838e-003 8.46105468e-005
      1.34737033e-003 -4.83685397e-002 3.23910569e-003 4.64595295e-002
      7.23200385e-003 -1.89885241e-003 -8.98920894e-002 5.12768999e-002
      -1.50365261e-002 -2.11768784e-002 -1.29087372e-002 3.10943387e-002
      4.96927137e-003 8.45890492e-003 -1.67938583e-002 -2.82805832e-003
      3.33378799e-002 4.37133797e-002 7.92143568e-002 1.56577565e-002
      -1.03332065e-002 -1.36529878e-001 5.41630797e-002 1.32319361e-001
      1.27273984e-002 -4.69222181e-002 -1.22424431e-001 3.32402699e-002
      3.92373577e-002 -1.68653205e-002 -1.48520246e-002 -4.72978167e-002
      3.44274938e-002 6.98928460e-002 -1.96572542e-002 -5.28359301e-002
      -7.76885375e-002</_>
    <_>
      2.13205554e-002 -1.40171368e-002 -3.12560014e-002 -4.45145555e-003
      -1.03898067e-002 4.06369120e-002 -2.55006395e-004 -6.51384369e-002
      -2.75935233e-002 -1.28315119e-002 4.22352329e-002 1.73579087e-003
      -1.88485309e-002 -1.48320654e-002 5.67690760e-004 5.81014603e-002
      1.73579087e-003 -3.09402943e-002 -2.15515010e-002 -1.80913671e-003
      6.09790608e-002 -2.11906992e-002 -8.09697807e-002 -4.31326665e-002
      1.01801632e-002 6.55558854e-002 -1.99069697e-002 -6.53445646e-002
      -4.27973643e-002 5.47271445e-002 5.57554327e-002 1.52508251e-003
      -3.79212573e-002 -2.70204768e-002 -1.25988489e-002 5.66202141e-002
      -5.18420199e-003 -4.41181920e-002 -4.91496436e-002 3.08331773e-002
      6.69949055e-002 6.39242993e-004 -4.52577621e-002 -4.86781746e-002
      3.32164466e-002 3.41544859e-002 9.60178208e-003 -4.80264202e-002
      -4.65601161e-002 3.33091803e-002 1.84486862e-002 -9.20340477e-004
      -4.60508764e-002 -5.29522486e-002 8.74881633e-003 1.18539082e-002
      -2.91831996e-002 -4.84506041e-002 -2.94638444e-002 1.98574010e-002
      4.17449400e-002 -1.25374021e-002 -1.59632042e-002 -1.14409253e-002
      6.34645745e-002 1.00019509e-002 -4.71467599e-002 -2.72852983e-002
      -1.30864244e-003 5.67893647e-002 -5.13831386e-003 -6.61047548e-002
      -1.52236614e-002 -6.49700547e-003 5.08577935e-002 -1.38424179e-002
      -7.84159899e-002 -6.30117301e-003 3.14984657e-002 5.54477461e-002
      3.80482003e-002 -5.08064665e-002 -2.73983423e-002 3.60389939e-004
      7.83322453e-002 2.89122947e-003 -8.52453783e-002 -2.01875940e-002
      9.65343881e-003 7.15240613e-002 -6.60525262e-003 -6.45046309e-002
      -1.88430492e-002 1.83997750e-002 8.25729519e-002 -1.66435912e-002
      -9.01697949e-002 -2.21851021e-002 2.77680382e-002 7.66093209e-002
      -1.79898553e-002 -8.22766498e-002 -5.57441777e-003 1.72374118e-002
      7.25130215e-002 -2.83495989e-002 -9.20368508e-002 -4.53594048e-003
      5.07732406e-002 8.59834999e-002 -2.50284113e-002 -8.94740820e-002
      -1.30672911e-002 1.55407954e-002 8.33102390e-002 -2.92894617e-002
      -7.31877387e-002 1.21460743e-002 4.29799147e-002 5.91333099e-002
      -6.31192997e-002 -5.01997732e-002 -1.62376761e-002 4.98483628e-002
      5.10813743e-002 -3.49398293e-002 -2.16407608e-002 -4.89576198e-002
      3.64410579e-002 3.51324156e-002 -6.07406013e-002 -2.77390555e-002
      -6.06091853e-005 2.17075255e-002 1.13045620e-002 -4.58402419e-003
      1.16958469e-002 -4.38841665e-003 1.44093111e-002 2.02047192e-002
      2.04992257e-002 1.59486607e-002 -6.04134169e-004 -2.86452658e-002
      -1.58173521e-003 5.21178059e-002 2.31882818e-002 -1.31400218e-002
      -3.77473049e-002 -3.80346342e-003 -2.52480991e-003 4.02762555e-003
      5.00726094e-003 6.26724353e-003 -1.43287601e-002 1.04252724e-002
      -4.43642633e-003 1.22917239e-002 -3.96680459e-003 8.27784650e-003
      6.02371357e-002 2.67679710e-002 3.31130577e-003 -1.02860518e-002
      -9.02074575e-003 1.82792675e-002 4.58496995e-003 -1.36175901e-002
      -1.38782170e-002 1.67502873e-002 -1.07384464e-002 3.14166397e-003
      1.60475932e-002 -2.85642268e-003 -9.92982648e-003 1.45695135e-002
      -1.72560290e-002 -8.55141971e-003 1.75155792e-002 -3.33190453e-003
      1.89755689e-002 1.40998056e-002 -2.57284623e-002 2.29029963e-003
      3.17211933e-002 -2.21609864e-002 -9.92328394e-003 5.35014551e-003
      2.81629004e-002 3.16358432e-002 1.20251374e-002 -2.71271244e-002
      -1.94909275e-002 1.04711689e-002 7.03933388e-002 -8.96050408e-003
      -4.56625447e-002 -6.52566925e-003 1.92384273e-002 5.79651743e-002
      -3.45386341e-002 -5.04964441e-002 3.03486418e-002 4.73851450e-002
      4.56317849e-002 -3.70701142e-002 -4.37565744e-002 3.84352803e-002
      5.38015291e-002 6.47515506e-002 -1.50965629e-002 -5.48033305e-002
      1.38120251e-002 4.05007973e-002 7.22116604e-002 -1.50965629e-002
      -4.12432589e-002 7.20436359e-003 4.02461775e-002 7.12640435e-002
      -2.62801070e-002 -3.42860371e-002 2.01934781e-002 2.16870699e-002
      3.71570848e-002 -3.04722078e-002 -4.98785079e-002 2.06432249e-002
      3.02701239e-002 5.50947674e-002 -1.73549762e-003 -3.39552835e-002
      6.67047268e-003 9.38221347e-003 7.29548112e-002 -1.73549762e-003
      -3.90795916e-002 2.83269957e-002 2.08352860e-002 6.53412044e-002
      -5.68785630e-002 -6.93896785e-002 1.30254924e-002 1.84163209e-002
      2.20244508e-002 -3.29383723e-002 -6.95100334e-003 2.27376614e-002
      1.82001404e-002 2.83213463e-002 -5.57021191e-003 -3.06690373e-002
      1.66602191e-002 2.03558672e-002 5.42765707e-002 2.98063662e-002
      3.37103009e-002 -1.17928414e-002 -1.25433831e-002 1.08798062e-002
      -2.98099369e-002 6.59956038e-003 2.92525883e-003 -1.09236862e-003
      -1.07205762e-002 9.01602581e-003 2.25908477e-002 -1.06468527e-002
      -3.68878082e-003 7.83202052e-003 2.92649325e-002 2.48348136e-002
      -1.21801868e-002 -2.95167211e-002 -3.05309636e-003 4.96703051e-002
      -5.72211482e-003 -9.60136950e-003 -4.07696739e-002 2.69028861e-002
      -1.98693783e-003 1.93377654e-003 1.64228529e-002 -2.93563027e-003
      6.11816254e-003 -4.40731877e-003 2.32065306e-003 1.12320641e-002
      -3.79443198e-004 2.05763662e-003 -6.91926898e-003 -8.23867886e-005
      -4.66629723e-003 4.24035778e-003 -2.93563027e-003 -3.05852736e-003
      1.96017954e-003 5.36772795e-003 1.31923966e-002 -2.93563027e-003
      -1.51629383e-002 1.16893102e-003 5.07229706e-003 8.51434190e-003
      3.31876636e-003 -1.87234138e-003 -2.80506350e-002 -4.84314607e-003
      4.39873850e-003 1.49559285e-002 3.65415262e-003 -1.35274651e-003
      1.47380615e-002 4.33973828e-003 4.05746745e-003 3.31876636e-003
      -3.65636088e-002 1.32463733e-003 -5.66734653e-003 1.56982429e-002
      -1.13869151e-002 -5.77295981e-002 -1.11553995e-002 1.11377076e-003
      8.03597942e-002 -1.13265431e-002 -8.62424150e-002 -1.10686943e-002
      9.66019870e-004 8.17719251e-002 -4.64389240e-003 -6.26390651e-002
      -1.35502573e-002 1.98799022e-003 7.30824545e-002 -4.64389240e-003
      -7.95686170e-002 -3.41443382e-002 -7.61900330e-004 8.13523531e-002
      -8.61448608e-003 -8.98841172e-002 -1.03749940e-002 3.79026262e-003
      6.93393424e-002 2.59542488e-003 -8.44515935e-002 -8.92578438e-003
      4.18785308e-003 8.41619372e-002 1.35443760e-002 -7.15607330e-002
      -2.95652263e-002 1.93524826e-003 8.46371353e-002 2.59542488e-003
      -5.16499579e-002 -1.49087273e-002 2.86442973e-003 7.07963705e-002
      -2.25581019e-003 -8.49170685e-002 -4.91868565e-003
      -8.00235663e-004 5.95815964e-002 6.17698580e-003 -7.30153695e-002
      -3.65139730e-003 -2.60737352e-003 4.64532040e-002 -2.25581019e-003
      -5.86599857e-002 -6.53913477e-003 -3.21195657e-005 5.63128814e-002
      1.38845211e-002 -3.11077572e-002 -2.18106341e-002 -1.17405392e-002
      4.76617329e-002 3.56121524e-003 -3.40383127e-002 -1.26089882e-002
      -1.69116957e-003 4.04058397e-002 4.32028696e-002 2.77013034e-002
      -8.95925909e-002 -3.29343900e-002 -4.82172193e-003 3.87753993e-002
      -1.66752543e-002 -4.09806930e-002 -1.33426711e-002 4.36186679e-002
      5.30745387e-002 4.14459854e-002 -7.89963603e-002 -7.93759003e-002
      1.62011329e-002 8.29499885e-002 5.62310964e-002 -5.61199076e-002
      -3.34578417e-002 -1.03474399e-002 5.82689084e-002 1.20535400e-002
      -3.73064876e-002 -3.53889950e-002 6.88999426e-004 8.94126669e-002
      6.04965277e-002 -7.15505928e-002 -7.04897940e-002 -3.18958275e-002
      3.74190249e-002 4.10390012e-002 -6.52049407e-002 -6.62561730e-002
      -5.59492111e-002</_>
    <_>
      1.63071100e-002 2.41084620e-002 -7.43530272e-003 -2.00631050e-003
      -1.46955289e-002 -1.43216606e-002 2.10606717e-002 8.27179570e-003
      1.28040637e-003 -2.05971953e-002 2.76516043e-002 3.41129978e-003
      2.14812607e-002 4.01720684e-003 -5.17771393e-003 2.06642412e-002
      -1.36279697e-002 2.30324380e-002 1.46534620e-003 -2.16284264e-002
      1.66910477e-002 -6.84984028e-003 -2.40666363e-002 -1.63833778e-002
      -1.39891810e-003 5.02897725e-002 -6.82221279e-002 -7.38293082e-002
      -5.41205630e-002 7.75183886e-002 1.91678535e-002 1.30149163e-002
      -4.38429974e-003 -2.87526418e-002 -3.02694049e-002 4.70609702e-002
      -1.84325967e-002 -4.96548675e-002 -5.67134172e-002 5.60229383e-002
      7.66390562e-002 -5.49015701e-002 -4.79856804e-002 -6.23120740e-002
      8.12355354e-002 5.62146790e-002 1.68290213e-002 -2.28415020e-002
      -4.22926359e-002 4.91308384e-002 3.99754159e-002 -5.32908253e-002
      -3.55996750e-002 -5.03444858e-002 4.11582775e-002 -5.81493415e-003
      -4.79009375e-002 -3.22365575e-003 -1.62366126e-002
      -2.41918564e-002 8.54278728e-002 -4.00207518e-003 -2.15902571e-002
      -4.37772758e-002 6.01140969e-002 5.53875752e-002 -2.86274757e-002
      -4.84357290e-002 -2.89596561e-002 6.86634332e-002 -9.17817652e-003
      -3.57247628e-002 -4.79072100e-003 -4.20633964e-002
      -1.36814443e-002 6.68589864e-003 -2.55509783e-002 -4.07990925e-002
      -7.32069537e-002 2.08337847e-002 4.93290685e-002 -3.57643962e-002
      -5.27236536e-002 -2.21839324e-002 3.59323807e-002 5.42381182e-002
      -2.97659021e-002 -6.97110519e-002 -6.88503906e-002 4.31711562e-002
      2.43899915e-002 -3.64964567e-002 -6.90844208e-002 -7.34443888e-002
      4.62240577e-002 2.94125658e-002 -3.86362113e-002 -7.00395107e-002
      -6.11780621e-002 2.68313307e-002 5.53687774e-002 -1.79667864e-002
      -7.33880773e-002 -4.19439375e-002 9.84340608e-002 8.02970119e-003
      -1.06134214e-001 -1.28076136e-001 -3.63426842e-002 1.18710205e-001
      2.99972910e-002 -1.79654434e-002 -4.80969809e-002 -3.70236896e-002
      7.85878003e-002 2.49056462e-002 -4.17037681e-002 -9.23111960e-002
      -2.82882862e-002 8.57777297e-002 -3.50739546e-002 -6.21137172e-002
      -6.76020533e-002 2.47969832e-002 8.77057165e-002 -4.80537638e-002
      -2.80800108e-002 -2.61429083e-002 2.68801767e-002 1.02394708e-002
      -4.15695906e-002 -3.01176701e-002 -1.98964961e-002 2.56860219e-002
      5.86404018e-002 -2.37238370e-002 1.90454181e-002 7.34748691e-003
      -1.05404109e-002 2.44519599e-002 -1.87605433e-002 -9.71436780e-003
      3.07872649e-002 -6.17406378e-003 -3.31411511e-003 2.96336729e-002
      -5.96526137e-004 3.49912830e-002 -9.21494514e-003 -2.38766824e-003
      -1.48366382e-002 -2.61101220e-002 -1.47124554e-003 2.86374856e-002
      -3.66244256e-003 -3.15130800e-002 -1.73700247e-002 4.25157882e-003
      2.29562651e-002 2.01797895e-002 5.36228977e-002 2.60084923e-002
      2.82405335e-002 -1.17537221e-002 -2.06333082e-002 1.17696607e-002
      -1.87436827e-002 -2.13661510e-002 -2.22571194e-002
      -7.50128040e-003 -4.17693667e-002 -6.74056960e-003 1.54893175e-002
      2.95364428e-002 1.30282175e-002 -5.15989307e-003 -7.11448193e-002
      -2.98280064e-002 3.48115265e-002 4.72860076e-002 3.45066264e-002
      -3.29869948e-002 6.09778380e-003 2.67765932e-002 4.55428772e-002
      -4.46702354e-002 -4.12281416e-002 2.15310119e-002 8.17028135e-002
      2.44166665e-002 2.79758703e-002 -1.03778265e-001 -1.95377823e-002
      4.22214679e-002 1.27252236e-001 1.01802489e-002 -7.48898163e-002
      -3.16447020e-002 5.54001592e-002 4.62614186e-002 -5.91107383e-002
      -1.07853748e-002 2.81164404e-002 3.15388888e-002 -3.07070799e-002
      4.10397872e-002 3.18489745e-002 8.50107800e-003 -8.81702639e-003
      1.15647633e-002 3.22391577e-002 -2.64170840e-002 -4.11639549e-002
      -5.67331202e-002 3.30050774e-002 1.03325583e-001 5.07161580e-002
      -7.68697709e-002 -5.98927699e-002 4.60214727e-002 4.62229066e-002
      2.01057605e-002 -4.68988121e-002 -6.46580979e-002 2.12786924e-002
      1.58792324e-002 -7.78668700e-003 2.34808680e-002 1.19340913e-002
      4.42237221e-002 7.91858733e-002 4.13549393e-002 -1.09693840e-001
      -9.48993191e-002 4.16651927e-002 4.32522185e-002 1.10248420e-002
      -1.44719530e-003 -5.00332564e-002 1.31502207e-002 -2.58054156e-002
      -1.35315089e-002 2.05478407e-002 1.76686309e-002 2.29797442e-004
      5.52531192e-003 2.20093746e-002 -1.31370714e-002 -3.96950990e-002
      2.52022166e-002 -5.64969564e-003 -2.07495391e-002 2.17280407e-002
      1.05938083e-002 -1.85880437e-002 -8.64880998e-003 2.47507058e-002
      1.64970439e-002 -1.54712992e-002 -5.05867265e-002 -6.63446914e-003
      4.59519774e-002 4.90630371e-003 -6.14767782e-002 3.55424732e-003
      1.27250478e-002 5.47365732e-002 1.64187159e-002 -6.58933669e-002
      -9.41673759e-003 1.51382554e-002 1.72073916e-002 8.36428627e-003
      -3.33632007e-002 -6.23396225e-003 6.20976314e-002 1.92386769e-002
      -1.06277075e-002 -3.99483815e-002 1.07298139e-002 2.38612830e-003
      7.21641409e-004 1.91481523e-002 -1.29073072e-004 1.97894853e-002
      -1.14612309e-002 2.05163215e-003 2.28753574e-002 1.85328920e-003
      -6.51535066e-003 6.54275180e-004 4.08718362e-003 -7.63650052e-003
      -6.04720972e-003 -5.69668273e-003 -1.39634293e-002 6.45481935e-003
      1.43413097e-002 -9.68793000e-004 -6.04720972e-003 -4.20058779e-002
      -9.23223887e-003 -3.31313722e-003 7.88625181e-002 4.87695821e-003
      -8.94801132e-003 -1.19170196e-001 -2.49726418e-002 3.15836668e-002
      8.68113637e-002 -5.84953912e-002 2.75522028e-003 2.47319527e-002
      6.03341535e-002 4.87695821e-003 2.53172056e-003 -9.33911353e-002
      3.07280174e-003 2.72873249e-002 1.09952791e-002 2.87743863e-002
      -1.38061240e-001 -2.38344185e-002 4.78648115e-003 1.33475289e-001
      1.85580906e-002 -1.24549374e-001 -4.96421941e-002 -9.38733760e-003
      8.23992267e-002 3.41367070e-003 -1.20575957e-001 -1.74618792e-002
      5.21248626e-003 1.27877116e-001 3.41367070e-003 -1.07081287e-001
      -4.01301272e-002 -5.91464201e-003 4.88166548e-002 3.62380967e-002
      -6.18635528e-002 -5.81093617e-002 -8.57002512e-002 3.97828482e-002
      1.14960551e-001 1.12989675e-002 -1.02658764e-001 -1.27115011e-001
      5.84310964e-002 1.22108757e-002 -2.15450227e-002 -3.06461062e-002
      -6.47214428e-002 3.91124561e-003 1.03926562e-001 2.14105509e-002
      -5.07517271e-002 -1.32449597e-001 1.22108757e-002 1.14029661e-001
      2.44493540e-002 -5.26600927e-002 -1.42381608e-001 1.81266200e-002
      4.44582179e-002 9.82302427e-003 -6.38870662e-003 -4.85855006e-002
      5.02628228e-003 1.27502382e-001 1.97302494e-002 -2.59115733e-002
      -1.43205941e-001 -7.40501098e-004 6.94299676e-003 1.47315264e-002
      -1.40245934e-003 -7.46407062e-002 -1.29032484e-003 1.02588693e-002
      2.29935208e-003 3.13844741e-003 2.63349572e-003 3.85050871e-003
      -1.21850055e-002 4.03487831e-002 1.74435694e-002 -9.22991894e-003
      -3.62490304e-003 -1.21850055e-002 1.13768410e-003 2.49914243e-003
      1.37512945e-003 -2.72897612e-002 -1.21850055e-002 -1.16872333e-003
      5.10836812e-003 5.52316429e-003 4.59163263e-002 -5.39317308e-003
      8.57706461e-003 7.45816482e-003 -1.36104356e-002 1.20548662e-002
      2.66168118e-002 1.40063604e-003 -2.30075400e-002 -1.48506742e-002
      2.80625373e-002 1.40063604e-003 -5.10220416e-003 -8.44249129e-003
      4.59153391e-003 1.87791102e-002 -2.19591730e-003 1.40063604e-003
      -3.09162047e-002 4.28002793e-003 -2.80051562e-003</_>
    <_>
      4.43216972e-002 2.02640910e-002 -9.14487429e-003 -7.37463776e-003
      -1.41702015e-002 1.40551822e-002 6.36831950e-003 -1.28447162e-002
      -1.89844072e-002 -8.36252980e-003 -1.02658840e-002 4.45635580e-002
      1.38683151e-002 -6.55840477e-003 -5.07195033e-002 -9.54316743e-003
      -3.43327480e-003 5.42003568e-003 -8.28522071e-003 -4.14185934e-002
      3.42817679e-002 1.58615001e-002 2.38658371e-003 -8.04214273e-003
      2.30676588e-002 -4.70255996e-004 -2.85062175e-002 -1.88003364e-003
      -4.44085477e-003 3.42653394e-002 -1.06823156e-002 -1.42010301e-003
      6.07221201e-003 -6.98250020e-004 4.24214778e-003 -1.05105806e-002
      -4.68661636e-002 -3.43726622e-003 -1.17524480e-003 3.46240550e-002
      5.62418811e-003 -2.85734963e-002 -1.49619917e-003 1.89525634e-003
      5.14258705e-002 -6.30518980e-003 -4.59904559e-002 -9.61487473e-004
      4.95733740e-003 6.23796992e-002 -6.30518980e-003 -4.64012772e-002
      -6.62073540e-003 -1.75666914e-003 4.12402265e-002 -6.30518980e-003
      -4.15694341e-002 -4.70261788e-003 3.06866714e-003 2.81506274e-002
      -1.26922680e-002 -3.76429223e-002 2.85854982e-003 1.03439316e-002
      5.84900342e-002 -1.26922680e-002 -3.85524407e-002 2.84725241e-003
      1.14687579e-002 4.61814068e-002 -1.26922680e-002 -5.15970588e-002
      5.54348994e-003 1.46774882e-002 4.37464677e-002 -1.28693711e-002
      -5.31363115e-002 9.89204925e-003 1.33003360e-002 2.93890387e-002
      1.88753020e-003 -3.36548537e-002 -5.41478442e-003 -7.11493427e-003
      3.99118736e-002 1.07808625e-002 -3.14332321e-002 -1.81609113e-002
      -1.61949266e-002 2.06199922e-002 9.91290086e-004 -3.22101079e-002
      -2.57522392e-004 -6.71665231e-003 3.25387083e-002 5.93889691e-003
      -2.76271310e-002 -1.78963561e-002 -3.57517861e-002 6.20597601e-003
      3.17076594e-002 -1.41644971e-002 -3.66550311e-002 -1.85409244e-002
      2.67048180e-002 3.89707051e-002 -1.38213318e-002 -7.06678852e-002
      -2.91075595e-002 5.58567084e-002 2.89752427e-002 -1.67531297e-002
      -3.90096344e-002 -6.07301183e-002 2.23657116e-002 3.03410441e-002
      -1.65985990e-002 -4.44410928e-002 -1.15307877e-002 4.53865379e-002
      1.36509491e-002 -8.86059087e-003 -8.80913511e-002 -1.74822304e-002
      6.82215616e-002 -1.97383319e-003 -1.06520038e-002 -6.24161884e-002
      5.08270711e-002 6.85376301e-002 -6.00421475e-003 -3.20050545e-004
      -4.49649394e-002 8.99568014e-003 4.64554578e-002 -1.27168372e-002
      2.34973896e-002 -2.33115591e-002 3.42111103e-002 3.34469378e-002
      -4.34185155e-002 5.49963117e-002 6.60907328e-002 1.63307264e-002
      -3.89610901e-002 -2.08645910e-002 2.69257519e-002 4.71549407e-002
      4.46087914e-003 -2.37853918e-002 -8.32676068e-002 5.47000160e-003
      6.80527017e-002 7.32245371e-002 -3.71313915e-002 -6.10653460e-002
      -2.16369107e-002 5.38750254e-002 5.87499700e-002 2.61931191e-003
      -1.50750242e-002 1.43078351e-002 1.34456344e-002 -1.31293607e-003
      3.90096288e-003 -1.68779269e-002 -3.09795812e-002 5.03841462e-003
      1.32544222e-003 3.52032781e-002 -3.09691709e-002 -1.14008496e-002
      2.52807830e-002 3.56952511e-002 4.92878966e-002 -1.56485997e-002
      -3.54743786e-002 1.62536725e-002 8.99475347e-003 3.26776691e-002
      -1.03141442e-002 -2.63014529e-002 -2.79891165e-003 4.94730985e-003
      3.33705544e-002 -1.09065352e-002 -2.65279002e-002 9.23154969e-003
      2.98225507e-002 1.78593658e-002 -7.45227188e-003 -4.14929427e-002
      4.67298226e-003 1.07767973e-002 4.53204773e-002 -7.34524569e-003
      -2.25780979e-002 -5.56246052e-003 2.17099246e-002 3.25582549e-002
      -2.68151928e-002 -4.09064665e-002 1.94340535e-002 2.98758801e-002
      3.12865265e-002 -6.06757076e-003 -2.55137812e-002 2.16171350e-002
      1.16811572e-002 3.49212065e-002 -1.73728261e-003 -3.39120664e-002
      -2.00949367e-002 1.63015015e-002 3.39354537e-002 -1.73728261e-003
      -3.19870859e-002 -2.49009542e-002 5.16855204e-003 3.69601957e-002
      -1.53331328e-002 2.65542627e-003 1.16199562e-002 2.02079699e-003
      1.00086769e-002 -1.85489953e-002 -1.03761526e-002 -1.27949985e-002
      -1.66042410e-002 5.16705494e-003 2.29728501e-003 2.54688459e-003
      -3.83410137e-003 -2.98353320e-004 3.14658023e-002 3.21809389e-003
      -1.92932468e-002 -2.09718812e-002 7.94367865e-003 3.03854942e-002
      -4.92609199e-003 -2.89527383e-002 -3.60033847e-002
      -4.59191464e-002 2.23226278e-004 1.53048793e-002 2.71578822e-002
      -1.28251510e-002 -2.56644711e-002 2.22624447e-002 2.95623932e-002
      -3.44856791e-002 -2.80660018e-002 3.81573802e-004 3.82273160e-002
      3.63962427e-002 1.00068012e-002 9.14113875e-003 -5.57820871e-002
      -1.18198898e-002 -9.37267859e-003 4.28600460e-002 -3.52396956e-003
      -2.08242983e-002 -2.52720173e-002 -2.31779590e-002 7.55874589e-002
      3.74477953e-002 2.22078096e-002 -1.92634482e-002 -8.66563246e-003
      6.39166534e-002 2.23681368e-002 -5.42379655e-002 -7.66137317e-002
      -1.64054837e-002 7.77086243e-002 5.51294535e-002 -1.13914460e-002
      -5.20268492e-002 -8.26109052e-002 -4.83248308e-002 4.35988121e-002
      8.13402906e-002 2.30246428e-002 -7.11506084e-002 -7.05201104e-002
      3.29911783e-002 6.43282756e-002 5.25266454e-002 -7.69793615e-002
      -6.15625605e-002 8.62000696e-003 7.51385763e-002 3.62739712e-002
      -5.26061691e-002 -7.30910972e-002 1.42874736e-002 6.47723600e-002
      6.41590729e-002 -4.75831144e-002 -5.76042831e-002 4.01864806e-003
      4.13318612e-002 6.11449368e-002 -1.60829071e-002 -5.72507791e-002
      -1.76325988e-003 9.86363273e-003 4.83797155e-002 -2.50803884e-002
      -4.54846434e-002 9.23726987e-003 4.06833813e-002 5.70904203e-002
      -7.30976695e-003 -4.50254828e-002 -3.14955227e-003 9.20260232e-003
      4.79618162e-002 -2.57355813e-003 -5.97443096e-002 -7.45564746e-003
      -5.58419293e-003 4.77662534e-002 2.74118246e-003 -5.71531057e-002
      -4.92544696e-002 -2.76573803e-002 3.96140963e-002 2.64173429e-002
      -3.33137996e-002 -2.12003682e-002 -1.16119655e-002 5.91249615e-002
      4.26260158e-002 -2.82776523e-002 -6.25158623e-002 -4.48400415e-002
      6.22129627e-002 3.75009216e-002 -4.56536822e-002 -4.92605045e-002
      -1.73957441e-002 4.53131534e-002 1.77353621e-002 -5.85878789e-002
      -5.16642258e-002 -1.71825737e-002 5.66742048e-002 7.16482252e-002
      -2.13511530e-002 -7.27049708e-002 -5.07870577e-002 6.17348813e-002
      3.27627398e-002 -4.55846786e-002 -5.74494526e-002 -6.93553016e-002
      3.51526439e-002 5.08757215e-003 -2.01410782e-002 -1.85303930e-002
      -6.23947196e-003 2.82093324e-002 5.08757215e-003 -3.10908165e-002
      -1.72721781e-002 -4.45685582e-003 1.48626585e-002 7.86466617e-003
      -1.80562567e-002 -2.29380205e-002 -2.60758568e-002 9.11504682e-003
      5.08757215e-003 -8.67433660e-003 -4.17656358e-003 -5.69696072e-003
      4.95520933e-003 1.56336986e-002 -3.03719491e-002 -2.27051042e-002
      -1.31220408e-002 2.80655697e-002 1.63208917e-002 2.80277058e-002
      -1.56509411e-002 -3.74668576e-002 -3.39226462e-002 1.41972229e-002
      -1.25067523e-002 -1.14930356e-002 -1.57640278e-002 4.28185007e-003
      9.25027579e-003 5.79880131e-003 -1.68697275e-002 -2.00720485e-002
      -2.29357965e-002 1.65678710e-002 6.63710907e-002 1.32313287e-002
      -2.82340795e-002 -7.34274983e-002 1.57928292e-003 8.13722387e-002
      3.13277543e-002 -7.44049996e-003 -6.59388527e-002 1.74661772e-003
      4.27500382e-002 -4.25174460e-003 -1.09700914e-002 -6.06028065e-002
      1.74661772e-003 7.94425160e-002 -3.95379138e-005 -1.36583876e-002
      -7.06500560e-002</_>
    <_>
      6.62178919e-003 4.62878905e-002 -1.74849760e-002 -1.17956242e-002
      -2.82456484e-002 1.02144829e-003 3.13147455e-002 -1.06324237e-002
      -1.22687258e-002 -2.33340543e-002 -5.58654126e-003 5.46622500e-002
      1.01943994e-002 -2.17628721e-002 -4.55808192e-002 6.93423813e-003
      6.15085140e-002 7.12533994e-003 -2.47211643e-002 -6.35372624e-002
      1.33962911e-002 3.41220722e-002 -2.67023826e-003 -1.16903884e-002
      -2.69801598e-002 1.98417995e-002 1.09252529e-002 -1.28120659e-002
      -1.74953919e-002 -1.66450460e-002 1.94998793e-002 7.65563846e-002
      -7.78154499e-005 -1.75329018e-002 -5.29491603e-002 2.04351339e-002
      1.40860248e-002 -4.48896475e-002 -4.68314476e-002 -7.78487977e-003
      2.45613400e-002 -1.18719637e-002 -1.97225865e-002 -9.08615161e-003
      4.43959609e-002 1.95233263e-002 -2.41778959e-002 -3.63678783e-002
      -1.90237761e-002 2.53654700e-002 2.93274000e-002 -2.97860485e-002
      -6.95964172e-002 -2.97365729e-002 3.92210595e-002 1.84675865e-002
      -5.17943352e-002 -7.94678628e-002 -1.73280556e-002 4.57815602e-002
      3.58707383e-002 -2.60196682e-002 -5.54880090e-002 -3.80786806e-002
      2.20484417e-002 5.84829301e-002 -1.38775241e-002 -6.08778298e-002
      -1.96765419e-002 5.89996837e-002 4.04636823e-002 -7.14372694e-002
      -6.75833374e-002 -1.33426292e-002 5.19603305e-002 4.98429425e-002
      -5.82563467e-002 -5.07145375e-002 -2.05868157e-003 6.87828660e-002
      5.75420149e-002 -2.68295594e-002 -6.03250302e-002 -3.90460156e-002
      5.98610528e-002 6.98108822e-002 -3.61260772e-002 -7.39911050e-002
      -7.87193701e-002 4.40787785e-002 3.96464765e-002 -3.96549590e-002
      -4.79270220e-002 -2.95108557e-002 4.07912806e-002 2.89078243e-002
      -2.64739953e-002 -5.57344332e-002 -7.36552924e-002 2.09191963e-002
      6.65890127e-002 -1.94022208e-002 -6.45241514e-002 -6.21556044e-002
      4.41366583e-002 2.56483220e-002 -2.41229702e-002 -4.65345792e-002
      -1.56961195e-002 9.58518963e-003 5.83421253e-002 -1.55383283e-002
      -3.69187966e-002 -3.74100842e-002 3.29560116e-002 3.06997132e-002
      -9.56108235e-003 -3.00061516e-003 -1.08157545e-002 3.93033214e-003
      1.38600371e-004 -1.15934871e-002 -1.24489600e-002 -2.42345762e-002
      2.11459398e-002 -2.86510726e-003 -5.62399952e-003 -9.71349701e-003
      -3.51773715e-003 1.54347252e-002 -6.91238791e-004 1.48000626e-003
      1.34233544e-002 -7.17476127e-004 3.95034766e-003 1.49036180e-002
      1.24500431e-002 2.51158653e-003 -1.87965250e-003 6.52791653e-003
      -3.03254761e-002 2.23042518e-002 2.16110796e-002 2.87956721e-003
      -2.48280261e-002 -9.45325661e-003 3.02940551e-002 3.43752727e-002
      -8.90804827e-003 -5.53027913e-002 -2.56118271e-002
      -2.89146658e-002 -4.86254808e-004 1.33119887e-002 3.37007619e-003
      -5.52952252e-002 -1.47413248e-002 -1.60333503e-003 4.19165120e-002
      3.14863697e-002 1.04995603e-002 7.16344193e-002 3.36055160e-002
      -1.46463914e-002 -4.97478358e-002 1.82934459e-002 1.74870305e-002
      -6.13474995e-002 -6.43697456e-002 -1.12689717e-003
      -3.00963651e-002 4.11475934e-002 3.08877919e-002 3.25309522e-002
      3.59006524e-002 5.01103885e-002 1.44090494e-002 -4.42774072e-002
      -5.17496988e-002 4.30379659e-002 6.81166127e-002 -1.54619254e-002
      -7.80226663e-002 -2.20984891e-002 4.99391071e-002 6.06866591e-002
      -2.78303586e-002 -6.55911416e-002 2.01935433e-002 4.96490858e-002
      7.82899559e-002 8.84937309e-003 -6.91280887e-002 -6.60958812e-002
      8.03351179e-002 8.25965405e-002 2.93448917e-003 -6.20925017e-002
      -4.23716605e-002 5.84868379e-002 2.62809712e-002 -4.95648980e-002
      -4.65918072e-002 2.69928034e-002 4.45852913e-002 4.45306562e-002
      -2.41700504e-002 -1.12892955e-003 1.66217927e-002 5.18698581e-002
      7.70913064e-002 -2.15007388e-003 -6.58897385e-002 -3.68740596e-002
      2.29625646e-002 4.37929630e-002 1.34629430e-002 -9.89897270e-003
      -3.25445086e-002 -9.66229942e-003 3.57891954e-002 -2.37795478e-003
      9.72745984e-005 -1.62922945e-002 3.85678513e-003 2.26579010e-002
      7.35344784e-003 -1.11971470e-002 -2.15996150e-002 6.39533903e-003
      -2.47829012e-003 1.37100443e-002 -4.95517347e-003 -1.80780627e-002
      -7.58660212e-003 -3.48015456e-003 1.54889273e-002 -1.51837934e-002
      1.83555726e-002 -1.58856099e-003 1.22848423e-002 -2.86284904e-003
      -5.78159327e-003 -1.18264416e-002 -4.60606505e-004
      -1.79892860e-003 2.55161617e-002 2.51419712e-002 -1.55201852e-002
      -4.69870120e-003 -5.23541961e-003 -1.27528962e-002
      -1.51153738e-002 1.64128635e-002 6.49005594e-003 -3.49324243e-003
      -2.96937861e-003 1.82370283e-002 -1.12167178e-002 -1.38644385e-003
      -6.27439516e-003 1.18717831e-002 1.59522872e-002 -3.00105661e-002
      -7.00382283e-003 2.62688026e-002 1.39549589e-002 2.51768995e-003
      -3.45025621e-002 1.19298892e-002 -3.54476795e-002 -1.74923567e-003
      3.11731957e-002 -1.21305650e-002 -2.76492303e-003 5.47854230e-003
      -1.84789079e-003 -8.90288386e-004 -2.76618870e-003 1.56619195e-002
      -5.38056530e-003 -1.24905221e-002 -4.06619199e-002 8.59486032e-003
      5.69137111e-002 -1.26214949e-002 -1.80530827e-002 -5.79332560e-002
      3.68106589e-002 7.96954781e-002 -6.60401303e-003 -3.87188755e-002
      -8.55840743e-002 2.13275887e-002 8.11894760e-002 1.36947036e-002
      -1.81872156e-002 -7.63426870e-002 4.04587425e-002 9.00907889e-002
      4.73922212e-003 -7.79567845e-003 -5.47778904e-002 3.11709531e-002
      6.78574741e-002 7.87945464e-002 -5.16692270e-003 -1.01553515e-001
      -7.64121860e-002 4.37179543e-002 4.99576181e-002 -1.02428738e-002
      -6.13976941e-002 2.87388079e-002 7.71738663e-002 8.24227408e-002
      -5.18113514e-003 -6.38051182e-002 -7.82961100e-002 6.60708919e-003
      9.22913626e-002 -2.52627651e-004 -8.20820481e-002 -9.84540731e-002
      5.98760471e-002 9.25318524e-002 1.16573395e-002 -7.16310441e-002
      -9.83169898e-002 2.04097796e-002 9.92415026e-002 3.71348881e-003
      -2.22183354e-002 -1.00006208e-001 1.80379450e-002 9.13235322e-002
      1.04625318e-002 -1.68146417e-002 -1.03026688e-001 6.14263536e-003
      9.22564268e-002 1.05894227e-002 -4.24854010e-002 -9.74264145e-002
      -1.16416803e-002 4.54867780e-002 8.85211769e-003 -7.91230239e-003
      -7.02782273e-002 -1.73708785e-003 6.98302314e-002 6.56928821e-003
      -1.22022675e-002 -8.27172771e-002 -2.94972211e-003 2.35505365e-002
      1.21872791e-003 -8.08338518e-004 -4.23424467e-002 7.76738767e-003
      8.50570761e-003 1.87578378e-003 -1.97156146e-003 -9.03154258e-003
      -1.84438148e-004 1.48802518e-003 -1.53334476e-002 -4.79758251e-003
      4.08272725e-003 3.60370963e-003 4.82518040e-003 -5.39836287e-003
      4.94903885e-003 -5.77227538e-003 2.48703803e-003 1.47254986e-003
      -1.43691245e-002 4.27719345e-003 -1.50114868e-003 2.63039302e-003
      -7.00013770e-005 -2.70201415e-002 -7.47096958e-003 6.07200339e-003
      1.52108762e-002 -9.56767355e-004 3.00724572e-003 -4.98130778e-003
      1.65516790e-003 1.04835583e-002 1.35033217e-004 -2.09951773e-002
      -1.49256631e-003 -4.62835233e-005 1.33507578e-002 -1.11772399e-003
      -8.20074137e-003 -4.68544476e-003 5.18909306e-004 1.31140761e-002
      -6.57286216e-003 2.28131702e-003 1.84802320e-002 2.64437869e-003
      1.38705887e-003 -9.12804529e-003 -1.06073671e-003 2.36358438e-002
      1.23608625e-002 5.77072520e-003 -1.82386965e-003 6.15676027e-003
      3.66477831e-003 1.16843206e-003 -6.60823518e-003 -1.82386965e-003
      -1.82386965e-003 3.92919779e-003 3.32865166e-003 -7.30309822e-003</_>
    <_>
      5.04597127e-002 -1.01901358e-002 -1.00063533e-002 -5.29458281e-004
      4.03670454e-003 -4.66431258e-003 -1.68463234e-002 -1.21618703e-003
      -1.49216712e-003 3.16361873e-003 4.12882790e-002 -4.66431258e-003
      -2.39713322e-002 7.13671045e-003 9.90228076e-003 1.19925560e-002
      -4.66431258e-003 -1.91773959e-002 -3.42279021e-003 2.12925416e-003
      1.77108906e-002 1.57980155e-002 2.62863608e-003 -6.37233863e-003
      -3.41044925e-002 2.80723087e-002 8.32400226e-004 -2.78930478e-002
      -5.09125926e-002 1.10569606e-002 3.16498540e-002 1.97482277e-002
      -4.07912396e-002 -2.29116138e-002 -1.40092047e-002 6.75003976e-002
      -6.35099560e-002 -7.91014656e-002 -5.74134551e-002 4.91918772e-002
      7.15906546e-002 -1.37114422e-002 -3.48404050e-002 -6.40478507e-002
      2.76948325e-002 1.68684181e-002 -5.33659197e-002 -2.75096335e-002
      -4.66202274e-002 5.02242744e-002 9.15275663e-002 -8.95138681e-002
      -8.47185105e-002 -3.67416032e-002 9.37643871e-002 8.80635064e-003
      -5.70625439e-002 -9.54962447e-002 -2.70851254e-002 7.43790865e-002
      -3.87302507e-003 -7.90154189e-002 7.77189503e-004 8.33791029e-003
      8.50416496e-002 -3.87302507e-003 -4.19519469e-002 1.72562916e-002
      3.09623480e-002 2.60501597e-002 -4.65332647e-004 -9.77698937e-002
      -4.23768461e-002 5.89270750e-003 1.03618391e-001 -3.87302507e-003
      -8.78218040e-002 -7.81551842e-003 2.70208959e-002 7.10991248e-002
      -8.51157180e-004 -8.58312380e-003 7.39278505e-003 6.10224484e-003
      1.22891730e-002 -6.03883062e-003 -3.08647864e-002 4.47534118e-003
      3.32001504e-003 2.00079232e-002 -4.82310960e-003 -3.64326462e-002
      2.90750712e-003 6.61609368e-003 3.93017568e-002 3.15773650e-003
      -3.27497050e-002 -3.12943972e-004 2.97017116e-003 3.61544564e-002
      1.48607222e-002 -2.55789999e-002 1.52847322e-003 -5.95435500e-004
      1.20430114e-002 3.48605141e-002 -1.58794259e-003 5.38085960e-003
      -1.47126373e-002 -9.04644001e-003 4.14487943e-002 -3.74833979e-002
      -2.97151622e-004 -6.96556875e-003 2.08200011e-002 4.54405881e-002
      -5.87846851e-004 1.63067952e-002 -6.80516427e-003 -9.04644001e-003
      3.95881478e-003 2.71485071e-003 8.18809681e-003 -1.67698320e-002
      -5.35820425e-003 -6.71242669e-005 1.58525130e-003 7.92879052e-003
      1.71484263e-003 -4.04069340e-003 -1.11133633e-002 1.41180512e-002
      3.18978205e-002 1.00657968e-002 -1.71024874e-002 2.25203745e-002
      2.70842910e-002 1.77925974e-002 -5.35820425e-003 4.73876111e-003
      2.40678750e-002 -2.05885549e-003 3.14001963e-002 1.27156191e-002
      6.86331932e-003 2.46064104e-002 -5.84744290e-003 1.25556914e-002
      -9.56229959e-003 -3.74115002e-003 -1.30047752e-002
      -2.57619657e-002 2.22575124e-002 3.95491049e-002 2.97740335e-003
      -3.08056735e-002 -1.59951448e-002 2.99489535e-002 3.84188741e-002
      3.18645984e-002 6.57413751e-002 3.97844613e-002 -2.25006454e-002
      -3.66137159e-004 9.15480684e-003 7.94761330e-002 -3.25631984e-002
      -5.99044412e-002 -2.07751058e-002 6.85864314e-002 -5.88325458e-003
      9.79706272e-003 1.99407688e-003 2.70443782e-002 8.47221985e-002
      5.42648584e-002 -8.25403910e-003 -4.39636074e-002 -3.28140110e-002
      1.11454852e-001 8.24204683e-002 -4.88446876e-002 -6.90484419e-002
      7.89733697e-003 8.46058577e-002 6.78294227e-002 -2.10264996e-002
      -8.04430097e-002 1.14638647e-002 6.60869703e-002 6.77401721e-002
      1.73682701e-002 -6.41920045e-002 -5.36543243e-002 1.15522809e-001
      9.42523032e-002 4.65893336e-002 -7.35012591e-002 -5.74239120e-002
      6.83080405e-002 1.75386090e-002 -4.59204353e-002 -7.44019374e-002
      1.02248006e-002 6.79131299e-002 1.75721105e-002 -2.11513937e-002
      6.41402416e-003 2.46303547e-002 7.61923045e-002 1.12824708e-001
      4.07361649e-002 -8.26499909e-002 -6.81093931e-002 1.95631832e-002
      6.33123070e-002 5.07227704e-002 -1.62958205e-002 -4.31996174e-002
      2.76207887e-002 -1.23686567e-002 5.38871763e-003 -1.76884755e-002
      2.72498978e-003 -4.07123892e-003 4.13306197e-003 3.45659978e-003
      5.28181484e-003 2.64761946e-003 1.40618663e-002 1.79279856e-002
      3.73272225e-002 -2.47919653e-002 -2.47580539e-002 -2.92562624e-003
      1.28510986e-002 4.20667864e-002 -9.13903210e-003 2.78042722e-003
      -5.25474828e-003 1.07722422e-002 -2.23720688e-002 2.03097914e-003
      1.06200005e-003 3.27434787e-003 1.96717959e-003 2.09308006e-002
      2.53192969e-002 -4.22153855e-003 -5.85286319e-003 2.15753336e-002
      -1.89582258e-002 -5.57472557e-003 1.87015105e-002 -6.25116797e-003
      1.71002224e-002 7.26794638e-003 1.82410087e-002 1.73197612e-002
      -1.64188836e-002 -8.57719313e-003 3.43693011e-002 1.96297411e-002
      -1.73799098e-002 -1.33018605e-002 2.90719196e-002 3.10369637e-002
      -2.05812207e-003 -4.13352624e-002 1.01428963e-002 -2.40601692e-002
      -1.78201236e-002 2.92421263e-002 -3.55078210e-003 -2.55425082e-004
      6.62965421e-003 -5.63735329e-003 -2.05812207e-003 -8.29309598e-003
      2.56091245e-002 -1.24507258e-002 -4.64835092e-002 1.71583239e-002
      4.21988554e-002 2.25218181e-002 -3.29819918e-002 -5.67992404e-002
      1.25077385e-002 4.23338264e-002 6.08486645e-002 -3.11397221e-002
      -5.09307273e-002 -1.57588311e-002 4.82721142e-002 4.52382192e-002
      -5.47110252e-002 -7.75176063e-002 -2.64313072e-002 6.01590946e-002
      5.29766530e-002 -3.15855779e-002 -6.04739711e-002 -5.35509847e-002
      1.54240774e-002 1.10321425e-001 5.20815812e-002 -5.38470112e-002
      -8.84369761e-002 -6.19852878e-002 1.23168193e-001 2.52855476e-003
      -1.05306357e-001 -5.68365529e-002 1.89598780e-002 1.01902299e-001
      6.30931556e-002 -5.51339574e-002 -4.37796265e-002 -7.41740093e-002
      8.88140574e-002 7.35246688e-002 -1.38580743e-002 -4.96626869e-002
      -1.21193931e-001 1.20368950e-001 1.21722035e-001 1.72472224e-002
      -9.00570601e-002 -1.58612028e-001 4.80155945e-002 1.18411615e-001
      1.63435456e-004 -1.08133694e-002 -1.26124069e-001 6.36916235e-002
      1.53496519e-001 1.06783165e-002 -5.57308346e-002 -1.67782500e-001
      7.36774784e-003 1.32294238e-001 1.70280412e-002 -5.33502400e-002
      -1.47018477e-001 -1.40829466e-003 9.99175161e-002 1.27069177e-002
      -3.74843106e-002 -8.49584192e-002 9.06287320e-003 1.46828011e-001
      1.18233580e-002 -2.39207782e-002 -1.48528248e-001 7.19520310e-003
      9.06253457e-002 1.09993154e-002 -1.10914512e-002 -8.61257091e-002
      -2.78234889e-004 6.08175211e-002 1.11602833e-002 -1.21498527e-002
      -4.21387106e-002 -2.46234611e-002 2.58820020e-002 8.10202491e-003
      3.80214042e-004 -1.59245264e-002 -7.27359997e-003 4.80282865e-002
      6.34757150e-003 4.33466630e-003 -4.80783246e-002 -5.54275699e-003
      1.45948809e-002 2.77753919e-003 1.63292270e-002 -1.36445975e-002
      -6.27268013e-003 8.85497127e-003 -8.07387475e-003 -3.84965882e-004
      5.78330876e-003 -4.48899064e-003 3.79534415e-003 2.62548812e-002
      7.17023213e-004 5.06844325e-003 -1.95621457e-002 2.61442061e-003
      -4.22532670e-003 6.27353601e-003 3.39133292e-003 -4.93943458e-003
      2.61442061e-003 -6.51047565e-003 -5.49848797e-003 6.21442311e-003
      2.81503890e-003 1.73771307e-002 -2.68740673e-003 2.65333597e-002
      5.25300298e-003 3.69369308e-003 -2.94789486e-003 -6.70581590e-003
      3.96867506e-002 1.28429281e-002 9.03548673e-003 -6.70581590e-003
      -1.88368112e-002 2.32479884e-003 2.27402127e-003 4.77862358e-003
      -6.65637339e-003 -1.27331167e-002 1.30841490e-002 2.38000299e-003
      1.95406354e-003</_>
    <_>
      4.12761383e-002 2.16575377e-002 -7.09407553e-002 -6.83924556e-003
      -9.20386612e-003 1.62704028e-002 -1.56407448e-004 -1.64499357e-002
      -6.49481313e-003 -5.76170906e-002 7.68611580e-002 2.39355806e-002
      -7.16695786e-002 -1.75032839e-002 3.31419683e-003 1.60056781e-002
      1.84341967e-002 -8.33325982e-002 -1.38876745e-002 -3.12372483e-002
      3.26687880e-002 -1.54933361e-002 -2.93217339e-002 -2.16595698e-002
      -4.78629582e-002 3.53789888e-002 -9.27280560e-002 -1.07345842e-001
      -3.35595235e-002 2.59746630e-002 3.07840537e-002 1.46866934e-002
      -1.99803114e-002 -1.39678251e-002 -3.31148244e-002 2.95099113e-002
      -3.85947227e-002 -1.82559062e-002 -9.36054438e-003 5.02548218e-002
      5.04114591e-002 -9.54854786e-002 -1.21140964e-001 -4.70541269e-002
      6.99110106e-002 9.26979333e-002 -5.56636453e-002 -1.05154976e-001
      -4.21821065e-002 8.59887823e-002 2.43095942e-002 -8.31489712e-002
      -6.90371841e-002 -2.73852982e-002 4.80595082e-002 3.31042036e-002
      -2.32702792e-002 -5.22611663e-002 -3.65186222e-002 3.26119214e-002
      7.91578740e-002 -4.13279682e-002 -2.66261324e-002 -5.46047352e-002
      3.90621237e-002 3.58796418e-002 -4.91430350e-002 -2.57747043e-002
      -5.07897660e-002 3.04833334e-002 2.73748068e-003 -4.15268913e-002
      -3.46145779e-002 -6.33058697e-002 2.41645779e-002 -3.21202748e-003
      -5.82704432e-002 -1.76441632e-002 -3.17511261e-002 3.14818360e-002
      4.57856841e-002 -3.43212821e-002 -9.61851608e-003 -1.06882611e-002
      1.04469396e-001 -3.49579826e-002 -4.98417951e-002 -1.15575232e-002
      -1.53575209e-003 8.87973532e-002 -6.20839931e-002 -3.89670841e-002
      8.29959288e-003 1.48780784e-002 4.79900651e-002 -6.09282367e-002
      -8.19012448e-002 1.52325872e-002 4.54737209e-002 5.15946634e-002
      2.78725009e-002 -2.44376268e-002 -8.63943994e-003 1.16369314e-002
      1.03525773e-001 2.91526481e-003 -1.50237065e-002 -7.86805805e-003
      1.55224334e-002 5.57993874e-002 -7.47422725e-002 -2.91554462e-002
      1.02197528e-002 2.31906157e-002 6.05951063e-002 -6.48476854e-002
      -9.95037332e-003 2.11844854e-002 2.85050180e-002 -1.89572852e-002
      -1.82590280e-002 1.54683948e-003 7.48392660e-003 3.40015478e-002
      6.73953071e-002 -7.39728585e-002 5.81237627e-003 1.48677444e-002
      1.00745082e-001 1.53057911e-002 -9.67621207e-002 1.33241620e-002
      4.18458022e-002 5.31268679e-002 -1.50483046e-002 -1.20047823e-001
      4.54681963e-002 5.36596626e-002 1.16059959e-001 -2.36871373e-002
      3.01054120e-002 4.60852943e-002 -3.36424038e-002 -2.28984188e-002
      2.18549743e-003 8.72508287e-002 3.69087085e-002 -5.59951887e-002
      -3.25085260e-002 6.20382093e-003 2.41563888e-003 2.11866368e-002
      -3.21173221e-002 1.97884440e-002 2.87560113e-002 -1.71243232e-002
      4.46317010e-002 -3.23681645e-002 -1.12827299e-002 7.58628026e-002
      6.51777461e-002 4.28669825e-002 -4.81186137e-002 -2.93444302e-002
      1.81072876e-002 -2.13280544e-002 -9.03825555e-003 1.06366910e-002
      3.55284952e-004 2.74312589e-002 -5.19279540e-002 5.62001532e-003
      -3.42726968e-002 1.56589802e-002 4.23435979e-002 -4.13140729e-002
      -4.56917286e-002 1.47107486e-002 1.45985391e-002 3.80177163e-002
      1.29439542e-002 -1.12776179e-003 1.45864161e-002 2.88894884e-002
      5.90028204e-002 -4.77148369e-002 8.23084451e-003 1.07074026e-002
      3.27607691e-002 4.15266268e-002 -4.33706306e-002 -2.23919638e-002
      1.57333221e-002 2.48534027e-002 8.68684426e-002 -4.33706306e-002
      -2.44577844e-002 1.46292392e-002 2.63978206e-002 1.25193615e-002
      -2.54449919e-002 -1.95380650e-004 8.72119330e-003 2.42236182e-002
      2.98274849e-002 -5.16733527e-002 9.41819418e-003 3.23767290e-002
      4.10402976e-002 3.80587168e-002 -2.63143741e-002 -1.32738128e-002
      7.82085024e-003 2.27209888e-002 5.08874245e-002 -2.63143741e-002
      9.60911904e-003 1.61250904e-002 2.67810207e-002 4.10233326e-002
      -1.11465991e-001 1.50035908e-002 2.81869695e-002 3.60505432e-002
      3.73667665e-002 -8.15468729e-002 -8.03871546e-004 3.70053202e-002
      4.57178690e-002 7.66791478e-002 -2.84550283e-002 1.87496729e-002
      1.09950928e-002 1.48480283e-002 1.00013159e-001 -2.84550283e-002
      -1.20111369e-002 1.77570842e-002 1.79932714e-002 8.92671272e-002
      -1.09870076e-001 2.74589262e-003 2.77034678e-002 2.11887266e-002
      3.21470089e-002 -5.66595942e-002 3.62986773e-002 5.03630787e-002
      2.49835309e-002 3.17484699e-002 -2.00439077e-002 -1.25692263e-002
      1.57620702e-002 1.17036775e-002 8.07358474e-002 -2.00439077e-002
      7.87208136e-003 3.25393565e-002 7.36722071e-003 5.66193275e-002
      -9.08083767e-002 3.88688371e-002 4.97998409e-002 2.03773882e-002
      -2.38633603e-002 -6.24328107e-002 8.68635103e-002 4.95512635e-002
      4.27931696e-002 -6.26699105e-002 -2.25907452e-002 3.93383279e-002
      4.55304608e-002 5.10526181e-004 -7.32827093e-003 -1.25432732e-002
      3.98888700e-002 3.05377897e-002 5.21912472e-003 -2.77689993e-002
      -5.88101009e-003 -3.59369954e-003 -4.32826169e-002 2.41612922e-002
      7.02471659e-002 -9.92914736e-002 -1.14337029e-003 -6.78189546e-002
      3.02118082e-002 4.79492545e-002 -3.71473096e-002 -1.33968713e-002
      -9.21002179e-002 2.18768455e-002 6.06590547e-002 -9.07561332e-002
      -1.29367569e-002 -4.48071584e-002 4.00309674e-002 2.03108061e-002
      -9.41628218e-002 -1.91383380e-002 -3.97852436e-003 5.11814617e-002
      9.94170606e-002 -3.90819348e-002 -4.71429601e-002 2.53379997e-003
      7.61920027e-003 1.15610644e-001 -8.20645764e-002 -3.38630565e-002
      1.75680639e-003 5.42908907e-002 8.26218948e-002 -3.89302522e-002
      -5.61026782e-002 -1.37448460e-002 9.75328032e-003 9.21180621e-002
      -4.56490442e-002 -3.01299728e-002 3.76727345e-004 1.48105796e-003
      1.08005978e-001 -4.56490442e-002 -3.90922539e-002 1.77352107e-004
      1.05063594e-003 9.58034247e-002 -4.56490442e-002 -2.83027161e-002
      -5.81147755e-003 2.79048295e-003 1.07067734e-001 -4.56490442e-002
      -4.56675291e-002 -1.81168609e-003 9.63553088e-004 9.02840868e-002
      -4.81369123e-002 -3.15946788e-002 -1.69824503e-004 3.34951258e-003
      8.57613757e-002 -4.31383923e-002 -1.38541926e-002 -1.60631345e-004
      4.94340248e-003 7.89756253e-002 -4.10997681e-002 -3.79248895e-002
      1.15199480e-003 3.65443551e-003 1.01023667e-001 -4.08902578e-002
      -2.28328183e-002 2.80018873e-003 5.82664320e-003 9.03149545e-002
      -4.11989503e-002 -2.57710484e-003 1.28863822e-003 1.32221507e-003
      7.19380379e-002 -4.11989503e-002 -2.83882357e-002 -1.40801724e-003
      2.84272572e-003 6.74542263e-002 -3.92318815e-002 3.84329818e-004
      3.28111183e-003 3.32189398e-003 7.90301636e-002 -3.70228700e-002
      -1.43788010e-002 -1.09218934e-003 1.49844331e-003 5.58800772e-002
      -1.46330763e-002 -3.72837037e-002 -4.10631718e-003 1.17145909e-003
      2.92178188e-002 -1.14533827e-002 -1.03425244e-002 -1.14998769e-003
      -2.93728476e-003 -2.75218044e-003 -1.10571207e-002
      -2.63034198e-002 -4.35789442e-003 -1.14968326e-003 4.14893702e-002
      -4.64951340e-003 1.28696263e-002 -3.10520129e-003 -8.64736084e-003
      2.46310476e-002 -1.27763571e-002 -1.07022999e-004 4.39440971e-003
      -3.83216678e-003 -3.20818610e-002 -1.34711275e-002 1.52069675e-002
      4.33093868e-003 -2.73739314e-003 -1.84480082e-002 6.52599707e-003
      2.04022471e-002 -2.73998901e-002 -2.41327193e-002 -7.23680761e-003
      3.14535499e-002 7.56722596e-003 -3.22504491e-002 -3.63751426e-002
      3.49054076e-002</_>
    <_>
      1.59667842e-002 2.84076426e-002 -1.16669117e-002 -2.17536557e-003
      -2.22112681e-003 -6.61593350e-003 4.14022394e-002 9.37850913e-004
      -7.58076727e-004 -4.20407504e-002 2.62531620e-002 -6.61593350e-003
      1.45632429e-002 2.96594528e-003 6.50269492e-003 -6.61593350e-003
      3.69047816e-003 -3.12802643e-002 -3.87316779e-003 -4.90463153e-002
      1.12377433e-002 5.98591454e-002 1.16906166e-002 -4.11701389e-003
      -8.14364925e-002 6.36390969e-002 3.07791885e-002 1.18852884e-003
      -7.04027861e-002 -1.81675274e-002 1.70639791e-002 1.07713088e-001
      -7.50525109e-003 -9.49004665e-003 -1.09148480e-001 4.61199544e-002
      4.41503525e-002 -3.06870397e-002 -9.50281397e-002 -1.10348985e-002
      1.33082733e-001 8.92344303e-003 -7.03351246e-003 -9.42018107e-002
      -1.53308210e-003 5.77220246e-002 -7.05770925e-002 -7.49913184e-003
      -7.12232739e-002 5.05252294e-002 8.96324813e-002 -7.59118237e-003
      -5.56927137e-002 -1.25286296e-001 1.94050595e-002 4.97209840e-002
      -8.53412300e-002 -6.41119555e-002 -9.40592065e-002 4.06790413e-002
      1.12245185e-002 -1.07193343e-001 6.20972924e-003 -2.17837747e-002
      1.17036909e-001 -2.32599763e-004 -1.28943995e-001 7.98473135e-003
      2.00415328e-002 1.34906411e-001 -4.32916125e-003 -1.25997812e-001
      -3.00383233e-002 -1.14399856e-002 1.11436352e-001 -1.91541971e-003
      -1.12520181e-001 -3.87653406e-003 1.75794552e-003 1.30830735e-001
      -7.12061208e-003 -9.72502455e-002 -1.83343029e-004 2.65555643e-003
      1.37771457e-001 -1.22819375e-002 -3.69073488e-002 7.88002647e-003
      4.38775402e-003 4.68715504e-002 -1.21197905e-002 -1.35246575e-001
      7.29770632e-003 -2.15397286e-003 1.18071876e-001 -1.08019467e-002
      -6.23263940e-002 6.50530448e-003 9.22440458e-003 3.95730138e-002
      -2.21192129e-002 -7.06333248e-003 9.11832042e-003 4.87890700e-003
      2.13032868e-003 1.02624251e-002 7.34990230e-003 1.42660579e-002
      1.48321828e-002 -3.78814829e-003 -1.35041764e-002 -6.82333997e-003
      1.12254694e-002 -2.38481676e-003 -1.29756590e-004 1.74476635e-002
      1.47023397e-002 5.45266643e-002 -1.78385936e-002 -3.78814829e-003
      8.20575748e-003 5.93001023e-003 3.69943609e-003 -2.35378146e-002
      -5.91839058e-003 7.58639583e-003 2.71848985e-003 -3.96007264e-004
      -6.80223433e-003 -4.45711892e-003 1.47913359e-002 4.09250706e-002
      1.13844648e-002 -9.17545520e-003 -2.36304589e-002 1.96115952e-002
      4.79637831e-002 6.29111007e-003 -6.59499830e-003 2.75621880e-002
      -2.88788620e-002 2.37448514e-002 5.46194427e-002 1.80136524e-002
      1.22428313e-003 1.25508914e-002 1.28624188e-002 2.27894709e-002
      -1.59874111e-002 -2.37430483e-002 -3.12998295e-002
      -3.72540206e-002 7.54567003e-003 2.87228208e-002 1.40029043e-002
      -7.58675188e-002 -1.75372139e-002 3.37686599e-003 2.38909479e-002
      1.62149109e-002 2.45389845e-002 8.11665952e-002 1.56271979e-002
      -4.57289367e-004 -6.43796548e-002 2.47053206e-002 3.53249237e-002
      -2.08319183e-002 -5.38281016e-002 -1.88390315e-002
      -6.54029921e-002 2.76909266e-002 4.19895388e-002 5.73677868e-002
      1.95734873e-002 -1.51141938e-002 -5.44351190e-002 -2.04980243e-002
      -8.32302868e-003 3.33057940e-002 9.35807377e-002 -1.95056368e-002
      -6.68467879e-002 -8.82603228e-002 2.44437177e-002 4.51594479e-002
      -4.06946801e-002 -5.53594828e-002 -4.46931794e-002 8.95423666e-002
      5.02042547e-002 -3.60390469e-002 -8.42517987e-002 -4.22270931e-002
      1.01374149e-001 1.00823082e-001 -1.50111699e-002 -6.33121654e-002
      -2.43274309e-002 6.29788712e-002 1.80342626e-002 -5.15005887e-002
      -1.19361477e-002 -1.97312720e-002 7.97073990e-002 2.28152685e-002
      -3.71962525e-002 3.38295884e-002 -4.57745567e-002 5.48949540e-002
      1.24834061e-001 -3.91009357e-003 -7.01151416e-002 -5.89745641e-002
      4.86412309e-002 1.27604634e-001 3.58285978e-002 -3.44920233e-002
      -9.05821919e-002 2.91492268e-002 -1.87120419e-002 -2.57407781e-002
      2.21208949e-002 -4.72656861e-002 1.20230047e-002 1.03538847e-002
      2.30691247e-002 1.88626405e-002 2.06514988e-002 2.49475557e-002
      1.32493272e-001 2.52378136e-002 -2.37800404e-002 -1.44318551e-001
      -7.83346593e-003 3.09606194e-002 7.77547583e-002 6.66297320e-003
      -3.87767106e-002 1.14044128e-003 -4.43329662e-002 1.03201275e-003
      1.61535852e-002 2.58519809e-004 -2.23502684e-002 -5.06838262e-002
      3.00906189e-002 7.66233504e-002 -3.90859656e-002 -2.64247842e-002
      1.04592489e-002 1.98932718e-002 4.13351832e-003 7.32354075e-003
      -1.21908588e-002 -2.07297737e-003 -1.43709714e-002 4.85253185e-002
      -3.67738423e-003 1.17799388e-002 -8.78071226e-003 6.32312056e-003
      1.27332788e-002 -4.98371944e-002 -4.07393910e-002 1.84935331e-002
      2.32725851e-002 -5.41815953e-003 -1.06055848e-002 2.46621948e-002
      -3.63089889e-002 -4.30121319e-003 3.01323291e-002 -2.09966823e-002
      2.27144989e-003 2.76710913e-002 2.61664437e-003 1.18154660e-002
      -2.35311575e-002 2.22925264e-002 7.24426121e-004 -4.72078705e-003
      -7.21746869e-003 -1.38908694e-003 6.75349729e-003 -4.37491275e-002
      -8.48197378e-003 4.21677995e-003 1.75801497e-002 1.61716621e-003
      4.74858563e-003 2.39405921e-003 -1.36622775e-003 8.66169948e-003
      -1.38908694e-003 -5.95761277e-002 5.64037170e-003 1.65321939e-002
      3.54208797e-002 -1.38908694e-003 -8.70808437e-002 -7.79313222e-003
      3.97765776e-003 3.16320769e-002 2.20605768e-002 -2.02085674e-002
      -1.04948103e-001 -1.89341679e-002 1.22594098e-002 7.71187991e-002
      -6.30708933e-002 -2.38249940e-003 2.49083843e-002 3.67396809e-002
      2.19658725e-002 -3.87579156e-003 -8.87932479e-002 -2.36743828e-003
      1.35843400e-002 4.63139676e-002 3.12875328e-003 -1.27282768e-001
      -7.63454363e-002 -1.17344167e-002 1.53573707e-001 3.30707096e-002
      -9.05735940e-002 -1.12352528e-001 -7.22472221e-002 1.92155428e-002
      1.19381174e-002 -1.16881967e-001 -1.58006735e-002 -5.94788231e-003
      1.40987650e-001 3.01713794e-002 -9.60922092e-002 -1.95207912e-002
      -7.18730465e-002 3.78778353e-002 1.19782686e-001 -1.57496873e-002
      -4.48872447e-002 -1.22091465e-001 -2.09906437e-002 1.61216453e-001
      -2.26495508e-003 -3.53002436e-002 -1.85560077e-001 1.05891796e-003
      8.15453231e-002 -1.49419131e-002 -6.75261952e-003 -9.39335302e-002
      -1.22842863e-002 1.47558749e-001 5.94690442e-003 -1.58157125e-002
      -1.34300545e-001 -4.43308940e-003 1.50811464e-001 7.40063796e-003
      -1.39659168e-002 -1.51786283e-001 -2.99761351e-002 4.39849123e-002
      8.29920266e-003 -1.90531457e-004 -5.36997505e-002 -2.10723169e-002
      1.18557379e-001 2.98302690e-003 -1.10538602e-002 -1.13980979e-001
      -8.07454437e-003 7.59236701e-003 3.78538040e-003 7.29159825e-003
      -4.74724285e-002 -6.66010194e-003 -1.80505146e-003 9.59674269e-003
      9.55079740e-004 2.25109910e-003 -1.57690998e-002 -5.44589944e-003
      1.89036056e-002 1.03689888e-002 2.28982884e-003 2.55026650e-002
      -5.44589944e-003 2.74257269e-003 4.32502711e-003 6.53230061e-004
      -1.66721512e-002 -5.44589944e-003 -1.63524726e-003 4.04830847e-004
      3.61974700e-003 2.29518637e-002 8.07498116e-004 -3.18529061e-003
      2.31792573e-002 2.10152869e-003 1.01001840e-002 -2.92949355e-003
      -1.64768030e-003 3.44657451e-002 5.57926670e-003 6.48142165e-003
      -1.64768030e-003 -2.23757550e-002 6.74889714e-004 1.22374832e-003
      1.02202566e-002 -1.64768030e-003 -6.18487410e-003 8.45394656e-003
      2.45806039e-003 6.93006301e-003</_>
    <_>
      -7.83284009e-003 -1.59578286e-002 -1.71385203e-002 1.54077774e-003
      2.42651603e-003 1.95392836e-002 -1.25816874e-002 -7.61823496e-003
      3.21274693e-003 1.45391710e-002 -7.51903839e-003 1.95148506e-003
      1.65205952e-002 -1.18499054e-002 3.02497391e-003 2.15397179e-002
      1.39180163e-003 2.95174774e-002 -1.43053764e-002 5.03041130e-003
      2.68505421e-003 -2.09994335e-002 -1.07197380e-002 -2.73944577e-003
      1.78349484e-002 -3.67233763e-003 -2.13815807e-003 -5.72834397e-003
      -7.50901410e-003 5.83943306e-003 1.69671886e-002 5.19211730e-003
      1.07953046e-002 -1.95095241e-002 1.31015363e-003 2.04453617e-002
      1.73410401e-002 -3.98571603e-003 -2.17466243e-002 1.08853318e-002
      -5.81541471e-003 1.13386512e-002 -1.24648241e-002 -1.01446314e-002
      -8.51155631e-003 4.51039299e-002 2.28324886e-002 -1.94716565e-002
      -4.49983701e-002 -4.64741956e-004 4.17041034e-002 2.05759276e-002
      -1.64352637e-002 -2.57556122e-002 -2.13872008e-002 5.23878410e-002
      2.04470679e-002 -1.41561031e-002 -3.50751318e-002 -2.02825367e-002
      1.14743680e-001 5.68666728e-003 -8.57050344e-003 -7.68361464e-002
      1.58574376e-002 1.27171889e-001 9.39809158e-003 -3.17740664e-002
      -1.15002722e-001 1.56569649e-002 9.92755070e-002 -1.06563680e-002
      -2.15531588e-002 -7.19816834e-002 1.46627370e-002 1.20959841e-001
      -1.68179683e-002 -1.02830157e-001 -8.35120082e-002 3.09707969e-002
      1.34818479e-001 6.68065017e-003 -4.22823019e-002 -1.26273870e-001
      3.33918221e-002 1.16295435e-001 -6.56537479e-003 -5.34007922e-002
      -1.14276707e-001 6.41188622e-002 1.13812521e-001 -8.19722842e-003
      -1.17515706e-001 -9.22721550e-002 8.70217681e-002 9.11576673e-002
      -3.15184928e-002 -1.15032710e-001 -6.90750405e-002 1.04076356e-001
      3.47212404e-002 -3.99710163e-002 -5.15276305e-002 -3.95255312e-002
      1.13013141e-001 -1.68210920e-002 -7.30979964e-002 -4.65466268e-002
      5.17541654e-002 4.89109419e-002 3.80807333e-002 -4.90130819e-002
      -1.03534237e-001 -5.29341400e-002 1.11444719e-001 -1.19960653e-002
      -6.79934621e-002 -5.91992773e-002 -5.18575497e-003 3.32419537e-002
      -7.04121292e-002 -1.84385478e-002 -9.67907195e-004 4.90850098e-002
      6.15144288e-003 -2.23534517e-002 1.69264781e-003 2.30172649e-003
      8.86906404e-003 1.55044813e-002 -4.00512852e-002 -1.31002227e-002
      1.92011800e-002 -6.93741813e-003 -8.21441691e-003 9.02179687e-004
      2.66691204e-002 5.52854091e-002 -6.93741813e-003 1.32660416e-003
      5.62437065e-003 9.63418838e-003 -1.01538119e-003 -5.22299558e-002
      -2.57652631e-004 1.34397801e-002 2.61378344e-002 1.00017274e-002
      -5.38917519e-002 -5.71617670e-003 1.29085005e-004 1.66652091e-002
      5.35402261e-003 -1.01538119e-003 -2.81001087e-002 8.43988359e-003
      2.30211597e-002 3.53715904e-002 -1.01538119e-003 -3.25442739e-002
      1.10502634e-002 2.52498854e-002 3.19722109e-002 -3.16494294e-002
      -1.39839444e-002 -1.72202231e-003 7.45284092e-003 2.44366713e-002
      4.77472367e-003 6.50031539e-003 -1.29056321e-002 3.15091051e-002
      5.89298233e-002 -2.02479661e-002 -2.13470664e-002 -1.30433887e-002
      1.56903826e-002 2.81836651e-002 1.77679900e-002 -2.37817895e-002
      2.41134539e-002 1.70214958e-002 1.72200873e-002 8.00428074e-003
      2.38718092e-002 -1.60299037e-002 -1.04272105e-002 2.33813282e-002
      1.99445244e-002 -1.36068761e-002 -1.78372301e-002 1.59538747e-003
      2.00839676e-002 2.03066505e-002 5.51798055e-003 -1.73929390e-002
      -5.71997017e-002 1.70114264e-002 4.32673134e-002 2.77177878e-002
      1.50089227e-002 -3.06764450e-002 -3.29199363e-004 2.89497823e-002
      5.08900434e-002 7.08722696e-002 -6.10875897e-002 -8.38008523e-002
      -1.27013223e-002 8.28080773e-002 2.24057827e-002 -6.66386336e-002
      1.93071633e-003 5.70348836e-002 1.08375117e-001 1.22960694e-002
      -5.33919632e-002 -9.22799930e-002 5.63035309e-002 1.04589619e-001
      8.40976164e-002 -2.59918589e-002 -9.51848105e-002 -1.45577528e-002
      6.23491220e-002 7.38069192e-002 -5.06487191e-002 -5.77703714e-002
      1.42392972e-002 8.66796747e-002 6.63793385e-002 -3.59013490e-002
      -9.06631351e-002 2.11200733e-002 8.55928138e-002 9.88345966e-002
      -4.28615399e-002 -6.18360005e-002 1.38886897e-002 8.48930478e-002
      1.93044115e-002 -6.00689203e-002 -6.66937828e-002 -3.02653871e-002
      2.58697793e-002 3.29489857e-002 3.19288597e-002 3.18738073e-002
      -1.23977568e-002 -1.50351143e-002 5.81026226e-002 -3.81934643e-002
      -5.63895255e-002 -1.58939511e-002 2.61344295e-002 2.96487100e-002
      4.07596901e-002 4.83709313e-002 -6.06089085e-002 -5.77334836e-002
      5.25001250e-003 2.61340346e-002 6.68656304e-002 -2.59576309e-002
      -7.24588186e-002 1.04662497e-002 3.94982062e-002 5.82414232e-002
      -2.51155682e-002 -5.70790768e-002 1.36954840e-002 3.19308378e-002
      3.41161229e-002 -6.72853068e-002 -6.71192482e-002 3.40211131e-002
      2.37389021e-002 1.53397536e-003 -5.62487282e-002 -2.24001072e-002
      2.01538904e-003 7.72442715e-003 6.30148426e-002 -1.09570865e-002
      -8.40578601e-003 1.32424233e-003 6.21727481e-003 5.38220815e-002
      -1.00430092e-002 -1.09570865e-002 2.39308411e-003 3.93230002e-003
      1.91728547e-002 -1.09529318e-002 -1.09570865e-002 4.78745298e-003
      7.58704031e-003 2.91476864e-002 1.43291429e-002 -1.09570865e-002
      9.45138372e-003 4.19182749e-003 1.33205913e-002 2.95821428e-002
      -1.62136275e-002 1.60360504e-002 5.68193337e-003 4.47751675e-003
      5.29901730e-003 -1.62136275e-002 2.68325899e-002 6.42533321e-003
      2.08819006e-002 3.63807790e-002 -1.62136275e-002 3.76294786e-003
      3.54423397e-003 5.36926836e-003 6.56170817e-003 -1.62136275e-002
      -6.65231701e-003 -3.52969300e-003 1.01223844e-003 1.82006112e-003
      9.05675255e-003 -1.18064182e-002 -9.05996934e-002 -1.80963450e-003
      7.57395243e-003 5.57303913e-002 5.86150261e-003 -5.33866405e-004
      -3.47269187e-003 5.89009724e-004 2.70654773e-003 2.70654773e-003
      -3.90410423e-002 -7.30050541e-003 2.09119535e-005 4.26609535e-003
      1.59352715e-003 -1.09902829e-001 -1.47929154e-002 3.06693418e-003
      9.46199894e-002 1.89025234e-002 -9.97463241e-002 -6.45482913e-002
      -2.30057854e-002 8.69647190e-002 1.91548150e-002 -5.61984293e-002
      -1.55331613e-002 -1.05481809e-002 2.02538986e-002 1.96963735e-002
      -4.70894650e-002 -5.41445576e-002 -5.34888469e-002 2.74055190e-002
      7.16208220e-002 -9.42001715e-002 -6.10969290e-002 -3.26308459e-002
      4.71809097e-002 6.70405477e-002 -9.39287171e-002 -7.00752661e-002
      -3.87331024e-002 3.42495926e-003 4.18130644e-002 -2.89728250e-002
      -3.80209759e-002 -4.78636548e-002 1.67272910e-002 1.61622725e-002
      -1.50639229e-002 -1.92110315e-002 -3.14059816e-002 1.42672285e-002
      1.74775664e-002 -2.39390191e-002 -2.45366599e-002 -1.07071102e-002
      -1.44786183e-002 -1.52520102e-003 2.33517606e-002 1.00767333e-002
      -9.74402577e-003 -1.18377311e-002 -1.52520102e-003 6.17000600e-003
      -5.02706040e-003 -3.76040046e-003 -7.11774873e-003
      -1.52520102e-003 2.61752158e-002 4.11140179e-004 8.04133306e-004
      -3.44937444e-002 -7.86390342e-003 -1.67463455e-004 2.21439451e-002
      -1.52473859e-002 3.56436358e-003 7.11801415e-003 -1.33483694e-003
      9.54885327e-004 -1.51350461e-002 1.58573352e-002 1.39746629e-003
      -1.15322424e-002 -6.75932795e-004 9.77262971e-004 3.10593343e-004
      -2.22678157e-003 -1.33483694e-003 -3.24897212e-003 2.23725429e-003
      6.02600630e-004</_>
    <_>
      5.18456846e-003 -6.51894836e-003 -1.22144315e-002 -5.43220341e-003
      -5.08308294e-004 2.81676948e-002 9.81283933e-003 -4.49960977e-002
      -1.99650731e-002 -1.18982687e-003 2.14174706e-002 7.21646519e-003
      -3.34356651e-002 -1.43480338e-002 2.84173293e-003 2.12659221e-002
      7.21646519e-003 -1.56543683e-002 1.40773342e-003 2.89890962e-003
      1.27678495e-002 1.04290806e-002 -4.88410667e-002 -3.30201425e-002
      -5.33856591e-003 1.44327963e-002 3.60236093e-002 -1.54839298e-002
      -1.71976704e-002 -1.04592424e-002 -1.10728415e-002 1.92091113e-003
      -2.20631175e-002 -1.05615016e-002 -1.06547065e-002 1.93762518e-002
      3.16891968e-002 -6.33879518e-003 -1.18440697e-002 -5.16586006e-003
      -1.22078473e-003 4.63459082e-002 1.97184868e-002 -1.42464144e-002
      -2.41001528e-002 -4.44956496e-002 -1.09449204e-003 4.60359491e-002
      -9.48537141e-003 -3.44937518e-002 -9.16655827e-003 2.32141148e-002
      8.24855547e-003 -2.82867216e-002 -9.93154198e-003 -1.85211580e-002
      -3.22524719e-002 -5.20888390e-003 -1.30365379e-002
      -2.29311734e-002 -5.93835441e-003 5.84801100e-003 3.19760703e-002
      1.99149922e-002 8.51828046e-003 -1.44665893e-002 -2.21401807e-002
      1.72711052e-002 8.50251131e-003 -8.46374605e-004 -1.38496170e-002
      -3.93725708e-002 7.42921373e-003 7.79766729e-003 2.97456942e-002
      -3.10153794e-002 -4.32070494e-002 1.13635976e-002 1.25020370e-002
      3.03715002e-002 -1.74882784e-002 -1.33382697e-002 3.12981158e-002
      2.36068591e-002 3.99865955e-003 -3.43784802e-002 -3.58073078e-002
      2.65210792e-002 3.77682075e-002 3.13588977e-002 -2.80886367e-002
      -2.09451150e-002 3.33684310e-002 2.75792535e-002 4.31126617e-002
      -2.18755268e-002 -1.41694704e-002 2.31889002e-002 2.58530769e-002
      4.82815318e-002 -2.99627278e-002 -4.09041606e-002 7.31259817e-003
      1.77330505e-002 4.72977273e-002 -3.96649987e-002 -4.02094461e-002
      -3.69522418e-003 1.94731709e-002 4.15047593e-002 -1.42810354e-002
      -3.79445963e-002 6.22147555e-003 2.35969853e-002 7.23205879e-002
      -2.53096130e-002 -4.69155535e-002 9.77624557e-004 2.15103757e-002
      5.50802387e-002 -3.61360013e-002 -2.20997520e-002 -5.13084000e-003
      1.20421862e-002 2.94429492e-002 -1.91712007e-002 -1.29070468e-002
      -1.92722101e-002 -1.11493318e-004 1.94455273e-002 -2.11732555e-002
      -1.41064748e-002 -3.63350548e-002 2.90870131e-003 3.94581333e-002
      1.94919785e-003 -3.47863100e-002 -3.01909149e-002 1.16834752e-002
      2.75441445e-002 3.24084125e-002 3.27934474e-002 -4.22573909e-002
      -3.39169949e-002 1.25209754e-003 3.33654461e-003 2.72633638e-002
      -1.73425414e-002 -8.14306829e-003 -9.98524949e-004 5.09361662e-002
      5.16340397e-002 -2.33984720e-002 -5.96600585e-002 -4.55192896e-003
      6.87519647e-003 4.83949967e-002 3.75814782e-003 -3.22110280e-002
      -2.15734597e-002 -8.43814388e-003 2.23436374e-002 5.27738500e-003
      -1.38976111e-003 1.38424395e-003 2.08389740e-002 3.06019653e-002
      -2.24388912e-002 6.09755097e-003 2.92307958e-002 -4.61182594e-002
      2.14056168e-002 1.67931486e-002 -1.86384264e-002 -2.83773150e-002
      3.47923627e-003 -6.07377524e-003 -1.88936405e-002 2.80698179e-003
      -1.96693912e-002 2.06787437e-002 8.46837368e-003 -1.49697885e-002
      2.41916743e-003 4.65815887e-002 1.93361938e-003 -5.90455867e-002
      -2.05755439e-002 3.24027240e-003 5.11651523e-002 -5.66411670e-003
      -4.82230484e-002 -1.17699094e-002 -5.35368454e-004 4.37736176e-002
      -3.58592020e-003 -9.44084302e-002 -2.58403495e-002 1.02261419e-003
      7.07280636e-002 -4.05705860e-003 -6.10721447e-002 -6.55115442e-003
      2.32478371e-004 4.90747280e-002 -2.06562672e-002 -6.68734685e-002
      -2.09202874e-003 2.51077465e-003 6.01757169e-002 9.90831759e-003
      -8.14585537e-002 -1.83159448e-002 -4.05842951e-003 8.61656815e-002
      9.90831759e-003 -7.24897906e-002 -2.06957459e-002 -7.27538671e-003
      7.98970014e-002 -2.47189254e-002 -6.54133037e-002 -3.56246834e-003
      7.22532335e-004 5.86687140e-002 -9.31521691e-003 -6.25454411e-002
      -9.08806548e-003 1.09584955e-003 5.61794490e-002 1.93988811e-002
      -7.76385665e-002 -2.70005893e-002 -3.44846118e-003 9.57395881e-002
      1.45573243e-002 -7.20997229e-002 -2.59603802e-002 -4.19514906e-003
      8.21787268e-002 -1.23591786e-002 -7.20005408e-002 -1.31091438e-002
      5.14610251e-003 6.29784018e-002 -1.74710117e-002 -5.89782633e-002
      -3.84469405e-002 -2.85747256e-002 4.36755270e-002 1.40651539e-002
      -5.61596751e-002 -1.26932394e-002 -8.24017450e-003 6.38803095e-002
      2.98880693e-002 -3.22787575e-002 -7.08748698e-002 -4.02319469e-002
      5.18425591e-002 1.57781318e-002 -3.11769135e-002 -8.19257796e-002
      -3.44031639e-002 6.19139969e-002 2.38106996e-002 -5.36964126e-002
      -8.23334679e-002 -2.17513740e-002 7.25304857e-002 5.96385673e-002
      -2.81667877e-002 -9.09848213e-002 -3.61250192e-002 8.70636702e-002
      4.84903641e-002 -6.14401959e-002 -8.67673829e-002 -3.80731956e-003
      8.55296105e-002 4.36207205e-002 3.73279490e-002 -2.50378232e-002
      -6.19937778e-002 5.82247390e-004 1.52521282e-002 4.10692692e-002
      1.94047596e-002 -4.44809422e-002 -3.20110098e-002 5.17916121e-002
      2.36993227e-002 -1.19510433e-003 -4.90898937e-002 -2.74657877e-003
      2.50603314e-002 2.55605448e-002 8.40114243e-003 -6.17495626e-002
      -1.77208912e-002 -3.11302189e-002 2.96803080e-002 2.85164155e-002
      -4.77504916e-003 -1.66760478e-002 -7.95195717e-003 3.54694459e-003
      8.79174192e-003 1.68606546e-002 6.50406303e-003 1.08539108e-002
      7.91354105e-003 2.26067076e-003 -2.80923937e-002 -5.04215900e-003
      9.51270852e-003 -2.34413873e-002 -2.87057143e-002 -6.60430687e-003
      1.74935702e-002 -1.32424068e-002 -3.75245325e-002 -2.59259087e-003
      2.63339514e-003 3.56046446e-002 1.78265036e-003 -8.14835727e-002
      -1.46088311e-002 6.37726742e-004 6.82993010e-002 1.97874452e-003
      -4.02590260e-002 -2.79745087e-002 -1.25724974e-003 4.59533669e-002
      1.97874452e-003 -7.74552226e-002 -2.33906135e-002 -1.48251653e-003
      5.25582097e-002 5.04483050e-003 -8.22176263e-002 -1.54067436e-002
      -1.32039376e-003 6.81479871e-002 1.40767463e-003 -7.96983168e-002
      -1.25147058e-002 -2.45680031e-003 7.83826709e-002 1.37329763e-002
      -7.84736127e-002 -2.00755801e-002 7.30145839e-004 7.95977712e-002
      2.39945878e-003 -6.70987740e-002 -2.02764031e-002 2.04505608e-003
      6.91035092e-002 -4.25655767e-003 -8.49484801e-002 -2.70259604e-002
      -2.33180379e-003 7.19129667e-002 2.34393235e-002 -6.51889294e-002
      -3.28650549e-002 -1.41413771e-002 3.75942513e-002 5.37158782e-003
      -6.30746409e-002 -2.01742873e-002 -1.44528062e-003 4.63866517e-002
      1.87844224e-002 -2.42917128e-002 -1.87498573e-002 -6.18408248e-003
      3.00525967e-002 1.27037615e-002 -3.02922409e-002 -1.47146760e-002
      -2.29259990e-002 1.90008804e-002 2.61034556e-002 -2.58526951e-002
      -7.82950446e-002 -4.25370522e-002 3.20172533e-002 2.17398182e-002
      -2.12114807e-002 -1.99673120e-002 -1.27145136e-002 2.72707418e-002
      3.33982110e-002 -1.81406587e-002 -6.50198087e-002 -5.45575581e-002
      2.85090879e-002 5.52819781e-002 -4.54387069e-003 -8.14183876e-002
      -3.67070921e-002 6.38600886e-002 2.48206854e-002 -3.40359174e-002
      -7.15843886e-002 -1.57222133e-002 4.55486998e-002 7.32844695e-002
      8.51101521e-003 -6.22980818e-002 -4.42014672e-002 4.01066840e-002
      1.82412639e-002 4.80997888e-003 -3.33780050e-002 -2.79713515e-002
      -3.80484061e-003</_>
    <_>
      -4.25458960e-002 3.44741009e-002 1.59690548e-002 -4.10587760e-003
      -2.47538891e-002 -2.58095786e-002 5.69084361e-002 2.69070081e-002
      -1.27171667e-003 -5.14831915e-002 5.01282839e-003 1.59772485e-002
      -3.46349459e-003 1.95762981e-003 -1.02804406e-002 7.03167124e-003
      -1.58766238e-003 2.85523050e-002 1.10363038e-002 -2.44990382e-002
      -3.03257741e-002 4.65986021e-002 7.69879948e-003 -1.09906681e-002
      -4.63173948e-002 -2.05372367e-003 2.72438489e-002 1.71822812e-002
      -2.30944101e-002 -3.32526788e-002 -2.56036203e-002 1.74658950e-002
      1.45490412e-002 -1.67135317e-002 -4.54768948e-002 -2.77023390e-003
      3.93097065e-002 -1.16203888e-003 -3.48530076e-002 -4.16375399e-002
      -6.12944365e-003 2.30143033e-002 4.06775028e-002 -2.25888193e-002
      -2.11936627e-002 -2.04806831e-002 3.35306339e-002 6.63070530e-002
      -3.13084805e-003 -4.82760444e-002 4.69962461e-003 4.43454385e-002
      1.86802521e-002 -2.73896735e-002 -3.41139510e-002 -2.73676720e-002
      -8.29877425e-003 4.05285209e-002 -1.54413953e-002 -4.27976735e-002
      -9.20695718e-003 3.63169163e-002 4.64595072e-002 -5.22202300e-003
      -3.12969871e-002 -2.77846456e-002 -1.20340455e-002 2.31546871e-002
      1.74241723e-003 -1.94912392e-003 -1.38091408e-002 -2.45953142e-003
      2.64453609e-002 -2.48932261e-002 -2.78537255e-002 -2.70452611e-002
      -8.06963351e-003 -5.11171855e-003 -3.72228138e-002 4.63684462e-003
      -3.14372145e-002 -4.96770954e-003 3.81353428e-003 3.85396481e-002
      -2.55246609e-002 -1.64526869e-002 8.38303100e-003 -1.71033740e-002
      -2.11957423e-003 -1.09809926e-002 6.58890139e-003 -1.31539162e-002
      -3.90429869e-002 3.87049629e-004 3.09115890e-002 1.09665236e-002
      1.41910184e-003 -3.98187190e-002 -3.18878144e-002 1.17519777e-002
      1.36290081e-002 1.66075733e-002 -2.73760147e-002 -3.07217594e-002
      1.08798062e-002 2.50654742e-002 -5.09399408e-003 -5.55271395e-002
      -5.15809022e-002 3.57249528e-002 3.24175730e-002 2.37746164e-002
      -1.26485778e-002 -3.27664800e-002 2.75604352e-002 3.83993946e-002
      5.13225282e-003 -4.12476063e-002 -3.39082628e-002 3.16240713e-002
      2.52993200e-002 6.96419505e-004 -2.74970662e-002 -2.04446185e-002
      2.74684168e-002 9.59208794e-003 1.66693591e-002 1.11048026e-002
      -1.02618523e-002 -1.97761972e-002 1.93039104e-002 -1.62390643e-003
      -2.98804473e-002 -9.93244722e-003 1.71056278e-002 1.65237207e-003
      6.57447195e-003 -1.10975523e-002 -3.26185673e-002 1.22342706e-002
      1.00142118e-002 3.61252489e-004 -3.03010419e-002 -6.73887879e-003
      9.24685597e-003 3.62588238e-004 1.38182135e-004 7.45597668e-003
      2.07924210e-002 1.69878211e-002 4.92413044e-002 1.66050382e-002
      -4.58560921e-002 -3.38894092e-002 2.42222920e-002 6.11669850e-004
      1.68105140e-002 -2.05427445e-002 -1.84495375e-002 -4.68830671e-003
      -2.51294691e-002 7.87409022e-003 1.25069981e-002 6.23192172e-003
      -3.55244824e-003 -4.13039606e-003 1.50708659e-002 -1.43333320e-002
      -1.25763603e-002 -9.09044314e-003 -4.04240899e-002 2.48832838e-003
      -1.16632530e-003 -9.23461374e-003 -2.35448126e-003 8.54114722e-003
      -4.13643345e-002 -3.23793143e-002 1.94646679e-002 2.21292861e-002
      2.69839559e-002 1.40882684e-002 -3.48161295e-004 -6.86068728e-004
      1.45304017e-002 -8.15632846e-003 -1.67337283e-002 -5.10846451e-003
      5.96042117e-003 3.26099596e-003 1.83299556e-002 -7.31893331e-002
      -1.68920550e-002 7.57468026e-003 7.41631240e-002 1.08957924e-002
      -9.84161720e-002 -2.79028788e-002 -5.45897847e-003 3.51451263e-002
      -7.46695930e-003 5.76136820e-003 3.61179933e-003 -2.15658136e-002
      -1.84301157e-002 2.35296935e-002 -2.95047881e-003 -1.48597099e-002
      -4.06423397e-002 1.96519028e-002 3.02396379e-002 -4.84369993e-002
      -3.26237641e-002 -8.73176679e-002 3.24249156e-002 7.17190802e-002
      2.48826295e-003 -6.95251673e-002 -8.38384405e-002 3.55872437e-002
      1.87301598e-002 -2.96361018e-002 -5.54979146e-002 -6.12255931e-002
      5.35893627e-002 2.88362578e-002 -4.22212109e-002 -2.42869630e-002
      -3.13358717e-002 4.92882505e-002 5.38501777e-002 -1.89256296e-002
      -9.18603018e-002 -8.78184289e-002 4.15948704e-002 4.06743772e-002
      -4.57655638e-002 -3.32767889e-002 -6.62568584e-002 2.44072843e-002
      2.32039057e-002 -1.95392426e-002 -1.06147081e-002 -1.61023978e-002
      3.24539095e-002 2.03021877e-002 -3.03032510e-002 -7.58684650e-002
      -7.39469528e-002 2.82414090e-002 2.03745086e-002 -4.06180918e-002
      -7.86520727e-003 -1.21917706e-002 2.03203801e-002 2.87062861e-002
      -7.13478476e-002 -5.59964180e-002 -4.37912233e-002 2.54461244e-002
      3.04329246e-002 -1.87070873e-002 -6.51715770e-002 -6.98964894e-002
      5.60941733e-002 1.41505068e-002 -9.08205379e-003 -5.94902635e-002
      -5.76665662e-002 3.33672427e-002 7.03583658e-002 -5.83048277e-002
      -8.42997581e-002 -3.22396755e-002 1.01228826e-001 5.14826067e-002
      -3.92311290e-002 -9.69912931e-002 -5.31928241e-003 8.04106966e-002
      5.21149300e-002 3.75900716e-002 -3.67448851e-002 -6.95089549e-002
      1.36899389e-002 3.71025726e-002 4.77836914e-002 1.99610908e-002
      -6.12993240e-002 -3.92355248e-002 7.69333094e-002 3.68277431e-002
      1.12616213e-003 -6.72975630e-002 -1.35211218e-002 5.95990904e-002
      4.46750000e-002 2.04456244e-002 -8.53141472e-002 -2.93959696e-002
      -1.95731726e-002 2.56595407e-002 2.77332496e-002 1.00806104e-002
      -2.87150554e-002 -9.12237540e-003 -5.34726419e-002
      -4.39036451e-003 2.60028243e-002 5.90987131e-002 -6.83037750e-003
      2.74183154e-002 2.31801420e-002 -2.80034216e-003 -1.83673091e-002
      2.31003249e-003 -5.98049127e-002 -2.88764783e-003 1.84649602e-002
      6.91544404e-003 1.97780859e-002 -8.83497968e-002 -1.15023814e-002
      7.97772501e-003 8.87563601e-002 8.24481249e-003 -9.60049182e-002
      -3.48910801e-002 -6.44758390e-003 6.69429973e-002 3.84328351e-003
      -8.34013745e-002 -1.56240780e-002 9.11375321e-003 8.59925970e-002
      3.84328351e-003 -8.74758735e-002 -3.21786776e-002 -1.73920521e-003
      4.11901623e-002 2.64306851e-002 -4.72521223e-002 -3.82993780e-002
      -6.67868406e-002 3.41466218e-002 8.05319846e-002 1.08354172e-004
      -6.84668347e-002 -8.44081417e-002 3.60915549e-002 7.29055097e-003
      -3.56892534e-002 -1.96056049e-002 -5.06431572e-002 1.23918336e-002
      6.55168891e-002 -9.52005293e-003 -3.69930193e-002 -8.21701288e-002
      1.23918336e-002 8.18599984e-002 1.99632440e-003 -4.17036675e-002
      -9.49122682e-002 2.21431367e-002 4.15581465e-002 -8.60253407e-004
      -7.29562948e-003 -3.70507427e-002 1.81294524e-003 8.41661692e-002
      4.11838373e-005 -2.18634345e-002 -8.65853652e-002 -4.90137981e-003
      -3.01763183e-003 5.57806669e-003 -6.13507698e-004 -5.48981316e-002
      9.26361536e-004 1.45503748e-002 -3.46118258e-003 4.19396500e-004
      -1.77653285e-003 2.54784897e-002 -1.13088712e-002 -5.20322621e-002
      -2.05896911e-003 -7.97680952e-003 6.17912188e-002 -1.74613465e-002
      -3.00921896e-003 3.55107058e-003 3.35803791e-003 -1.65676158e-002
      -1.43915713e-002 -6.29660636e-002 1.97857572e-003 1.20700411e-002
      5.74822128e-002 -1.00182546e-002 -8.64672363e-002 -3.36626135e-002
      -2.71471188e-004 9.21281353e-002 -3.04021081e-003 -8.83594677e-002
      -5.95736951e-002 2.44344771e-002 8.92656296e-002 -1.18100047e-002
      -6.74474984e-002 2.30763759e-003 2.04437170e-002 8.36274326e-002
      -1.51838223e-002 -5.90400584e-002 -8.86934437e-003 5.47522530e-002
      6.92166984e-002</_>
    <_>
      5.53152012e-003 4.63482700e-002 -6.00815658e-003 -4.29495471e-003
      -2.92175524e-002 -7.60449376e-003 6.15142249e-002 7.10972259e-003
      -1.02241039e-002 -3.21544819e-002 -5.90220466e-002 8.24434608e-002
      2.68089231e-002 -2.55921565e-004 -9.98391584e-002 -1.68435257e-002
      3.16097401e-003 5.36083616e-002 2.20232103e-002 -5.98226674e-002
      -1.67367160e-002 7.93147460e-002 2.63873953e-002 3.85548989e-003
      -3.75587959e-003 -6.04523495e-002 1.87632982e-002 5.30467182e-002
      2.20222659e-002 1.01462109e-002 -5.48747852e-002 3.21781822e-003
      4.35375161e-002 2.17203293e-002 1.49649531e-002 -2.46759206e-002
      -8.80213082e-003 3.36073488e-002 1.15123531e-002 3.82448459e-004
      -5.54083027e-002 1.17209218e-002 6.43158928e-002 2.69053541e-002
      2.15085018e-002 -6.34364784e-002 -3.70164625e-002 8.89005885e-002
      4.23114300e-002 1.49754044e-002 -1.45291295e-002 -2.16700882e-002
      2.04722881e-002 3.93999508e-003 7.83648714e-003 -1.62445195e-002
      -3.01044732e-002 3.85669731e-002 -2.22765305e-003 -2.57409457e-002
      -9.03690159e-002 -5.78593754e-004 7.69852847e-002 4.76124510e-002
      9.82578727e-004 -9.38410088e-002 -6.23431504e-002 5.92811853e-002
      1.77912693e-002 5.35907317e-003 -2.69471705e-002 -9.82911605e-003
      6.73252195e-002 5.46519412e-003 -6.67623244e-003 -5.11932485e-002
      -5.17685637e-002 5.10909557e-002 9.42383800e-003 3.69813340e-003
      -6.42859712e-002 -3.42291147e-002 3.69990021e-002 3.38966176e-002
      -6.39139151e-004 -3.32944132e-002 -9.47994646e-003 1.11043556e-002
      1.20967999e-002 -7.60653289e-003 -3.15152202e-003 -2.38654912e-002
      4.45363447e-002 2.11344585e-002 2.55264696e-002 3.91619373e-003
      -1.14652151e-002 1.01245502e-002 -3.59586328e-002 -1.19646720e-003
      2.36517880e-002 4.12631867e-004 -5.05817607e-002 -1.36108501e-002
      4.36322996e-003 6.39730841e-002 1.41492281e-002 -7.29053915e-002
      -3.32399309e-002 5.01058549e-002 5.50100990e-002 2.20938399e-003
      -4.46832553e-002 -6.85224757e-002 2.90006716e-002 9.79494154e-002
      -8.11218563e-003 -8.30823034e-002 -3.51864249e-002 6.56788349e-002
      5.25857583e-002 8.68922938e-003 -7.38230646e-002 -4.71920781e-002
      3.72673012e-002 3.15176509e-002 1.98834408e-002 -4.04133350e-002
      -8.04010406e-003 2.94940155e-002 7.17191920e-002 1.27815800e-002
      -8.26613158e-002 -5.17387912e-002 6.12346418e-002 1.82180926e-002
      2.11014114e-002 -5.91859445e-002 -9.11425799e-003 2.92856582e-002
      -5.04455864e-002 7.67678618e-002 2.57328190e-002 3.85486521e-003
      -2.75861770e-002 -3.16715240e-002 1.47666605e-002 5.01956902e-002
      1.50637347e-002 -2.59426748e-003 -2.79026628e-002 2.91896462e-002
      2.88359430e-002 -1.48963288e-003 -3.02182361e-002 -4.61077057e-002
      -2.38955040e-002 6.59285486e-002 -5.21456357e-003 -2.81941332e-002
      -4.80121747e-002 1.32397497e-002 3.04756369e-002 5.63805643e-003
      2.03007981e-002 -6.03845343e-003 -1.38018737e-002 7.89506547e-003
      -3.28140752e-003 -4.68419073e-003 -5.17333746e-002
      -1.51937744e-002 5.09653091e-002 -6.12890581e-003 7.73481140e-003
      -5.11385035e-003 -2.16530096e-002 1.08866002e-002 2.01612897e-003
      8.59097764e-003 -5.02798101e-003 4.68559191e-003 2.60433974e-003
      -1.39930242e-004 -2.77285883e-003 -4.68161143e-003
      -3.19512561e-002 -3.98952188e-003 2.96174141e-004 5.54172555e-003
      7.43881450e-004 -4.38992009e-002 -2.70613586e-003 2.15930631e-003
      4.09676991e-002 7.43881450e-004 -8.17978680e-002 -3.53376903e-002
      -1.47199556e-002 5.48202880e-002 -1.12722022e-002 -4.65075634e-002
      5.38981799e-003 -2.55517988e-003 1.88843943e-002 -1.44771105e-002
      -5.93389943e-002 1.05838235e-002 -5.81973931e-003 3.52067538e-002
      1.99862178e-002 -9.87749174e-002 -5.18280976e-002 -1.63312405e-002
      7.29504600e-002 1.99862178e-002 -9.22900960e-002 -4.98323068e-002
      -1.63883157e-002 6.17834404e-002 -4.14442681e-002 -4.53586988e-002
      -8.16734228e-003 -1.30025046e-002 2.70036720e-002 4.80753428e-004
      -7.36196116e-002 -4.31342907e-002 -6.13117665e-002 1.91090591e-002
      1.60733145e-002 -6.14115372e-002 -2.24210396e-002 -1.08721340e-002
      8.49813074e-002 1.61259510e-002 -9.35878307e-002 -3.55852395e-002
      -1.91294979e-002 7.53420740e-002 5.00406176e-002 -7.03328550e-002
      -5.69391586e-002 -8.25937465e-002 4.65410091e-002 6.42194375e-002
      -3.33802402e-002 -1.00409053e-001 -8.50018412e-002 1.70037411e-002
      4.05499265e-002 -8.73726383e-002 -3.01463511e-002 -2.77403146e-002
      7.55580142e-002 3.68259661e-002 -5.42809032e-002 -2.20925007e-002
      -7.08638281e-002 3.46462205e-002 3.52316611e-002 6.12091413e-003
      -6.52797371e-002 -4.92745712e-002 -2.09500007e-002
      -1.61466282e-002 2.11721845e-002 -1.23434579e-002 -2.73463316e-003
      -1.94308516e-002 2.33450346e-002 9.18742269e-003 -6.59536291e-003
      -3.52840386e-002 7.69620761e-003 2.80400598e-003 5.14296703e-002
      -3.64021282e-004 6.21692184e-003 8.44574627e-003 -3.28947827e-002
      -2.92363483e-003 4.97245044e-002 3.08204544e-005 6.46647066e-003
      -5.90474233e-002 -4.23328131e-002 7.32143298e-002 1.01056695e-002
      2.43936423e-002 -2.50205714e-002 -1.16694290e-002 5.48692793e-002
      2.84838956e-002 -1.19995922e-002 -3.65938433e-002 -3.30746584e-002
      6.06301837e-002 1.98788289e-002 2.07892321e-002 -4.58688922e-002
      -4.06887904e-002 6.19000308e-002 1.61839239e-002 4.31993753e-002
      -1.48516661e-002 -4.12969626e-002 1.91442203e-002 1.64361633e-002
      6.12189844e-002 -3.06922011e-002 -5.97731061e-002 2.91411467e-002
      2.25758832e-002 4.81680818e-002 -6.72676088e-003 -6.34620860e-002
      -2.04697698e-002 1.83535088e-002 8.48481655e-002 4.93115559e-003
      -6.80592209e-002 -9.73295327e-003 -1.23749105e-002 3.82002778e-002
      1.90952644e-002 -9.11933109e-002 -9.53501761e-002 -7.04871118e-002
      5.55378348e-002 5.37937209e-002 -2.81771235e-002 -4.07989323e-002
      -2.33237538e-002 5.91342524e-002 9.23948735e-002 -3.88235338e-002
      -9.41203907e-002 -8.30911323e-002 7.91370049e-002 5.32283187e-002
      -8.64217430e-002 -8.87134895e-002 -3.51752639e-002 9.35494900e-002
      2.92210355e-002 -8.91534537e-002 -7.47738034e-002 -2.41962913e-002
      8.65553245e-002 9.55034122e-002 -4.56191152e-002 -1.03000991e-001
      -7.83800632e-002 8.56444836e-002 2.56303158e-002 -6.18067235e-002
      -6.67348951e-002 -7.54542276e-002 4.78438064e-002 5.25956880e-003
      -5.22928014e-002 -3.86003479e-002 -5.69952419e-003 7.42172077e-002
      5.25956880e-003 -3.56891900e-002 -3.20691876e-002 -9.96107794e-003
      4.23485562e-002 -1.37544079e-002 -3.40564549e-002 -2.88447123e-002
      -5.41552063e-003 1.02522578e-002 -1.72770079e-002 -8.09220877e-003
      -2.93408297e-002 -7.64941331e-003 4.18426673e-004 2.21806690e-002
      -3.55934091e-002 -1.88465230e-002 -2.00251229e-002 5.04007787e-002
      1.25540970e-002 -4.89535704e-002 -1.27330758e-002 -2.83323620e-002
      1.22013493e-002 1.27226748e-002 -1.66482888e-002 -3.15502957e-002
      -2.62644477e-002 -1.41036902e-002 1.23816505e-002 -5.17631210e-002
      -4.10703458e-002 -1.10981874e-002 3.94204399e-003 6.41555712e-003
      -7.94735551e-003 -1.72696810e-003 -1.39814848e-002 1.33774267e-003
      -7.91633734e-004 1.60757117e-002 -2.53153848e-003 -2.05967706e-002
      1.98703748e-003 4.86361561e-003 -1.53445797e-002 -3.89686506e-003
      -4.50017536e-003 -8.08323827e-003 4.77437396e-003 2.32376903e-002
      -7.37186521e-004 -4.12708223e-002 -2.39471253e-003</_>
    <_>
      -3.64954397e-002 3.48491371e-002 -1.50637347e-002 -1.42750936e-002
      -3.06283291e-002 -2.11775899e-002 5.60864173e-002 2.37649065e-002
      -1.65492669e-002 -4.18160222e-002 5.54540055e-003 4.12478559e-002
      -2.72926874e-002 -3.09771039e-002 -2.54546460e-002 2.44700816e-003
      4.34663594e-002 1.61260227e-003 -3.23204622e-002 -4.25305814e-002
      -2.94475760e-002 6.89759701e-002 1.96213275e-002 -1.53228845e-002
      -5.81554957e-002 -1.63500309e-002 5.56457005e-002 2.06386484e-002
      -2.07378399e-002 -6.98284730e-002 -1.08860685e-002 6.76458254e-002
      9.25331842e-003 -2.64182035e-002 -5.46404310e-002 1.18153682e-002
      4.18549292e-002 -1.01316040e-002 -3.61081138e-002 -5.86422347e-002
      -1.42700123e-002 4.25638035e-002 2.51754969e-002 -9.69997514e-003
      -2.08440572e-002 -4.28368337e-002 -1.69691108e-002 3.78099456e-002
      -5.39159030e-003 -2.54290942e-002 4.83771058e-004 2.62167025e-002
      -1.42321577e-002 -1.65239461e-002 -1.46636628e-002
      -1.22774299e-002 -2.34565008e-002 -8.61369073e-003
      -1.07461056e-002 -3.64525564e-004 -2.83625387e-002
      -7.78536266e-003 1.03096692e-002 1.14352209e-002 -7.84898456e-003
      -2.42207781e-003 -3.80055197e-002 -2.88512800e-002 1.16547979e-002
      1.60944536e-002 1.83667392e-002 -1.32885771e-002 -1.29859662e-002
      3.90732050e-004 3.65430601e-002 1.56200044e-002 -2.14119051e-002
      -1.38639356e-003 1.30807143e-002 2.60554161e-002 -4.13932255e-004
      -3.16470042e-002 -2.30515786e-002 -8.92795215e-004 9.26706661e-003
      1.77165978e-002 -1.91699583e-002 -1.60745531e-002 -2.49400120e-002
      9.18768346e-003 2.55511124e-002 -1.51671031e-002 -1.04503771e-002
      -9.67144314e-003 1.64883379e-002 3.43427248e-002 9.66266636e-003
      -1.27193555e-002 -2.93155555e-002 7.57198455e-003 2.80727893e-002
      1.04759997e-002 -3.17919813e-002 -1.78616028e-002 1.98013373e-002
      2.38808692e-002 -5.02881175e-003 -4.73479517e-002 -3.07928436e-002
      5.31316409e-003 4.14687395e-002 1.46631179e-002 -9.45847947e-003
      -1.33185266e-002 2.30062362e-002 3.68885063e-002 1.13848383e-002
      -2.24733651e-002 -1.12643065e-002 -8.02150811e-004 1.44994473e-002
      8.17946158e-004 4.77867055e-004 -2.42460240e-002 -2.82333087e-004
      1.16030332e-002 1.52410511e-002 1.70445293e-002 -2.64026951e-002
      -1.96048710e-002 4.00043651e-002 1.44451577e-002 -7.27227982e-003
      -1.46870073e-002 1.35608027e-002 2.98264250e-002 1.12455487e-002
      2.88719166e-004 -1.55136436e-002 6.18627621e-003 3.10455635e-002
      2.79384870e-002 -5.38582690e-002 -2.01152284e-002 -6.12651976e-003
      2.41960827e-002 3.78012508e-002 -2.06128173e-002 -1.38164088e-002
      -1.95898730e-002 3.09151951e-002 2.21656002e-002 -3.85068692e-002
      -3.52823325e-002 3.82406542e-005 1.59108452e-002 2.24791132e-002
      -6.34560129e-003 -1.29307238e-002 4.03635902e-003 1.06367925e-002
      6.66175485e-002 -8.52031354e-003 -2.44092271e-002 -2.68819351e-002
      3.15786190e-002 4.02426384e-002 -5.46547584e-002 -5.05929664e-002
      -1.87034886e-002 7.94163346e-003 5.63823134e-002 5.52871637e-003
      -2.05998737e-002 -1.53764128e-003 5.62344640e-002 4.77951355e-002
      -5.02790101e-002 -5.18149137e-002 3.52766663e-002 3.80963646e-002
      3.26083377e-002 -4.07052711e-002 -9.64934565e-003 2.20749192e-002
      4.64334376e-002 -2.03520078e-002 -5.75944334e-002 -2.98043676e-002
      4.47637327e-002 8.15844014e-002 2.14111116e-002 -6.02832660e-002
      -6.16356283e-002 6.89259171e-002 8.40824842e-002 -2.21903883e-002
      -7.83139765e-002 -7.93172792e-002 6.71885982e-002 3.22654508e-002
      -3.69181708e-002 -6.25893474e-002 -4.73673865e-002 3.26386839e-002
      3.43138278e-002 -2.68492643e-002 -2.28282921e-002 -2.03286353e-002
      3.70817147e-002 9.00824517e-002 -2.11143829e-002 -7.31243491e-002
      -8.02718401e-002 5.26886545e-002 5.31126074e-002 -1.85734276e-002
      -3.58680896e-002 -6.80422783e-002 2.19308976e-002 1.88206118e-002
      -2.81318594e-002 -2.58544758e-002 -1.50665352e-002 2.58859596e-003
      2.22524013e-002 -2.44409051e-002 -2.89314613e-002 -1.76219996e-002
      9.09334794e-003 1.65147856e-002 -3.46792601e-002 -2.33356431e-002
      -2.47635413e-002 1.68150906e-002 1.26529038e-002 -2.91189663e-002
      -2.46490519e-002 -1.23281954e-002 1.60294771e-002 2.51728110e-002
      -8.94336402e-003 -1.88362803e-002 -1.98954884e-002 1.70564204e-002
      1.31755741e-002 -2.84128673e-002 -3.46614234e-002 -4.46976013e-002
      7.13695446e-003 1.28193265e-002 -2.82664075e-002 -2.10599843e-002
      -9.87668801e-003 3.09900362e-002 1.04006836e-002 -5.75576872e-002
      -3.44575569e-002 -8.29972047e-003 5.13730608e-002 2.69664060e-002
      -3.38485651e-002 -4.57932316e-002 -4.55964133e-002 3.97964045e-002
      4.52152714e-002 -3.64078693e-002 -6.95766062e-002 -4.95298617e-002
      3.84936258e-002 2.79515814e-002 -6.74989074e-002 -5.21754324e-002
      -3.28626670e-003 9.51137766e-002 3.87692936e-002 -6.95996284e-002
      -8.15747157e-002 -1.22682545e-002 8.56066346e-002 5.10595785e-003
      2.53481176e-002 -1.13463281e-002 -2.73464695e-002 2.90221674e-003
      -2.23844242e-003 2.50885822e-002 -2.64280546e-003 -4.43244679e-003
      1.52807478e-002 1.32034253e-002 9.07852221e-003 -8.94608907e-003
      -1.45069715e-002 2.68836021e-002 2.18015015e-002 1.91097092e-002
      -1.27514983e-002 -6.70758309e-003 2.09562052e-002 2.08883099e-002
      3.03240269e-002 2.17239372e-003 -2.99483747e-003 3.07418741e-002
      6.19425997e-002 1.18822884e-002 -5.90426289e-002 -5.61657920e-002
      4.55987230e-002 4.15597558e-002 1.20309589e-003 -1.65246911e-002
      6.89164852e-004 4.11426537e-002 7.50399008e-002 -1.06821992e-002
      -6.36089444e-002 -6.19415417e-002 1.08909709e-002 8.54931027e-002
      2.69249245e-003 -5.93319125e-002 -8.04618374e-002 5.47151975e-002
      8.16688165e-002 -1.65174517e-003 -4.96390834e-002 -8.68280903e-002
      2.74438150e-002 8.48984942e-002 1.23569532e-003 -2.76708826e-002
      -8.08984190e-002 8.68668500e-003 6.32044300e-002 2.21908372e-003
      -1.89568084e-002 -8.53299499e-002 -5.03138232e-004 7.96180367e-002
      -6.73613278e-004 -3.19573842e-002 -8.67571309e-002 7.83786643e-003
      4.06451859e-002 -2.28559738e-003 -1.02979271e-002 -6.45859167e-002
      3.54438974e-003 5.86906075e-002 -1.22206274e-003 -1.52514558e-002
      -7.80987740e-002 -5.90242492e-003 2.90718079e-002 -2.71625561e-003
      -1.07655684e-002 -4.02256101e-002 4.91884723e-003 1.69625431e-002
      -1.25532178e-002 -3.45546124e-003 -8.26993119e-003 7.34129641e-003
      5.20838471e-003 -2.47370545e-002 -5.33388043e-003 -4.25344333e-003
      3.92774865e-003 2.92810914e-003 -9.98947397e-003 -7.55787361e-003
      -7.00834161e-003 4.40825615e-003 2.50213011e-003 -2.27797832e-002
      -9.03082173e-003 -8.10286403e-003 4.30661300e-003 9.36665758e-003
      -2.83362623e-002 -1.04301041e-002 -2.28032330e-003 2.44660117e-002
      -2.61980784e-003 -5.53121902e-002 -1.95472334e-002 2.46445066e-003
      4.92991805e-002 -2.90470035e-003 -2.46266741e-002 -7.14104297e-003
      -3.25294584e-003 1.80055387e-002 -4.01276536e-003 -3.51996906e-002
      -1.39795598e-002 -3.12591204e-004 2.40843277e-002 -4.88863001e-003
      -7.61830509e-002 -1.56020420e-002 8.04553553e-003 7.42637888e-002
      -4.02391283e-003 -8.04326236e-002 -3.54168750e-002 3.57533805e-002
      7.29246065e-002 -1.34504624e-002 -5.95749095e-002 -3.50152934e-003
      1.55606559e-002 5.66115156e-002 -2.15648878e-002 -7.94244558e-002
      1.47500532e-002 3.91024686e-002 6.16159961e-002</_>
    <_>
      -2.98504205e-003 2.03520246e-002 3.59514775e-003 -2.73229321e-003
      -8.24727491e-003 -2.82234140e-002 2.81861108e-002 1.89718734e-002
      -1.45408220e-003 -1.20909046e-002 -1.15402751e-002 1.28655117e-002
      -2.04986031e-003 4.59548365e-003 -2.80603743e-003 -1.25547722e-002
      -4.08715336e-003 1.93223730e-002 1.49302417e-002 2.10793503e-003
      -4.64090705e-002 5.34178503e-002 2.80692168e-002 3.36108101e-003
      -3.46863791e-002 -3.89043875e-002 5.70895001e-002 3.35221142e-002
      -3.96815361e-003 -4.10845466e-002 -3.07034850e-002 7.52257509e-003
      1.34525048e-002 1.78082299e-003 -4.55926917e-003 -5.62101486e-004
      4.58338764e-003 -3.51255818e-004 -8.32092762e-003 -9.67428740e-003
      -2.18165927e-002 5.25678024e-002 4.89725880e-002 -3.18818470e-003
      -3.69844511e-002 -6.89176470e-002 -3.96287302e-003 7.12833628e-002
