<?xml version="1.0"?>
<opencv_storage>
<opencv_ml_svm>
  <format>3</format>
  <svmType>C_SVC</svmType>
  <kernel>
    <type>LINEAR</type></kernel>
  <C>1.</C>
  <term_criteria><iterations>3000</iterations></term_criteria>
  <var_count>128</var_count>
  <class_count>10</class_count>
  <class_labels type_id="opencv-matrix">
    <rows>10</rows>
    <cols>1</cols>
    <dt>i</dt>
    <data>
      0 1 2 3 4 5 6 7 8 9</data></class_labels>
  <sv_total>45</sv_total>
  <support_vectors>
    <_>
      -3.72756564e-004 -4.21183417e-004 -7.66309793e-004
      -1.37287145e-003 -1.09005580e-003 7.25724210e-004 2.09104805e-003
      1.84894423e-003 -3.53831158e-004 -3.76575073e-004 -1.09980488e-003
      -5.95083926e-004 1.48249281e-004 4.14325128e-004 1.49375352e-003
      2.09451513e-003 -8.65536131e-005 4.25455619e-005 -1.33474532e-005
      2.33797892e-003 2.86643370e-003 1.23278168e-003 -2.30754504e-005
      5.13310661e-004 1.11498334e-003 1.39040884e-003 1.45618315e-003
      2.91326921e-003 1.88599096e-003 9.55680211e-004 4.04715247e-004
      5.77108702e-004 2.10423535e-003 2.10176292e-003 1.88675104e-003
      2.08948599e-003 1.13254844e-003 1.23153778e-003 9.73333488e-004
      3.37385078e-004 1.71031267e-003 9.57486045e-004 6.06010435e-004
      9.40624741e-004 8.30446777e-004 1.22556696e-003 6.19050814e-004
      2.72368663e-004 -5.11255173e-004 -5.94103476e-004 2.70015844e-005
      7.96462351e-004 1.22078671e-003 1.61320006e-003 7.24398880e-004
      3.20070030e-005 -9.87189007e-004 -1.20359450e-003 -2.19233218e-004
      4.01051249e-004 1.06955785e-003 1.41573802e-003 1.83142998e-004
      -3.08987874e-005 -1.36675336e-003 -1.82730507e-003
      -6.16248755e-004 1.22992196e-005 9.28772090e-004 1.13415730e-003
      -2.24054165e-005 -5.93013829e-005 -1.88943476e-003
      -2.31648237e-003 -5.81702276e-004 3.95296636e-004 1.02537731e-003
      1.28082756e-003 -3.96798569e-004 -2.21157839e-004 -1.87567028e-003
      -1.98470429e-003 -3.64561769e-004 5.54807775e-004 9.79958219e-004
      1.34777336e-003 -4.36364207e-005 -4.47726547e-004 -1.44637981e-003
      -1.79126370e-003 -4.79301554e-004 6.90231915e-004 1.13014283e-003
      1.34374341e-003 -1.29282620e-004 -5.79453830e-004 -1.28885312e-003
      -1.97442761e-003 -4.18695796e-004 8.36020568e-004 1.44641392e-003
      1.28575065e-003 -3.97463882e-004 -4.89205297e-004 -1.01986760e-003
      -2.23287661e-003 -1.02179986e-003 5.42361930e-004 1.15819776e-003
      3.46826331e-004 -7.79313850e-004 -1.15447699e-004 -6.39517908e-004
      -1.83653412e-003 -1.92037667e-003 -9.33392614e-004
      -1.16124970e-003 -1.23803993e-003 -3.60367674e-004 2.59966066e-004
      -2.33622268e-004 -9.40594589e-004 -1.28556311e-003
      -1.28786091e-003 -1.87177921e-003 -9.61782236e-004 2.71749159e-004
      3.00770567e-004</_>
    <_>
      1.73684140e-003 2.13797227e-003 1.26921979e-003 7.14731286e-005
      -4.65896737e-005 7.38675299e-004 1.51524274e-003 1.42914453e-003
      1.60399592e-003 2.20486592e-003 3.31738585e-004 -7.25733698e-004
      -3.44455766e-004 -3.10754695e-004 1.51233992e-003 2.41318904e-003
      1.35380321e-003 3.34445445e-004 -9.18123929e-004 7.89472906e-005
      1.10299361e-003 7.17056799e-004 1.45524551e-004 1.54771260e-003
      -6.33847885e-005 -1.54366449e-003 -1.68032607e-003
      -3.04471789e-004 3.81198828e-004 1.00517063e-003 5.33945858e-004
      1.76694011e-003 -1.60931749e-003 -1.83668337e-003 -6.27588539e-004
      5.06163109e-004 1.26979675e-003 1.84668729e-003 5.29522949e-004
      7.24037469e-004 -1.69382582e-003 -2.21074210e-003 -1.72958753e-004
      1.10194227e-003 1.86250254e-003 1.92216481e-003 3.61131737e-004
      7.61987641e-004 -1.60378614e-003 -1.18490984e-003 3.30500654e-004
      2.00595148e-003 2.90948199e-003 3.05116060e-003 9.60989622e-004
      3.53060663e-004 -1.43651525e-003 -1.18148897e-003 5.93373959e-004
      1.70390191e-003 2.97374441e-003 3.38568026e-003 -3.66674038e-004
      -1.20469055e-003 -2.17983150e-003 -1.89831399e-003 2.56357074e-004
      1.89433340e-003 3.44828190e-003 2.19181622e-003 -2.03727535e-003
      -1.83451164e-003 -2.16634572e-003 -1.89511816e-003 1.44851604e-003
      3.26133287e-003 3.73070105e-003 1.14698813e-003 -2.60008941e-003
      -9.42393905e-004 -1.15508831e-003 -3.75368312e-004 2.81347311e-003
      3.94184189e-003 2.36224057e-003 -4.06093081e-004 -3.61494697e-003
      -2.01042788e-003 -1.22239685e-003 -4.25885810e-004 2.49536708e-003
      3.03279026e-003 1.21712522e-003 -8.33875558e-004 -3.23691173e-003
      -1.87712233e-003 -6.08560513e-004 -6.71967398e-004 1.64673268e-003
      1.63187156e-003 5.67574520e-004 -1.60820480e-003 -4.01722733e-003
      -2.11462495e-003 3.03108653e-004 -1.57435797e-003 1.42082485e-004
      8.67961906e-004 1.87853293e-004 -1.82692776e-003 -2.58146599e-003
      -4.85847995e-004 1.81859243e-003 -8.05100135e-004 -1.36299559e-003
      -1.09919440e-003 -2.42809858e-003 -1.94392900e-003
      -3.35890392e-004 4.71083244e-004 2.17950856e-003 5.69838216e-004
      -7.89842161e-004 -2.03804090e-003 -2.38203374e-003
      -1.60065795e-007 1.64948462e-003 1.37807475e-003</_>
    <_>
      1.01257292e-005 2.68685719e-004 1.89891667e-004 8.15869425e-005
      4.62587952e-004 5.12429397e-004 3.66891152e-004 -1.87300655e-004
      4.36675240e-004 1.18237734e-003 2.22843300e-004 -7.04327424e-004
      -5.54431230e-004 -1.05636045e-005 1.23947300e-003 7.63686839e-004
      1.51127914e-003 1.18397817e-003 -5.84091700e-004 -7.20989308e-004
      -4.81221010e-004 -6.31407136e-004 5.72045101e-004 1.72614225e-003
      1.52039470e-003 6.22869178e-004 -8.43521615e-004 -7.94361578e-004
      -5.76692983e-004 -3.50323331e-004 8.45637915e-005 1.87781698e-003
      -7.85825017e-004 -7.16437295e-004 -5.83549379e-004
      -4.23652091e-004 -4.55278147e-004 -2.59393128e-004
      -1.42657711e-006 1.19728129e-003 -2.17159418e-003 -1.55360915e-003
      -5.44783135e-004 -2.51464720e-004 3.83080223e-005 2.19764857e-004
      5.24614938e-004 4.12440248e-004 -2.06143828e-003 -1.35673431e-003
      -5.25285213e-005 7.08942360e-004 1.87362230e-003 2.47867871e-003
      1.21088303e-003 -7.69018137e-004 -2.09664856e-003 -1.49107061e-003
      1.15425959e-004 1.60911365e-003 3.90532170e-003 3.67827737e-003
      3.39619961e-004 -1.63476740e-003 -2.27230019e-003 -1.78092043e-003
      -3.80410143e-004 7.87944708e-004 1.80732168e-003 2.00032117e-003
      8.92093696e-004 -7.48882128e-004 -2.51663104e-003 -2.02532345e-003
      -5.75899496e-004 3.14079589e-005 1.44256177e-004 -2.05923265e-004
      9.66644657e-005 6.49110589e-004 -2.32333830e-003 -1.76527794e-003
      -5.00952767e-004 -4.49610234e-005 -4.08091400e-005
      -6.39686419e-004 -8.26708099e-004 1.13747362e-003 -1.95261894e-003
      -1.72608101e-003 -6.66612235e-004 -3.15987039e-004 7.77001333e-005
      -6.13761425e-004 -6.92519243e-004 1.24175649e-003 -1.74444413e-003
      -1.56354217e-003 -4.54853143e-004 -2.07660414e-004
      -1.30468601e-004 -6.50532253e-004 -1.45942331e-005 1.29973132e-003
      -9.15194978e-004 -7.18494004e-004 1.25287508e-004 2.17225097e-004
      -3.80856334e-004 -5.41404064e-004 1.05916383e-003 1.40665995e-003
      3.90592759e-005 3.07292503e-004 4.82179807e-004 2.05169650e-004
      -4.03053826e-004 4.80037008e-004 1.79184787e-003 5.70858887e-004
      7.14085036e-005 4.85082768e-004 6.29212533e-004 1.38978590e-004
      2.79261149e-004 1.31720747e-003 9.77950986e-004 -1.05283347e-004</_>
    <_>
      -4.18180425e-004 -4.67443693e-004 -7.05919054e-004
      -1.27197336e-003 -6.71665068e-004 7.26031722e-004 9.56088654e-004
      5.05408563e-004 -5.02972107e-004 -6.73669856e-004 -1.45564729e-003
      -1.31308555e-003 -1.68603408e-004 1.54828958e-004 3.43377797e-005
      3.25758912e-004 -5.25884505e-004 -1.03406131e-003 -1.58219447e-003
      1.23607388e-004 1.77195377e-003 8.36680993e-004 -1.42119441e-003
      -1.24530296e-003 -5.93618024e-004 -1.22048322e-003
      -1.06746145e-003 1.01624464e-003 1.83974637e-003 8.74714809e-004
      -1.12518854e-003 -1.23824237e-003 -9.19514219e-004
      -1.17241882e-003 -7.86776582e-005 1.74042396e-003 1.82584696e-003
      7.05469574e-004 -1.08524843e-003 -1.48996839e-003 -8.46526644e-004
      -1.04757596e-003 5.36833017e-004 1.93630508e-003 1.50805234e-003
      2.10364160e-004 -1.40510860e-003 -1.42446090e-003 -7.90447928e-004
      -3.28277238e-004 1.40540488e-003 2.03781016e-003 1.16497849e-003
      1.70943546e-004 -1.14104024e-003 -1.27173972e-003 -2.91575096e-004
      4.35667956e-004 1.93168817e-003 1.56083156e-003 6.97964686e-004
      4.04524006e-004 -6.81821548e-004 -8.69737996e-004 2.50636047e-004
      8.58918007e-004 1.44225603e-003 5.31664758e-004 5.66785340e-004
      8.53914884e-004 2.83306959e-004 -3.65225290e-008 3.11005482e-004
      6.24858425e-004 9.85439285e-004 4.44698730e-004 6.47756446e-004
      1.25549932e-003 4.89352620e-004 2.13377891e-004 1.12312741e-003
      1.11519627e-003 1.27309328e-003 8.37283733e-004 7.52510561e-004
      1.18302321e-003 6.60353864e-004 3.98124976e-004 1.26522337e-003
      1.42583251e-003 2.30132369e-003 2.28991592e-003 2.02274323e-003
      1.84588309e-003 9.39337304e-004 9.02867934e-004 1.64279132e-004
      -3.61850223e-004 6.44923944e-004 1.27335894e-003 1.54318998e-003
      1.53849670e-003 4.97257162e-004 3.42810701e-004 -3.48218513e-004
      -1.49656506e-003 -6.57986151e-004 2.63447961e-004 7.70636660e-004
      7.49879400e-004 1.47522849e-004 1.99810456e-004 -1.55777379e-004
      -1.32626551e-003 -1.65093481e-003 -1.16168219e-003
      -1.10979530e-003 -2.31905535e-004 7.79518043e-004 8.87635513e-004
      7.28977102e-005 -5.66734059e-004 -1.01276988e-003 -1.23108341e-003
      -1.52458879e-003 3.62750106e-005 1.65511272e-003 1.28286961e-003</_>
    <_>
      1.32232544e-003 1.16224622e-003 -1.20854318e-004 -1.38931337e-003
      -1.96645083e-003 -1.96572058e-004 2.21981108e-003 3.13838152e-003
      8.96102167e-004 1.05181221e-004 -1.97819714e-003 -2.46268534e-003
      -2.57132319e-003 -2.12525856e-003 1.63728069e-003 4.88069514e-003
      -7.93662402e-005 -1.92337064e-003 -2.59816018e-003
      -4.95163316e-004 -4.46724916e-005 -2.29535159e-003
      -4.19310993e-003 -1.48250465e-003 2.40036694e-004 -1.18140958e-003
      -1.28520594e-003 -4.33840905e-004 -3.86459811e-004
      -1.11687672e-003 -4.02601017e-003 -2.88900035e-003
      -1.52943074e-003 -1.15970930e-003 8.47661111e-004 1.03780115e-003
      8.05758755e-004 -6.87164211e-005 -3.58460587e-003 -3.67674604e-003
      -9.88963526e-004 -8.52446072e-004 1.65959704e-003 3.38013703e-003
      3.84218898e-003 1.78784947e-003 -2.77614803e-003 -2.97382078e-003
      -4.07609565e-004 9.48010187e-004 3.48951202e-003 4.94243298e-003
      5.05412184e-003 3.87883489e-003 -1.20852201e-003 -2.16250587e-003
      1.31251727e-004 6.78501499e-004 1.86430931e-003 1.50551612e-003
      2.30164174e-003 2.23238021e-003 -4.38804302e-004 -6.11097261e-004
      -1.67987682e-003 -1.94380234e-003 -4.11426940e-004 2.57860549e-004
      9.96819697e-004 7.46167672e-004 -3.22351814e-004 4.31487366e-004
      -3.37590743e-003 -3.20779928e-003 -3.66849330e-004 8.04834184e-004
      8.28632154e-004 3.41572362e-004 -9.68739390e-004 1.33495778e-003
      -2.84759142e-003 -2.82609393e-003 4.35835937e-005 1.11616869e-003
      3.61573970e-004 -2.32032849e-004 -1.26931525e-003 1.04249117e-003
      -1.50934339e-003 -1.75375922e-003 -2.52917380e-004 3.39297956e-004
      7.39968382e-004 1.97093788e-004 -6.69956265e-004 1.45634369e-003
      -5.00117196e-004 -1.10200664e-003 9.17241443e-004 1.37263304e-003
      1.36975071e-003 9.10016883e-004 -2.08321842e-004 7.33475608e-004
      7.96604319e-004 -1.04950124e-003 1.41096395e-003 2.03165039e-003
      1.49296923e-003 4.53170098e-004 -7.26395519e-005 5.98154264e-004
      2.45852862e-003 -7.84417934e-005 -9.47331428e-005 -3.72283830e-004
      -2.10265396e-003 -1.51905359e-003 -1.20160417e-004 6.42768689e-004
      2.90741725e-003 1.84008630e-003 1.01364311e-003 -1.18950487e-003
      -2.66193412e-003 -5.88347262e-004 8.75838916e-004 9.39525140e-004</_>
    <_>
      3.79302772e-004 1.51235174e-004 -7.96531211e-004 -2.18060263e-003
      -2.12067203e-003 5.82267123e-004 1.35761639e-003 1.19368115e-003
      4.11698769e-004 3.86326778e-004 -1.34022336e-003 -1.48900214e-003
      -8.61523848e-004 -4.34940361e-004 5.86680020e-004 6.23965578e-004
      1.41116278e-003 -4.20168217e-004 -1.43416517e-003 1.13793171e-003
      9.31948307e-004 -1.30487024e-003 -2.70257820e-003 -1.95746915e-003
      1.28379476e-003 -4.65266960e-004 -1.94111621e-004 7.60702707e-004
      -1.91716972e-004 -1.50460866e-003 -3.34671652e-003
      -2.85235839e-003 5.54890838e-004 -3.78851168e-004 7.85093347e-004
      1.23707752e-003 4.91348736e-004 -1.21508341e-003 -5.52143389e-003
      -5.13684377e-003 1.19662005e-003 8.95132893e-004 2.26166635e-003
      2.85280193e-003 2.51251366e-003 9.05841938e-004 -4.46375040e-003
      -4.69903974e-003 1.42922811e-003 2.09532469e-003 3.28414491e-003
      4.17085597e-003 4.53192089e-003 3.27530643e-003 -1.84238830e-003
      -3.21050757e-003 1.46617135e-003 2.49267486e-003 3.66746681e-003
      3.93529888e-003 4.55023441e-003 3.53195029e-003 -1.86780162e-004
      -1.88792392e-003 6.61805680e-004 6.62555743e-004 1.39487989e-003
      9.76193929e-004 1.74938783e-003 2.03564973e-003 9.03648208e-004
      6.64060470e-004 -6.53760726e-005 -4.08693304e-005 1.29517357e-004
      -5.93723380e-004 -5.10079379e-004 7.43349010e-005 -2.82630761e-004
      1.85811846e-003 7.99700938e-005 -1.12014008e-003 -1.24987552e-003
      -1.05772959e-003 -1.40203454e-003 -1.90174568e-003
      -1.43659359e-003 1.39903894e-003 1.13109150e-003 -5.61652123e-004
      -1.35197968e-003 -1.04554906e-003 -9.61746555e-004
      -1.20638427e-003 -9.29226168e-004 8.71600816e-004 8.57047737e-004
      1.78010141e-005 -5.96496742e-004 -2.49319914e-004 -6.34634576e-004
      -1.14349194e-003 -6.38126920e-004 5.35781961e-004 1.31004036e-003
      7.18588941e-004 2.84927490e-004 -4.82929318e-005 -8.92849814e-004
      -8.45409057e-004 3.91431458e-005 -2.12363029e-005 1.00669032e-003
      1.03638938e-003 1.50479516e-003 5.92153694e-004 -1.21953024e-003
      -7.65206292e-004 -2.73331505e-004 -2.18332716e-004 1.12863979e-003
      8.78780789e-004 1.73136464e-003 9.82418889e-004 -1.15146209e-003
      -1.38719159e-003 -1.20508182e-003 -5.93526638e-004</_>
    <_>
      1.34299847e-003 1.64036767e-003 5.83599904e-004 -1.38780859e-004
      2.48486667e-005 5.38420922e-004 1.21597713e-003 1.04339572e-003
      1.08928583e-003 1.71449501e-003 9.81326099e-004 8.22726171e-004
      1.12343498e-003 1.17622013e-003 1.65062852e-003 1.70717854e-003
      4.48769832e-004 1.88347811e-004 -2.40487629e-004 6.49633468e-004
      1.07156159e-003 7.88595295e-004 8.36585357e-004 1.01310515e-003
      1.96764304e-004 8.32675869e-005 -5.80870430e-004 -4.75776498e-004
      -5.77922983e-005 5.78500680e-004 7.37257709e-004 3.89647379e-004
      -3.61227372e-004 -5.57443418e-005 -4.00910125e-004
      -3.82430211e-004 2.69827200e-004 1.14495272e-003 6.84850442e-004
      -1.63429184e-004 -1.03753072e-003 -9.64517938e-004
      -6.18823105e-004 -2.28915320e-004 8.57426261e-004 1.31254236e-003
      3.44053697e-004 -5.20947855e-004 -1.40172150e-003 -1.06465409e-003
      -2.84994836e-004 4.75280336e-004 1.52824738e-003 1.45322143e-003
      -7.72131170e-005 -7.31929496e-004 -1.40323478e-003
      -1.02897221e-003 -1.44679230e-004 8.94951227e-004 1.52129936e-003
      1.26232591e-003 -3.74361116e-004 -9.08870948e-004 -1.52719032e-003
      -1.02948886e-003 8.59365027e-005 1.40347797e-003 1.61632698e-003
      1.20348996e-003 -5.70873264e-004 -7.20198790e-004 -1.53021852e-003
      -8.91197589e-004 4.94349224e-004 1.51366612e-003 1.41765433e-003
      1.09597447e-003 -8.20710149e-004 -5.02138457e-004 -1.42357370e-003
      -6.19557919e-004 8.03990173e-004 1.28796394e-003 1.45035784e-003
      6.63778454e-004 -1.32681255e-003 -4.50207095e-004 -1.32509868e-003
      -3.90961795e-004 8.64226546e-004 8.29691126e-004 1.46591198e-003
      1.99685659e-004 -1.31327927e-003 -1.95404500e-004 -1.19743939e-003
      -1.83593438e-004 8.95600999e-004 1.08268554e-003 1.63854461e-003
      -3.25955130e-004 -1.26713538e-003 -1.02782746e-004
      -6.66710315e-004 -2.24780000e-004 4.17094387e-004 1.13120605e-003
      1.16417033e-003 -9.72389302e-004 -1.19652366e-003 3.61831080e-005
      4.15418617e-004 -1.46516541e-004 -9.74947994e-004 -3.61039652e-004
      -9.00960702e-004 -1.61485351e-003 -7.34843255e-004 1.89122031e-004
      8.89473828e-004 5.02838579e-004 -8.45805043e-004 -1.15873781e-003
      -1.24807004e-003 -9.77910357e-004 -1.93568238e-004 1.14091810e-004</_>
    <_>
      -7.88881734e-004 -1.95009023e-004 1.64541216e-005 -4.73166510e-005
      -3.57389727e-005 -3.40752922e-005 -6.31319926e-005
      -5.61067369e-004 -5.42900118e-004 2.77602783e-004 -4.21499222e-004
      -6.08211907e-004 -3.82307626e-004 -5.08044322e-005 2.43638657e-004
      -1.96222081e-005 -2.84191745e-004 1.38518182e-004 -8.64326372e-004
      -6.18824793e-004 -5.78379550e-004 -3.15698097e-004
      -3.30179064e-005 3.00263317e-004 -2.38331602e-004 -9.66666776e-005
      -3.22282227e-004 -4.26613929e-004 -8.23993876e-004
      -5.38752007e-004 -1.18950207e-004 1.22914556e-004 -6.17863378e-004
      -7.52533306e-005 5.15276333e-004 -1.71024483e-004 -6.79279095e-004
      -1.56854978e-004 3.42737585e-005 -5.53147343e-004 -1.46564550e-003
      -6.51760725e-004 1.47702440e-003 5.24216041e-004 6.20269129e-005
      8.00072739e-004 4.59976036e-005 -1.38970185e-003 -2.34289072e-003
      -1.30167953e-003 2.39255908e-003 3.27390688e-003 3.38452286e-003
      3.38396686e-003 -4.73420310e-004 -2.71329074e-003 -2.04502093e-003
      -7.25137477e-004 2.87499768e-003 2.94065080e-003 3.14639998e-003
      4.05430887e-003 2.82768364e-004 -2.32107751e-003 -9.83855920e-004
      3.62683320e-004 1.67565804e-003 1.78733724e-004 3.57946992e-004
      2.15691817e-003 8.39087937e-004 -8.40902037e-004 6.33264353e-005
      4.87963727e-004 1.59191201e-004 -8.72150937e-004 -8.12566839e-004
      -9.16522113e-005 -2.48959277e-005 6.93822629e-004 8.43904738e-004
      -1.40760685e-005 -4.26291110e-004 -9.59978905e-004
      -1.11136702e-003 -1.27360655e-003 -1.05053175e-003 1.36559817e-003
      1.38269353e-003 -3.36196186e-004 -6.54016738e-004 -8.39014538e-004
      -9.34921554e-004 -1.33857096e-003 -1.15628133e-003 1.64623500e-003
      1.55911432e-003 5.46533498e-004 -6.09889503e-005 -5.24391595e-004
      -7.31150270e-004 -9.82676283e-004 -3.06139787e-004 1.23462710e-003
      1.04280375e-003 1.41846261e-003 7.90830527e-004 -3.95786919e-004
      -1.01157324e-003 -5.91865799e-004 2.87220988e-004 3.90848174e-004
      -2.81258457e-004 8.96493555e-004 1.50987308e-003 6.41274208e-004
      -4.54676250e-004 1.01258222e-004 1.16980169e-004 -5.01559232e-004
      -9.06559755e-004 -3.94518924e-004 3.89154098e-004 4.43665602e-004
      -4.65243123e-004 -7.12009147e-004 -6.59053738e-004
      -9.29845555e-004</_>
    <_>
      1.09079221e-004 5.40529378e-004 1.16913323e-003 8.26574978e-004
      3.30708019e-004 4.60710289e-004 -2.19673180e-004 -7.74268294e-004
      5.43791801e-004 1.00675796e-003 4.93476749e-004 -3.83307546e-004
      -1.04010483e-004 2.87318515e-004 4.22788900e-004 -6.05159847e-004
      5.20661182e-004 1.23169317e-004 -9.63472296e-004 -7.04903214e-004
      -1.64280573e-004 4.42398654e-004 8.96372134e-004 -3.33053846e-004
      2.68991826e-005 -7.04446225e-004 -9.07289155e-004 -5.47943928e-004
      -3.99411249e-004 2.55394087e-004 1.05091371e-003 2.16358356e-004
      -3.80398240e-004 -1.21270935e-003 -7.07868545e-004
      -5.91515272e-004 -6.20093197e-004 -1.54984169e-004 6.81313337e-004
      3.85174411e-004 -5.44607290e-004 -1.51916337e-003 -7.64719676e-004
      -6.64328225e-004 -7.02820602e-004 -5.09903999e-004 4.98202979e-004
      6.03973749e-004 -4.48755192e-004 -1.21795665e-003 -9.16173332e-004
      -7.76135421e-004 -4.77060297e-004 -1.59821328e-004 3.37684614e-004
      6.44464570e-004 -2.87438539e-004 -2.89576565e-004 -6.21242914e-004
      -5.50637429e-004 1.80642732e-004 1.26223732e-003 8.60846019e-004
      4.65668563e-004 -4.68632788e-004 1.22797687e-003 1.07213145e-003
      7.62759009e-004 2.11763615e-003 3.00620170e-003 1.12315267e-003
      6.45673252e-004 -1.64767937e-003 1.26709254e-003 3.50234052e-003
      3.66886030e-003 3.90851311e-003 2.54874956e-003 3.96927411e-004
      9.95804439e-004 -2.90434156e-003 -1.08367577e-003 2.19041412e-003
      2.99308752e-003 2.08064471e-003 3.72191716e-004 -2.86474969e-004
      9.02544649e-004 -3.04864417e-003 -2.63086543e-003 -1.08627260e-004
      2.69402837e-004 -3.41318257e-004 -6.75904797e-004 -5.28657867e-004
      5.78984735e-004 -1.35492277e-003 -1.52851664e-003 6.22322084e-004
      2.82840163e-004 -5.75146812e-004 -8.86786322e-004 -6.89370616e-004
      5.96540456e-004 3.08628601e-004 5.13088089e-005 1.76040304e-003
      1.21637608e-003 -3.83835431e-004 -9.32146737e-004 -3.82136815e-004
      4.98584530e-004 4.26624698e-004 -5.53564641e-005 6.30067720e-004
      1.17864902e-003 -2.02806725e-004 -5.54243568e-004 -1.43521802e-005
      -1.92992607e-004 -1.66610407e-004 -2.88992509e-004
      -6.22868130e-004 3.81089267e-005 7.54624562e-005 -1.29267482e-005
      3.86106840e-005 -2.97239603e-004</_>
    <_>
      1.18670880e-003 1.65868574e-003 1.34666578e-003 7.40267860e-004
      6.67289132e-004 -3.96088260e-004 -1.21737854e-003 -7.53139495e-004
      1.55740208e-003 1.69423036e-003 1.02452654e-003 -4.57784248e-004
      -2.80691602e-004 1.99880844e-004 -2.54145067e-004 -7.04152510e-004
      1.11983554e-003 7.76853121e-005 -1.16447278e-003 -3.31198610e-003
      -2.73482897e-003 -2.62804591e-004 3.83682665e-004 -7.49333776e-005
      -1.23022159e-003 -2.73792585e-003 -2.77777296e-003
      -3.56214307e-003 -1.78776088e-003 2.61889745e-005 2.25441152e-004
      1.66630824e-004 -3.35274986e-003 -3.66531499e-003 -2.35716486e-003
      -2.05530250e-003 -6.25476707e-004 9.83607315e-005 -2.45640578e-004
      -1.46996957e-004 -2.31292821e-003 -1.96079840e-003
      -4.77006659e-004 -8.04795593e-004 -3.01926775e-004
      -2.63992547e-006 -2.25248077e-004 -3.05675523e-004 5.12987375e-004
      3.10157367e-004 1.56808281e-004 -5.75521379e-004 -3.25037399e-004
      2.94270925e-004 2.93799356e-004 -3.51346884e-004 8.31594109e-004
      6.72377646e-004 1.10633402e-004 -6.79555815e-004 -5.88890216e-005
      6.87937776e-004 -6.18902559e-005 -9.66780528e-004 6.39898411e-004
      7.00032630e-004 2.77456973e-004 -2.21764174e-004 3.69938789e-004
      2.97935912e-004 -7.88217585e-004 -1.14378380e-003 9.87981097e-004
      1.01656758e-003 8.98967730e-004 3.93331895e-004 7.91740720e-004
      -1.07990578e-004 -3.79951263e-004 6.60173828e-005 1.72363583e-003
      1.64771534e-003 1.57931319e-003 8.69933690e-004 -2.10005048e-004
      -1.16788805e-003 -9.10025032e-004 -1.43417774e-005 1.43591664e-003
      1.72141509e-003 1.80790399e-003 3.41830048e-004 -1.30181049e-003
      -1.54991518e-003 -7.20855489e-004 1.67935796e-004 1.64639973e-003
      1.97235472e-003 1.42013386e-003 -6.69077504e-004 -2.25236779e-003
      -1.99703802e-003 -9.84293991e-004 -2.05492433e-005 1.74022501e-003
      1.92593178e-003 1.12780614e-003 -1.10116834e-003 -2.17319047e-003
      -1.47112552e-003 -3.91929701e-004 -5.48609169e-005 1.75718719e-003
      1.74858095e-003 1.46011123e-003 1.39211188e-004 -3.31904477e-004
      2.40514768e-004 2.22081144e-004 -3.70483700e-004 1.55554723e-003
      1.40056794e-003 1.29727542e-003 8.70475138e-004 7.41623517e-004
      1.17346842e-003 1.01380842e-003 2.85138056e-004</_>
    <_>
      3.80929705e-004 4.68101411e-004 6.61715108e-004 8.43283604e-004
      9.65889427e-004 6.61106533e-005 -7.32786430e-004 -9.35186341e-004
      6.85977575e-004 7.85272161e-004 2.96972430e-004 -4.47053113e-004
      -8.54946906e-004 -3.59719357e-004 4.66278114e-004 -1.80265197e-004
      1.04204100e-003 1.87172816e-004 -8.41620669e-004 -2.07714038e-003
      -2.39974516e-003 -1.34340872e-003 3.18690552e-004 9.19219572e-004
      2.72550998e-004 -1.29787647e-003 -1.49034604e-003 -2.03297380e-003
      -1.49569230e-003 -9.91583569e-004 -4.00451187e-004 1.03323685e-003
      -1.31509732e-003 -1.94866466e-003 -1.10746617e-003
      -1.06733444e-003 -8.24770425e-004 -9.53760464e-004
      -6.36492507e-004 8.11494188e-004 -1.12130656e-003 -1.03161507e-003
      -5.65526600e-004 -5.09346661e-004 -3.94002011e-004
      -5.92373253e-004 -1.17351010e-004 1.19640230e-004 -2.17348308e-004
      -3.90630186e-004 -2.59695458e-004 -1.30831468e-004 4.95568500e-004
      9.10220318e-004 6.26240508e-004 -9.22406500e-004 -2.12300220e-005
      -3.05061229e-004 -2.07784236e-004 2.84571317e-004 1.53450819e-003
      1.87596469e-003 1.71785941e-004 -1.74376485e-003 -2.37977030e-004
      -3.48961214e-004 -3.72976268e-004 -2.27498967e-004 6.25825196e-005
      3.46293993e-004 9.67008309e-005 -8.96991696e-004 -2.84239446e-004
      -1.34065092e-004 -2.02878728e-005 -3.73668066e-004
      -8.20181856e-004 -1.23066490e-003 -4.25714912e-004 2.50284153e-004
      -1.24425293e-004 2.57166801e-004 2.04840951e-004 -4.91555082e-004
      -1.07734825e-003 -1.52767263e-003 -9.41969396e-004 6.81582605e-004
      3.12827615e-004 3.22967448e-004 5.27560696e-005 -6.14458520e-004
      -1.22152385e-003 -1.53104612e-003 -8.63384223e-004 8.40651104e-004
      5.54688391e-004 4.08364984e-004 1.32979054e-004 -6.27258793e-004
      -1.40216097e-003 -1.42296124e-003 -2.73332640e-004 9.23166808e-004
      8.35370622e-004 1.09699625e-003 8.60178901e-004 2.03435222e-004
      -9.80066834e-004 -7.34183646e-004 7.87525671e-004 8.10764439e-004
      1.17590954e-003 1.91611564e-003 1.87715201e-003 1.80658291e-003
      1.08983135e-003 1.09791430e-003 1.45095133e-003 -5.06939214e-005
      9.73513408e-004 1.37240160e-003 1.59708480e-003 1.97583344e-003
      2.28510913e-003 2.11010710e-003 9.23738698e-004 -5.73736441e-004</_>
    <_>
      9.71125046e-005 -7.68145583e-006 1.60072432e-006 -2.63103924e-004
      -1.47915373e-004 1.40814489e-004 -2.75868631e-004 -4.99555492e-004
      -1.43593265e-004 -3.06725764e-004 -5.22509043e-004
      -8.77565530e-004 -6.09693874e-004 -2.41346177e-004
      -7.48530671e-004 -8.49666481e-004 -3.32794210e-004
      -8.79738072e-004 -1.35586713e-003 -1.63588370e-003
      -7.30716914e-004 -1.37224211e-004 -1.02751458e-003
      -1.16332364e-003 -1.05935824e-003 -1.74106169e-003
      -1.82000897e-003 -1.22415600e-003 2.23323310e-004 1.75518042e-004
      -1.18237874e-003 -1.33919762e-003 -1.84738752e-003
      -2.26907828e-003 -1.51280849e-003 -2.03605396e-007 1.00263162e-003
      -8.57277701e-005 -1.59084075e-003 -1.47832406e-003
      -1.60801888e-003 -1.67930860e-003 -1.76037793e-004 1.20480743e-003
      1.08275353e-003 -3.56329663e-004 -1.58506643e-003 -1.37737626e-003
      -2.98237981e-004 -1.90244929e-004 1.03235384e-003 1.57868979e-003
      4.90778126e-004 -7.52475578e-004 -1.52979244e-003 -1.09914457e-003
      3.74973402e-004 9.53068200e-004 1.81517389e-003 1.37831946e-003
      9.45351858e-005 -6.29336282e-004 -9.54696094e-004 -8.22954578e-004
      9.67101892e-004 1.78264803e-003 1.97645463e-003 8.70925141e-004
      -1.06461426e-004 -1.83724260e-004 -6.71895104e-005
      -1.48513864e-004 1.44585059e-003 2.10731104e-003 1.57367927e-003
      4.45717305e-004 -9.24036885e-006 8.74186589e-005 2.96799466e-004
      4.35913717e-005 1.94033957e-003 2.17872043e-003 1.27978902e-003
      3.99196171e-004 3.53558462e-005 9.09738719e-006 1.20722907e-004
      1.57885865e-004 1.76194811e-003 2.20997562e-003 2.03324761e-003
      1.37434539e-003 9.35755379e-004 4.74932021e-004 2.67263153e-004
      5.41757152e-004 1.03640195e-003 1.33921392e-003 1.19641772e-003
      8.28366319e-004 6.18273276e-004 3.81843100e-004 8.17457330e-005
      1.29017033e-004 5.15108753e-004 4.50090854e-004 2.51022168e-004
      -4.02050864e-005 2.49369823e-005 3.06704023e-004 6.60096339e-005
      -1.71319625e-004 3.77205608e-004 2.86848051e-004 1.97362460e-004
      -4.40813437e-006 8.40911453e-005 4.41229873e-004 3.01326334e-004
      2.55494175e-004 2.35285421e-004 2.17500856e-004 2.62246496e-004
      1.97610570e-004 3.26511305e-004 7.14418537e-004 8.55633582e-004
      5.80893015e-004</_>
    <_>
      9.26152279e-004 1.15045079e-003 9.20187973e-004 9.46923043e-004
      3.25410190e-004 -5.04579686e-004 -6.69398753e-004 5.52121710e-005
      9.91126173e-004 7.05269806e-004 3.23783664e-004 -4.50924650e-004
      -1.23370241e-003 -1.10618863e-003 -5.30753110e-004 4.67476581e-004
      3.94360162e-004 -5.90866373e-004 -1.30487105e-003 -2.72388686e-003
      -2.88214069e-003 -1.85666687e-003 -1.59971381e-003
      -9.29900561e-004 -7.43006880e-004 -2.12453096e-003
      -2.42549554e-003 -3.15153366e-003 -1.96801499e-003
      -9.90238972e-004 -1.66507764e-003 -1.49802305e-003
      -2.66414741e-003 -3.07849585e-003 -1.89846440e-003
      -1.66235387e-003 -7.14917085e-004 -9.94515140e-004
      -2.05557491e-003 -1.46077119e-003 -1.90330076e-003
      -1.81720965e-003 -3.34247365e-004 4.31819382e-004 8.66728427e-004
      -3.38619779e-004 -1.72049343e-003 -1.47162087e-003 4.80850547e-004
      5.30005840e-004 1.27233937e-003 1.37597788e-003 1.19107065e-003
      4.64081822e-004 -9.22863605e-004 -1.21091667e-003 1.29187549e-003
      1.18155684e-003 1.05515227e-003 8.29046403e-005 -6.50860093e-005
      -5.56245272e-004 -5.80038177e-004 -6.18484628e-004 1.24414649e-003
      1.08693377e-003 5.00579481e-004 -1.59492301e-005 -5.61588269e-004
      -9.21808591e-004 -4.94353473e-004 -2.69881712e-004 9.29107773e-004
      1.05456135e-003 6.66649546e-004 1.39727435e-005 -5.62405912e-004
      -8.14608531e-004 -1.86049307e-004 4.24326136e-004 1.10061595e-003
      8.36802705e-004 5.87076589e-004 -1.03590282e-004 -8.56173632e-004
      -1.00224977e-003 -1.12690461e-004 8.45897768e-004 1.34413561e-003
      1.21562008e-003 6.14591583e-004 -3.57702636e-004 -9.04981978e-004
      -5.87855349e-004 4.50385996e-004 1.24808413e-003 1.76448259e-003
      1.67497818e-003 8.78282706e-004 -2.16980858e-004 -9.97257419e-004
      -3.19497922e-004 7.03497732e-004 7.36897637e-004 1.86808337e-003
      1.78952678e-003 1.22495636e-003 -5.27357906e-006 -6.52457646e-004
      7.30547836e-005 6.55555632e-004 2.02457974e-004 2.03345134e-003
      2.07169098e-003 1.83404353e-003 7.65996461e-004 1.26541301e-004
      1.27217805e-004 -2.94712314e-004 -1.32962698e-004 1.78586517e-003
      1.90816179e-003 2.07158201e-003 1.44644151e-003 4.74432629e-004
      -2.80391454e-004 -4.91585699e-004 -2.47234730e-005</_>
    <_>
      5.85827860e-004 6.12973992e-004 4.27142921e-004 -1.32458561e-004
      -4.27960127e-004 -2.59400171e-004 -4.67440113e-004
      -1.98762296e-004 4.23618098e-004 2.87414034e-004 -7.03282203e-005
      -6.41447259e-004 -9.14277334e-004 -8.12049548e-004
      -9.64476087e-004 -7.98744150e-004 3.71795846e-004 -3.99033393e-004
      -8.01232003e-004 -1.38564978e-003 -1.68468943e-003
      -1.56591041e-003 -1.71010348e-003 -1.15204311e-003
      -9.22151783e-004 -1.62930135e-003 -1.37394667e-003
      -1.79827609e-003 -1.26672408e-003 -9.10001982e-004
      -1.33393693e-003 -1.08459848e-003 -2.21196492e-003
      -2.26013293e-003 -1.33392320e-003 -1.25376205e-003
      -6.89366192e-004 -9.86163155e-004 -2.14745454e-003
      -1.85664510e-003 -1.37714937e-003 -8.64689471e-004
      -6.16103716e-005 -1.56655369e-004 -3.03069042e-004
      -7.35986454e-004 -1.73563499e-003 -1.49377831e-003 5.12917526e-004
      3.71208269e-004 6.14922843e-004 9.69457673e-004 9.04213812e-004
      -4.29115862e-005 -1.14311697e-003 -8.97864287e-004 1.05558918e-003
      1.30728527e-003 1.98585587e-003 2.41147284e-003 2.34557572e-003
      1.18332333e-003 -3.05325026e-004 -7.23423727e-004 1.01981265e-003
      1.54095143e-003 1.65150454e-003 1.15542102e-003 9.22338397e-004
      1.01125007e-003 7.43213226e-004 1.94096749e-004 1.16906711e-003
      1.90715748e-003 1.24158128e-003 7.82748175e-005 -3.33908625e-004
      -1.65881283e-004 7.59264512e-004 8.28907650e-004 1.32342370e-003
      1.01051084e-003 3.18905368e-004 -2.78742664e-004 -7.89991347e-004
      -1.28089066e-003 5.17442732e-006 9.53748473e-004 1.44785666e-003
      9.48588131e-004 1.43879442e-004 -4.22353012e-004 -6.02371874e-004
      -1.00220845e-003 1.22366342e-004 9.03039821e-004 1.18076021e-003
      1.11576007e-003 3.55743890e-004 -2.50508718e-004 -7.83810799e-004
      -1.05413131e-003 2.70372431e-004 7.58001814e-004 1.43606518e-003
      1.40667288e-003 6.22138148e-004 -2.08856902e-004 -9.14174423e-004
      -4.19196265e-004 5.41658257e-004 3.32006515e-004 1.09168491e-003
      1.67348550e-003 1.70002272e-003 8.38885142e-004 4.01060708e-004
      4.23034624e-004 1.01695405e-004 2.07793695e-004 1.12023077e-003
      1.48166739e-003 2.17682333e-003 1.97618408e-003 8.68923555e-004
      4.06379986e-005 -4.18304087e-004 2.80875956e-005</_>
    <_>
      1.81522279e-003 2.12601013e-003 3.72126931e-004 -5.25788113e-004
      -2.78357184e-004 -2.26539036e-004 4.35851660e-004 1.52238540e-003
      2.63182190e-003 3.44231864e-003 1.64101843e-003 1.73685563e-004
      3.02205328e-004 6.34044933e-004 1.12929335e-003 2.10428750e-003
      1.73324754e-003 1.66976138e-003 -6.88305823e-004 -1.85618224e-003
      -1.05581572e-003 4.75293520e-004 9.78358090e-004 1.63501641e-003
      -4.64577082e-004 -9.44490777e-004 -2.99925916e-003
      -3.72051890e-003 -1.85765128e-003 -1.19233111e-004 9.31737071e-004
      1.07966003e-003 -2.52003921e-003 -1.75534294e-003 -2.31581181e-003
      -2.74323835e-003 -1.26737671e-003 -1.40990887e-004 5.34270774e-004
      2.57266569e-004 -1.74033211e-003 -1.10736582e-003 -1.07265939e-003
      -1.65930251e-003 -3.79455974e-004 2.39378540e-004 5.61339548e-004
      -6.19301980e-004 -2.38685898e-004 -4.37014060e-005
      -3.18176404e-004 -7.16996612e-004 3.59809841e-004 8.10257276e-004
      7.02262681e-004 -1.31719641e-003 5.88108451e-005 5.61251654e-005
      -2.88571755e-004 -3.58312653e-004 2.95854028e-004 5.88130846e-004
      3.55747208e-004 -1.52546237e-003 8.27340191e-005 1.94664259e-004
      -6.31267831e-005 3.29548020e-005 1.81021838e-004 1.20734004e-003
      -8.78269784e-005 -1.34338741e-003 3.32123163e-004 3.76765296e-004
      2.87332834e-004 3.76186683e-004 1.56993483e-004 1.37664774e-003
      -4.94675071e-004 -8.71054770e-004 5.08772733e-004 6.77886710e-004
      6.46251487e-004 3.00873890e-005 2.00219700e-004 8.53397301e-004
      -9.00346145e-004 -2.57880369e-004 5.26641554e-004 8.07412609e-004
      1.05633994e-003 -3.37206904e-004 1.63664547e-004 5.76394377e-005
      -1.07123447e-003 -7.56620939e-005 5.79409243e-004 1.17656158e-003
      1.41271029e-003 8.87061033e-005 2.71303201e-004 -9.66937630e-004
      -1.10481633e-003 -8.25607567e-005 6.30644034e-004 1.45112083e-003
      1.49943284e-003 5.40195266e-004 2.38476030e-004 -1.66133838e-003
      -1.30921230e-003 -5.74385223e-004 9.39328456e-004 1.66987302e-003
      1.25978666e-003 8.55240214e-004 -5.21847178e-005 -2.04221881e-003
      -1.52349425e-003 -9.79813747e-004 1.06063555e-003 1.72382465e-003
      1.22734962e-003 1.20144291e-003 -1.65954538e-004 -1.85632554e-003
      -1.08626520e-003 -8.78542545e-004</_>
    <_>
      -3.32405005e-004 -1.89032944e-004 1.92533233e-004 7.28673302e-004
      7.78990274e-004 1.82955264e-004 -6.30546187e-004 -7.81503681e-004
      -2.34342224e-004 1.12196452e-004 6.23466854e-004 4.93723142e-004
      -1.57839440e-005 5.29867830e-005 -5.27766606e-005 -4.72339860e-004
      -1.58566487e-004 4.28826206e-005 4.09986933e-006 -1.03458483e-003
      -1.44871487e-003 -7.09664542e-004 1.66487400e-004 4.14879541e-005
      -6.42191619e-004 -6.27115893e-004 -5.61583729e-004
      -1.25330640e-003 -1.18710869e-003 -7.76358356e-004 3.54036056e-005
      2.60250934e-004 -1.25564449e-003 -9.46436834e-004 -3.08612012e-004
      -8.32376361e-004 -9.28083493e-004 -7.42665492e-004
      -1.32102286e-004 5.38578133e-005 -1.14775856e-003 -5.67782088e-004
      3.58993711e-004 -2.22687449e-005 -3.93727008e-004 -2.67592899e-004
      5.18712513e-005 -1.29132663e-004 -5.94179903e-004 -9.20874518e-005
      7.23785430e-004 1.09712547e-003 9.98736825e-004 6.64628868e-004
      -2.05254866e-004 -6.84388622e-004 -3.55397875e-004 3.79378791e-004
      1.29533547e-003 1.36891147e-003 1.21318747e-003 9.84061277e-004
      -5.47602867e-005 -7.20690121e-004 9.95607988e-005 1.12090481e-003
      1.07055157e-003 1.06820422e-004 -3.93251066e-005 4.36193804e-004
      3.41604959e-004 -1.99692455e-004 6.61903527e-004 1.35019375e-003
      2.85672286e-004 -5.35661413e-004 -7.27092382e-004 -4.30642773e-004
      2.84402515e-004 2.81234330e-004 1.10611704e-003 1.15744199e-003
      -1.19705430e-004 -6.19619561e-004 -9.65715793e-004
      -1.02705287e-003 -5.24352436e-005 5.36737614e-004 1.18812372e-003
      1.00266165e-003 -1.68566767e-004 -6.43366075e-004 -9.80929937e-004
      -1.03418843e-003 -5.09395659e-006 4.99764399e-004 1.12258701e-003
      1.36619667e-003 5.10983882e-005 -5.93753706e-004 -9.28713358e-004
      -7.65580509e-004 2.52683327e-004 2.81296379e-004 6.66897686e-004
      1.54160848e-003 7.67879945e-004 -3.15363228e-004 -7.05593557e-004
      -9.02837637e-005 4.69358813e-004 -3.31790252e-005 -2.55523155e-005
      9.78783704e-004 1.57917303e-003 1.03539741e-003 7.52508990e-004
      7.00798060e-004 1.16468997e-004 -4.76404704e-004 -3.75816191e-004
      7.14893977e-005 9.39890393e-004 1.33108068e-003 8.88032606e-004
      1.00727972e-004 -4.88708087e-004 -6.49680500e-004</_>
    <_>
      2.95295868e-005 5.61718945e-004 1.07339211e-003 7.67084421e-004
      3.89698835e-004 -1.14003349e-004 -6.52424467e-004 -5.23164461e-004
      3.72318231e-004 9.33620555e-004 5.03827818e-004 -5.79090032e-004
      -6.54761156e-004 -4.87708130e-005 -5.88140538e-005
      -7.11588713e-004 3.53753188e-004 4.03812941e-004 -8.95681616e-004
      -1.63924950e-003 -1.40341651e-003 -2.71955359e-004 5.93559816e-004
      -6.00615691e-004 -3.13821256e-005 -4.84865188e-004
      -1.36672927e-003 -1.46156270e-003 -1.02350535e-003
      -2.35779386e-004 6.46945729e-004 -1.33866386e-004 -2.03504213e-004
      -6.76301774e-004 -1.01451739e-003 -1.00866985e-003
      -7.96648150e-004 -4.24450234e-004 4.18695010e-004 1.53382527e-004
      2.86960014e-004 -1.76259244e-004 -5.11538179e-004 -6.69930363e-004
      -7.54489913e-004 -6.94613555e-004 2.29625322e-004 3.89688706e-004
      7.99900212e-004 3.80749989e-004 -3.78506607e-004 -6.51971961e-004
      -7.17367104e-004 -5.33443235e-004 3.54799267e-004 4.77308990e-004
      8.58043728e-004 7.69203354e-004 -1.60293464e-004 -5.41762158e-004
      -4.93371277e-004 2.24882369e-005 6.91195310e-004 5.19104651e-004
      7.58441456e-004 1.25200953e-003 5.35162457e-004 1.48507916e-005
      2.22921415e-004 5.34029445e-004 3.70561465e-004 5.10560872e-004
      6.34215132e-004 1.37011707e-003 1.47191703e-003 1.15936494e-003
      9.68901906e-004 1.57696151e-004 4.61757481e-005 6.57237601e-004
      2.95847596e-004 6.99953409e-004 1.01172458e-003 8.55826482e-004
      1.16142539e-004 -7.85150507e-004 -1.34036032e-004 8.07378558e-004
      3.13378223e-005 1.89549843e-004 1.15766932e-004 -3.86174099e-004
      -8.85757268e-004 -1.10616512e-003 -2.26482080e-004 8.32591031e-004
      3.21613508e-004 5.98559971e-004 6.44249201e-004 -3.75817239e-004
      -9.29472269e-004 -1.00493396e-003 -1.64487836e-004 6.05214736e-004
      6.78357261e-004 1.13900087e-003 1.48271222e-003 2.13377891e-004
      -6.93264767e-004 -5.64906863e-004 2.80192588e-004 2.19650407e-004
      5.18713030e-004 9.70270892e-004 1.49474572e-003 1.10657234e-003
      2.74206657e-004 3.57881188e-004 4.20829689e-004 -4.17913980e-004
      1.91635278e-004 5.15247812e-004 9.50182555e-004 1.36696035e-003
      1.19157112e-003 7.27511419e-004 -4.30198634e-006 -5.96134050e-004</_>
    <_>
      -2.63450580e-004 1.63665063e-005 -7.69660619e-005 -1.12572699e-004
      2.58761924e-004 2.69752258e-004 4.47664615e-006 -5.98393381e-004
      -1.37149167e-004 3.98974342e-004 -1.24361104e-004 -1.04199967e-003
      -8.64001515e-004 -2.47526419e-004 7.49143830e-004 1.68189537e-004
      6.65861065e-004 8.69817392e-004 -3.94685834e-004 -1.04142516e-003
      -1.28592190e-003 -1.37858198e-003 4.77172980e-005 1.33659667e-003
      1.79110595e-003 1.32185500e-003 -4.40618518e-004 -8.00853828e-004
      -1.15541602e-003 -9.54657677e-004 -5.00667200e-004 1.44357537e-003
      6.84484025e-004 4.45782323e-004 -2.94159952e-004 -6.02774322e-004
      -8.85027926e-004 -9.42407351e-004 -2.87285744e-004 1.11260847e-003
      -7.15807721e-004 -3.24123452e-004 -1.94169974e-004
      -2.69615004e-004 -3.14653735e-004 -4.48795443e-004 5.35278406e-004
      4.88005404e-004 -5.97561360e-004 -4.40879172e-004 -2.16167755e-005
      4.04684368e-004 1.39172189e-003 1.55868125e-003 1.40566542e-003
      -3.51701252e-004 -7.10486027e-004 -7.74060783e-004 1.45007114e-004
      1.39156345e-003 2.95300828e-003 2.23535881e-003 1.00204127e-003
      -6.16246485e-004 -5.32167440e-004 -9.21860687e-004
      -6.08016504e-004 -1.39058437e-004 -3.28353635e-004 6.30306429e-004
      2.23401282e-003 6.63916871e-004 -9.49614972e-004 -1.32110750e-003
      -1.47114217e-003 -2.01557530e-003 -2.31612660e-003
      -9.09570954e-004 1.58018491e-003 2.28908844e-003 -1.02323806e-003
      -1.63416506e-003 -2.01283558e-003 -2.45352532e-003
      -1.50184543e-003 -5.52934303e-004 9.62793943e-004 3.19162803e-003
      -7.79015769e-004 -1.73214509e-003 -2.60963640e-003
      -2.17822124e-003 -4.24439786e-004 -1.37967610e-004 1.14168308e-003
      3.17350542e-003 -1.11262675e-003 -1.72354467e-003 -2.25900859e-003
      -1.53621600e-003 -3.47096327e-004 2.46699346e-004 2.27117306e-003
      3.22285946e-003 -1.10261701e-003 -5.80006745e-004 -6.01698586e-004
      -5.80577762e-004 -5.97983249e-004 6.36626675e-004 3.14822257e-003
      2.65849452e-003 -1.36503403e-003 -2.33034982e-004 5.92504104e-004
      4.23924153e-004 2.23823896e-004 1.06177351e-003 2.07706098e-003
      2.56449770e-004 -1.44168513e-003 -9.96059272e-004 4.49238083e-004
      9.84402141e-004 9.75650153e-004 9.22654988e-004 -2.75344413e-004
      -1.34984846e-003</_>
    <_>
      -7.07385247e-004 -1.03203033e-003 -1.20740139e-003
      -1.30997354e-003 -7.61089846e-004 1.44045436e-004 4.07039712e-004
      8.80531370e-005 -8.03802686e-004 -1.45305472e-003 -1.59611763e-003
      -1.10427407e-003 -1.79539958e-004 3.40182567e-004 -1.09786371e-004
      -4.45255951e-004 -9.72721144e-004 -1.41406385e-003
      -1.12868717e-003 -4.56522721e-005 1.17231708e-003 8.84816574e-004
      -7.59155955e-004 -1.42481411e-003 -5.84307825e-004
      -6.82145357e-004 -1.53991947e-004 8.60180415e-004 1.63667928e-003
      8.35219515e-004 -8.44908878e-004 -1.52976112e-003 -2.15801803e-004
      -1.62650351e-004 4.55617293e-004 1.50072854e-003 1.73253240e-003
      4.38053772e-004 -9.85736726e-004 -1.35507225e-003 -1.92203515e-004
      7.61134725e-005 8.23299983e-004 1.63168448e-003 1.25039602e-003
      -1.59901800e-004 -1.13682251e-003 -1.20406027e-003
      -2.17368051e-006 3.13675322e-004 1.36533577e-003 1.62833591e-003
      3.95646814e-004 -6.90073241e-004 -1.24027731e-003 -7.93083978e-004
      2.04358657e-004 8.18546687e-004 1.66207657e-003 1.24928693e-003
      -1.13099435e-004 -6.07883325e-004 -4.51386033e-004
      -9.29140515e-005 7.39840791e-004 1.44207827e-003 1.57675962e-003
      4.67370963e-004 -5.68055315e-004 -1.86465477e-005 1.18418818e-003
      9.84470476e-004 8.26932082e-004 1.40237238e-003 8.78939580e-004
      -2.09779420e-004 -4.44169738e-004 6.61405094e-004 1.67284522e-003
      1.03879359e-003 1.03724236e-003 1.23761164e-003 5.15530235e-004
      -2.40980429e-004 9.19690647e-005 1.20714470e-003 1.90059654e-003
      1.33878994e-003 9.19986574e-004 1.16249395e-003 1.07718352e-003
      9.46773740e-004 1.45095401e-003 1.87578704e-003 2.00852938e-003
      1.55393383e-003 -5.78811087e-005 -2.08031168e-004 -5.52098136e-005
      5.48989105e-004 1.10052736e-003 1.70417945e-003 1.85574859e-003
      1.05586997e-003 -5.95022924e-004 -7.93184736e-004 -4.95979213e-004
      -6.06080866e-005 4.89557220e-004 1.25812052e-003 1.39621948e-003
      6.00432453e-004 -7.18576717e-004 -1.04845210e-003 -1.06030272e-003
      -9.08870425e-004 -3.96111631e-004 4.82476142e-004 1.02619431e-003
      7.67144549e-004 -6.49131835e-004 -7.89020909e-004 -9.06338450e-004
      -8.61868553e-004 -4.06762614e-004 4.17060190e-004 1.08582200e-003
      8.21744266e-004</_>
    <_>
      -1.78262198e-004 -1.02843135e-003 -2.21261219e-003
      -2.20778724e-003 -2.74564070e-003 -1.38036301e-003 7.79966649e-004
      2.20793230e-003 -4.11680376e-004 -2.27455865e-003 -2.30001099e-003
      -1.36577676e-003 -1.98818627e-003 -1.71069067e-003 1.38685369e-004
      2.44510709e-003 -1.96947879e-003 -2.55584251e-003 -1.86514540e-003
      -6.36081211e-004 -5.71056560e-004 -2.35391338e-003
      -3.60186258e-003 -2.41298531e-003 3.22605338e-004 8.51199657e-005
      -4.25649021e-004 -7.74534186e-004 -8.38548935e-004
      -1.95560046e-003 -4.27017454e-003 -4.39974060e-003 2.42786642e-004
      5.51931269e-004 1.01854105e-003 -3.35327262e-004 -1.18763547e-003
      -2.59874878e-003 -4.08278638e-003 -3.63324024e-003 1.05905242e-003
      1.11464190e-003 1.01181993e-003 1.61501882e-003 9.64293547e-004
      -1.28396181e-003 -2.79189949e-003 -2.83134845e-003 1.35050272e-003
      1.81208015e-003 2.51512998e-003 2.60333950e-003 1.52262859e-003
      -2.08219019e-004 -2.17774115e-003 -2.01678020e-003 2.37220433e-003
      1.36564509e-003 2.77257146e-004 -6.88814849e-004 -7.93377752e-004
      -2.14984152e-003 -3.75291245e-004 7.19558273e-004 1.79003831e-003
      5.26334392e-004 -6.90804038e-004 -1.16588571e-003 -2.36908020e-003
      -1.43565598e-003 1.38879335e-003 2.01208936e-003 1.52436614e-005
      1.12727277e-004 -1.07398129e-003 -1.82879972e-003 -2.21425784e-003
      -1.26846762e-005 1.44564523e-003 1.68840983e-003 -1.15204428e-003
      -1.82289560e-003 -2.13008747e-003 -1.98120205e-003
      -7.66045589e-004 1.31993135e-003 2.59042112e-003 2.79786205e-003
      6.73157483e-005 -1.02877081e-003 -2.16579926e-003 -1.47961569e-003
      8.87485978e-004 2.46585440e-003 3.02579766e-003 3.18227801e-003
      -3.11232609e-004 -1.05014606e-003 -3.91337438e-004 1.11816626e-003
      2.31686141e-003 4.17831866e-003 4.87238122e-003 2.90068402e-003
      -7.54194916e-005 -7.87786790e-004 7.66264217e-004 2.10046303e-003
      2.91984179e-003 3.89691954e-003 3.20132985e-003 9.43832623e-004
      1.31274119e-003 7.72589876e-004 8.51279648e-004 5.82426961e-004
      9.31380433e-004 1.04956690e-003 1.59611081e-004 4.08687891e-004
      1.63880887e-003 2.13937974e-003 2.08667968e-003 -1.22518730e-004
      -1.28729478e-003 -1.44825445e-003 -1.53617677e-003
      -2.23577386e-004</_>
    <_>
      -1.21837342e-003 -1.51571201e-003 -1.86415797e-003
      -1.97079824e-003 -1.38061005e-003 -1.91686413e-004 6.67932793e-004
      1.25790958e-003 -1.10435206e-003 -1.51251000e-003 -1.05936243e-003
      -2.15422479e-005 3.63176659e-004 -1.52050809e-004 -1.03518600e-003
      -1.07150502e-003 -7.37997063e-004 -7.12132489e-004 3.07332084e-004
      1.31762365e-003 7.93127168e-004 -1.06142508e-003 -2.38305237e-003
      -2.50616088e-003 2.69175129e-004 6.50692557e-004 1.22135517e-003
      7.84145668e-004 -3.32924130e-004 -1.29230763e-003 -2.45199818e-003
      -2.69970880e-003 1.08377798e-003 1.44633010e-003 1.30956981e-003
      3.38899699e-004 -5.79718617e-004 -1.69726578e-003 -3.02259251e-003
      -2.85990699e-003 1.49746996e-003 1.67339598e-003 9.15679033e-004
      1.19872086e-004 -4.47961589e-004 -1.54888874e-003 -2.64869374e-003
      -2.17691506e-003 1.54383306e-003 1.19709701e-003 1.04397477e-003
      1.46969140e-003 8.48783995e-004 -1.58644980e-004 -1.47171388e-003
      -1.15863851e-003 1.78178574e-003 1.99462147e-003 2.48657609e-003
      2.50225421e-003 2.18823948e-003 1.78784551e-003 9.89540364e-004
      2.36965177e-004 1.86382304e-003 2.22187024e-003 1.83301128e-003
      6.72418915e-004 -8.03417497e-005 1.21455919e-003 2.71561835e-003
      2.09103408e-003 1.20659173e-003 1.53598515e-003 1.24545040e-005
      -1.26391591e-003 -1.33935432e-003 1.28011045e-004 2.16487958e-003
      2.35987315e-003 2.78082880e-004 -5.79400803e-004 -1.68346521e-003
      -1.90407364e-003 -1.10735162e-003 -1.97536079e-004 1.58035487e-003
      2.28812848e-003 3.11784330e-004 -7.85436307e-004 -2.07113032e-003
      -1.79249258e-003 -5.87837596e-004 1.95716915e-004 1.55143160e-003
      1.82013877e-003 -7.39948155e-005 -5.99456369e-004 -1.47141085e-003
      -9.59939032e-004 -4.77727561e-004 3.48512549e-004 1.90889230e-003
      1.70551299e-003 3.54903430e-004 2.67503230e-004 -5.15128311e-004
      -7.75728375e-004 -4.94250387e-004 8.99225241e-004 1.97560829e-003
      1.17372745e-003 2.34927953e-004 9.85372579e-004 4.62324242e-004
      -4.48079663e-004 -3.09626776e-004 7.94006104e-004 9.79053904e-004
      5.57084510e-004 -2.12941144e-004 8.05719523e-004 1.38724316e-003
      1.32977252e-003 6.48740912e-004 2.06590339e-004 -5.78985026e-004
      -7.98762252e-004</_>
    <_>
      4.23679641e-003 3.16680479e-003 -6.67266373e-004 -2.83496547e-003
      -2.48643081e-003 -1.76919915e-003 5.25327283e-004 4.40278556e-004
      1.45517068e-003 2.63735396e-003 2.68527516e-003 3.08721582e-003
      2.51987157e-003 1.92206784e-003 2.77846446e-003 3.49367992e-003
      -2.10230844e-003 -6.42479805e-004 6.70204288e-004 1.96018023e-003
      1.76690007e-003 8.27320095e-004 1.06497598e-003 2.80125090e-003
      -7.27769104e-004 4.84105578e-004 -1.35906751e-003 -1.67689647e-003
      -1.81429973e-003 -3.29059549e-004 1.50545180e-004 2.60138651e-004
      4.14191018e-004 1.05161488e-003 -1.38941407e-003 -1.90963701e-003
      -5.73833822e-004 1.75943249e-003 6.67422544e-004 -1.36106333e-003
      -3.92835034e-004 -9.09044873e-004 -2.15669605e-003
      -1.52849080e-003 1.87765900e-003 2.53206072e-003 -3.53189243e-004
      -1.61385455e-003 -1.00464909e-003 -1.45036378e-003
      -1.34954520e-003 3.96307805e-005 3.16932285e-003 1.48855103e-003
      -8.03928124e-004 -1.04742742e-003 -1.72384607e-003
      -1.63120998e-003 -7.21003278e-004 1.05922902e-003 2.09251535e-003
      -1.35009077e-005 -5.44068113e-004 -1.11632771e-003
      -1.26913388e-003 -1.23076874e-003 8.78172068e-005 1.68270653e-003
      2.58868473e-004 3.85843829e-004 -5.67375864e-005 -6.19903149e-004
      -1.14456762e-003 -6.93183742e-004 4.82431584e-004 8.12649843e-004
      2.09875157e-004 2.44271196e-003 7.58696260e-005 -3.92273825e-004
      -9.59281053e-004 -5.90649259e-004 2.55778636e-004 -2.96528015e-004
      2.09953263e-003 2.96770106e-003 -8.31272046e-005 2.67092313e-004
      -1.43247843e-003 -9.37773788e-004 2.05552977e-004 -1.30263797e-004
      3.28591303e-003 2.09282781e-003 -1.04039878e-004 9.43631108e-004
      -1.87412486e-003 -1.92497275e-004 6.56372926e-004 1.37272687e-003
      3.66377598e-003 1.09469250e-003 -2.30697930e-004 1.42002257e-003
      -1.58590521e-003 2.16417480e-004 9.76863899e-004 2.52067787e-003
      3.01493099e-003 -1.40204749e-004 -8.54704471e-004 1.01756211e-003
      -5.36415260e-004 -6.02614309e-004 -1.64748670e-003
      -9.52837872e-004 -2.45011342e-003 -4.47450252e-003
      -3.70958890e-003 -9.90581932e-004 1.76244718e-003 3.54015239e-004
      -1.67030818e-003 -1.21153088e-003 -3.61583545e-003
      -4.73267166e-003 -3.62893334e-003 -1.98370987e-003</_>
    <_>
      -1.12744409e-003 -1.08077400e-003 -9.34709678e-004
      -2.35029118e-004 3.57214041e-004 2.53110542e-004 -1.86498291e-004
      -7.53276632e-004 -9.30379785e-004 -8.19303794e-004
      -2.40714835e-005 5.12646686e-004 5.33596140e-005 1.61317555e-004
      1.73603519e-004 -5.32222795e-004 -9.32212395e-004 -3.76110635e-004
      3.56486038e-004 -4.50997788e-007 -8.45224073e-004 -5.54847065e-004
      -4.34938993e-005 -3.23216984e-004 -3.08698451e-004 4.45431477e-004
      7.02855352e-004 -2.96895189e-004 -8.80275562e-004 -6.26005174e-004
      -3.19539213e-005 -1.73721928e-004 -1.12537797e-004 7.68209924e-004
      7.27991632e-004 -2.57654727e-004 -8.11977836e-004 -6.08209462e-004
      -4.46086196e-005 -2.86509137e-004 -3.98472534e-004 6.79767923e-004
      9.47184802e-004 8.59988286e-005 -4.70770581e-004 -2.28416320e-004
      -5.99310479e-005 -6.45862834e-004 -6.20039355e-004 2.49171891e-004
      1.32755633e-003 1.64300844e-003 1.32365967e-003 8.15442123e-004
      -3.17681435e-004 -1.17181160e-003 -4.88740741e-004 9.52652539e-004
      2.07632151e-003 1.69874693e-003 1.45619211e-003 1.85301714e-003
      6.40441431e-004 -8.03254428e-004 2.29976999e-004 1.57403655e-003
      9.26583889e-004 -7.45554047e-004 -7.61553179e-004 1.29371870e-003
      1.96129107e-003 9.98387404e-005 4.73771652e-004 1.21924025e-003
      -5.71198820e-004 -1.72259903e-003 -1.49934704e-003 5.27048869e-005
      1.84410950e-003 9.98244621e-004 6.65060070e-004 4.62235068e-004
      -1.29386189e-003 -1.69204990e-003 -1.31619966e-003
      -3.62695486e-004 1.36460189e-003 1.32989720e-003 9.94407805e-004
      5.49776829e-004 -1.23025232e-003 -1.54216029e-003 -1.10990054e-003
      -2.40259847e-004 1.25470024e-003 1.30414264e-003 8.30514298e-004
      9.28654452e-004 -7.02204474e-004 -1.10854884e-003 -8.26149597e-004
      1.36180737e-004 1.49486540e-003 1.04527909e-003 -2.17816141e-005
      1.38366292e-003 7.04476086e-004 -6.13030919e-004 -5.14518179e-004
      7.38559116e-004 1.53847842e-003 4.88094956e-004 -1.29896740e-003
      1.02605205e-004 1.23970048e-003 7.20491167e-004 5.95230609e-004
      8.62150395e-004 4.32082044e-004 -5.02584502e-004 -1.68222177e-003
      -1.12576759e-003 1.19928940e-004 9.00927873e-004 6.92586997e-004
      2.41405985e-004 -4.71350970e-004 -9.35157062e-004</_>
    <_>
      2.01970906e-005 5.58183820e-004 8.45851901e-004 5.85025235e-004
      1.70687810e-004 -2.97806691e-004 -7.08148640e-004 -8.49854958e-004
      4.83920478e-004 6.46114466e-004 -9.93558497e-005 -5.81545988e-004
      -1.86128324e-004 1.00491423e-004 -2.56549829e-004 -1.17817859e-003
      4.95778979e-004 -1.50817868e-004 -1.23650930e-003 -9.80608049e-004
      -9.35938151e-005 7.49482075e-004 7.26466300e-004 -1.09119702e-003
      8.66444258e-004 1.09441198e-005 -1.02550921e-003 -8.39715882e-004
      -3.64238338e-004 4.76564281e-004 1.05990644e-003 -5.30249032e-004
      1.48883171e-003 3.30786919e-004 -6.39573904e-004 -6.75462594e-004
      -4.56821028e-004 5.95721685e-005 9.31394170e-004 -1.00740639e-004
      1.45138940e-003 2.75924831e-004 -5.86023147e-004 -6.60900201e-004
      -5.92552242e-004 -5.79772401e-004 6.25928340e-004 3.78067925e-004
      1.30852417e-003 3.80545825e-004 -7.23514007e-004 -7.29261374e-004
      -8.22774309e-004 -9.37021978e-004 6.53109804e-004 9.34521435e-004
      1.22441631e-003 7.83339783e-004 -6.80199708e-004 -8.16369546e-004
      -9.39196791e-004 -1.57914983e-005 1.64259225e-003 1.37205503e-003
      1.31295796e-003 1.52642804e-003 8.23970004e-006 -6.37296762e-004
      -6.82971295e-005 1.32886844e-003 2.06291466e-003 1.60354364e-003
      1.14648696e-003 1.89256726e-003 1.43486215e-003 1.06555875e-003
      1.09326537e-003 9.21418425e-004 1.59290491e-003 1.72282907e-003
      4.35366092e-005 3.93760769e-004 3.24443477e-004 1.60510361e-004
      -1.00933619e-004 -1.49186671e-004 1.35255489e-003 1.84301042e-003
      -8.06938100e-004 -9.50907881e-004 -1.44663558e-003
      -1.72923377e-003 -1.23723573e-003 -4.27750696e-004 1.18639786e-003
      1.77581341e-003 -7.50068808e-004 -8.72027653e-004 -7.30621861e-004
      -1.20316714e-003 -1.05730770e-003 -3.44355125e-004 1.30343460e-003
      1.77763053e-003 -4.15699265e-004 -1.29600317e-004 5.95217105e-004
      3.49811671e-005 -6.52582152e-004 1.90532475e-004 1.83326670e-003
      1.42293330e-003 -8.96486861e-004 -5.38809807e-004 3.15278216e-004
      3.75769247e-004 -4.29528911e-004 2.26153817e-004 1.00186409e-003
      -1.25643404e-004 -1.05801120e-003 -8.44264228e-004
      -9.30856841e-005 7.02205405e-004 7.97371438e-004 3.98604578e-004
      -2.41185393e-004 -7.87816884e-004</_>
    <_>
      -2.70762335e-004 -6.75838732e-004 -7.49664090e-004
      -8.25166644e-004 -6.82726328e-004 1.20448094e-004 5.60551765e-004
      2.52421363e-004 -7.34549889e-004 -1.34340534e-003 -1.05889828e-003
      -5.42622700e-004 -2.03071308e-004 9.10750168e-005 -2.08643862e-004
      -2.64795322e-004 -1.39649538e-003 -1.45006645e-003
      -4.99760965e-004 2.18503992e-004 8.91604053e-004 7.30380358e-004
      -6.54007134e-004 -1.35070831e-003 -1.26247504e-003
      -1.03794655e-003 -7.43761848e-005 5.48723154e-004 1.24436838e-003
      7.81489653e-004 -4.50507068e-004 -1.47532381e-003 -2.74405902e-004
      -2.69422628e-004 1.64555677e-004 7.83531985e-004 1.29894982e-003
      5.62841655e-004 -6.39614940e-004 -1.29360426e-003 2.01592949e-004
      9.27695510e-005 3.75338073e-004 9.06242291e-004 9.64028644e-004
      6.94898990e-005 -1.02577300e-003 -1.02207484e-003 3.28400580e-004
      3.58737219e-004 6.29875169e-004 8.45652656e-004 -8.97844438e-005
      -1.08094490e-003 -1.33745465e-003 -3.28320690e-004 3.61469109e-004
      6.09045790e-004 8.46502837e-004 3.02019238e-004 -1.20223651e-003
      -1.47119677e-003 -7.59658287e-004 9.35585558e-005 6.10531541e-004
      9.96179413e-004 1.11502456e-003 3.32447409e-004 -5.80533757e-004
      -6.50679809e-004 -2.21817303e-004 2.78388441e-004 6.33629796e-004
      1.02721457e-003 1.03814737e-003 4.73492342e-004 1.59181975e-004
      4.32876492e-004 4.47414728e-004 -1.20734301e-004 7.36686168e-004
      1.10326358e-003 9.64246632e-004 4.91375453e-004 2.32665014e-004
      6.65457919e-004 8.61401204e-004 -1.75216177e-004 5.80336025e-004
      9.33403848e-004 1.24771113e-003 1.14096433e-003 8.44053109e-004
      8.69943644e-004 6.40905753e-004 -2.53567181e-004 2.78691150e-004
      1.68574843e-004 5.52645593e-004 7.05239421e-004 5.55831415e-004
      5.36822074e-004 2.10098238e-004 -5.30971622e-004 -1.14257498e-004
      -6.26974041e-004 -4.06158535e-004 -6.98006115e-005 1.85015859e-004
      1.41759418e-004 -3.13727389e-004 -4.83441894e-004 -1.12632115e-004
      -8.33221420e-004 -1.16224401e-003 -1.05989911e-003
      -8.90879368e-004 -7.10645108e-004 -3.64079111e-004 3.93658906e-004
      1.30081492e-006 -4.56970709e-004 -9.68753360e-004 -1.14300183e-003
      -9.75031639e-004 -5.58277068e-004 4.16686962e-004 9.81639256e-004</_>
    <_>
      1.17284020e-004 -3.43237451e-004 -4.80118324e-004 -2.87784293e-004
      -6.91193214e-004 -3.59966420e-004 5.21493028e-004 1.27962767e-003
      -4.13164526e-004 -1.62621634e-003 -8.73472833e-004 6.13879471e-004
      4.04391612e-004 -3.44766537e-004 -5.33850631e-004 8.64793663e-004
      -2.04254198e-003 -2.17754324e-003 -2.48904507e-005 9.92934569e-004
      7.19501986e-004 -2.56337720e-004 -2.31449376e-003 -2.66147591e-003
      -1.87630090e-003 -1.20859698e-003 8.26889416e-004 9.89731518e-004
      7.70167739e-004 1.57034374e-005 -1.66668731e-003 -3.44887585e-003
      2.01146700e-004 4.15664283e-004 1.22144632e-003 1.06558274e-003
      9.99750919e-004 1.10021370e-004 -1.83902460e-003 -3.03006824e-003
      1.57112221e-003 1.54397881e-003 1.57599605e-003 1.73733779e-003
      1.86088926e-003 4.30426182e-004 -2.09907582e-003 -2.05140701e-003
      1.75906986e-003 2.09599221e-003 1.94145448e-003 1.52145384e-003
      6.36475044e-004 -4.69963008e-004 -1.58113730e-003 -3.47250316e-004
      1.81240565e-003 2.32029380e-003 1.15858892e-003 -9.97368596e-004
      -3.17633897e-003 -2.69490993e-003 -1.98368900e-004 1.33947143e-003
      1.10635848e-003 1.34618615e-003 5.76623948e-004 -6.80922705e-004
      -1.55536609e-003 -1.72121485e-003 -7.70160579e-004 1.04102038e-003
      6.37961668e-004 9.12841759e-004 5.59533946e-004 2.15918597e-004
      1.42887860e-004 3.57116398e-004 5.30659236e-005 -3.04812620e-005
      5.67915791e-004 5.55845967e-004 4.07740386e-004 3.20401014e-004
      2.19835667e-004 5.20325440e-004 6.21277315e-004 -6.24444161e-004
      5.77739149e-004 6.40903250e-004 5.73813682e-004 2.45255302e-004
      9.18079022e-005 6.55514537e-004 4.70605737e-004 -7.10444874e-004
      1.11537240e-003 7.86621880e-004 7.25620252e-004 6.49653608e-004
      4.32997505e-004 5.64638176e-004 -2.13162857e-004 -1.06156012e-003
      1.10439979e-003 3.75130970e-004 4.29592008e-004 3.28527618e-004
      4.87269688e-004 1.47380371e-004 -1.17629545e-003 -1.21244974e-003
      9.90511267e-004 1.26662839e-004 -2.48220429e-004 -6.62304403e-004
      -1.01999252e-003 -1.04202051e-003 -1.53171900e-003
      -2.79463246e-004 8.27628071e-004 4.41728393e-004 4.83233707e-005
      -3.60869453e-004 -6.89882378e-004 -8.57239706e-004
      -2.91862321e-004 6.06560730e-004</_>
    <_>
      -3.33311240e-004 -7.11872592e-004 -8.30574310e-004
      -8.26539996e-004 -8.32529680e-004 2.26904143e-004 6.50432368e-004
      6.65814325e-004 -9.20640596e-004 -1.61018630e-003 -9.91726760e-004
      1.34481772e-004 2.18919406e-004 8.00308990e-005 -5.22902759e-004
      -4.96697612e-004 -1.55905762e-003 -1.48555811e-003 2.15586770e-004
      1.39036600e-003 1.10919692e-003 -3.57185513e-007 -1.50853174e-003
      -2.24606576e-003 -1.21896726e-003 -6.93931244e-004 9.23355576e-004
      1.15142460e-003 8.45239731e-004 -2.26677930e-005 -1.07708166e-003
      -2.60740728e-003 6.70610229e-004 6.18700753e-004 9.20873776e-004
      7.78153772e-004 6.87204883e-004 -1.36328134e-004 -1.77475007e-003
      -2.83377245e-003 2.00851378e-003 1.69187598e-003 1.21220178e-003
      9.65736574e-004 7.81880924e-004 -6.54619798e-005 -2.15468486e-003
      -2.10638414e-003 2.12110952e-003 1.78921584e-003 1.28360861e-003
      9.81111429e-004 7.52591586e-005 -1.08331209e-003 -1.87056733e-003
      -4.47028084e-004 2.16855342e-003 2.26003653e-003 1.53885281e-003
      3.30349867e-004 -1.27757865e-003 -1.59815885e-003 -5.96818223e-004
      7.36866845e-004 1.87866611e-003 2.08288571e-003 1.28690619e-003
      -3.36647136e-005 -6.66288310e-004 -5.32467442e-004
      -2.34088613e-004 8.53660749e-004 1.83859863e-003 2.11054296e-003
      1.05922529e-003 1.36233750e-004 4.30452565e-006 5.33412036e-004
      4.46949358e-004 6.16474199e-006 1.72502536e-003 1.32581603e-003
      2.37159620e-004 -7.53646891e-005 -1.83239928e-004 2.18322675e-004
      6.32289157e-004 -5.79346495e-004 1.67641114e-003 1.17753260e-003
      1.00687561e-004 -1.47047700e-004 -2.00509268e-004 2.17705150e-004
      4.06899955e-004 -8.63367633e-004 1.09255197e-003 7.45432917e-004
      1.05055515e-004 1.41314333e-004 -7.46382284e-005 -8.33943632e-005
      -1.72511020e-004 -1.03654608e-003 6.94580842e-004 1.47493556e-004
      -3.63805302e-004 -2.55798455e-004 -1.06390864e-004
      -1.56053939e-004 -9.39126825e-004 -1.30971265e-003 3.87193955e-004
      6.38957545e-008 -4.09934641e-004 -7.85421289e-004 -7.87736790e-004
      -8.80301872e-004 -1.55730732e-003 -5.50667872e-004 5.99338382e-004
      3.12684570e-004 1.40750402e-004 -6.01263200e-005 -6.62728678e-004
      -1.18211319e-003 -1.03034056e-003 3.21688549e-006</_>
    <_>
      1.17322488e-003 1.20457890e-003 5.31681522e-004 1.35006892e-004
      -1.18869893e-005 3.50804417e-004 1.13493670e-003 1.39333413e-003
      6.52682967e-004 8.31774669e-004 1.02853554e-003 1.73007685e-003
      1.72441313e-003 1.37898372e-003 8.81641638e-004 1.39589992e-003
      -8.22004047e-004 -3.41692474e-004 3.59287427e-004 1.16673193e-003
      1.30831788e-003 1.13492680e-003 3.48220463e-004 -1.25057399e-004
      -9.57527896e-004 -3.25812543e-005 -1.23179452e-005 9.64459687e-005
      3.53493902e-004 7.36917194e-004 7.00495439e-004 -8.52835423e-004
      6.27086047e-005 5.38125576e-004 -1.36416638e-004 -1.81235941e-004
      5.40057896e-004 1.27789413e-003 7.95679167e-004 -1.00009062e-003
      3.89514724e-004 1.13110065e-004 -5.40367211e-004 -3.25844390e-004
      7.80150003e-004 1.12082344e-003 9.41121252e-005 -8.66424933e-004
      -4.92371400e-005 -1.89320563e-004 -5.52841346e-004
      -3.19152488e-004 1.88597827e-004 -2.37942251e-004 -6.23098924e-004
      -3.58902966e-004 -1.23393591e-004 -7.70661136e-005
      -3.70588445e-004 -5.50949189e-004 -1.15876901e-003
      -1.15435582e-003 -5.22971677e-004 -6.73341565e-005
      -1.54088906e-004 9.44522544e-005 1.91886327e-004 3.81533115e-004
      2.24225892e-004 8.86510825e-005 -1.12583919e-003 -6.28162175e-004
      -1.44903330e-004 2.85570102e-004 7.70588638e-004 1.25946465e-003
      1.28013990e-003 1.70443335e-003 -7.16621405e-004 -1.49306504e-003
      -1.01780322e-004 4.15401475e-004 9.90098808e-004 1.04070595e-003
      1.44830695e-003 1.58054545e-003 -6.16965292e-004 -1.77794194e-003
      -2.02627110e-004 5.12205705e-004 1.15164556e-003 7.68095488e-004
      1.37664727e-003 1.04842475e-003 -8.90893803e-004 -1.68807234e-003
      -1.49619053e-004 6.15652883e-004 1.04755093e-003 1.05195539e-003
      1.71498582e-003 3.85515974e-004 -1.49191194e-003 -1.63173559e-003
      2.21890150e-006 6.27017944e-005 1.28190164e-004 8.96543439e-004
      1.61239947e-003 -6.00757892e-004 -2.49370513e-003 -1.45704160e-003
      5.57493069e-004 -3.11183307e-004 -1.30362541e-003 -4.47179773e-004
      -4.42958350e-004 -2.27965275e-003 -2.70767324e-003
      -5.84016554e-004 1.07993383e-003 4.10275476e-004 -9.20256658e-004
      -6.48148125e-004 -1.17818860e-003 -2.16403767e-003
      -1.23526552e-003 1.11735935e-005</_>
    <_>
      -1.09840720e-003 -1.36568234e-003 -9.82836820e-004
      -6.84003971e-005 1.95938657e-004 2.90897005e-004 -2.56260519e-005
      -7.28097162e-004 -1.37944822e-003 -1.72284758e-003
      -3.93200520e-004 8.13879189e-004 5.59090404e-004 3.26340116e-004
      -3.76378797e-004 -7.79545226e-004 -2.07422674e-003
      -1.18037732e-003 3.13576951e-004 3.68554844e-004 -1.41749493e-004
      1.69649240e-004 -4.02452511e-004 -1.08211278e-003 -1.66650931e-003
      -2.73855811e-004 6.61530124e-004 -7.45975631e-005 -5.34278981e-004
      -2.07292742e-005 -1.42006669e-004 -9.66769876e-004 1.75511377e-004
      1.04739703e-003 6.71216287e-004 -3.02096887e-004 -5.80920838e-004
      -4.96588927e-006 -4.63505683e-004 -1.15885865e-003 7.37285882e-004
      1.64823851e-003 1.27767934e-003 1.53242960e-004 -1.57361879e-004
      1.56104303e-004 -1.04701356e-003 -1.10971124e-003 -1.57108778e-004
      1.19007297e-003 2.24504387e-003 1.90590776e-003 8.56509083e-004
      -3.02268687e-004 -1.65722962e-003 -1.03073032e-003
      -1.25755847e-004 1.63306005e-003 3.27149429e-003 1.67011877e-003
      -6.02876942e-004 -3.89958674e-004 -1.99699934e-004
      -3.54321412e-004 5.87775547e-004 2.78264028e-003 2.68140179e-003
      -1.62558674e-004 -1.34491152e-003 -2.23516050e-004 1.09887798e-004
      8.45710238e-005 1.41519576e-003 3.00320867e-003 8.20243149e-004
      -7.93022045e-004 -8.96272133e-004 1.17620890e-004 5.27466356e-004
      2.14969205e-005 2.16264604e-003 2.47551664e-003 -2.14249143e-004
      -9.26279929e-004 -9.29979607e-004 -1.87172191e-004 5.00574126e-004
      6.33728541e-006 2.49371864e-003 2.26359977e-003 -2.00328257e-004
      -9.06593224e-004 -1.01391179e-003 -4.23299905e-004 8.63997047e-005
      -3.94968811e-004 2.16675107e-003 2.13735248e-003 -9.19171507e-005
      -9.13159747e-004 -9.40641155e-004 -3.50992224e-004
      -1.61577977e-004 -8.17085674e-004 9.99822398e-004 1.25253981e-003
      -9.28040172e-005 -1.00462220e-003 -7.48429215e-004
      -1.87221420e-004 -5.47926291e-004 -1.01964339e-003
      -2.39714689e-004 9.00068480e-005 -9.90963454e-005 -6.96459436e-004
      -5.80361462e-004 -5.38501772e-004 -1.14163535e-003
      -9.05845431e-004 -8.11309612e-004 -5.83083194e-004
      -1.64124256e-004 1.89102429e-004 -2.13740295e-005 -5.37809858e-004
      -7.04844075e-004 -5.12724393e-004</_>
    <_>
      -1.42825651e-004 2.79141619e-004 7.12573063e-004 7.22956611e-004
      8.29048440e-005 -3.31919931e-004 -7.55067624e-004 -8.88098555e-004
      2.98501865e-004 4.79772047e-004 2.61232082e-004 2.16913526e-004
      3.92281014e-004 2.93184596e-004 -8.01010348e-004 -1.28027285e-003
      -5.11922990e-005 -4.47761413e-005 -4.72126791e-004
      -4.08489839e-004 3.11355951e-004 1.27503986e-003 4.11018671e-004
      -1.61327224e-003 -2.84686277e-004 -3.22829466e-004
      -4.88301623e-004 -4.39498777e-004 -2.67733820e-004 7.11185043e-004
      1.05204177e-003 -8.27896292e-004 1.00880652e-003 4.49612817e-005
      -5.85672562e-004 -5.57427993e-004 -3.96849791e-004 2.14967222e-004
      7.60480354e-004 -9.77753734e-005 1.62137276e-003 4.64134384e-004
      -8.58849322e-004 -8.96539132e-004 -6.63345447e-004
      -4.99695714e-004 1.94260079e-004 8.29447759e-004 1.38587528e-003
      6.19893195e-004 -8.60679371e-004 -1.37398206e-003 -2.09914614e-003
      -2.03580642e-003 3.92697002e-005 1.88084703e-003 1.30132632e-003
      1.20726984e-003 -6.01518492e-004 -1.84735586e-003 -3.18700587e-003
      -1.84236607e-003 1.26004266e-003 2.45102844e-003 1.15090900e-003
      1.71033526e-003 8.60683678e-004 -1.81895259e-004 -3.83741019e-004
      4.39372991e-004 5.95677295e-004 1.67527818e-003 1.08042266e-003
      2.02479144e-003 2.36838427e-003 2.61280104e-003 2.47161067e-003
      1.61154382e-003 3.53224488e-004 6.83719350e-004 2.62872141e-004
      1.01868995e-003 1.58495246e-003 1.81680440e-003 8.83321918e-004
      3.13095137e-004 4.50455031e-004 1.37187599e-004 -3.90650705e-004
      1.01721243e-005 -1.42797959e-004 -4.49763058e-004 -7.44153571e-004
      -4.49646177e-004 1.07371219e-004 -3.22036358e-005 1.92702617e-004
      2.89277348e-004 3.54618271e-004 -4.63323609e-004 -8.41087778e-004
      -5.45766961e-004 -1.43127138e-004 3.19004866e-005 8.62006156e-004
      4.02065023e-004 6.27500645e-004 9.87298845e-005 -5.24927047e-004
      -3.94751492e-004 -3.17719678e-004 6.87498596e-006 5.56772517e-004
      6.08222654e-005 -1.70894244e-004 -5.52529718e-006 -6.17993588e-004
      -4.16634110e-004 -3.29762202e-004 -4.49118124e-005
      -2.76083709e-004 -1.63823686e-004 -2.51815742e-004 7.88347534e-005
      -6.64742183e-005 -3.43179214e-004 -1.52535125e-004
      -1.60787124e-004</_>
    <_>
      5.07173885e-004 7.74068816e-004 6.83697697e-004 1.08586252e-003
      2.34887833e-004 -1.00411114e-003 -6.03680848e-004 8.01197544e-004
      6.58472069e-004 8.74586694e-004 1.30564161e-003 1.38598506e-003
      -6.64498730e-005 -7.50835694e-004 4.71553096e-004 2.03652866e-003
      7.28366838e-004 7.95703498e-004 1.08178542e-003 3.53486539e-004
      -1.90874306e-003 -1.93106628e-003 -2.58014661e-005 1.19167077e-003
      6.02847082e-004 7.72111758e-004 8.00839509e-004 -8.23042239e-004
      -2.72653485e-003 -1.80069939e-003 -4.32332366e-004 3.21770494e-004
      2.09263875e-004 4.92497988e-004 4.97340166e-004 -1.33419887e-003
      -2.27683922e-003 -9.16568562e-004 9.12310497e-005 3.05543857e-004
      6.13738026e-004 5.66818751e-004 -2.70085984e-005 -9.82073136e-004
      -2.93130404e-004 7.33378518e-004 7.74730346e-004 6.64661638e-004
      4.44416422e-004 2.62670743e-004 -3.59198486e-004 -7.31324719e-004
      7.02808436e-004 1.84533617e-003 1.32068072e-003 4.41530923e-004
      3.49878712e-004 -1.86831036e-004 -1.34669687e-003 -1.55119284e-003
      6.57907513e-005 5.72351739e-004 9.24618216e-004 6.16720528e-004
      -7.65631790e-004 -1.84476224e-003 -2.49614473e-003
      -1.35177374e-003 -2.37238753e-004 -6.01800333e-004
      -5.49312157e-004 -3.25144094e-004 -1.57582050e-003
      -2.24033790e-003 -2.03590584e-003 -7.32936373e-004
      -5.11477410e-004 -1.30355440e-003 -1.01706746e-003
      -2.27960089e-004 -1.94857887e-003 -2.40690238e-003
      -1.59524253e-003 -5.92825003e-004 -5.96256345e-004
      -1.26950757e-003 -1.11234165e-003 -6.00769825e-004
      -1.21462508e-003 -1.96221331e-003 -2.63373461e-003
      -2.30934937e-003 -1.90115825e-003 -1.77559338e-003
      -1.31673808e-003 -1.32410123e-003 8.32317397e-004 5.30052697e-004
      -6.74930983e-004 -1.12819939e-003 -1.34109182e-003
      -1.05092034e-003 -6.88655884e-004 -7.87228870e-004 1.55963644e-003
      2.01415201e-003 1.31566671e-003 7.22959812e-004 9.95326773e-005
      -1.89858198e-004 -6.73843140e-004 -8.29436351e-004 1.10728608e-003
      1.55346596e-003 2.21441197e-003 2.01634271e-003 1.33778306e-003
      -8.76912382e-005 -1.69272942e-003 -1.45546009e-003 1.12132751e-003
      1.24104857e-003 1.86265225e-003 1.92357355e-003 5.24714589e-004
      -1.28958770e-003 -2.41670641e-003 -1.75950117e-003</_>
    <_>
      -9.86010346e-005 5.07750956e-004 4.11342568e-004 1.57448172e-004
      -2.64683709e-004 -1.24923862e-003 -9.52802133e-004 6.50677131e-004
      3.50586342e-004 9.23582062e-004 8.37682630e-004 1.15558575e-003
      1.08627637e-003 -2.45665287e-004 -7.19022064e-004 -2.32809951e-004
      9.62819613e-004 1.04231096e-003 1.24607270e-003 1.59663812e-003
      -3.69597576e-004 -1.84325385e-003 -1.32409669e-003
      -6.55331009e-004 8.91703006e-004 9.17163503e-004 1.47146394e-003
      3.05060123e-004 -2.56558671e-003 -2.32211617e-003 -6.38014695e-004
      -3.23291577e-004 7.67204852e-004 1.03151938e-003 1.22252211e-003
      -1.16682984e-003 -3.24816769e-003 -2.02688249e-003
      -1.14212080e-003 -9.43598221e-004 1.06956263e-003 1.42578816e-003
      1.88011734e-004 -1.99882546e-003 -2.19752244e-003 -6.80989353e-004
      -2.89340096e-004 -3.70000518e-004 7.86241377e-004 2.95708858e-004
      -1.00750523e-003 -1.57923729e-003 3.04555542e-005 6.38553989e-004
      7.84144446e-004 -9.58582168e-005 4.00156365e-004 3.81473568e-004
      4.47271450e-005 1.16686570e-003 3.10349860e-003 1.74257101e-003
      -8.15766689e-005 -3.44024069e-004 -3.62813502e-004 9.24865253e-006
      2.40028574e-004 1.62280293e-003 2.81439116e-003 2.08279537e-003
      3.69067071e-004 -2.49738456e-004 -8.14508589e-004 2.17284323e-004
      1.61157412e-004 2.47729098e-004 2.39366636e-004 6.74009934e-005
      2.90589349e-004 4.84848570e-004 -1.01536000e-003 -5.26110700e-004
      -8.65339243e-004 -1.02142838e-003 -1.51977292e-003
      -2.15570745e-003 -6.20254665e-004 6.13133598e-004 -6.79942139e-004
      -1.15981500e-003 -3.12782684e-003 -3.22879152e-003
      -3.09032062e-003 -2.85225152e-003 -6.75298099e-004 4.28519888e-006
      2.82459165e-004 3.08211980e-004 -1.98625051e-003 -2.29235995e-003
      -2.75066472e-003 -2.88754585e-003 -2.16896355e-004 6.55012787e-004
      1.76177640e-003 2.47186027e-003 6.50486967e-004 -6.03435794e-004
      -1.84252160e-003 -1.92996627e-003 5.01963892e-004 6.75235060e-004
      1.90033705e-003 2.99841980e-003 2.38229870e-003 1.13204203e-003
      3.18695180e-004 -6.72940398e-004 -5.84229769e-004 -3.94602248e-004
      2.12788815e-003 2.75837304e-003 2.64058006e-003 2.15520849e-003
      7.73264503e-004 -1.06325676e-003 -2.40515103e-003 -1.65755220e-003</_>
    <_>
      1.05685426e-003 1.41775131e-003 8.71280383e-004 6.55947195e-004
      2.84788402e-004 -3.93015915e-004 -4.55390691e-004 5.32925915e-005
      1.07009907e-003 1.94893789e-003 1.93737471e-003 1.81583408e-003
      1.43643597e-003 8.57393956e-004 5.15667547e-004 5.78671577e-004
      4.21508448e-004 1.01156521e-003 9.70731722e-004 8.41534173e-004
      2.90873868e-004 4.01783560e-004 9.21965926e-004 9.07506677e-004
      1.72730244e-004 5.17846085e-004 -8.22477305e-005 -5.64375776e-004
      -1.03258446e-003 -7.35987560e-005 7.77942070e-004 6.63913146e-004
      -2.90181852e-005 1.77022142e-004 -4.66048281e-004 -1.03101099e-003
      -9.06350848e-004 4.53771412e-004 7.79462105e-004 3.44097440e-004
      -8.55008329e-005 -1.96044159e-004 -8.59239837e-004
      -1.18661905e-003 -2.36840715e-004 6.73695293e-004 5.93976642e-004
      2.07942474e-004 -4.45922720e-004 -5.95884223e-004 -1.07262167e-003
      -9.26243374e-004 5.96058439e-004 8.17487540e-004 4.75395762e-004
      -4.79456903e-005 -5.03532880e-004 -7.54084205e-004
      -1.20771502e-003 -4.27279272e-004 7.81987503e-004 4.01999656e-004
      1.47123428e-005 -2.41893285e-004 -8.19659152e-004 -1.08502363e-003
      -1.06973667e-003 2.73502374e-004 8.32220132e-004 1.22463753e-004
      -8.90888216e-004 -8.02032126e-004 -7.69483857e-004
      -9.65876912e-004 -4.95391025e-004 7.37488037e-004 5.19641384e-004
      1.69070574e-006 -1.13309582e-003 -8.30564357e-004 -8.72228236e-004
      -9.02441039e-004 -1.67084363e-004 4.50716849e-004 2.89369753e-004
      -2.31070895e-004 -1.41049991e-003 -9.34843672e-004
      -7.28458806e-004 -5.62114699e-004 -2.75347818e-004
      -6.61281811e-004 -5.84223482e-004 -7.36942980e-004
      -1.33926491e-003 -8.27277545e-004 -2.93863297e-004 4.95616754e-004
      5.32344740e-004 -1.73691646e-004 -1.04216051e-004 -6.74970739e-004
      -1.20702235e-003 -4.15513699e-004 2.16061788e-004 1.03334058e-003
      8.21053865e-004 3.16748279e-004 2.56423693e-004 -7.22684548e-004
      -1.25394878e-003 -3.16403632e-004 5.80646272e-004 1.03045336e-003
      5.43727598e-004 3.84444342e-004 1.34225338e-004 -9.14055388e-004
      -1.37411850e-003 -7.63000455e-004 7.85769837e-004 1.08302187e-003
      5.06120210e-004 3.47493333e-004 -1.52111170e-004 -1.03250914e-003
      -1.33899192e-003 -1.05945324e-003</_>
    <_>
      -4.06092993e-004 2.53503269e-004 4.13119240e-004 8.70484510e-004
      1.13819796e-003 8.75265760e-005 -1.02089415e-003 -1.11813168e-003
      -1.29003899e-006 4.29605163e-004 5.12044702e-004 8.03168048e-004
      4.07789164e-004 2.69801239e-004 1.52814304e-004 -5.50299068e-004
      3.22393316e-004 3.09210445e-004 2.47142132e-004 -4.77155962e-004
      -1.91021746e-003 -1.14879990e-003 6.78904296e-004 3.33763106e-004
      3.63538711e-004 1.20935627e-004 9.58452147e-005 -1.37974613e-003
      -2.52630399e-003 -1.08417065e-003 7.91997416e-004 4.58786410e-004
      2.21646274e-004 3.79831181e-004 -8.85227564e-006 -1.51592458e-003
      -1.91694568e-003 -4.12012159e-004 4.97922360e-004 3.06636182e-004
      -2.50597252e-004 4.16350580e-004 -5.11230792e-006 -8.92918266e-004
      -5.90380048e-004 3.02185421e-004 6.03195687e-004 3.00344953e-004
      -8.65200127e-004 -4.24225873e-004 1.53770379e-005 5.53334132e-004
      1.42740400e-003 1.47762801e-003 6.44591812e-004 -3.65243381e-004
      -8.57846229e-004 -1.82496253e-004 8.42789595e-004 1.38639880e-003
      1.73381926e-003 1.85244589e-003 3.63835308e-004 -7.63473159e-004
      -4.27060178e-004 6.26748777e-004 5.28423174e-004 8.89606745e-005
      3.78616416e-004 9.25083237e-004 5.72789402e-004 -5.45815041e-004
      -1.66314039e-005 5.41169604e-004 -5.19061810e-004 -5.94069483e-004
      -5.23590075e-004 -3.34500830e-004 4.25799779e-004 3.39172781e-004
      4.33388661e-004 4.60906740e-004 -6.22826279e-004 -6.36053737e-004
      -9.68816632e-004 -1.10656116e-003 1.01489088e-004 6.98906486e-004
      4.95013024e-004 2.18402725e-004 -1.12668693e-003 -1.12104684e-003
      -1.34267006e-003 -1.33067346e-003 -7.60957482e-005 2.88282812e-004
      7.72656873e-004 1.00648252e-003 -7.30414817e-004 -1.12251530e-003
      -1.23783119e-003 -9.63668106e-004 3.29821312e-004 1.87500453e-004
      7.80906295e-004 2.14514905e-003 9.99546726e-004 -1.64794968e-004
      -5.69110387e-004 -6.04329252e-005 7.95869040e-004 1.53799978e-004
      8.32357327e-005 1.53224845e-003 2.08884454e-003 1.38252915e-003
      1.17831270e-003 5.83480112e-004 -1.28427972e-004 -4.37276613e-004
      -3.97552241e-004 1.59711446e-004 1.17089285e-003 1.65195111e-003
      1.14629033e-003 -3.82937607e-004 -1.48881215e-003 -8.92394746e-004</_>
    <_>
      1.58966941e-004 7.04454374e-004 1.19855127e-003 1.25037692e-003
      8.82370223e-004 9.61508777e-005 -6.30159862e-004 -5.07449673e-004
      6.10492367e-004 1.21072889e-003 1.08587788e-003 6.24001026e-004
      3.65084328e-004 2.81333399e-004 2.50174016e-005 -4.09646687e-004
      8.16713611e-004 1.04538200e-003 2.31987055e-004 -2.89824529e-004
      -5.31571219e-004 7.40025735e-006 7.72668456e-004 2.52095451e-005
      7.90180755e-004 5.88475203e-004 -2.53074948e-004 -6.99824770e-004
      -9.28698923e-004 -1.53018467e-004 9.92731424e-004 4.11101559e-004
      7.54098524e-004 2.65141978e-004 -4.42636054e-004 -8.66968243e-004
      -8.90924595e-004 -6.18025297e-005 1.03027374e-003 6.40209357e-004
      7.27244187e-004 8.42300069e-005 -6.98950491e-004 -1.00453245e-003
      -7.11363391e-004 -7.34243004e-005 1.00344152e-003 8.41741217e-004
      6.37763122e-004 -5.85630260e-005 -9.94592556e-004 -1.11539895e-003
      -4.96990921e-004 8.15338426e-005 9.63580911e-004 8.55643593e-004
      4.58629831e-004 9.16014869e-006 -9.74108931e-004 -8.50138487e-004
      -1.42390578e-004 4.57015674e-004 8.04837793e-004 7.56203837e-004
      2.27327357e-004 2.55944004e-004 -4.43558209e-004 -1.84583158e-004
      5.27948723e-004 7.84610398e-004 4.07956279e-004 5.46560274e-004
      -5.39933935e-005 3.18589504e-004 4.71542677e-004 8.02478928e-004
      9.74247348e-004 3.43019929e-004 5.57776948e-005 5.81015833e-004
      -4.77886642e-004 -1.80197589e-004 3.41684150e-004 6.10557152e-004
      2.35063926e-004 -4.59806091e-004 -1.53286164e-004 5.52657060e-004
      -7.46364647e-004 -7.10551045e-004 -6.40344690e-004
      -6.46447530e-004 -8.18193366e-004 -8.45785951e-004
      -2.07297839e-004 4.25442442e-004 -3.69338173e-004 -2.35366126e-004
      -1.13320195e-004 -4.02881706e-004 -7.25287420e-004
      -8.19913403e-004 -1.61456861e-004 5.36745065e-004 1.04468141e-004
      5.09835139e-004 8.96885991e-004 4.33735986e-004 -3.34553915e-004
      -5.23547467e-004 1.78380418e-004 4.58924245e-004 9.09661539e-005
      4.60548850e-004 9.72231152e-004 1.00320473e-003 4.23809543e-004
      1.65326157e-004 2.67800380e-004 -1.22636760e-004 -1.24365746e-004
      1.22057078e-004 4.94268141e-004 9.45156731e-004 8.63524270e-004
      3.74520023e-004 -2.56443163e-004 -5.86380367e-004</_>
    <_>
      -1.93065812e-003 -5.34457446e-004 -8.29631579e-004
      -3.09975375e-003 -1.52302044e-003 2.91076885e-003 2.24888814e-003
      -6.31425937e-004 -1.60613097e-003 3.42850806e-004 -2.10710918e-003
      -3.05021089e-003 -1.20748533e-003 9.83043341e-004 -2.45314004e-004
      -4.54734359e-003 1.61093776e-003 2.19645863e-003 -8.61449342e-004
      2.00604904e-003 2.31533102e-003 1.06028502e-003 2.03893636e-003
      1.15966250e-003 1.65134901e-003 1.39646500e-003 -6.43983833e-004
      5.82372537e-004 3.19229090e-004 -4.81955969e-004 9.13837634e-004
      5.85227041e-004 2.60358630e-003 1.25494529e-003 -1.55776076e-003
      -3.53237003e-004 -4.50991589e-004 -1.36584626e-003
      -1.93569728e-003 -2.34817667e-003 3.52687691e-003 2.61519710e-003
      -9.84684913e-004 -2.38079159e-003 -3.71494051e-003
      -1.93044427e-003 -1.81691733e-003 -2.25512381e-003 2.92113121e-003
      3.35475168e-004 -3.04008601e-003 -2.87346262e-003 -2.61317426e-003
      -2.48499983e-003 -7.89895130e-004 -6.75087445e-004 2.55658268e-003
      1.73912675e-003 2.19982909e-003 6.20349124e-003 7.04216026e-003
      3.62195657e-003 -3.36274767e-004 -9.18246515e-004 5.51572163e-003
      6.32893760e-003 4.29381896e-003 3.49807600e-003 3.56966676e-003
      4.02107136e-003 2.21172813e-003 1.91600190e-003 7.04247737e-003
      8.59065633e-003 3.04475543e-003 -1.74336790e-004 -3.39392747e-004
      1.64632525e-004 8.72793433e-004 2.14132247e-003 5.99839771e-003
      4.63272398e-003 -6.06003159e-004 -1.89420872e-003 -1.81116303e-003
      -2.16307375e-003 -1.00109971e-003 1.68065948e-003 4.50448040e-003
      2.25457805e-003 -2.02361704e-003 -1.50134834e-003 -1.58655387e-003
      -1.74707908e-003 -9.69125656e-004 3.75058298e-004 4.29232168e-004
      1.66950398e-004 -2.26964010e-003 -1.43396144e-003 -1.97754195e-003
      -2.97292718e-003 -1.12418819e-003 4.02133533e-004 -1.64983014e-003
      -1.20747706e-003 -2.67829048e-003 -1.82792824e-003
      -1.98761234e-003 -1.45606755e-003 -2.01242845e-004
      -3.87659500e-004 -2.16741464e-003 -7.93003652e-004
      -8.72317760e-004 4.47482336e-004 4.41494514e-004 6.32041949e-004
      -3.62169143e-004 -8.27199663e-004 -6.94179151e-004
      -3.15694488e-004 -1.48289706e-004 6.04892732e-004 -1.02015422e-003
      -2.29136972e-003 -3.54698393e-003 -2.50554737e-003</_>
    <_>
      1.10631110e-003 1.70800067e-003 1.09135732e-003 5.06565499e-004
      6.58155652e-004 4.81912051e-004 3.02307570e-004 -2.36711494e-004
      1.12162181e-003 2.69221328e-003 2.63046985e-003 2.31875665e-003
      2.59543373e-003 2.28848238e-003 1.30061130e-003 2.35648142e-004
      7.40387302e-004 1.39144610e-003 9.21373256e-004 9.99660231e-004
      1.33539725e-003 1.75514445e-003 2.01675738e-003 1.13238406e-003
      3.07402661e-004 6.11159019e-004 -5.47900272e-004 -5.61382971e-004
      -1.60643511e-004 1.12031389e-003 2.09160987e-003 1.13199372e-003
      2.98628001e-004 3.86001921e-004 -1.12301367e-003 -9.12759453e-004
      3.96849609e-005 1.67153729e-003 1.85880333e-003 4.96514549e-004
      -6.00648345e-004 -7.88570847e-004 -1.47790869e-003
      -1.37248461e-003 9.74407812e-005 1.35011517e-003 9.69507266e-004
      -1.09870656e-004 -1.29870628e-003 -1.49154942e-003
      -1.63007458e-003 -1.03632559e-003 5.81615081e-004 8.00406502e-004
      2.45955191e-004 -4.68572078e-004 -1.58649578e-003 -1.35726482e-003
      -7.44950143e-004 6.27437548e-004 1.20855228e-003 9.60820471e-004
      -3.14612989e-004 -9.72461537e-004 -1.31814566e-003
      -1.01547933e-003 -1.55550588e-004 1.22298009e-003 1.46744039e-003
      9.47327586e-004 -6.99144381e-004 -9.70675901e-004 -8.34777660e-004
      -7.65289820e-004 2.13040854e-004 1.37994287e-003 1.12733536e-003
      8.39047309e-004 -8.03783187e-004 -9.24043881e-004 -6.90146873e-004
      -2.24254356e-004 6.38043450e-004 9.63196915e-004 1.07475603e-003
      3.60418780e-004 -1.20776822e-003 -7.91836006e-004 -8.08942248e-004
      -2.54749029e-005 1.00798032e-003 7.27514795e-004 9.94206639e-004
      -2.76050472e-004 -1.39860366e-003 -6.36079349e-004
      -6.55630836e-004 5.43211761e-004 9.21176805e-004 5.95337944e-004
      1.03846821e-003 -9.59063647e-004 -1.58961990e-003 -2.81592365e-004
      -4.61979711e-004 9.12999560e-004 5.31012716e-004 5.25694049e-004
      5.31470985e-004 -1.51023804e-003 -1.48607325e-003 3.67174216e-005
      -2.93328048e-004 4.89480677e-004 -4.08176304e-004 1.73589346e-004
      -4.98578243e-004 -1.77020603e-003 -9.29985603e-004 1.28594565e-005
      -1.90175502e-004 2.97047300e-005 -8.77288752e-004 -1.04693136e-004
      -6.06013229e-004 -1.37264538e-003 -6.80512807e-004
      -4.13635978e-004</_>
    <_>
      -1.31628662e-003 -5.23134542e-004 -4.84799966e-004 2.05085613e-004
      1.18662242e-003 7.21196760e-004 -1.34940492e-003 -2.45705037e-003
      -6.64960768e-004 1.30927801e-004 -7.03504658e-004 -6.68367429e-004
      -5.16580360e-004 6.09289564e-005 -5.65828755e-004 -2.49952683e-003
      2.04578406e-004 5.63298061e-004 -1.10480643e-003 -1.43009133e-003
      -1.48998108e-003 6.63610917e-005 2.35800631e-003 1.27356336e-003
      4.41378477e-004 3.69283720e-004 -1.34853087e-003 -1.79447571e-003
      -1.74732809e-003 -3.56231001e-004 2.51502148e-003 2.24212208e-003
      3.92348040e-004 4.33054491e-004 -8.65769107e-004 -1.35484221e-003
      -1.35163753e-003 -8.48299169e-005 1.87913177e-003 1.63177261e-003
      -6.56722579e-004 -7.84425447e-006 -1.90752631e-004
      -1.56840566e-003 -2.41364446e-003 -6.22249558e-004 1.41799648e-003
      6.26581663e-004 -1.76335650e-003 -1.53216720e-003 -6.71556685e-004
      2.60933419e-004 2.73882091e-004 1.26867701e-004 -1.86917590e-004
      -1.00588996e-003 -1.44032575e-003 -8.49925971e-004 1.36897177e-003
      2.74014287e-003 2.87324446e-003 2.54394789e-003 -3.99416400e-004
      -1.99948647e-003 9.58371384e-004 3.01099778e-003 2.56824819e-003
      4.50844906e-004 5.99991938e-004 2.18852214e-003 8.70757911e-004
      -1.22781796e-003 2.52832891e-003 3.49693839e-003 4.94461448e-004
      -1.07199303e-003 -8.10880912e-004 3.57020181e-004 7.17622461e-004
      2.24946940e-004 2.89100851e-003 2.38133431e-003 -3.25449480e-004
      -8.71016528e-004 -1.23858405e-003 -9.38536134e-004
      -1.46967272e-004 5.59172826e-004 1.85720436e-003 1.12469075e-003
      -5.15182677e-004 -6.82289538e-004 -1.04982813e-003
      -1.15401833e-003 -1.34194139e-004 9.70444176e-004 5.63617097e-004
      3.68727196e-004 -4.79846174e-004 -8.12407117e-004 -8.46929674e-004
      -8.46488634e-004 1.88766164e-004 5.25031821e-004 2.71885852e-007
      7.71817635e-004 3.25381872e-004 -3.27978254e-004 -3.89410532e-004
      1.12758600e-004 7.20091048e-004 8.34635648e-005 -7.87519210e-004
      3.09981813e-004 9.10871720e-004 8.60832923e-004 1.02067424e-003
      7.03603087e-004 1.29578140e-004 -6.65001106e-004 -1.40614808e-003
      -9.55220312e-004 -6.05550944e-004 -4.26160375e-004
      -3.24772642e-004 -4.40039730e-004 -9.16926423e-004
      -9.20959748e-004</_>
    <_>
      -5.85875940e-004 4.27564300e-005 8.77887185e-004 8.48297670e-004
      6.86914485e-004 3.64663138e-004 -4.79494454e-004 -8.79673229e-004
      -1.43133191e-004 8.24330142e-004 7.20926968e-004 7.18835727e-005
      2.48456228e-004 8.90768599e-004 5.14820451e-004 -7.37046532e-004
      2.93001358e-004 8.89834599e-004 -3.12362426e-005 -2.91070552e-004
      6.48111964e-005 1.18675246e-003 1.88352226e-003 1.76899659e-004
      3.00972053e-004 2.97460152e-004 -5.39953006e-004 -4.23753547e-004
      -2.09507110e-004 6.52175455e-004 1.96425640e-003 8.30897014e-004
      4.02296107e-004 -1.90004444e-004 -8.77161801e-004 -7.15317845e-004
      -5.25868789e-004 2.99877109e-004 1.79901894e-003 1.18696014e-003
      2.19154332e-004 -6.33362681e-004 -1.42914685e-003 -1.52589602e-003
      -1.43208751e-003 -6.47807319e-004 1.27832044e-003 1.37470511e-003
      4.97164001e-005 -8.22093978e-004 -1.66039332e-003 -1.54021545e-003
      -1.41144928e-003 -1.06336747e-003 5.67678188e-004 1.26891560e-003
      1.95133525e-005 -1.06054118e-004 -7.95250759e-004 -5.59796114e-004
      -2.22826973e-004 3.32088355e-004 5.31712722e-004 7.99212721e-004
      5.87563787e-004 1.19224063e-003 5.02732408e-004 3.59037600e-004
      9.34885233e-004 1.55073509e-003 6.31532574e-004 5.77910570e-004
      5.74872072e-004 1.51898712e-003 1.74954499e-003 1.73872488e-003
      1.78981177e-003 1.09739311e-003 3.12775926e-004 5.44699375e-004
      -1.45634025e-004 5.26378746e-004 1.16926781e-003 1.29132834e-003
      6.99880591e-004 -1.88233353e-005 1.12080190e-004 5.62825939e-004
      -6.71628513e-004 -4.73981985e-004 -2.10282087e-004
      -2.20126385e-004 -4.85819764e-004 -4.39639611e-004 6.13550874e-005
      5.50530269e-004 -5.28896810e-004 -5.36984706e-004 1.14429058e-004
      -2.47958058e-004 -6.11056283e-004 -5.73334226e-004
      -1.02271842e-004 4.84758173e-004 -3.35878227e-004 -5.21434820e-004
      5.01087634e-004 4.71486419e-004 -3.01543128e-004 -3.72607581e-004
      8.35575775e-005 3.11816751e-004 -3.98297474e-004 -5.14128478e-004
      1.14178772e-004 6.88567292e-004 2.12914412e-004 1.24873390e-004
      3.10572417e-004 -3.97827171e-005 -6.17874612e-004 -5.46653930e-004
      -3.34765267e-004 2.87639676e-004 4.71835199e-004 3.03498964e-004
      8.35687460e-005 -3.41354898e-004</_>
    <_>
      1.16702367e-003 1.54378254e-003 1.02652085e-003 7.63010117e-004
      4.98882087e-004 -1.40806034e-004 -1.32933259e-004 -7.05409984e-005
      1.17634167e-003 2.17527314e-003 2.09321105e-003 1.71580620e-003
      1.58122682e-003 1.38585421e-003 1.09727378e-003 9.60926351e-004
      1.42468576e-004 8.01238930e-004 3.55460652e-004 1.56976952e-004
      6.40103302e-004 1.43012719e-003 1.64920778e-003 1.20821758e-003
      -1.58403214e-004 4.42362398e-005 -1.01622287e-003 -9.01468913e-004
      -2.88479670e-004 8.29963305e-004 1.24280690e-003 7.97080749e-004
      -4.03525832e-004 -3.24379740e-004 -1.05681689e-003
      -7.27448147e-004 1.55781570e-004 1.37380348e-003 1.46705133e-003
      6.68262655e-004 -8.11834529e-004 -1.04543334e-003 -1.21826399e-003
      -6.17758313e-004 7.53529835e-004 1.25732261e-003 1.09569251e-003
      3.21409083e-004 -1.16060639e-003 -1.09921233e-003 -1.05215434e-003
      -6.32231124e-004 5.49884688e-004 6.30939787e-004 5.56648942e-004
      -1.17217191e-004 -1.23576459e-003 -1.40338007e-003
      -1.58180739e-003 -9.03629931e-004 -4.09430970e-004
      -5.36603737e-004 -2.52900325e-004 -4.36989620e-004
      -1.18564069e-003 -1.40252023e-003 -1.05177017e-003 3.11628275e-004
      2.92832323e-004 -4.51265951e-004 -1.16834219e-003 -9.73268121e-004
      -1.04809471e-003 -1.25592493e-003 -2.28975739e-004 1.13947177e-003
      7.53707485e-004 3.57618352e-004 -1.11770327e-003 -1.04836072e-003
      -8.56832135e-004 -3.68907786e-004 7.61250092e-004 1.07921252e-003
      8.95940757e-004 6.84073893e-004 -9.71851056e-004 -8.35874293e-004
      -9.14071861e-004 -1.44943369e-005 1.11999596e-003 6.88872417e-004
      7.10659893e-004 2.69989163e-004 -1.01904804e-003 -5.64466754e-004
      -5.10312442e-004 5.35984756e-004 1.09548261e-003 5.59285574e-004
      9.07314650e-004 3.26989684e-005 -1.08589570e-003 -3.68300651e-004
      -3.52738833e-004 5.55007719e-004 7.09291839e-004 5.83762361e-004
      9.66562598e-004 -5.18923567e-004 -1.26622850e-003 -7.87976169e-005
      7.84443837e-005 8.10663478e-005 -4.74743225e-004 -7.56627269e-005
      -6.24108143e-005 -1.29533117e-003 -1.06152555e-003
      -1.52256704e-004 2.41589471e-004 1.30134460e-004 -9.54260060e-004
      -8.76312784e-004 -7.48685910e-004 -1.16052316e-003
      -5.13460429e-004 -1.88670921e-004</_>
    <_>
      -7.40889576e-004 4.05506202e-004 1.10487884e-003 1.64490996e-003
      1.84499228e-003 -6.11398718e-004 -2.19734968e-003 -2.49764021e-003
      2.54154322e-004 7.91169819e-004 7.08862906e-004 -1.00557609e-005
      -1.07595720e-003 -4.73443564e-004 -6.61383237e-005
      -5.24244097e-004 6.13334778e-005 -3.88609187e-004 -1.06923387e-003
      -3.50019801e-003 -3.60763143e-003 8.11358972e-004 2.56990991e-003
      2.13242206e-003 -3.43812979e-004 -8.08501558e-004 -1.28201989e-003
      -3.29273613e-003 -2.61562224e-003 1.25294598e-003 3.77496169e-003
      3.04584345e-003 -3.36992060e-004 -4.30450527e-005 -1.08014315e-003
      -2.05765828e-003 -1.55735097e-003 1.43533770e-003 4.17133095e-003
      3.34769185e-003 -1.87566108e-003 -1.04165883e-004 2.31279264e-004
      -8.90724768e-004 -1.48288184e-003 1.41700206e-003 3.36868688e-003
      2.35138647e-003 -4.86777956e-003 -2.40613683e-003 7.60656025e-004
      1.62761472e-003 2.15680222e-003 2.56139389e-003 1.01398188e-003
      -6.88978878e-004 -5.14777796e-003 -2.77837925e-003 2.85968743e-003
      2.96565634e-003 1.81424222e-003 3.17694596e-003 -1.29117572e-004
      -2.86105718e-003 -3.10290069e-003 7.68460333e-004 2.84446776e-003
      4.42512683e-004 -1.67757880e-005 1.81262882e-003 6.99288619e-004
      -2.70191301e-003 -3.61359242e-004 9.54423624e-004 -7.91915518e-004
      -9.96462884e-004 -1.99056085e-004 2.82662222e-004 8.41434172e-004
      -7.01499870e-004 1.28804392e-003 3.15001875e-004 -1.20924064e-003
      -7.94741907e-004 -3.15286597e-004 -3.72759678e-005 2.86674534e-004
      6.18860649e-004 1.85999868e-003 6.21587606e-005 -3.69258865e-004
      -3.23679182e-004 -3.07645008e-004 -3.21665779e-004
      -1.27489839e-004 4.28659405e-004 1.72931433e-003 2.93987687e-004
      -2.87968229e-004 -4.85267927e-004 -3.95862851e-004 7.15153583e-005
      6.77236472e-004 8.80200168e-005 1.21613161e-003 1.65408687e-003
      7.34294183e-004 -1.14158589e-004 -4.68471408e-005 6.23388856e-004
      1.05347810e-003 -3.52871954e-004 -4.70725179e-004 4.99943970e-004
      8.57172825e-004 3.10417934e-004 8.37694039e-004 6.97275624e-004
      5.83262249e-007 -8.08073906e-004 -1.45174307e-003 -1.06762443e-003
      -4.67899692e-004 -1.52660014e-005 3.41805171e-005 -3.11835211e-005
      -3.72566195e-004 -1.58243813e-004</_>
    <_>
      2.66750576e-004 7.69821811e-004 1.47120759e-003 1.37924368e-003
      9.49303154e-004 3.78996891e-004 -4.63161879e-004 -5.24722622e-004
      4.41940734e-004 9.08288581e-004 6.36352284e-004 6.82427662e-006
      -7.91450875e-005 2.24891905e-004 -1.59169766e-004 -7.81993847e-004
      3.31816263e-004 6.53797819e-004 -2.21900074e-004 -7.90310092e-004
      -4.59258823e-004 7.05600192e-004 1.20942772e-003 -1.86133315e-004
      3.28942988e-004 2.20064117e-004 -7.42225791e-004 -9.31469607e-004
      -3.82162572e-004 6.78899058e-004 1.83634029e-003 7.10000983e-004
      3.55700409e-004 -2.26307980e-004 -9.20885825e-004 -8.45844275e-004
      -4.07541986e-004 4.60891577e-004 2.09383154e-003 1.47701858e-003
      1.80634801e-004 -7.27886334e-004 -1.30175706e-003 -1.30798481e-003
      -1.03667041e-003 -3.76366079e-004 1.65410060e-003 1.63390790e-003
      3.11668955e-005 -9.60222213e-004 -1.80558034e-003 -1.54268369e-003
      -1.06467260e-003 -6.19165599e-004 8.48533760e-004 1.42691669e-003
      -7.71060004e-005 -4.79985116e-004 -1.24700856e-003
      -1.05392223e-003 -4.67220292e-004 6.08721573e-004 9.41235805e-004
      7.77077104e-004 -9.53378549e-005 6.02297659e-004 -8.79043437e-005
      -1.49586660e-004 6.78630604e-004 1.27170025e-003 6.10234623e-004
      4.09052154e-004 -5.63559355e-004 6.12206641e-004 1.55157538e-003
      1.93933584e-003 2.07818416e-003 1.09144952e-003 2.52289145e-004
      2.93875521e-004 -1.34630525e-003 -3.51308670e-004 1.38695212e-003
      1.75303256e-003 1.09359890e-003 1.60303389e-004 7.65574514e-005
      2.87945993e-004 -1.71230244e-003 -1.15042424e-003 2.59024266e-004
      2.07128280e-004 -2.65733775e-004 -2.75125756e-004 6.19541461e-005
      2.63821945e-004 -1.06079387e-003 -9.37061443e-004 7.07685074e-004
      2.44464027e-004 -3.78978439e-004 -3.23921820e-004 -6.96357893e-005
      2.29611207e-004 -3.49363399e-004 -4.91033657e-004 1.06004695e-003
      9.17292084e-004 -1.60199837e-004 -3.54348886e-004 -6.95514100e-005
      1.47584913e-004 -1.29909400e-004 -3.95569921e-004 1.85992394e-004
      7.94182764e-004 7.99417248e-005 -6.25692410e-005 2.65627634e-004
      8.25874376e-005 -3.07514332e-004 -2.52705999e-004 -1.83153767e-004
      3.17051221e-004 4.62892116e-004 6.29442744e-004 6.03316643e-004
      3.32570489e-005</_>
    <_>
      -1.25704939e-003 -1.37637777e-003 -6.77730772e-004 2.57716456e-004
      6.64140098e-004 3.60547710e-004 -4.49426094e-004 -9.34501295e-004
      -9.44760221e-004 -1.18771952e-003 -6.35154080e-004
      -2.93896970e-004 -6.67345070e-004 -5.41371410e-004
      -4.64054523e-004 -1.04284566e-003 -1.96946959e-004
      -1.48178064e-004 1.58121969e-004 -3.47844238e-004 -9.82629019e-004
      -6.93094800e-004 -1.45695085e-004 -4.75628796e-004 2.14920346e-005
      6.25010143e-005 5.04581141e-004 2.32732309e-005 -4.42445249e-004
      -5.03903895e-004 2.56198546e-005 -8.53407837e-005 -1.07677261e-005
      2.17828027e-004 5.96892030e-004 1.23380072e-004 -5.43872244e-004
      -6.75210671e-004 7.69474209e-005 -7.00937062e-006 -8.88860377e-005
      5.48215234e-004 9.50909744e-004 4.82549804e-004 -4.06824751e-004
      -2.24690972e-004 1.25877938e-004 -1.63905352e-004 -1.23004997e-004
      5.34251973e-004 1.25496543e-003 1.21357315e-003 5.62046014e-004
      5.04424796e-004 -2.60833214e-004 -4.62180556e-004 -7.05883795e-005
      8.11707461e-004 1.61942281e-003 1.01008895e-003 7.18883995e-004
      1.01773650e-003 2.50468584e-004 -2.34554551e-004 3.33701784e-004
      1.22340547e-003 9.25817119e-004 -4.92676219e-004 -5.31338854e-004
      5.39425295e-004 1.00254256e-003 2.36919077e-004 5.92679833e-004
      1.22565823e-003 -2.62450649e-005 -1.24605454e-003 -1.09309354e-003
      -4.06606530e-004 9.08472051e-004 6.45524764e-004 7.85119541e-004
      9.17850877e-004 -6.77971111e-004 -1.17250218e-003 -1.13371492e-003
      -6.60564343e-004 7.40609306e-004 6.43030624e-004 9.83613543e-004
      7.35378999e-004 -8.29837983e-004 -8.87350820e-004 -1.04915572e-003
      -4.64034936e-004 7.30722968e-004 5.05160308e-004 8.70335149e-004
      6.07504277e-004 -6.20695297e-004 -8.27552110e-004 -1.02145819e-003
      -6.38877900e-005 7.98911438e-004 2.11558436e-004 2.35943764e-004
